tree
version=v2
num_class=1
num_tree_per_iteration=1
label_index=0
max_feature_idx=33
objective=regression
feature_names=Column_0 Column_1 Column_2 Column_3 Column_4 Column_5 Column_6 Column_7 Column_8 Column_9 Column_10 Column_11 Column_12 Column_13 Column_14 Column_15 Column_16 Column_17 Column_18 Column_19 Column_20 Column_21 Column_22 Column_23 Column_24 Column_25 Column_26 Column_27 Column_28 Column_29 Column_30 Column_31 Column_32 Column_33
feature_infos=[7:53] [1:325927] [0:24451.846153846152] [0:1] [0:542] [0:834] [0:1] [-90:90] [1:389911] [0.21568627450980393:1] [0:1] [0.11458333333333333:1] [0:3871.8103166302658] [0:994.79147012972851] [0:575.93985377114132] [0:1] [0:255] [0:125.71669539086685] [1:7] [53:328009] [1.5100949849745549e-05:17.378234903782349] [1:22] [53:328009] [1.5100949849745549e-05:97.348547717842322] [1:39] [60:328009] [1.5100949849745549e-05:83.418199187962742] [1:67] [80:328009] [1.7986905532772142e-05:129.5609756097561] [0:3] [1:18] [1:18] [0:3]
tree_sizes=2449 2531 2502 2512 2522 2507 2506 2515 2527 2510 2511 2522 2518 2525 2529 2523 2529 2542 2534 2533 2529 2535 2538 2528 2551 2531 2533 2532 2528 2544 2502 2541 2522 2514 2531 2523 2537 2527 2517 2530 2548 2521 2520 2535 2518 2512 2522 2508 2532 2543 2548 2512 2504 2528 2527 2492 2522 2512 2547 2528 2498 2489 2520 2510 2525 2517 2506 2506 2502 2501 2483 2456 2512 2514 2482 2484 2521 2518 2502

Tree=0
num_leaves=29
num_cat=0
split_feature=16 20 16 16 30 20 20 17 30 16 16 16 30 16 17 0 33 33 0 29 16 33 26 17 30 16 16 0
split_gain=23400.9 5660.03 3124.79 2899.68 1361.72 1231.89 632.014 631.498 463.685 418.272 413.548 365.812 320.535 258.831 133.273 125.363 114.81 95.9621 94.7033 92.492 91.1845 90.0794 87.0742 61.1031 60.8351 56.9835 56.6652 53.8196
threshold=214.48388884769392 0.59331326079574997 228.65923329818253 195.19634998336582 1.0000000180025095e-35 0.65948433095672365 0.60299066465425699 85.858916731060972 1.0000000180025095e-35 234.99390705120771 222.01052231882906 173.46503964823532 1.0000000180025095e-35 206.88995065657781 76.258538821231397 37.500000000000007 2.5000000000000004 2.5000000000000004 40.500000000000007 0.52503588288319747 242.09647790500244 2.5000000000000004 0.80291397073694093 46.433912437843659 1.0000000180025095e-35 224.79711874373081 164.32930020283979 43.000000000000007
decision_type=2 2 2 2 2 2 2 2 2 2 2 2 2 2 2 2 2 2 2 2 2 2 2 2 2 2 2 2
left_child=3 4 10 6 -2 8 12 11 -5 17 21 18 26 14 -7 23 25 -4 -8 -6 24 -3 -9 -13 -11 -12 -1 -24
right_child=1 2 9 5 19 13 7 22 -10 20 16 15 -14 -15 -16 -17 -18 -19 -20 -21 -22 -23 27 -25 -26 -27 -28 -29
leaf_value=0.51067591026453218 0.5412690435501889 0.54025318119016841 0.55167445403977045 0.52536640333046691 0.50092979926532921 0.52854347305823068 0.51635224170855876 0.52588615148712903 0.5044464084541237 0.55669015230316277 0.54419703756167992 0.53090576732848105 0.50118830421266714 0.53483212153252591 0.54251936898315634 0.51863340966403104 0.52576020193633433 0.53299873434493306 0.51054651011805585 0.51184986882265482 0.56094842827844082 0.52193121625561811 0.54460339976491223 0.52310021066583345 0.54974842088606224 0.54719155049800516 0.51822500505994162 0.53094005936626321
leaf_count=9670 7113 121713 140113 10146 13268 79127 33409 2844 12120 92289 55116 6376 16223 85628 3724 40768 1477 1449 26077 5815 26687 1415 5322 29027 7086 83019 11170 2094
internal_value=0 0.129964 0.152376 -0.19355 -0.323793 -0.107277 -0.283484 -0.253864 -0.328337 0.22843 0.0749079 -0.271956 -0.400096 -0.0780616 -0.117908 -0.226066 0.112166 0.191124 -0.330718 -0.462989 0.270324 0.0326622 -0.0146535 -0.182532 0.256387 0.115131 -0.318045 0.0423959
internal_count=930285 556560 530364 373725 26196 190745 182980 145917 22266 267624 262740 135657 37063 168479 82851 76171 139612 141562 59486 19083 126062 123128 10260 35403 99375 138135 20840 7416
shrinkage=1


Tree=1
num_leaves=29
num_cat=0
split_feature=16 20 16 16 20 30 20 17 30 16 16 16 16 30 17 0 30 0 29 30 16 30 26 20 20 14 16 17
split_gain=20186.8 4661.22 2876.93 2388.04 1238.18 1124.14 543.483 551.479 429.283 353.287 310.094 308.718 297.116 274.95 136.13 104.486 81.6644 81.1819 79.4862 78.33 75.1349 74.0379 73.6996 70.5689 62.2082 59.5425 58.7518 52.626
threshold=215.90798641773833 0.59331326079574997 195.19634998336582 229.60759831860932 0.63602317504842054 1.0000000180025095e-35 0.61125349869229217 85.858916731060972 1.0000000180025095e-35 223.60028063610852 208.89496757607154 173.46503964823532 236.28035384066143 1.0000000180025095e-35 72.41317148524071 37.500000000000007 1.0000000180025095e-35 40.500000000000007 0.52503588288319747 1.0000000180025095e-35 203.03089687672335 1.0000000180025095e-35 0.80291397073694093 0.74280121966596757 0.78675983638488522 20.625390241928624 243.94799310887819 44.008740068005082
decision_type=2 2 2 2 2 2 2 2 2 2 2 2 2 2 2 2 2 2 2 2 2 2 2 2 2 2 2 2
left_child=2 5 6 9 8 -2 13 11 -4 21 14 17 16 -1 20 27 -5 -8 -7 -11 -6 25 -9 -23 -21 -3 -14 -13
right_child=1 3 4 12 10 18 7 22 -10 19 -12 15 26 -15 -16 -17 -18 -19 -20 24 -22 23 -24 -25 -26 -27 -28 -29
leaf_value=-0.021346106627286004 0.0040124146213438372 0.00061413602886508831 -0.011103687839852019 0.014107999963910829 -0.010068130029106661 -0.034195695086574135 -0.019759817087579706 -0.010805291326322264 -0.031182665509344332 0.0090814221193827333 -0.0015616026471231704 -0.0044885204658323226 0.017982248838265665 -0.033753649412721506 0.003989076306071598 -0.017658483702212503 0.0073291214820353076 -0.025156921799067686 -0.023776829217734118 -0.010794106806161123 -0.0060742475252056121 -0.016020077896307706 0.0029436488132307029 0.00014343561687097688 0.004902969476043394 0.0046479018821513557 0.02273835312126727 -0.013283012730846047
leaf_count=21624 6524 23854 9696 135910 47842 12406 33115 2798 12981 118252 86605 4002 84820 16348 5181 40587 9941 25882 5513 1520 50439 1577 7426 13137 9807 95207 16110 31181
internal_value=0 0.126752 -0.171202 0.147192 -0.0921288 -0.299837 -0.263147 -0.235255 -0.312992 0.0809602 -0.0657775 -0.252242 0.217871 -0.369647 -0.102733 -0.210008 0.189006 -0.306482 -0.429237 0.118175 -0.111061 0.0449128 -0.011344 -0.0220077 0.0387341 0.0531831 0.259582 -0.170124
internal_count=930285 534578 395707 510135 212744 24443 182963 144991 22677 263354 190067 134767 246781 37972 103462 75770 145851 58997 17919 129579 98281 133775 10224 14714 11327 119061 100930 35183
shrinkage=0.0721984


Tree=2
num_leaves=29
num_cat=0
split_feature=16 32 16 16 32 20 32 17 16 16 16 16 26 17 17 12 8 16 26 16 17 0 0 1 26 16 2 8
split_gain=17393.9 4477.61 2327.38 2142.8 1408.47 1019.08 521.744 465.722 368.713 312.578 269.311 234.069 140.898 127.632 108.318 93.3588 91.8396 86.4664 79.5152 73.1895 63.013 61.728 53.7849 50.8483 50.3789 44.4491 43.3823 40.4747
threshold=215.1908667466987 1.5000000000000002 190.79096346554584 228.65923329818253 1.5000000000000002 0.6440927611278443 1.5000000000000002 92.358678921227565 203.46944103194105 234.82102750910693 222.36313418951758 164.32930020283979 0.59678413746469927 43.817952557867791 76.258538821231397 90.34062043356596 427.50000000000006 232.08420096273395 0.93632025990438572 240.41158626912303 72.41317148524071 33.000000000000007 37.500000000000007 318.50000000000006 0.58044298575929332 208.89496757607154 13.280625000000002 568.50000000000011
decision_type=2 2 2 2 2 2 2 2 2 2 2 2 2 2 2 2 2 2 2 2 2 2 2 2 2 2 2 2
left_child=2 3 6 10 8 16 7 11 14 -5 23 22 -6 -13 26 -10 -3 -7 -9 -11 25 -15 -1 -2 -8 -17 -4 -12
right_child=1 5 4 9 12 17 24 18 15 19 27 13 -14 21 -16 20 -18 -19 -20 -21 -22 -23 -24 -25 -26 -27 -28 -29
leaf_value=-0.019873888238881303 -0.0040143985565977746 -0.032054331026218227 -0.01125572928539741 0.012051263430193771 -0.031028130732610425 -0.00618180939287441 -0.032488869340615179 -0.0088801227056619532 -0.0053386190354371716 0.015862643925744536 0.0052334801737413967 -0.0080041359938831241 -0.018383210092393368 -0.014226130240011394 0.0024979628461758237 -0.0041125099976035322 -0.021964605407494217 0.0067176963667301085 0.0054764165970516386 0.019610117820038599 0.0082274257602406916 -0.018506115429611808 -0.024666821332973893 0.0029763710441396028 -0.02346527102212629 -0.00043982290849383705 -0.0077352820372114193 0.0081238138250393586
leaf_count=27489 5695 12187 44825 136662 11275 6676 13151 3421 51477 87249 34060 9841 7751 29616 3912 27410 7657 4558 4879 39449 3411 43168 21949 113772 4273 46011 30772 97689
internal_value=0 0.114803 -0.162865 0.137065 -0.0979889 -0.253803 -0.256134 -0.235874 -0.0741469 0.20009 0.0709929 -0.250315 -0.358411 -0.21775 -0.127655 -0.0409893 -0.390052 -0.0131313 -0.00610677 0.23587 -0.0189101 -0.232202 -0.304741 0.0366091 -0.419344 -0.0250827 -0.136052 0.102171
internal_count=930285 545654 384631 514576 226844 31078 157787 140363 207818 263360 251216 132063 19026 82625 79509 128309 19844 11234 8300 126698 76832 72784 49438 119467 17424 73421 75597 131749
shrinkage=0.0721984


Tree=3
num_leaves=29
num_cat=0
split_feature=16 32 16 16 32 20 32 17 16 16 16 16 29 17 17 29 2 16 8 26 17 16 14 14 17 29 14 10
split_gain=14949.9 4009.4 2055.81 1798.59 1105.72 891.057 410.191 396.107 344.911 281.989 229.049 179.754 128.428 106.677 104.739 93.6772 83.2141 76.5813 76.184 71.1818 62.9627 52.2998 51.1728 47.5378 47.2888 43.2718 43.024 42.3997
threshold=213.9761247040253 1.5000000000000002 227.54964536370667 189.36713777284044 1.5000000000000002 0.65189990517819574 1.5000000000000002 92.358678921227565 233.99818383572577 203.03089687672335 220.89602323769188 161.47979259081646 0.60232647702146724 42.785506044863588 76.258538821231397 0.55350820865962558 42.844129554655879 238.93436639942567 474.50000000000006 0.93632025990438572 72.41317148524071 180.08631828483604 20.220148556714737 20.566228309869878 49.979319899015515 0.62603228624408569 18.859138209854944 0.99503994573229126
decision_type=2 2 2 2 2 2 2 2 2 2 2 2 2 2 2 2 2 2 2 2 2 2 2 2 2 2 2 2
left_child=3 2 10 6 9 15 7 11 23 14 26 -1 -6 -13 24 -3 -7 -10 -11 -9 -20 -15 -12 -4 -5 -26 -2 -19
right_child=1 5 8 4 12 16 -8 19 17 18 22 13 -14 21 -16 -17 -18 27 20 -21 -22 -23 -24 -25 25 -27 -28 -29
leaf_value=-0.020857954064376356 -0.0021378249256934923 -0.029340378842905537 0.0070788820458279706 -0.0041669746430736745 -0.029161923560925316 -0.0082006906732342358 -0.028100047622931602 -0.0087222613236614139 0.014165384301774492 -0.0066504820537883983 0.0027916288186694122 -0.0082197176237055487 -0.01687598066938014 -0.017893317432118007 0.0024051752425915604 -0.019040682675044236 0.0042953902790582952 0.017654956478775019 -0.0026309898477505987 0.0049839017702694539 0.0070319560218453682 -0.013997045054908622 0.0066100527778937285 0.011010517135277799 -0.013692521297550556 -0.009110513320192937 0.0020994477989229651 -0.029875437074932752
leaf_count=43249 14388 14322 18382 8159 10776 4803 16663 3360 87321 26391 21834 10253 7537 38789 4146 6783 6588 56612 84772 4792 3667 33439 112861 125314 13238 57016 94732 98
internal_value=0 0.102106 0.122952 -0.157363 -0.0988187 -0.238882 -0.241246 -0.222831 0.180201 -0.0770108 0.0553935 -0.236681 -0.333878 -0.209301 -0.121587 -0.360536 -0.0134846 0.214783 -0.0449622 -0.00921559 -0.0308917 -0.222851 0.0829809 0.145537 -0.129777 -0.138146 0.0213404 0.243396
internal_count=930285 564038 531542 366247 215702 32496 150545 133882 287727 197389 243815 125730 18313 82481 82559 21105 11391 144031 114830 8152 88439 72228 134695 143696 78413 70254 109120 56710
shrinkage=0.0721984


Tree=4
num_leaves=29
num_cat=0
split_feature=16 20 16 16 20 30 29 17 30 16 30 16 16 0 9 17 16 33 33 16 30 33 0 0 16 14 20 8
split_gain=12902.3 2997.55 1856.1 1549.46 818.557 705.683 418.188 290.33 281.768 256.195 238.773 189.339 176.617 127.807 95.5059 87.8122 83.9684 65.4438 64.298 62.4159 61.2067 54.998 50.2941 45.4886 44.37 43.3366 42.048 41.3343
threshold=215.90798641773833 0.59331326079574997 195.74700330175139 230.07204080230466 0.65948433095672365 1.0000000180025095e-35 0.64106598146097771 80.645177954522282 1.0000000180025095e-35 223.60028063610852 1.0000000180025095e-35 208.89496757607154 237.71998785561098 40.500000000000007 0.93400271622386055 76.258538821231397 162.8624426605505 2.5000000000000004 2.5000000000000004 175.82668487467046 1.0000000180025095e-35 2.5000000000000004 31.000000000000004 43.000000000000007 188.60676177254751 20.220148556714737 0.61125349869229217 317.50000000000006
decision_type=2 2 2 2 2 2 2 2 2 2 2 2 2 2 2 2 2 2 2 2 2 2 2 2 2 2 2 2
left_child=2 5 6 9 8 -2 10 13 -4 18 16 15 20 19 -15 -6 -1 25 27 -8 -5 -7 -18 26 -16 -11 -9 -3
right_child=1 3 4 12 11 21 7 23 -10 17 -12 -13 -14 14 24 -17 22 -19 -20 -21 -22 -23 -24 -25 -26 -27 -28 -29
leaf_value=-0.020112647198296189 0.0029614512752895606 -0.0049008285186003496 -0.0090476140636066241 0.011801168912455981 -0.0061832747815595531 -0.018104382367090232 -0.013677663291862674 -0.020169726656976191 -0.024789962284253557 0.0038636125675097347 -0.026757511489794761 -0.0011087022755957253 0.015643106496788791 -0.022594984999878429 -0.016020955367604641 0.0046157161727416497 -0.012337905399268125 -0.0080730387647739345 -0.012175210636100249 -0.0082635153676310236 0.0061893237789811218 -0.027199600107685289 -0.017726541247729346 -0.0078953279436673133 -0.011021388664750369 0.0076185969567763778 0.0040162395698937698 0.0029250896022511531
leaf_count=26763 6502 3617 10704 148968 95104 4700 19432 397 13279 18481 16665 85991 76219 9011 28711 4094 19873 1494 1530 25883 10870 13195 16545 3048 13653 120368 6668 128520
internal_value=0 0.101297 -0.136898 0.117676 -0.0722114 -0.241131 -0.20939 -0.168463 -0.246043 0.0665193 -0.264134 -0.0496992 0.177057 -0.185325 -0.21947 -0.0794698 -0.236049 0.0963606 0.0351875 -0.146613 0.158169 -0.343648 -0.204797 -0.00724798 -0.199585 0.0986006 0.0368037 0.0375475
internal_count=930285 534464 395821 510067 209172 24397 186649 106803 23983 274010 79846 185189 236057 96690 51375 99198 63181 140343 133667 45315 159838 17895 36418 10113 42364 138849 7065 132137
shrinkage=0.0721984


Tree=5
num_leaves=29
num_cat=0
split_feature=16 32 16 16 32 23 32 17 16 16 16 16 17 29 17 2 16 1 12 26 0 17 17 10 8 14 0 14
split_gain=11121.8 3131.87 1690.33 1170.81 743.537 599.075 316.169 307.838 299.573 177.909 170.449 138.719 112.117 87.341 81.0121 79.0926 68.6885 63.6438 62.7573 54.6021 48.1518 42.6804 42.5962 41.7465 41.7378 39.9977 39.2604 37.7071
threshold=212.70186880539987 1.5000000000000002 226.92764932705253 189.36713777284044 1.5000000000000002 0.67523778039491189 1.5000000000000002 92.358678921227565 233.19698288915814 220.11283118243588 203.03089687672335 165.68230500694548 43.817952557867791 0.56163931351247065 80.645177954522282 75.404081632653075 242.63114019466914 816.50000000000011 95.574116139070426 0.80291397073694093 43.000000000000007 69.268880557026662 46.519091665895239 0.99503994573229126 397.50000000000006 20.294452655370584 33.000000000000007 20.566228309869878
decision_type=2 2 2 2 2 2 2 2 2 2 2 2 2 2 2 2 2 2 2 2 2 2 2 2 2 2 2 2
left_child=3 2 9 6 10 17 7 11 27 24 14 20 -13 -6 22 -7 -10 -3 -12 -9 -1 -20 -5 -18 -2 -11 -14 -4
right_child=1 5 8 4 13 15 -8 19 16 25 18 12 26 -15 -16 -17 23 -19 21 -21 -22 -23 -24 -25 -26 -27 -28 -29
leaf_value=-0.015883528748130166 -0.0034438355153057539 -0.024946358898478155 0.005578773519737984 0.00016781147108515962 -0.025665877771161225 -0.0077903102316064865 -0.024382206865549073 -0.0089389021631957472 0.012563102120293509 0.0020159860399751144 -0.0049234503099912221 -0.0049851870934058684 -0.01158645828622085 -0.015247030324742025 0.0034425626279643174 0.0035739090717063471 0.017075300765369832 -0.014123388724281696 -0.0018712550857389954 0.0037709990780443359 -0.020414973871087927 0.0065680050658083232 -0.0084221396339529877 -0.034534634190926151 0.0013048559460932631 0.0053101669803642913 -0.015208009433839386 0.0090593139776403136
leaf_count=33075 10667 16786 18739 3133 9386 8504 16686 2576 139484 23190 51008 8669 26368 7582 3312 5111 22142 3407 43737 5575 19389 3364 76126 82 100996 112031 38221 120939
internal_value=0 0.0844643 0.102679 -0.141472 -0.090863 -0.210928 -0.207911 -0.191732 0.152933 0.0413307 -0.072067 -0.203942 -0.175832 -0.291008 -0.105547 -0.0488133 0.182235 -0.320233 -0.0438896 -0.00340413 -0.243194 -0.0175698 -0.11195 0.233868 0.01179 0.0657248 -0.190164 0.119011
internal_count=930285 582078 548270 348207 197648 33808 150559 133873 301386 246884 180680 125722 73258 16968 82571 13615 161708 20193 98109 8151 52464 47101 79259 22224 111663 135221 64589 139678
shrinkage=0.0721984


Tree=6
num_leaves=29
num_cat=0
split_feature=16 32 16 16 32 20 32 17 16 16 16 16 29 17 12 0 26 1 23 17 14 11 29 14 29 0 26 0
split_gain=9587.5 2321.13 1508.59 1045.8 810.354 558.561 407.696 281.448 250.465 189.075 143.948 109.05 88.7487 81.295 79.8519 72.365 57.7382 56.2145 51.39 51.0241 49.2608 42.5512 40.517 39.1209 35.5188 41.8167 35.4392 35.2577
threshold=216.80838339892878 1.5000000000000002 197.89517484325515 230.82714897344124 1.5000000000000002 0.57236015392123363 1.5000000000000002 85.858916731060972 177.99880382775123 224.79711874373081 208.89496757607154 237.95590884837711 0.633717245851387 47.401503131017272 109.56244584051394 28.000000000000004 0.76829418718471199 424.50000000000006 0.52025624192191711 80.645177954522282 20.294452655370584 0.86090380271666833 0.57048110790403228 48.53047698175434 0.69967462809243075 37.500000000000007 1.4327785754371136 43.000000000000007
decision_type=2 2 2 2 2 2 2 2 2 2 2 2 2 2 2 2 2 2 2 2 2 2 2 2 2 2 2 2
left_child=2 3 6 9 10 23 7 8 15 22 17 -5 -6 -10 -7 21 -9 -4 -8 -19 -12 -1 -2 -3 -15 -26 -27 -18
right_child=1 5 4 11 12 14 18 16 13 -11 20 -13 -14 24 -16 -17 27 19 -20 -21 -22 -23 -24 -25 25 26 -28 -29
leaf_value=-0.01341027615406514 -0.0020035622849025208 -0.022878721795726881 -0.0081928709815967116 0.010328043058393924 -0.023203618110063138 -0.0095307148921555344 -0.02447051318169104 -0.0087159352438434604 -0.0026904013466586781 0.0067244499547160627 -0.0036297543657587512 0.013792204922276258 -0.01253402007108406 -0.012550339916660179 0.002458116244067156 -0.016789247975477751 0.0057581025127653902 -0.0041413478078715753 -0.01670347476234689 0.006638139523628378 0.00012467127320599952 -0.0053944086406343943 0.0032409554763762438 -0.0068938451656477542 -0.0065052948961060201 -0.0099176362144119158 -0.017286125956410315 -0.004938261906466822
leaf_count=26953 8137 15637 19103 143842 10407 4524 14981 3191 8074 132171 23799 70625 6667 24869 8047 52343 5757 69406 6311 2367 77663 3959 136297 841 18743 29497 3846 2228
internal_value=0 0.0901951 -0.114275 0.106443 -0.0548955 -0.184471 -0.176216 -0.160693 -0.170899 0.0658076 -0.0363614 0.158851 -0.263682 -0.132724 -0.0257121 -0.209887 -0.00702153 -0.0652681 -0.307048 -0.0524368 -0.0104707 -0.171523 0.0407972 -0.305587 -0.14274 -0.127895 -0.149139 0.0384159
internal_count=930285 520121 410164 491072 209412 29049 200752 179460 168284 276605 192338 214467 17074 85029 12571 83255 11176 90876 21292 71773 101462 30912 144434 16478 76955 52086 33343 7985
shrinkage=0.0721984


Tree=7
num_leaves=29
num_cat=0
split_feature=16 32 16 26 20 16 32 17 16 16 16 9 29 17 0 0 32 16 16 0 16 10 16 16 0 1 8 8
split_gain=8254.75 2311.59 1261.66 932.141 510.279 392.643 382.891 211.205 208.078 185.289 148.952 95.6932 78.208 62.8028 61.6897 51.503 51.3077 51.1032 49.7379 42.7208 39.9075 39.2005 38.5526 37.8222 35.8838 34.5856 34.5227 32.4685
threshold=212.70186880539987 1.5000000000000002 227.38919369786842 0.70066339552895629 0.70108731336423691 197.89517484325515 1.5000000000000002 80.645177954522282 233.99818383572577 177.99880382775123 220.11283118243588 0.93400271622386055 0.53481656173884706 72.41317148524071 35.000000000000007 28.000000000000004 1.5000000000000002 244.81279198498632 226.28128145864119 29.500000000000004 207.58861045597487 0.99503994573229126 199.94018350861978 188.60676177254751 43.000000000000007 597.50000000000011 628.50000000000011 577.50000000000011
decision_type=2 2 2 2 2 2 2 2 2 2 2 2 2 2 2 2 2 2 2 2 2 2 2 2 2 2 2 2
left_child=3 2 10 6 12 7 9 11 -4 19 26 15 -3 16 25 -5 20 -10 -6 -1 -7 -19 -11 -16 -9 -13 -2 -12
right_child=1 4 8 5 18 13 -8 24 17 22 27 14 -14 -15 23 -17 -18 21 -20 -21 -22 -23 -24 -25 -26 -27 -28 -29
leaf_value=-0.012797363373513882 -0.00067582606217303346 -0.022133190984588342 0.0077342170949675944 -0.0092020299628013981 -0.0059210562006011911 -0.0044051343369567904 -0.021762449013525753 0.0035525030325423541 0.011184927189184036 -0.010458497646498326 0.0025506550814839452 -0.0080658610527292642 -0.013528646446920848 0.0046845402893669671 -0.012261506323801633 -0.01757457263507204 -0.011630435690406921 0.016441313588833315 0.0043752468356189579 -0.017187267045171265 -0.0015834248136913985 -0.036270298889080614 -0.0064257869814564736 -0.0082305630101941057 -0.0057722924337106265 -0.0027454318438296871 0.0018740514037436323 0.0049218468394083142
leaf_count=21985 50454 14750 147167 5596 4009 58723 25344 7182 132168 30014 42551 23080 8786 5184 30403 12134 3854 11877 6271 24358 47068 74 21005 20192 3071 8796 61309 102880
internal_value=0 0.0728616 0.0885062 -0.121811 -0.180887 -0.0836144 -0.191939 -0.126181 0.133573 -0.163439 0.0374652 -0.140169 -0.262071 -0.0426695 -0.12584 -0.206819 -0.0477547 0.160582 0.00498472 -0.209211 -0.0436258 0.223203 -0.121861 -0.147549 0.0105199 -0.0913832 0.0100133 0.0585618
internal_count=930285 582296 548480 347989 33816 225283 122706 110454 291286 97362 257194 100201 23536 114829 82471 17730 109645 144119 10280 46343 105791 11951 51019 50595 10253 31876 111763 145431
shrinkage=0.0721984


Tree=8
num_leaves=29
num_cat=0
split_feature=26 17 32 14 0 11 0 2 17 9 14 0 1 20 14 0 30 25 20 1 8 11 0 11 11 8 32 1
split_gain=4605.26 2110.41 1081.28 431.444 415.386 369.32 286.02 188.18 184.08 169.185 150.77 127.243 121.403 107.072 89.0137 85.8057 85.4989 83.3723 77.3175 76.2198 62.6524 61.6819 59.3363 58.6409 57.011 56.9372 50.6719 48.2098
threshold=0.73515829426619284 48.757856786338436 1.5000000000000002 20.294452655370584 45.000000000000007 0.84913987789303191 45.000000000000007 15.619523809523811 44.103419797186469 0.93874149800642914 21.707050084235551 37.500000000000007 615.50000000000011 0.56252853881278553 20.504312243243294 40.500000000000007 1.0000000180025095e-35 1549.2500000000002 0.53216324408916094 377.50000000000006 722.50000000000011 0.82367616063268245 29.500000000000004 0.83059806605439779 0.83613681162700781 691.50000000000011 1.5000000000000002 3562.5000000000005
decision_type=2 2 2 2 2 2 2 2 2 2 2 2 2 2 2 2 2 2 2 2 2 2 2 2 2 2 2 2
left_child=2 3 5 11 10 7 8 15 13 27 -3 24 -11 -5 22 19 25 23 -4 -1 -15 -14 -7 -8 -2 -12 -10 -6
right_child=1 4 18 6 9 14 17 -9 26 12 16 -13 21 20 -16 -17 -18 -19 -20 -21 -22 -23 -24 -25 -26 -27 -28 -29
leaf_value=-0.011039931861919953 -0.0025395301972858989 -0.0022212441929908111 -0.020720496879915059 -0.013190911619364575 -0.013810892821191585 -0.0012963236669648445 -0.0062779216528907082 -0.0041957808206168458 0.0061351987912577812 -0.0072007336934389087 0.00068229975594405934 -0.010464358685953025 -0.0038522281147721797 0.0073550729951271168 0.0032684871169377898 -0.014111201683291328 -0.0028319863269095592 0.0059364118847627344 -0.013233077868027295 -0.0048477609931414853 0.010482597592196507 0.00028628997727603642 -0.0074625400536637099 0.0014741989929139901 0.0035845367624857483 0.0036390729302325409 -0.003731428089766313 -0.0039929262920579732
leaf_count=33850 13642 71348 37590 1075 12140 22569 9075 29252 125858 34376 58724 5951 42685 45198 14095 28856 18505 10631 8889 14933 127780 33510 12719 11573 18904 80464 2773 3320
internal_value=0 0.0371675 -0.133254 0.0897542 -0.0179944 -0.0934281 0.10131 -0.126471 0.110717 -0.0641034 0.00737733 -0.0104898 -0.0504032 0.131917 -0.0219061 -0.152225 0.0246352 0.0102727 -0.26716 -0.126657 0.133873 -0.0281466 -0.0487385 -0.0267725 0.0140941 0.0331254 0.0820309 -0.162088
internal_count=930285 727532 202753 372460 355072 156274 333963 106891 302684 126031 229041 38497 110571 174053 49383 77639 157693 31279 46479 48783 172978 76195 35288 20648 32546 139188 128631 15460
shrinkage=0.0721984


Tree=9
num_leaves=29
num_cat=0
split_feature=16 32 16 29 20 16 32 16 16 0 16 0 12 26 16 9 16 14 11 1 9 32 33 19 4 11 10 12
split_gain=6452.53 1821.18 1010.7 642.49 384.367 311.135 233.265 204.267 116.244 105.543 92.4693 64.8978 62.1812 53.388 49.1938 44.802 39.6404 36.7962 35.5374 35.064 46.4261 30.8166 30.0596 29.9457 28.7548 28.6059 28.2226 27.7697
threshold=211.5970709480064 1.5000000000000002 225.94873980596179 0.64106598146097771 0.71382807689676409 193.36500410311427 1.5000000000000002 233.03286160841151 177.99880382775123 40.500000000000007 218.52015682316161 33.000000000000007 74.645183950935916 2.0185784662371353 240.41158626912303 0.93400271622386055 227.54964536370667 20.986669887050137 0.87365384296767579 561.50000000000011 0.91589264318236296 1.5000000000000002 1.5000000000000002 322.25000000000006 18.000169754028324 0.64153585799927271 0.99503994573229126 92.645183950935902
decision_type=2 2 2 2 2 2 2 2 2 2 2 2 2 2 2 2 2 2 2 2 2 2 2 2 2 2 2 2
left_child=3 2 10 6 12 9 8 24 18 19 -2 27 -3 17 -9 -11 -6 -13 -1 -5 -21 -19 -14 -12 -4 -22 -16 -7
right_child=1 4 7 5 16 11 -8 14 -10 15 23 13 22 -15 26 -17 -18 21 -20 20 25 -23 -24 -25 -26 -27 -28 -29
leaf_value=-0.01408694859487363 0.00023285068051631349 -0.019651859188323517 0.0037199822394716774 -0.0082825492589462708 -0.0046450548341931642 -0.0032048653531795228 -0.019103435550865997 0.0092014403245792211 -0.0081587633476600842 -0.015845330161522425 -0.0033313211161610347 -0.0078938232493667142 -0.0057259553343868 -0.01558009747982389 0.012219560947488453 -0.010266528816374238 0.0044134678737135944 -0.0034186309763343465 -0.0064709325056865165 -0.010558607300133338 0.0029161395082076321 -0.011072769916799631 -0.014447427249861082 0.0032871583716867752 0.0066368707423121202 -0.0041884236128792206 -0.027815443402008942 0.00023474965603670507
leaf_count=40367 98208 13372 20222 26403 4567 24231 22830 125812 41675 9271 3658 13601 2685 2327 39269 39361 5613 61418 3468 4782 3911 2870 8849 137891 136743 12075 92 24714
internal_value=0 0.0621613 0.0759631 -0.111528 -0.158871 -0.0810592 -0.174794 0.112552 -0.150818 -0.12424 0.0268024 -0.0490303 -0.225787 -0.0665398 0.1371 -0.156929 0.00484208 -0.0620807 -0.186769 -0.0905389 -0.0597976 -0.0520833 -0.171987 0.0431605 0.0867206 -0.0339382 0.167954 -0.0203341
internal_count=930285 596981 561895 333304 35086 224964 108340 322138 85510 95803 239757 129161 24906 80216 165173 48632 10180 77889 43835 47171 20768 64288 11534 141549 156965 15986 39361 48945
shrinkage=0.0721984


Tree=10
num_leaves=29
num_cat=0
split_feature=16 32 16 16 32 20 16 32 2 16 16 16 2 20 2 2 12 28 9 30 14 11 16 0 11 29 0 16
split_gain=5580.93 1529.72 823.406 612.134 352.688 331.695 160.204 142.417 99.4243 90.1753 88.7361 70.7632 65.2625 41.9929 39.5547 36.596 36.3565 35.9728 33.8188 33.2148 31.015 30.7598 28.24 28.201 27.5096 27.4763 26.0559 25.7994
threshold=212.41998759305213 1.5000000000000002 229.60759831860932 189.36713777284044 1.5000000000000002 0.57236015392123363 222.01052231882906 1.5000000000000002 25.895644283121602 236.66695855224754 203.03089687672335 161.47979259081646 28.701851851851853 0.77792490810432358 14.623820754716983 16.938137755102044 93.612698372208101 306.25000000000006 0.94621755230282034 1.5000000000000002 19.127534117691308 0.66122607551178991 245.87338446224183 40.500000000000007 0.84044579945799469 1.5419785114814886 29.500000000000004 233.03286160841151
decision_type=2 2 2 2 2 2 2 2 2 2 2 2 2 2 2 2 2 2 2 2 2 2 2 2 2 2 2 2
left_child=3 2 6 7 10 19 15 8 11 20 14 24 -7 -6 -5 17 -12 -2 -10 -3 -4 -20 -11 -13 -1 -18 -22 -14
right_child=1 5 9 4 13 12 -8 -9 18 22 16 23 27 -15 -16 -17 25 -19 21 -21 26 -23 -24 -25 -26 -27 -28 -29
leaf_value=-0.013942046157588778 -0.018535768437080592 -0.009026764088090054 0.002930003198878363 -0.0066055978338164442 -0.016222063286507309 -0.0089775613060346492 0.0043235777335620335 -0.017045574261622336 -0.0088834316878804841 0.0097267847068710257 -0.0036361889730782151 -0.008066628674694246 -0.0020939973745578103 -0.0061701406253992881 -0.0033242972456021236 0.0023363763900157352 -0.00018166311913197342 0.00017508801101302285 0.0042008534040763905 -0.017768504501700162 0.0081259732783053491 -0.0047105799305913743 0.014058382968126004 -0.010886260657769575 -0.0084255905720056826 -0.0054749988464574371 0.0059622635202464377 0.0054913205510309327
leaf_count=35094 539 2610 8139 52314 14059 4868 159485 16676 7679 82959 45528 37731 5204 2561 30207 64361 43399 84965 2606 17172 102261 8964 8665 36258 5443 5794 40501 4243
internal_value=0 0.0593259 0.072026 -0.10109 -0.0639448 -0.14623 0.0378249 -0.148952 -0.138089 0.115651 -0.0508836 -0.149266 -0.0302851 -0.203234 -0.0748558 0.0143491 -0.029999 0.00079141 -0.0715915 -0.230132 0.100625 -0.0374439 0.140397 -0.130867 -0.182848 -0.0111515 0.104049 0.0181839
internal_count=930285 585972 551875 344313 193862 34097 309350 150451 133775 242525 177242 114526 14315 16620 82521 149865 94721 85504 19249 19782 150901 11570 91624 73989 40537 49193 142762 9447
shrinkage=0.0721984


Tree=11
num_leaves=29
num_cat=0
split_feature=16 32 16 16 32 20 29 32 16 9 11 2 16 20 12 16 11 16 8 26 2 8 14 19 4 16 20 8
split_gain=4800.77 1129.11 786.452 502.49 382.042 276.181 217.114 96.094 90.4866 73.9614 90.3971 60.6601 57.2673 48.6813 47.9524 43.9369 41.0044 40.4863 38.0996 36.7429 34.9835 32.9078 29.1433 28.4818 25.8159 25.1072 24.5269 23.7285
threshold=216.80838339892878 1.5000000000000002 199.43625204121855 230.82714897344124 1.5000000000000002 0.57236015392123363 0.60232647702146724 1.5000000000000002 224.11407615758463 0.93874149800642914 0.64517323775388302 14.872067648663394 237.95590884837711 0.77792490810432358 92.645183950935902 181.00836780007839 0.87019382240317977 160.09428127428131 466.50000000000006 2.0185784662371353 49.877500000000005 850.50000000000011 48.53047698175434 302.75000000000006 18.000169754028324 209.83778522000526 0.80296451914098987 2489.5000000000005
decision_type=2 2 2 2 2 2 2 2 2 2 2 2 2 2 2 2 2 2 2 2 2 2 2 2 2 2 2 2
left_child=2 3 6 8 11 22 7 17 23 20 27 18 -5 -6 -7 16 -12 -1 -4 25 -8 -18 -3 -2 -10 -20 -16 -11
right_child=1 5 4 12 13 14 9 -9 24 10 15 -13 -14 -15 26 -17 21 -19 19 -21 -22 -23 -24 -25 -26 -27 -28 -29
leaf_value=-0.013089564149549161 -0.0049989065539631783 -0.016057415967289362 -0.0050005086728293876 0.0072203455451767375 -0.014937960851044537 -0.0099524375549968954 -0.011931108650807059 -0.016903413374578808 0.002264626421196137 -0.00021049337389305242 -0.009308789552223003 -0.00010762325977573327 0.0097309411845007878 -0.0040472554084476061 -0.003443271699717144 -0.0056126623547673813 -0.0042069074547429449 -0.0092403856445592621 -0.002985706382880305 -0.012374557976070674 -0.0052492662083724884 0.015074246570015725 -0.0022382443652314752 0.002170875387218568 0.0050149551691363722 -0.00032397069245653534 0.0039264873342928219 0.011445593476577471
leaf_count=22385 2955 15678 28884 144015 13596 2564 20723 16112 20733 6070 38406 77836 70565 2539 3804 59595 2422 39165 37535 1712 5087 570 838 127554 125323 36373 6175 1071
internal_value=0 0.063797 -0.0808941 0.0751293 -0.035676 -0.127737 -0.123306 -0.165373 0.0469549 -0.0989156 -0.0874353 -0.0226249 0.111442 -0.183165 -0.0158684 -0.0951236 -0.120149 -0.147376 -0.038366 -0.0265654 -0.147014 -0.00739203 -0.212695 0.0278197 0.0640532 -0.0232105 0.0154731 0.0212979
internal_count=930285 520204 410081 491145 198475 29059 211606 77662 276565 133944 108134 182340 214580 16135 12543 100993 41398 61550 104504 75620 25810 2992 16516 130509 146056 73908 9979 7141
shrinkage=0.0721984


Tree=12
num_leaves=29
num_cat=0
split_feature=16 32 16 29 20 16 32 17 16 16 16 9 12 0 17 11 16 21 9 18 1 0 26 0 17 16 17 17
split_gain=4153.17 1164.53 652.369 437.563 255.618 173.676 161.759 150.949 114.403 92.4782 73.0309 63.7636 52.8582 50.7251 46.459 42.7581 35.037 34.651 31.5345 29.0953 28.4248 27.6194 26.5632 26.2894 35.2242 25.1777 25.2722 24.7605
threshold=211.5970709480064 1.5000000000000002 226.76184067166574 0.68102868148698203 0.75834310931596038 197.89517484325515 1.5000000000000002 80.645177954522282 233.19698288915814 189.36713777284044 220.11283118243588 0.88715472535080364 89.802038200428285 46.500000000000007 72.41317148524071 0.84736546754090625 243.22733844014942 1.5000000000000002 0.9420049622793526 1.5000000000000002 146.50000000000003 31.000000000000004 2.0185784662371353 33.000000000000007 51.034197900960642 174.71651785714289 46.519091665895239 47.780751757395777
decision_type=2 2 2 2 2 2 2 2 2 2 2 2 2 2 2 2 2 2 2 2 2 2 2 2 2 2 2 2
left_child=3 2 10 6 12 7 9 11 -4 15 20 -5 -3 25 22 21 -10 -9 -19 -6 -2 -1 -7 -22 -25 -13 -27 -12
right_child=1 4 8 5 19 14 -8 17 16 -11 27 13 -14 -15 -16 -17 -18 18 -20 -21 23 -23 -24 24 -26 26 -28 -29
leaf_value=-0.0094325529661488661 -0.012374643976362308 -0.015229016627007062 0.0051738921798516729 -0.013713053973270724 0.0052339664057511563 -0.0025132986367825934 -0.015262662961432267 0.01147068172352717 0.0075886637136515882 -0.0055817296353606128 0.0011024066059044182 -0.0075868961126875599 -0.0084912822683696852 -0.0088664441131540046 0.0045058320029034296 -0.0061412535243246594 0.010894533119849342 -0.0073585863476245935 0.0025621633506750559 -0.0030752230820584371 0.0016219394587430344 -0.012758537843441695 -0.010072333779400311 -0.0036113088377599653 0.00045940695305552847 0.00068233465251273551 -0.0050332328373724946 0.0034525034588804462
leaf_count=25714 891 16571 143270 7604 4803 96049 23775 1629 142866 33980 30384 18222 9577 37552 4890 10890 18925 2252 6464 4048 61894 26352 2486 14389 48188 4641 30758 101221
internal_value=0 0.0499511 0.0609723 -0.0894001 -0.127031 -0.062093 -0.137482 -0.089922 0.0922412 -0.119353 0.023851 -0.101958 -0.176752 -0.094621 -0.032731 -0.142045 0.110464 0.025005 -1.54344e-05 0.0198587 0.00657803 -0.153964 -0.0374525 0.00785203 -0.00660148 -0.0748819 -0.059335 0.0403046
internal_count=930285 597027 562028 333258 34999 212547 120711 109122 305061 96936 256967 98777 26148 91173 103425 62956 161791 10345 8716 8851 125362 52066 98535 124471 62577 53621 35399 131605
shrinkage=0.0721984


Tree=13
num_leaves=29
num_cat=0
split_feature=16 32 16 16 32 20 17 16 32 16 16 17 16 20 17 2 12 17 8 0 16 2 14 17 28 30 30 17
split_gain=3584.21 930.475 473.007 465.432 266.861 217.979 142.84 87.6886 84.0064 80.3306 71.6477 74.7573 57.4757 55.6377 47.1175 44.6555 35.246 32.9203 29.0659 30.1532 28.9727 28.6449 26.4179 25.9581 25.4709 24.7586 24.2008 23.8737
threshold=213.9761247040253 1.5000000000000002 229.77056987972077 189.36713777284044 1.5000000000000002 0.56252853881278553 92.358678921227565 223.25026997840175 1.5000000000000002 204.6919971009967 154.86313202247194 39.379444199539542 236.28035384066143 0.6440927611278443 72.41317148524071 29.575187969924816 95.802038200428285 49.979319899015515 610.50000000000011 35.000000000000007 174.71651785714289 15.619523809523811 21.044435894665305 49.336720932110218 306.25000000000006 1.0000000180025095e-35 2.5000000000000004 45.042972477128593
decision_type=2 2 2 2 2 2 2 2 2 2 2 2 2 2 2 2 2 2 2 2 2 2 2 2 2 2 2 2
left_child=3 2 7 6 9 -3 8 18 10 14 -1 -12 22 -8 17 -7 -6 -5 19 24 -13 -11 -4 -22 -2 -20 -27 -9
right_child=1 5 12 4 16 15 13 27 -10 21 11 20 -14 -15 -16 -17 -18 -19 25 -21 23 -23 -24 -25 -26 26 -28 -29
leaf_value=-0.011649464487565136 -0.014971300019106612 -0.013443100832080094 0.0032507753735965348 -0.00040678136974927655 -0.014102542151569237 -0.007157660021160331 -0.010724014035262786 0.00074655357361907201 -0.014325791277899005 -0.0022036028348886827 -0.001446909052104985 -0.0098459348136966888 0.0080574061881530171 0.0026044471938547068 0.0024099688407036848 0.0014536231389355369 -0.0074957646316785274 -0.0049780323777419803 0.0024293678528792113 -0.0025156765230440327 -0.0038079837139903647 0.00028023976455041392 0.0061690393483084908 -0.0079787403813372289 0.0011957602141351867 -0.0065648682801347363 0.0010348503139069186 0.0040048019157264206
leaf_count=30725 514 18383 18647 9128 11790 4761 2070 12922 15055 60878 9182 36424 98359 7725 5420 9214 6546 81832 81932 17832 9673 40173 121715 39717 43289 3185 6951 126243
internal_value=0 0.0500037 0.0600252 -0.0770375 -0.0472616 -0.114634 -0.119706 0.0330941 -0.127831 -0.0365441 -0.119377 -0.105801 0.093065 -0.00294033 -0.0571983 -0.0205 -0.162662 -0.0625956 0.0166292 -0.000177874 -0.114977 -0.0168445 0.0800759 -0.0991975 0.0139345 0.0278806 -0.0187426 0.051279
internal_count=930285 563947 531589 366338 215767 32358 150571 292868 140776 197431 125721 94996 238721 9795 96380 13975 18336 90960 153703 61635 85814 101051 140362 49390 43803 92068 10136 139165
shrinkage=0.0721984


Tree=14
num_leaves=29
num_cat=0
split_feature=16 32 16 16 32 20 23 17 16 32 12 0 16 17 29 16 12 16 17 16 9 26 17 1 21 25 17 17
split_gain=3073.71 681.439 542.946 300.347 273.015 186.355 157.98 125.5 65.6642 57.7714 52.1012 50.5006 49.7096 47.0472 42.736 41.2131 37.2588 34.6434 32.9955 31.7916 31.3221 28.1049 27.7752 26.5906 25.6113 36.3159 25.4622 24.5321
threshold=217.6721938387617 1.5000000000000002 199.43625204121855 230.82714897344124 1.5000000000000002 0.55224628111529184 0.65377919352978509 80.645177954522282 173.46503964823532 1.5000000000000002 78.298989873223348 35.000000000000007 224.79711874373081 46.519091665895239 2.1552556455925305 239.20931983748952 96.544678887547576 235.16424094656537 69.268880557026662 161.47979259081646 0.91589264318236296 1.541952552297515 42.439917490389682 675.50000000000011 1.5000000000000002 1036.2500000000002 49.120546444675263 45.042972477128593
decision_type=2 2 2 2 2 2 2 2 2 2 2 2 2 2 2 2 2 2 2 2 2 2 2 2 2 2 2 2
left_child=2 3 6 12 10 -3 9 8 20 19 -4 18 26 -10 23 -5 -6 -7 -12 -1 -8 -15 -21 -13 -9 -26 -2 -14
right_child=1 5 4 15 16 17 7 24 13 -11 11 14 27 21 -16 -17 -18 -19 -20 22 -22 -23 -24 -25 25 -27 -28 -29
leaf_value=-0.01102800385102116 0.00023348844627941496 -0.012496563991780644 -0.0037276899956398537 0.005872689619579409 -0.013155479920227689 -0.0030757100435009435 -0.013107138159935817 0.008797901583222259 0.00037053267866495553 -0.013492630084292781 0.00039485211509036747 -0.0028505687731859618 0.0015734127557733267 -0.0053637409279615432 -0.010981097557341361 0.0081897572873203314 -0.0060999407736625055 0.0052512977458967639 0.0067318391433913594 -0.0013257022819473498 -0.0078074293383191221 -0.010934580997605896 -0.0080825225258221046 -0.0003343416451715401 0.0027751581495599866 -0.0072990327616871157 0.0024532603400830629 0.004232183886637121
leaf_count=19613 37869 15346 34696 161157 11158 8969 6924 2086 7218 17552 65832 40897 21633 74269 2552 53231 5999 3670 4581 3544 36229 5041 30149 47109 6626 2596 93300 110439
internal_value=0 0.0526361 -0.0627632 0.0615224 -0.0270892 -0.0990294 -0.0986018 -0.0792425 -0.0880526 -0.137122 -0.0164833 -0.00890749 0.0388921 -0.0721616 -0.0245259 0.0893095 -0.148043 -0.00911084 0.0111793 -0.120737 -0.119917 -0.0791961 -0.102105 -0.0208266 0.0217931 -0.000841213 0.0251031 0.0525868
internal_count=930285 505614 424671 477629 212824 27985 211847 140989 129681 70858 195667 160971 263241 86528 90558 214388 17157 12639 70413 53306 43153 79310 33693 88006 11308 9222 131169 132072
shrinkage=0.0721984


Tree=15
num_leaves=29
num_cat=0
split_feature=16 32 16 29 20 16 32 16 17 17 0 0 29 14 0 30 9 12 1 0 30 16 10 19 19 1 27 30
split_gain=2679.33 741.608 418.27 294.503 177.838 135.528 89.5666 89.3635 80.4172 67.8155 46.841 46.3801 45.0238 41.8187 40.4704 42.6218 38.8134 38.6203 35.3253 31.9119 29.6249 28.5493 29.9568 27.1774 27.0871 26.4165 24.7136 24.602
threshold=211.5970709480064 1.5000000000000002 225.94873980596179 0.62603228624408569 0.75834310931596038 184.74542045529969 1.5000000000000002 232.54253841523959 92.358678921227565 76.258538821231397 29.500000000000004 33.000000000000007 1.5419785114814886 19.218855881655212 35.000000000000007 1.0000000180025095e-35 0.93874149800642914 89.802038200428285 675.50000000000011 29.500000000000004 2.5000000000000004 244.81279198498632 0.99503994573229126 616.25000000000011 141.25000000000003 2526.5000000000005 14.500000000000002 1.0000000180025095e-35
decision_type=2 2 2 2 2 2 2 2 2 2 2 2 2 2 2 2 2 2 2 2 2 2 2 2 2 2 2 2
left_child=3 2 13 6 17 8 10 -4 16 11 -1 26 18 19 -15 23 -5 -3 -13 24 -17 -9 -23 -16 -2 -10 -7 -14
right_child=1 4 7 5 -6 9 -8 21 25 -11 -12 12 27 14 15 20 -18 -19 -20 -21 -22 22 -24 -25 -26 -27 -28 -29
leaf_value=-0.0055658636185860148 -0.016379655566025851 -0.012395461070457248 0.0039028970012866164 -0.010511830442217093 0.0015416945376964678 0.00035845168396325629 -0.012398463953151861 0.0060699954522575317 -0.002048566205468642 0.0042133348771606375 -0.0090309298969943261 -0.0046324016021651723 -0.0057139735014747868 0.0025314790769620007 -0.001035684930263096 -0.011731327736469566 -0.0062441098832361997 -0.0066468515289511663 -0.0017127119424025995 -0.004559921793155247 -0.0016922141687437948 0.010017364835066605 -0.035455881999737551 0.0017829978450727725 0.00069278561345697761 0.0077601716179236564 -0.0026662566415353636 -0.013674471939699768
leaf_count=41538 495 16589 146128 14547 8871 25861 22616 164304 4277 7259 39840 51502 4995 114215 25375 2250 46991 9627 37205 9953 4803 11855 76 59974 22675 2151 30911 3402
internal_value=0 0.0400139 0.0488182 -0.0719249 -0.101034 -0.0518917 -0.116059 0.0723426 -0.0893415 -0.0360955 -0.100587 -0.0405512 -0.0538261 0.0171865 0.0224746 0.00691469 -0.100459 -0.142447 -0.0472011 -0.0157997 -0.0677969 0.0875036 0.134736 0.0130886 0.00454377 0.017088 -0.0178457 -0.123813
internal_count=930285 597190 562103 333095 35087 229101 103994 322363 67966 161135 81378 153876 97104 239740 206617 92402 61538 26216 88707 33123 7053 176235 11931 85349 23170 6428 56772 8397
shrinkage=0.0721984


Tree=16
num_leaves=29
num_cat=0
split_feature=16 20 16 29 32 16 32 17 16 17 0 31 19 14 16 0 29 9 1 17 0 24 0 14 7 11 17 9
split_gain=2307.17 647.303 367.165 252.06 149.018 118.439 72.7895 66.5582 58.6966 56.2008 51.5983 58.5801 47.6048 42.8104 41.6315 38.9827 39.7749 34.4164 31.3578 29.1808 28.4461 27.2709 30.2131 26.9294 26.7714 24.1269 23.3944 23.1144
threshold=211.3387760495319 0.65189990517819574 227.87083716214076 0.59504917826729109 1.5000000000000002 184.74542045529969 1.5000000000000002 92.358678921227565 236.08399575210822 76.258538821231397 33.000000000000007 1.5000000000000002 582.75000000000011 13.18579713391833 176.96415658483861 33.000000000000007 1.5419785114814886 0.88715472535080364 513.50000000000011 47.327329704550216 37.500000000000007 20.500000000000004 29.500000000000004 52.796552320999844 -16.571418762207028 0.87365384296767579 57.610050189078656 0.94924083876129484
decision_type=2 2 2 2 2 2 2 2 2 2 2 2 2 2 2 2 2 2 2 2 2 2 2 2 2 2 2 2
left_child=3 4 10 6 26 7 14 17 21 15 13 12 -12 -3 25 -7 18 -5 -17 -16 -19 22 -4 -6 27 -1 -2 -15
right_child=1 2 8 5 23 9 -8 -9 -10 -11 11 -13 -14 24 19 16 -18 20 -20 -21 -22 -23 -24 -25 -26 -27 -28 -29
leaf_value=-0.0090957722284686852 0.0002103417989057574 -0.0064172980669162443 0.0052244798727745217 -0.01183710043800569 -0.010713600530435175 -0.0013064028591424674 -0.011662340386862284 0.00087249195857618195 0.0064574311598624588 0.0036897111586225171 -0.0016064035182411494 -0.0045537420321181505 0.001721254640209977 0.0013821311009569195 0.00089052188775567162 -0.0055910130242544879 -0.0084671922756195256 -0.0044783676190315747 -0.0024544022447389514 -0.0058302788405503354 -0.007644483725068759 0.0013044266772675639 0.0031167512664545013 0.0016865037808645649 0.0018398175878894974 -0.0024451503708188133 -0.018298696408715131 0.0049963516675449867
leaf_count=34971 11831 2891 113525 6181 22236 57831 21702 6646 104029 7301 30733 11661 82740 13031 3773 22062 8254 27576 67283 31335 31907 14537 51547 952 108718 3095 367 31570
internal_value=0 0.0369311 0.0451487 -0.0671655 -0.0942727 -0.0496042 -0.110671 -0.0832795 0.070538 -0.0346405 0.0195524 0.00442149 0.0113575 0.0316732 -0.0955865 -0.0386683 -0.0508589 -0.0929315 -0.044723 -0.0707496 -0.0855516 0.0595899 0.0632466 -0.14134 0.0339465 -0.118493 -0.0047998 0.0545773
internal_count=930285 600368 564982 329917 35386 235041 94876 72310 283638 162731 281344 125134 113473 156210 73174 155430 97599 65664 89345 35108 59483 179609 165072 23188 153319 38066 12198 44601
shrinkage=0.0721984


Tree=17
num_leaves=29
num_cat=0
split_feature=16 33 16 32 16 13 9 0 20 1 30 8 1 13 0 0 29 30 1 16 14 1 0 20 32 0 10 30
split_gain=1997.37 450.044 372.714 194.277 188.84 108.873 81.9872 68.4607 61.7567 48.9348 47.0022 48.7595 38.6461 37.7872 32.7458 32.432 34.1559 31.4496 31.0486 28.4094 28.1319 27.6341 26.8841 26.4789 24.2366 24.4476 23.8962 23.1543
threshold=218.11202406609198 2.5000000000000004 199.43625204121855 1.5000000000000002 231.28591865930926 24.607023314438411 0.93962471263177527 40.500000000000007 0.56252853881278553 728.50000000000011 1.0000000180025095e-35 661.50000000000011 132.50000000000003 26.347614216295927 33.000000000000007 33.000000000000007 2.1552556455925305 2.5000000000000004 4812.5000000000009 243.22733844014942 19.781120147296711 564.50000000000011 28.000000000000004 0.77792490810432358 1.5000000000000002 31.000000000000004 0.99503994573229126 1.0000000180025095e-35
decision_type=2 2 2 2 2 2 2 2 2 2 2 2 2 2 2 2 2 2 2 2 2 2 2 2 2 2 2 2
left_child=2 4 5 13 10 24 18 9 -3 -8 11 14 -6 -4 -2 -15 20 -12 22 27 -17 -9 -7 -5 25 -1 -21 -14
right_child=1 8 3 23 12 6 7 21 -10 -11 17 -13 19 15 -16 16 -18 -19 -20 26 -22 -23 -24 -25 -26 -27 -28 -29
leaf_value=-0.0062376398143669859 0.0021763065611897043 -0.011412469215610828 -0.0033367719133837945 -0.0099937310149499012 -0.013814732923279593 -0.0057521151582915911 -0.002979176944358424 -0.0072333108537524322 -0.0021528571190509078 0.0027440889133548011 -0.0037548383543847545 0.0034653223816679801 0.0051542118167634647 0.00067234803615716702 -0.00066723203970289844 -0.0049079211498452516 -0.0092022439675850526 0.0014967501734417803 -0.00077414938303422122 0.0079914666530984044 -0.00070642179074517316 -0.0041458613982824511 -0.010131972852028269 -0.0023762055104859397 -0.011495080288559827 -0.0095217561303661789 -0.030830168086432522 0.0019624656163287789
leaf_count=26501 79726 11519 28059 14831 558 11583 48548 27337 5570 9275 10419 139216 176134 73466 28713 9159 2787 13840 2956 19521 89303 33789 19780 2833 10755 21322 83 12702
internal_value=0 0.0432045 -0.0497001 -0.0209148 0.0488713 -0.0796528 -0.0656378 -0.0532146 -0.116268 -0.0285484 0.0314985 0.0356134 0.0714739 -0.0121527 0.0197149 -0.00668212 -0.0182878 -0.0105093 -0.108696 0.0721775 -0.0151977 -0.076548 -0.117931 -0.121499 -0.116323 -0.106676 0.108411 0.0684159
internal_count=930285 498001 432284 220438 480912 211846 153268 118949 17089 57823 271914 247655 208998 202774 108439 174715 101249 24259 34319 208440 98462 61126 31363 17664 58578 47823 19604 188836
shrinkage=0.0721984


Tree=18
num_leaves=29
num_cat=0
split_feature=16 33 16 16 32 23 20 14 2 16 32 31 21 14 12 31 26 16 28 25 9 11 16 12 16 31 1 24
split_gain=1723.6 389.787 320.424 166.917 148.228 108.122 52.8129 47.4381 45.0102 38.404 36.7975 36.6883 34.8793 34.5513 31.7583 30.4217 31.8783 30.0904 29.8086 29.3748 27.0996 28.878 26.3774 24.0762 22.1887 20.5205 19.7958 23.0553
threshold=217.88395960390849 2.5000000000000004 202.20327726605262 232.24011834319529 1.5000000000000002 0.65377919352978509 0.60299066465425699 18.458581966127422 23.308608058608062 180.08631828483604 1.5000000000000002 1.5000000000000002 1.5000000000000002 18.951556412694377 95.574116139070426 1.5000000000000002 1.4327785754371136 225.79443612547496 306.25000000000006 246.25000000000003 0.95505830136800307 0.66122607551178991 161.47979259081646 96.544678887547576 245.87338446224183 1.5000000000000002 132.50000000000003 20.500000000000004
decision_type=2 2 2 2 2 2 2 2 2 2 2 2 2 2 2 2 2 2 2 2 2 2 2 2 2 2 2 2
left_child=2 3 5 7 14 10 -3 12 9 -7 22 17 -2 -5 18 -16 -17 -9 -4 -14 -10 -22 -1 -6 25 -15 -21 -28
right_child=1 6 4 13 23 8 -8 11 20 -11 -12 -13 19 24 15 16 -18 -19 -20 26 21 -23 -24 -25 -26 -27 27 -29
leaf_value=-0.0086392832762808361 -0.012416099303585271 -0.010329979865428501 -0.014829058427446844 -0.00036890483408450999 -0.010033737377610942 -0.0062640897401212616 -0.0015171142916958515 0.0019094324653747352 -0.0037859007822712257 -0.0036949011149496102 -0.01019807939663531 -0.00027019551589273693 -0.0167704972153691 0.0051506738885288535 0.00090242494950874504 -0.00046696273550759674 -0.0082448421959518906 0.0034950111354682283 -0.0014382052961141004 -0.010769362386093582 0.0066122053505555832 -0.0011044312976343771 -0.005354934475739653 -0.0040628416184837601 0.0086245113050030658 0.0020745266233974748 0.0016516753026383452 -0.004802570408399421
leaf_count=19608 1298 12291 875 6192 10158 50329 4981 123525 16172 76313 18766 23561 547 160391 76018 8753 4003 126056 89459 830 3138 13003 36425 5387 8931 12161 17666 3448
internal_value=0 0.0397415 -0.0466157 0.0450028 -0.0166459 -0.0715723 -0.107876 0.030248 -0.056819 -0.065319 -0.102924 0.0339782 -0.0125814 0.0683471 -0.00851629 0.00491612 -0.0402746 0.0375391 -0.0217167 -0.00338265 -0.0235056 0.00548175 -0.0900886 -0.110315 0.0708533 0.0683377 0.00232318 0.00827818
internal_count=930285 501878 428407 484606 194653 233754 17272 296931 158955 126642 74799 273142 23789 187675 179108 88774 12756 249581 90334 22491 32313 16141 56033 15545 181483 172552 21944 21114
shrinkage=0.0721984


Tree=19
num_leaves=29
num_cat=0
split_feature=16 20 16 20 30 17 16 16 11 32 12 17 24 0 30 14 0 9 30 16 17 26 16 14 29 13 7 28
split_gain=1493.83 441.091 251.908 165.559 110.806 97.5963 115.243 52.3488 47.2304 41.0886 33.3732 32.3531 31.3999 31.3149 38.267 33.3357 30.3928 28.7048 26.1688 26.1533 25.9846 24.4351 24.086 23.8525 22.0511 21.9418 21.0863 21.0734
threshold=210.42039673399339 0.65189990517819574 225.94873980596179 0.74800265957446821 1.5000000000000002 76.258538821231397 188.60676177254751 236.08399575210822 0.82552442033976137 1.5000000000000002 40.017766952966376 46.519091665895239 20.500000000000004 33.000000000000007 1.0000000180025095e-35 19.127534117691308 29.500000000000004 0.96146897755638105 2.5000000000000004 151.06287055335972 40.925498164749619 2.0185784662371353 176.96415658483861 20.435046417041153 0.15546287487541907 69.139807243712653 -12.52880811691284 306.25000000000006
decision_type=2 2 2 2 2 2 2 2 2 2 2 2 2 2 2 2 2 2 2 2 2 2 2 2 2 2 2 2
left_child=3 4 10 9 24 6 8 12 19 22 -3 -8 16 26 15 -15 -4 -7 -16 -5 -21 -13 -1 -14 -2 -19 -12 -28
right_child=1 2 7 5 -6 17 11 -9 -10 -11 13 21 23 14 18 -17 -18 25 -20 20 -22 -23 -24 -25 -26 -27 27 -29
leaf_value=-0.0073896726023120873 -0.012217224468221462 -0.026110676494086067 0.0041561225572862371 -0.0091084624986634589 -0.0090565122795107245 -0.00054563619772914074 0.00399727972432739 0.0052369917639213497 -0.0023094630662926362 -0.0091951885751760665 0.0029934478932590269 -0.0021839238668632283 -0.0044967640912882637 -0.0045905308905722798 -0.0084789011857302442 0.00077049650880503539 0.0022827678808119969 0.004198563418565295 -0.0012749038909304921 -0.0013332424836956732 -0.0061858076247636963 -0.0088557251315543872 -0.0042100310968564546 0.0017993936772792221 -0.000371528283208506 0.01649830160107537 -0.013888188379816552 0.0011092394955999956
leaf_count=23345 867 239 135112 14076 20825 8409 4348 104217 19488 26994 41272 127723 4047 6439 4227 99062 67793 6774 6950 6491 50533 2927 26532 13940 14843 851 491 91470
internal_value=0 0.0289395 0.0357063 -0.0555119 -0.0776068 -0.0426519 -0.04801 0.0540622 -0.0756018 -0.0959335 0.01185 -0.0294951 0.0453462 0.0122072 0.000245443 0.00614001 0.048896 0.0327332 -0.0553941 -0.0875561 -0.0780273 -0.0323192 -0.0789251 0.00530184 -0.0142007 0.0771665 0.0226826 0.0142547
internal_count=930285 611794 575259 318491 36535 241620 225586 325109 90588 76871 250150 134998 220892 249911 116678 105501 202905 16034 11177 71100 57024 130650 49877 17987 15710 7625 133233 91961
shrinkage=0.0721984


Tree=20
num_leaves=29
num_cat=0
split_feature=16 33 26 16 16 17 32 16 0 20 14 0 26 1 25 16 28 9 0 17 7 17 25 16 28 24 25 4
split_gain=1291.18 293.887 254.1 120.949 118.496 77.813 67.6989 52.9657 42.3203 38.7874 34.5464 30.7333 29.9094 28.4317 27.4134 26.8565 26.2877 30.9437 24.9761 24.5453 22.8865 35.5756 22.8793 21.5152 20.8914 21.9482 21.015 20.6305
threshold=218.11202406609198 2.5000000000000004 0.71203138905670438 231.28591865930926 203.46944103194105 85.858916731060972 1.5000000000000002 189.36713777284044 48.000000000000007 0.53216324408916094 19.380993590815134 48.000000000000007 1.4327785754371136 132.50000000000003 902.25000000000011 169.67347002174591 690.25000000000011 0.94332459385445355 29.500000000000004 49.979319899015515 -18.490362167358395 56.266460572411219 625.25000000000011 245.87338446224183 306.25000000000006 19.500000000000004 437.25000000000006 20.401270866394047
decision_type=2 2 2 2 2 2 2 2 2 2 2 2 2 2 2 2 2 2 2 2 2 2 2 2 2 2 2 2
left_child=2 3 6 10 5 8 7 18 15 -3 14 20 -10 -5 24 -4 -6 -18 -1 22 -12 -22 -17 -15 -2 -26 -27 -23
right_child=1 9 4 13 16 -7 -8 -9 12 -11 11 -13 -14 23 -16 19 17 -19 -20 -21 21 27 -24 -25 25 26 -28 -29
leaf_value=-0.0044646954105660285 -0.012986828925860214 -0.0093996335070337996 -0.0051526698421126413 -0.012179672100660384 -0.00099113400881713698 0.0030788317215333298 -0.008461977264238623 -0.0027866976745917539 -0.004678786495054538 -0.0022541015550956826 0.0036081144765234769 -0.00042559320187848419 -0.01009346039651963 0.0040277467702918577 -0.0093834367337753324 -0.0015009856236874938 -0.0026142149377347511 0.0017973237364830588 -0.0073435074435928265 -0.0027236588248961643 0.0020619160824568582 -0.025156723914011643 0.0046036351784966498 0.0076426530611142934 0.0012707064547108798 -0.018642054092219078 -0.0024931745654407965 -0.0045212879501648094
leaf_count=30123 624 10873 18010 555 95431 9643 29791 48248 40212 6228 58403 22358 6128 199567 1685 8932 10152 45138 32830 52540 157776 294 4987 8968 24007 463 4528 1791
internal_value=0 0.0346755 -0.0400227 0.0392554 -0.0231494 -0.0440471 -0.074869 -0.0635272 -0.0504379 -0.0941476 0.0253507 0.0294164 -0.0747222 0.0573388 -0.00589714 -0.0371154 -0.00367557 0.0136749 -0.0826334 -0.0278331 0.0330335 0.0268441 0.00950467 0.0579404 0.0011604 0.00505609 -0.0552818 -0.102925
internal_count=930285 498120 432165 481019 291173 140452 140992 111201 130809 17101 271929 240622 46340 209090 31307 84469 150721 55290 62953 66459 218264 159861 13919 208535 29622 28998 4991 2085
shrinkage=0.0721984


Tree=21
num_leaves=29
num_cat=0
split_feature=16 20 20 16 16 17 30 16 17 30 13 0 30 14 16 17 26 13 0 4 28 21 9 16 9 29 16 16
split_gain=1109.14 257.539 212.858 147.189 108.236 76.323 73.5318 50.9564 50.2822 37.892 33.8544 34.5193 29.9088 28.7832 25.3348 24.489 23.7831 25.8431 22.7683 20.8977 19.4532 19.2201 25.5552 19.0396 22.814 23.8799 20.7754 18.4474
threshold=217.6721938387617 0.66667723190702599 0.74800265957446821 202.20327726605262 232.24011834319529 85.858916731060972 1.5000000000000002 165.68230500694548 41.198927987065325 1.0000000180025095e-35 27.587190592969019 33.000000000000007 1.0000000180025095e-35 18.142857294306364 173.46503964823532 69.268880557026662 2.1061009135864559 26.483146111980158 33.000000000000007 5.0373446941375741 306.25000000000006 1.5000000000000002 0.95223755921096331 97.616917881368508 0.95261914889476429 1.740863204761256 146.97140149613418 240.41158626912303
decision_type=2 2 2 2 2 2 2 2 2 2 2 2 2 2 2 2 2 2 2 2 2 2 2 2 2 2 2 2
left_child=2 6 9 5 10 7 -2 23 -9 14 -3 -12 13 -13 -1 20 17 -10 -19 -16 -5 -7 -23 24 25 -4 -25 -6
right_child=1 4 3 15 27 21 -8 8 16 -11 11 12 -14 -15 19 -17 -18 18 -20 -21 -22 22 -24 26 -26 -27 -28 -29
leaf_value=-0.0066435838697729262 -0.00014450622495694302 -0.00076198451547261679 -0.0096787378309682922 -0.011694561556387751 0.0036636462506901865 0.0090964436889989838 -0.0076614374902149712 0.0039448487791389651 -0.0053411414881138052 -0.0076751511042022448 0.0026898073830940073 -0.0067150795155769194 -0.0031545630924376938 0.0015694328513277071 -0.014010693224870424 0.0041958201454512997 -0.010866001889424515 -0.0010784349867201898 -0.003476773149431909 -0.0031652707069409307 -0.00044239743375058121 -0.0042081740436300608 0.0041000917540284431 -0.0090724663216503239 0.010852724164519765 0.019541014983071502 -0.0052901907092493521 0.0054025691985470576
leaf_count=20763 11788 24343 989 805 145007 1952 15978 5147 23513 35043 166429 2240 8295 90772 952 6010 2152 31319 60473 34048 156967 2995 5426 11011 740 171 24224 40733
internal_value=0 0.031712 -0.0376089 -0.0259339 0.0371526 -0.0465354 -0.0619147 -0.051933 -0.0421035 -0.0805379 0.0251505 0.0283968 0.0138432 0.0189744 -0.0643443 -0.00453615 -0.0463428 -0.0443988 -0.0368218 -0.0479272 -0.00692272 0.0365861 0.0158617 -0.084386 0.0131236 -0.074397 -0.0896441 0.0560261
internal_count=930285 505585 424700 333894 477819 170112 27766 159739 122604 90806 292079 267736 101307 93012 55763 163782 117457 115305 91792 35000 157772 10373 8421 37135 1900 1160 35235 185740
shrinkage=0.0721984


Tree=22
num_leaves=29
num_cat=0
split_feature=16 32 16 13 9 12 17 0 0 14 20 14 0 0 20 0 8 0 29 32 30 30 19 27 27 28 1 16
split_gain=968.796 303.945 181.825 106.908 81.11 73.6404 63.2648 40.1992 33.4817 31.5171 30.5342 29.6576 28.6353 27.1053 24.7998 24.7184 24.3463 24.1842 23.4762 22.0525 21.2853 21.1484 20.915 20.2432 19.781 21.3372 19.5029 18.8855
threshold=208.89496757607154 1.5000000000000002 225.79443612547496 26.347614216295927 0.95261914889476429 96.544678887547576 69.268880557026662 28.000000000000004 29.500000000000004 21.971600002327996 0.77792490810432358 21.545241314578529 48.000000000000007 29.500000000000004 0.55224628111529184 35.000000000000007 700.50000000000011 37.500000000000007 1.5419785114814886 1.5000000000000002 1.0000000180025095e-35 1.0000000180025095e-35 141.25000000000003 2.5000000000000004 31.500000000000004 446.75000000000006 4812.5000000000009 180.08631828483604
decision_type=2 2 2 2 2 2 2 2 2 2 2 2 2 2 2 2 2 2 2 2 2 2 2 2 2 2 2 2
left_child=3 2 11 15 7 -3 17 14 16 -10 -7 13 -13 22 -5 19 24 -6 -14 -1 -20 -11 -2 -15 -4 -26 27 -9
right_child=1 5 8 4 6 10 -8 26 9 21 -12 12 18 23 -16 -17 -18 -19 20 -21 -22 -23 -24 -25 25 -27 -28 -29
leaf_value=-0.0038787050467312201 -0.012679606329965332 -0.007598389315888624 0.0030647454503470611 -0.0095984095213652969 -0.00080813993477925339 -0.0038985362139966461 0.0033997801607203301 -0.0083745145724871302 -0.0014395097284240453 0.0028043009189778752 0.0022155485539906315 0.0015358880202222607 2.6110392546526676e-05 -0.016512967265715807 -0.0015948596973761923 -0.0069593936919693363 0.004193581959793591 -0.0027867862733093039 -0.0023454954462069663 -0.0077952060345762072 -0.012619589474263957 -0.0020590485391734745 0.00066517227731551507 -0.0019941710358750172 -0.013330850196980212 0.00052499592288868669 -0.00025918976063516916 -0.005041565524203661
leaf_count=46714 620 20503 76040 2225 53041 9643 12298 16272 12061 77511 7624 151984 29601 509 21700 34838 144615 81947 3740 8926 1462 4959 48628 30257 616 9732 2759 19460
internal_value=0 0.0222546 0.0278006 -0.0467737 -0.0343776 -0.0647218 -0.0215748 -0.0645889 0.0436619 0.0278083 -0.0166063 0.00844762 0.0153482 -0.00766124 -0.0323994 -0.0755042 0.0501495 -0.0278305 -0.0105261 -0.0624253 -0.0724806 0.0347911 0.00688617 -0.0309477 0.0368668 -0.00415273 -0.084597 -0.0908519
internal_count=930285 630105 592335 300180 209702 37770 147286 62416 325534 94531 17267 266801 186787 80014 23925 90478 231003 134988 34803 55640 5202 82470 49248 30766 86388 10348 38491 35732
shrinkage=0.0721984


Tree=23
num_leaves=29
num_cat=0
split_feature=16 20 16 13 9 33 17 16 0 25 10 18 0 21 29 0 31 1 16 32 5 24 29 24 0 29 16 7
split_gain=833.375 258.393 157.941 89.752 72.5906 57.8049 49.4675 37.5527 26.677 25.1291 24.3361 23.1976 22.4305 21.7993 21.5485 21.1645 30.7453 25.4945 20.0734 19.9291 19.5676 25.8026 19.5444 19.5435 19.4089 19.0106 20.0032 18.4352
threshold=208.89496757607154 0.65189990517819574 224.79711874373081 26.347614216295927 0.94127085252418285 2.5000000000000004 69.268880557026662 234.82102750910693 40.500000000000007 246.25000000000003 0.88231859541638158 3.5000000000000004 35.000000000000007 3.5000000000000004 0.15546287487541907 33.000000000000007 1.5000000000000002 696.50000000000011 192.14395890694854 1.5000000000000002 70.000457763671889 11.500000000000002 1.4628069615389165 20.500000000000004 33.000000000000007 3.4357988368969763 161.47979259081646 -15.945394992828367
decision_type=2 2 2 2 2 2 2 2 2 2 2 2 2 2 2 2 2 2 2 2 2 2 2 2 2 2 2 2
left_child=3 5 9 12 10 14 8 11 -6 13 25 24 19 -3 -2 -11 17 -17 -10 -1 21 -8 -18 -13 -4 26 -5 -23
right_child=1 2 7 4 6 -7 20 -9 18 15 -12 23 -14 -15 -16 16 22 -19 -20 -21 -22 27 -24 -25 -26 -27 -28 -29
leaf_value=-0.0035353217404309437 -0.0095750646669597993 0.00029129019721433426 0.002932120950082251 -0.0073260190394298158 -0.00093728175008172382 -0.0072330911756861701 -0.001969504391571984 0.0038261110941577325 -0.0042105103322627466 0.0011495096694048193 -0.0069525604133878517 0.0017111649115943836 -0.0064677686761630401 -0.021558476750972676 -0.0009351647297446377 -0.00094275985409836337 -0.0016643925702393772 0.0013053741888464929 -0.0019323283319234966 -0.00726525935016906 0.0095499569108333515 0.0060946889689089678 -0.00797372896936651 -0.0032507588243281941 0.0013614859162447233 0.0077512894037465047 -0.0026801178333876199 -0.0041133735791774135
leaf_count=46727 1635 451 145940 6442 67348 17955 6191 128934 34261 124557 17955 10383 34835 504 18884 52355 7838 52823 48985 8887 1745 5759 3800 6879 57041 759 19314 1098
internal_value=0 0.0206626 0.0258277 -0.0433526 -0.0320031 -0.058747 -0.022359 0.0394405 -0.0277794 0.00621269 -0.0678701 0.0315058 -0.0696856 -0.155681 -0.0224882 0.00685322 -0.00281602 0.00258051 -0.0397508 -0.0572223 0.0328214 0.019521 -0.051587 -0.0036869 0.0344986 -0.0486198 -0.0532163 0.0617755
internal_count=930285 629979 591505 300306 209857 38474 165387 349177 150594 242328 44470 220243 90449 955 20519 241373 116816 105178 83246 55614 14793 13048 11638 17262 202981 26515 25756 6857
shrinkage=0.0721984


Tree=24
num_leaves=29
num_cat=0
split_feature=16 33 16 32 16 17 16 2 17 32 29 16 28 24 20 14 0 9 14 14 25 20 30 15 17 0 29 24
split_gain=721.411 164.747 156.788 96.1523 66.2794 50.6747 37.3521 33.2898 29.8182 29.9854 27.3806 23.5517 23.55 24.9251 22.9675 22.8669 24.6684 30.5938 25.9288 21.8647 20.3551 19.4675 19.3273 19.0546 17.7578 16.3935 16.3891 16.388
threshold=218.52015682316161 2.5000000000000004 190.79096346554584 1.5000000000000002 232.24011834319529 92.358678921227565 146.97140149613418 14.872067648663394 40.784327581113565 1.5000000000000002 0.633717245851387 169.67347002174591 668.25000000000011 22.500000000000004 0.53216324408916094 7.2549091827041883 29.500000000000004 0.93874149800642914 19.857721474810404 19.380993590815134 246.25000000000003 0.52116538380621436 1.0000000180025095e-35 0.35730285527921607 54.273443522723419 40.500000000000007 0.17965380430806779 4.5000000000000009
decision_type=2 2 2 2 2 2 2 2 2 2 2 2 2 2 2 2 2 2 2 2 2 2 2 2 2 2 2 2
left_child=2 4 5 7 10 6 -1 15 9 11 24 -8 13 20 -3 -4 -17 -18 -19 -6 -12 -7 -14 -10 26 -23 -2 -27
right_child=1 14 3 -5 19 21 8 -9 23 -11 12 -13 22 -15 -16 16 17 18 -20 -21 -22 25 -24 -25 -26 27 -28 -29
leaf_value=-0.0070040818406983275 -0.0091571828500394727 -0.0071423860702934027 -0.011151588864804458 -0.0055729844283747458 -0.00067391152812333187 -0.0067333404557013152 -0.0014054072624359907 0.00025961371332508678 -0.0082836891389812487 -0.0067062672633154364 -0.014045543544871225 0.0050875300332181147 0.0027479887293103476 -0.0024300427330355306 -0.0016031810555279973 0.00025213523172998254 -0.0069791636293009898 -0.0037766906308744114 -0.00099472171448088402 0.0033666484972743357 0.0013514973103203451 0.0043653308651231005 -0.00019736759601206329 -0.004066575754032375 -0.011724376779843426 0.0041200198980078668 -0.00016635735651463808 -0.0078525189403089654
leaf_count=22277 1127 10665 1243 23011 7262 1434 13812 108657 5924 4396 449 3690 104124 9991 6153 38614 5785 22170 82263 180391 139899 6072 13071 97603 799 1053 16977 1373
internal_value=0 0.0264062 -0.0293741 -0.0152442 0.0298566 -0.0546286 -0.059278 -0.00973495 -0.0525761 -0.0190508 0.0202864 -0.000505295 0.0228852 0.0146015 -0.0708579 -0.0193867 -0.0182586 -0.0258788 -0.0219576 0.0444647 0.018037 0.0145139 0.0335116 -0.0596673 -0.0164953 0.0327006 -0.0100563 -0.0367856
internal_count=930285 490908 439377 281743 474090 157634 147702 258732 125425 21898 286437 17502 267534 150339 16818 150075 148832 110218 104433 187653 140348 9932 117195 103527 18903 8498 18104 2426
shrinkage=0.0721984


Tree=25
num_leaves=29
num_cat=0
split_feature=16 32 16 13 9 12 11 0 14 0 12 9 9 20 12 16 21 25 13 12 21 17 30 0 0 11 29 21
split_gain=621.68 206.964 125.668 69.9847 53.3568 52.8711 39.5366 29.5718 27.5969 22.6381 22.0696 21.9178 21.0453 21.0102 19.9387 25.6681 19.7981 24.9829 60.6066 19.5939 24.1087 19.2176 18.8868 18.5161 17.1374 17.0431 16.7832 16.7545
threshold=207.58861045597487 1.5000000000000002 224.79711874373081 26.347614216295927 0.93400271622386055 99.033008588991081 0.66434608212399848 29.500000000000004 21.920474338829969 46.500000000000007 95.574116139070426 0.96502121873417601 0.96038333366133355 0.76807207864229621 190.68124086713195 154.86313202247194 6.5000000000000009 1036.2500000000002 44.846959195368164 98.787319574666853 1.5000000000000002 69.268880557026662 1.0000000180025095e-35 26.000000000000004 33.000000000000007 0.65161663679808857 3.4357988368969763 13.500000000000002
decision_type=2 2 2 2 2 2 2 2 2 2 2 2 2 2 2 2 2 2 2 2 2 2 2 2 2 2 2 2
left_child=3 2 10 23 9 -3 14 16 -9 26 27 24 -12 -7 15 -6 -4 -18 -19 20 -13 -17 -10 -1 -8 -14 -5 -2
right_child=1 5 7 4 6 13 11 8 22 -11 12 19 25 -15 -16 21 17 18 -20 -21 -22 -23 -24 -25 -26 -27 -28 -29
leaf_value=-0.0032568659347900659 -0.00021379233660397516 -0.0062014892434386635 0.0033403569569575168 -0.0035733838842850374 -0.0060065063433029243 -0.0031611764722578716 -0.0015755894452587041 -0.0015815590005734889 0.0021688467110448765 -0.0070482679780405526 -0.00023640361873871369 -0.0080502412920500817 0.0058166952986366443 0.0019219684131930048 0.0084676935123820605 -8.6227948769144263e-05 0.00207196378284012 -0.041371936899555969 0.001286777705489004 0.00034489778728145578 -0.0015949325208761695 0.0059188875245333181 -0.0022297945646323962 -0.0053834311927921669 -0.0042300175053316697 0.00138727198110046 0.0081144751089094712 -0.005333294244667895
leaf_count=36472 114597 21938 167690 22703 2322 9303 22582 13607 85081 12522 48875 3170 4775 7786 2101 6960 73832 237 649 29078 61973 4623 5412 51450 28908 87548 659 3432
internal_value=0 0.0171741 0.0217218 -0.0388753 -0.0284321 -0.0534099 -0.0206915 0.03418 0.0200828 -0.0633162 0.00506896 -0.0258737 0.013505 -0.0117069 0.0264851 0.0127657 0.0402339 0.0266951 -0.140227 -0.0168073 -0.0264419 0.0320025 0.0263965 -0.0623461 -0.0424644 0.0223878 -0.0449275 -0.00502304
internal_count=930285 644762 605735 285523 197601 39027 161717 346508 104100 35884 259227 145711 141198 17089 16006 13905 242408 74718 886 94221 65143 11583 90493 87922 51490 92323 23362 118029
shrinkage=0.0721984


Tree=26
num_leaves=29
num_cat=0
split_feature=16 26 30 16 20 1 17 29 11 17 24 26 16 10 16 13 17 25 13 17 11 32 2 27 25 20 29 27
split_gain=546.42 139.435 120.104 60.4796 57.3433 46.5277 43.0939 39.9787 28.285 24.2095 23.7309 23.489 21.4249 21.2073 21.5581 21.1967 19.569 17.4072 17.6171 17.2801 17.2425 16.5077 15.8517 15.5904 16.5982 15.519 15.3285 14.6988
threshold=220.11283118243588 0.73515829426619284 1.0000000180025095e-35 205.05593474299965 0.52116538380621436 663.50000000000011 80.645177954522282 0.15546287487541907 0.846432958932959 54.701644289946138 19.500000000000004 1.5836988739682529 169.67347002174591 0.99503994573229126 238.66435290420659 26.203323988230942 46.519091665895239 449.25000000000006 25.71399134601381 55.791191447663145 0.76818654318654322 1.5000000000000002 42.314144736842117 2.5000000000000004 246.25000000000003 0.57236015392123363 1.0368298039952213 13.500000000000002
decision_type=2 2 2 2 2 2 2 2 2 2 2 2 2 2 2 2 2 2 2 2 2 2 2 2 2 2 2 2
left_child=1 7 5 6 -4 10 11 -1 15 27 19 12 -3 14 -7 -9 -14 18 -12 23 -21 -10 -6 -2 -25 -17 -15 -5
right_child=2 3 4 9 22 13 -8 8 21 -11 17 -13 16 26 -16 25 -18 -19 -20 20 -22 -23 -24 24 -26 -27 -28 -29
leaf_value=-0.0070823616367896589 -0.0075917991645601396 -0.0040144108188115857 -0.0057625142599465832 0.00053099312772499638 -0.0014709373714189755 0.0024419231273163128 0.0023081210617576487 -0.0046626246816828037 -0.00074120826676390755 0.0015088086811402353 -0.01828283742201885 -0.0058656719431236359 0.0019718868364716094 -0.035635763997194585 0.0040999398681445219 -0.0054002457961543349 -0.0018756902329432087 -0.00050658131364146543 -0.0031199677133328229 -0.00034684472752851114 -0.020305943730719398 -0.0054971124943632363 0.0014788627560539296 -0.010676743138977096 0.0016923279898200356 -0.0020298430808828485 0.0081017295768243715 -0.0010915125518389506
leaf_count=14786 961 23474 12658 47904 21371 209000 11461 57290 30181 44720 581 9005 7433 128 50817 8634 94405 17294 1278 571 373 4353 17090 568 129079 40644 62 74164
internal_value=0 -0.0241954 0.0242772 -0.0120114 -0.0214332 0.0299666 -0.0268903 -0.048625 -0.043441 0.000993179 0.0159863 -0.0319127 -0.0283677 0.0380698 0.038314 -0.0515007 -0.02209 -0.0169006 -0.108851 0.0207744 -0.114036 -0.0185695 -0.00221895 0.0217487 0.0226894 -0.036294 -0.2959 -0.00629905
internal_count=930285 468454 461831 312566 51119 410712 145778 155888 141102 166788 150705 134317 125312 260007 259817 106568 101838 19153 1859 131552 944 34534 38461 130608 129647 49278 190 122068
shrinkage=0.0721984


Tree=27
num_leaves=29
num_cat=0
split_feature=1 0 20 0 32 30 1 1 23 11 21 30 6 0 22 22 11 25 17 22 29 11 0 30 28 7 24 17
split_gain=382.306 221.439 81.8578 79.3836 63.6011 49.8113 44.1781 40.8661 34.6556 31.4401 30.4714 28.9577 26.7612 25.1046 23.0136 22.5498 22.0215 20.292 28.681 19.977 19.1727 18.8287 16.7251 16.6346 15.9723 15.5501 19.9027 21.788
threshold=464.50000000000006 40.500000000000007 0.69467025845083774 29.500000000000004 1.5000000000000002 1.0000000180025095e-35 675.50000000000011 669.50000000000011 1.3887797559258477 0.87365384296767579 1.5000000000000002 1.0000000180025095e-35 0.20673335859447103 49.500000000000007 6340.7500000000009 1183.7500000000002 0.80372285816949862 1179.2500000000002 47.014252273039027 242.75000000000003 0.049968759196523972 0.81922536807594293 29.500000000000004 2.5000000000000004 660.25000000000011 -3.270487785339355 5.5000000000000009 69.268880557026662
decision_type=2 2 2 2 2 2 2 2 2 2 2 2 2 2 2 2 2 2 2 2 2 2 2 2 2 2 2 2
left_child=3 2 -2 4 9 6 -3 15 -7 19 12 17 -9 -8 -13 22 -5 24 -19 -1 -14 25 -4 -10 -12 26 -20 -28
right_child=1 5 7 16 -6 8 13 10 23 -11 11 14 20 -15 -16 -17 -18 18 21 -21 -22 -23 -24 -25 -26 -27 27 -29
leaf_value=-0.0071483784840821471 -0.0037239372783433081 -0.0020900101599867996 0.0014640481217421588 -0.0055493666528992408 -0.0052527871751296244 -0.0026066385858262448 0.0010452590912781411 -0.0069368001324346612 -0.011410889270207987 0.0013950342316708031 0.0017801152426228056 0.00018298757631605259 -0.031975031999656761 -0.0010731939095178808 -0.012743878813798029 -0.0095345998921420802 -0.0032871688557574883 0.0020222294638608906 -0.00010646678572994706 -0.0012562286005965383 0.0045632785117168508 0.002228711941526238 -9.249365285382952e-05 -0.0032021638260866531 0.0031334785356397906 -0.01142538669134459 -0.003973920349936347 -0.022865775193117707
leaf_count=3120 14258 70853 134019 39484 19599 23662 71476 1097 4023 26186 73857 26334 75 49251 738 1056 51934 23323 3645 77612 39671 2816 49191 1892 118210 1451 981 471
internal_value=0 0.011253 0.0230836 -0.0366103 -0.0203869 -0.0150228 -0.00912598 0.0253156 -0.0532182 -0.0107874 0.0326605 0.0285512 0.0579972 0.00250738 -0.00234641 0.0136497 -0.0590626 0.0322729 0.00924003 -0.0205536 0.0622497 -0.0375089 0.0144896 -0.121681 0.0361928 -0.0669152 -0.0409143 -0.139921
internal_count=930285 712350 491193 217935 126517 221157 191580 476935 29577 106918 292669 251826 40843 120727 27072 184266 91418 224754 32687 80732 39746 9364 183210 5915 192067 6548 5097 1452
shrinkage=0.0721984


Tree=28
num_leaves=29
num_cat=0
split_feature=16 33 16 16 32 17 17 1 17 9 13 11 14 7 17 7 21 19 11 13 15 24 20 11 22 15 9 16
split_gain=418.615 127.526 78.3453 64.4128 32.422 33.9272 29.7621 29.05 27.9623 25.8221 26.9081 25.6376 21.7934 20.9252 26.2676 24.7377 24.1027 22.5119 22.4156 19.3609 17.9876 17.9097 16.8234 16.1674 16.1662 18.9436 16.0134 15.9313
threshold=210.42039673399339 2.5000000000000004 228.65923329818253 180.08631828483604 1.5000000000000002 47.47616341254858 100.73746907209203 146.50000000000003 72.41317148524071 0.95261914889476429 65.375260047903922 0.71450944235195657 18.859138209854944 -14.878947734832762 58.46625826465835 -79.187698364257798 13.500000000000002 302.75000000000006 0.87191448695071894 79.175378823988424 0.25900474910455146 19.500000000000004 0.5423154497781365 0.82630996455579964 612.25000000000011 0.3856172330427014 0.90569894318339605 247.31677924445339
decision_type=2 2 2 2 2 2 2 2 2 2 2 2 2 2 2 2 2 2 2 2 2 2 2 2 2 2 2 2
left_child=3 2 7 6 5 -5 9 -2 24 -1 -11 20 21 15 16 -9 18 -18 -15 23 -10 -4 -3 -16 -7 -26 -17 -14
right_child=1 22 12 4 -6 8 -8 13 11 10 -12 -13 27 14 19 26 17 -19 -20 -21 -22 -23 -24 -25 25 -27 -28 -29
leaf_value=-0.0055164529308953511 -0.0074631862175714159 -0.0056580524924210659 0.00030235580367922259 0.0029464324653946483 -0.0042603114613259689 -0.0022347288650518939 0.0011227883540762956 -0.00036308022565938804 -0.026550998243877393 -0.0032333935139544755 0.0083565399113360236 -0.0030875293476534359 0.002270893870229948 -3.3780616333331402e-05 -0.0037182389666641086 -0.0019560184022467731 -0.027566514639841416 -0.003334508279854148 0.00151496900284694 0.0047040364172168036 0.0052478317223608063 -0.0078360314811123932 -0.0014777771867338005 -0.014477198649764022 -0.0050817207350350342 -0.00054575490686845085 0.0026596242139395711 0.0062120260153059022
leaf_count=32535 2342 14792 9502 10264 18458 86088 6730 24666 94 69974 1060 3091 252709 149757 1678 4206 207 5780 72197 735 6848 1655 7595 1286 5113 78225 57236 5462
internal_value=0 0.015356 0.0181697 -0.0293502 -0.0189986 -0.015106 -0.0488882 0.00759425 -0.0183041 -0.0530756 -0.0423894 0.0329913 0.0307384 0.00841213 0.00346437 0.0217221 0.00482091 -0.0577898 0.00650978 -0.0801291 0.0667224 -0.0125331 -0.0587251 -0.116156 -0.0213417 -0.0114137 0.0324614 0.0326084
internal_count=930285 611805 589418 318480 208181 189723 110299 320090 179459 103569 71034 10033 269328 317748 231640 86108 227941 5987 221954 3699 6942 11157 22387 2964 169426 83338 61442 258171
shrinkage=0.0721984


Tree=29
num_leaves=29
num_cat=0
split_feature=16 20 31 16 20 17 19 11 0 16 32 13 17 10 26 4 4 27 17 9 27 26 0 29 22 18 21 14
split_gain=367.575 97.6744 81.5747 59.8788 37.7441 34.2035 32.1123 29.2531 29.2381 23.7756 19.2102 17.9438 17.1198 16.5382 16.3744 15.5209 17.8733 15.2957 14.8409 14.0417 14.0134 23.9853 13.9835 29.3604 16.1215 13.8224 13.8171 15.8125
threshold=220.11283118243588 0.74800265957446821 1.5000000000000002 200.86820803565578 0.52116538380621436 85.858916731060972 710.25000000000011 0.82552442033976137 29.500000000000004 180.08631828483604 1.5000000000000002 83.911521257521585 69.268880557026662 0.99503994573229126 0.9301858144601326 5.0373446941375741 12.00056314468384 31.500000000000004 47.632259691436488 0.8476257450940996 17.500000000000004 1.9540634608481218 51.000000000000007 1.4628069615389165 598.25000000000011 3.5000000000000004 1.5000000000000002 30.041515185353919
decision_type=2 2 2 2 2 2 2 2 2 2 2 2 2 2 2 2 2 2 2 2 2 2 2 2 2 2 2 2
left_child=1 10 6 5 -4 7 8 9 -2 19 15 -9 22 14 -8 -1 -17 -10 -11 -3 -6 -22 24 -24 -5 -19 27 -7
right_child=2 3 4 12 20 26 13 11 17 18 -12 -13 -14 -15 -16 16 -18 25 -20 -21 21 -23 23 -25 -26 -27 -28 -29
leaf_value=-0.010042952522604259 0.0016695160496157659 -0.0086471867689228953 -0.0046855717185757349 -0.00073925574016092113 0.00065226084735825278 -0.012858076717321278 0.00077602570560788816 -0.00066020080688453174 0.00014859513509129377 0.0027331740408587401 -0.0048004719118946663 0.011746496521531908 0.0033712761895390801 -0.018998077856724423 0.0026708677044769637 -0.00027840999064455919 -0.0032235477803008923 -0.00051307536416440023 -0.0020937686526453971 -0.003613623455828276 -0.0010310625754859283 -0.01117917765369056 -0.00077299731336801739 -0.0077362218553670191 0.00063037537869513002 -0.007294332199967675 0.00081204100972609818 0.0096671284547670353
leaf_count=1459 144488 3065 12693 83101 28833 179 27313 36305 49061 3525 35987 618 7165 188 183388 14217 43933 3411 57160 50265 8267 1423 20347 3736 97190 2898 8313 1757
internal_value=0 -0.0197294 0.0200269 -0.0124156 -0.0176052 -0.0269357 0.0247192 -0.0307316 0.0156365 -0.038654 -0.0482456 -0.00626805 -0.00135157 0.0333268 0.0335913 -0.0372312 -0.0346752 -0.00390203 -0.0251167 -0.0540582 -0.00202248 -0.0349224 -0.00303599 -0.0256682 -1.28072e-05 -0.0502505 0.0289664 0.105051
internal_count=930285 468322 461963 372726 51216 161187 410747 150938 199858 114015 95596 36923 211539 210889 210701 59609 58150 55370 60685 53330 38523 9690 204374 24083 180291 6309 10249 1936
shrinkage=0.0721984


Tree=30
num_leaves=29
num_cat=0
split_feature=16 30 8 20 13 9 17 26 27 5 22 16 16 16 29 27 21 28 27 29 17 17 4 14 12 25 13 27
split_gain=319.177 106.167 64.7185 45.4144 40.2582 37.683 29.5897 23.9884 26.8501 24.5877 22.8539 21.7312 19.8633 19.7554 19.7234 17.2667 16.939 16.6765 16.1349 15.8678 15.8628 15.5696 17.2674 15.5639 16.8896 14.9337 14.2945 14.2024
threshold=207.58861045597487 1.0000000180025095e-35 691.50000000000011 0.74280121966596757 26.347614216295927 0.96502121873417601 66.720633559900179 1.7820729383229386 16.500000000000004 457.42314147949224 187.25000000000003 223.07865239086615 175.82668487467046 236.66695855224754 2.0090952707900773 31.500000000000004 3.5000000000000004 455.25000000000006 10.500000000000002 3.4357988368969763 69.268880557026662 53.33466169439351 20.00000095367432 18.347566418924362 269.41778489984137 6240.2500000000009 157.20411346306511 2.5000000000000004
decision_type=2 2 2 2 2 2 2 2 2 2 2 2 2 2 2 2 2 2 2 2 2 2 2 2 2 2 2 2
left_child=4 2 10 -3 -1 12 -7 -5 9 -9 16 -12 19 23 -14 21 -2 -17 -18 26 -21 27 -23 24 -4 -8 -6 -13
right_child=1 3 13 7 5 6 25 8 -10 -11 11 15 14 -15 -16 17 18 -19 -20 20 -22 22 -24 -25 -26 -27 -28 -29
leaf_value=-0.0032996515616777297 -0.00043046941122263743 -0.0037905994758772581 -0.004479484926058013 0.00050084001113868439 -0.0043095351672284964 -0.00082410946095378584 0.0031221128909847164 -0.00065061549640901535 -0.0093126645328232456 -0.051977562750060616 -0.00031370071722364672 -0.0091140917757852984 -0.0013706621860154788 0.0029529308513571951 -0.006979632652695745 -0.01059161452329941 -0.029152896491460793 -0.0006283870551671238 -0.004619386625623583 -0.0070756910163798517 0.018427187985720427 -0.019461182978746494 0.00084509088219817687 0.0016393566037058811 -0.037180499390301561 0.019283554091463012 0.0033795363080694773 0.001500574827803632
leaf_count=87921 496 29899 864 41720 33223 91903 7720 6811 2891 49 116365 661 59157 73448 3459 934 327 14032 244 208 327 393 491 244817 91 310 1310 110214
internal_value=0 0.0122594 0.0171362 -0.0215057 -0.0279009 -0.0199808 -0.00632814 -0.00349991 -0.0481546 -0.0140895 0.00488089 0.00552187 -0.0339478 0.0265098 -0.0232763 0.0145821 -0.141151 -0.0173158 -0.258582 -0.0530025 0.117898 0.0188536 -0.113333 0.0222093 -0.105203 0.0518852 -0.0556502 0.0199076
internal_count=930285 644747 563377 81370 285538 197617 99933 51471 9751 6860 244157 243090 97684 319220 62616 126725 1067 14966 571 35068 535 111759 884 245772 955 8030 34533 110875
shrinkage=0.0721984


Tree=31
num_leaves=29
num_cat=0
split_feature=16 20 0 30 19 26 20 16 19 27 13 9 11 21 0 21 25 30 30 16 0 9 13 25 10 4 19 22
split_gain=275.851 81.4012 57.4456 56.2361 49.7062 30.9604 29.7683 25.1178 24.5577 25.456 23.0365 20.2109 32.3506 19.2072 18.1815 18.0063 16.9938 16.5832 15.9542 17.3969 15.525 18.3404 15.1354 15.0604 14.3257 14.1754 13.3414 12.9643
threshold=220.89602323769188 0.74800265957446821 49.500000000000007 1.0000000180025095e-35 588.25000000000011 1.4327785754371136 0.49663422459742779 186.31802184269375 557.75000000000011 32.500000000000007 23.784917473545914 0.9420049622793526 0.65488672961499061 1.5000000000000002 33.000000000000007 1.5000000000000002 6967.2500000000009 1.0000000180025095e-35 1.5000000000000002 168.4690692060876 22.000000000000004 0.93874149800642914 67.148388966204976 1549.2500000000002 0.84433893956984762 5.0373446941375741 532.25000000000011 406.25000000000006
decision_type=2 2 2 2 2 2 2 2 2 2 2 2 2 2 2 2 2 2 2 2 2 2 2 2 2 2 2 2
left_child=1 18 4 8 10 7 -5 -4 9 15 -3 13 22 -6 -10 24 20 -7 19 -1 -12 -22 -13 -15 -2 -21 -9 -11
right_child=3 2 5 6 11 17 -8 26 14 27 16 12 -14 23 -16 -17 -18 -19 -20 25 21 -23 -24 -25 -26 -27 -28 -29
leaf_value=-0.0041483334771542152 -0.0019564104607901387 -0.0031030585910219494 -0.0041163936956531404 -0.0042538594927838697 0.002765498304013118 -0.0043487113457311615 -3.7171202306327717e-05 -0.0037920548958135882 0.0022246316772145018 -0.014097660476579531 0.00036853129952740609 0.0034460247732744486 0.00068706627816526606 -0.0009848080807972827 0.0010167977071049007 0.0010887328016279626 -0.020786688113572364 -0.010871823745003548 -0.0046532063984401784 -0.0072252732165863903 -0.0058985305891936825 -0.001060674456510223 0.010151454590685834 -0.0054793233602280136 -0.016951914382929558 -0.0014843039981395636 -0.0005099934790588021 -0.0024021332399677474
leaf_count=23365 1009 26760 19647 11374 5809 6692 37500 7714 221650 523 43610 10046 105918 20450 91898 73229 221 2917 24550 2354 4289 85744 2126 4798 495 47086 39588 8923
internal_value=0 -0.0165626 -0.0100503 0.0179044 -0.00398821 -0.034579 -0.0141067 -0.0269605 0.0218381 0.00667276 -0.0161946 0.00915746 0.0151272 -0.0135418 0.0259095 0.0128552 -0.0108401 -0.0876603 -0.0424051 -0.0349714 -0.010382 -0.0178832 0.0639518 -0.0254704 -0.0954559 -0.0243447 -0.0144772 -0.0422403
internal_count=930285 483684 386329 446601 309771 76558 48874 66949 397727 84179 160624 149147 118090 31057 313548 74733 133864 9609 97355 72805 133643 90033 12172 25248 1504 49440 47302 9446
shrinkage=0.0721984


Tree=32
num_leaves=29
num_cat=0
split_feature=16 26 0 32 16 28 28 27 30 0 17 27 0 14 26 26 13 11 13 4 29 18 17 11 16 17 11 17
split_gain=241.222 80.1841 46.8659 34.2724 33.9161 25.1215 25.014 22.7058 21.935 21.6161 20.1576 19.6189 19.0217 18.1393 17.8567 17.7063 17.4286 17.4238 20.6166 17.1843 18.1428 17.0683 16.2712 19.6895 14.8311 18.1987 17.3344 12.5318
threshold=207.58861045597487 0.76303925662554384 33.000000000000007 1.5000000000000002 173.46503964823532 692.25000000000011 306.25000000000006 14.500000000000002 1.0000000180025095e-35 33.000000000000007 56.653984648512342 30.500000000000004 35.000000000000007 21.161619356280976 1.4079184875546269 2.342034482758621 26.203323988230942 0.82552442033976137 67.148388966204976 15.00030040740967 1.0147150949709582 2.5000000000000004 57.242373117809819 0.74351250601250618 230.36788583763044 61.917999946895101 0.83059806605439779 100.73746907209203
decision_type=2 2 2 2 2 2 2 2 2 2 2 2 2 2 2 2 2 2 2 2 2 2 2 2 2 2 2 2
left_child=4 3 6 12 17 11 19 -8 -7 16 15 -4 22 -12 -10 -11 -6 27 -19 20 21 -3 -2 -24 25 -9 -27 -1
right_child=1 2 5 -5 9 8 7 24 14 10 13 -13 -14 -15 -16 -17 -18 18 -20 -21 -22 -23 23 -25 -26 26 -28 -29
leaf_value=-0.0037488229964665488 0.00057117692781317813 0.002809941940055201 -0.00027814107807414646 -0.0035046563264538627 -0.0018017359861842539 0.0014248915861789435 0.0022586035220405034 0.00036114508880084743 0.00024394033974166256 -0.0024970903422457855 -0.0033672889334139893 -0.003524870726220531 -0.0025602971084908843 0.00018236374052954242 -0.0053304698899572182 -0.012400089848970395 0.0003870118806435489 -0.001498286851431427 0.010261642723618784 0.0060745586240383296 -0.028868799271314322 -0.024462362869465938 0.0017031123404140181 -0.012900811782309804 0.0017783348409596558 0.0068114158881030533 -0.012205121492296722 -0.00011029559523511828
leaf_count=63774 48966 349 84428 24858 28756 84128 157699 106163 8328 69771 9758 10961 15698 32490 4678 954 55690 18067 812 284 295 182 892 1045 92130 3512 269 5348
internal_value=0 0.0105734 0.0151066 -0.0168561 -0.0243438 0.00250721 0.0218281 0.0222905 0.0138272 -0.0170658 -0.0261127 -0.00901984 -0.00502975 -0.00882981 -0.024392 -0.0364367 -0.00496288 -0.040671 -0.0137466 -0.128058 -0.201016 -0.0905509 0.00435526 -0.0855368 0.0152725 0.00743013 0.0756039 -0.0480247
internal_count=930285 644865 553406 91459 285420 192523 360883 359773 97134 197419 112973 95389 66601 42248 13006 70725 84446 88001 18879 1110 826 531 50903 1937 202074 109944 3781 69122
shrinkage=0.0721984


Tree=33
num_leaves=29
num_cat=0
split_feature=16 23 20 0 0 19 30 29 17 28 11 16 28 23 27 5 14 17 11 8 27 24 28 9 29 7 11 4
split_gain=210.501 59.3831 43.1549 36.0418 31.589 30.2073 27.0553 23.9224 20.7374 19.1647 18.284 18.2285 17.6864 17.511 16.8708 19.2758 16.1798 16.0919 18.8087 15.3661 16.9935 17.7472 14.5303 13.5398 15.2427 14.7038 14.904 13.1822
threshold=214.48388884769392 0.76981975049892892 0.74800265957446821 49.500000000000007 35.000000000000007 501.25000000000006 1.5000000000000002 1.5419785114814886 76.258538821231397 658.25000000000011 0.83699346630381133 186.31802184269375 4209.7500000000009 0.32556588113005575 31.500000000000004 20.788308143615726 17.38373634291651 57.242373117809819 0.66122607551178991 154.50000000000003 47.500000000000007 31.500000000000004 306.25000000000006 0.94451698129287942 3.4357988368969763 -57.960309982299798 0.545649484457433 14.00000047683716
decision_type=2 2 2 2 2 2 2 2 2 2 2 2 2 2 2 2 2 2 2 2 2 2 2 2 2 2 2 2
left_child=2 6 -1 5 9 10 17 11 13 14 12 -5 -4 -7 22 -16 -6 19 -19 -2 -21 -22 27 24 25 -10 -27 -3
right_child=1 4 3 7 16 8 -8 -9 23 -11 -12 -13 -14 -15 15 -17 -18 18 -20 20 21 -23 -24 -25 -26 26 -28 -29
leaf_value=-0.0027577844960804988 -0.0067099014997546594 -0.013311768512515348 -0.0021199082782597995 -0.0036992685420723032 -0.0071487449034156169 -0.011567523264735643 -0.0033824154030410443 -0.0064190293040364823 -0.0091320312374072853 0.0020573274019630139 7.0266762547427621e-05 -0.0010066363884759138 -0.017786389158917941 -3.3762758053318176e-05 -0.023592413322711565 -0.00072688319463078664 0.00029965251958509156 0.0070557509161402439 -0.014820479960104901 0.0004206433440734761 -0.037101750995643945 0.0042125431606103115 0.0012988303001764455 0.0043641979506922769 0.013185414243174333 0.0073805999315464076 -0.0033909383569808772 0.0057509519511770909
leaf_count=84276 1690 654 59741 19821 1538 690 19899 6882 1062 174980 26092 38681 378 123259 194 20463 131420 279 771 41241 128 94 163058 9537 384 1103 1704 266
internal_value=0 0.0124014 -0.0182835 -0.0124832 0.0161273 -0.00645251 -0.0162292 -0.033139 0.00273576 0.0209966 -0.0211326 -0.0265785 -0.0307266 -0.00135694 0.0138899 -0.0130422 0.00295703 -0.00244504 -0.124763 0.000531193 0.00434088 -0.271589 0.0172827 0.0395223 -0.00740043 -0.0262608 0.0116581 -0.108038
internal_count=930285 556675 373610 289334 492573 223950 64102 65384 137739 359615 86211 58502 60119 123949 184635 20657 132958 44203 1050 43153 41463 222 163978 13790 4253 3869 2807 920
shrinkage=0.0721984


Tree=34
num_leaves=29
num_cat=0
split_feature=16 23 30 9 11 22 9 16 21 2 23 32 18 24 19 21 10 19 27 25 21 11 2 13 27 16 6 13
split_gain=184.389 57.9524 40.4153 27.2682 46.9059 31.0737 20.5087 20.2674 19.7423 19.5087 17.4814 15.9011 15.8108 18.1657 20.0142 14.7378 14.3205 12.9099 12.857 19.8364 13.3026 12.8419 12.0372 11.6716 17.4666 11.1141 11.1082 10.7602
threshold=220.89602323769188 0.7849343156188161 1.0000000180025095e-35 0.9544165290433948 0.66434608212399848 596.25000000000011 0.96207941251658624 238.93436639942567 1.5000000000000002 39.20344827586208 1.3590034714226431 1.5000000000000002 3.5000000000000004 20.500000000000004 354.75000000000006 9.5000000000000018 0.99503994573229126 227.75000000000003 14.500000000000002 246.25000000000003 3.5000000000000004 0.846432958932959 38.715633423180599 67.148388966204976 2.5000000000000004 164.32930020283979 0.26212291747235933 26.347614216295927
decision_type=2 2 2 2 2 2 2 2 2 2 2 2 2 2 2 2 2 2 2 2 2 2 2 2 2 2 2 2
left_child=1 6 7 10 23 8 25 12 -6 -4 -3 21 -2 17 -15 -7 -9 -14 19 20 -10 27 -12 24 -5 -1 -25 -8
right_child=2 3 9 4 5 15 11 16 18 -11 22 -13 13 14 -16 -17 -18 -19 -20 -21 -22 -23 -24 26 -26 -27 -28 -29
leaf_value=-0.0047482650682888154 0.0012401236141970173 -0.0010661765560292767 -0.0021000746262807889 -0.01177545483210937 -0.0045492239940223764 0.00030488188056676361 -0.0026249848915334134 0.0026600895772445751 -0.0026874596769511571 0.00083054943239529013 -0.0050172652133777902 -0.0039932205571707432 -0.034989006788016509 -0.02237684610652118 -0.0023941999346991554 0.0034457214454528353 -0.026825440996550633 0.0010418020281286575 -0.0015469121594911025 0.00024789888636382194 -0.019554227428631509 8.5245764252468278e-05 -0.00055015892948957149 -0.02029899613553756 0.0035952405889735049 -0.002556238725428647 0.010870485148697793 -0.00058494279348560662
leaf_count=16757 317491 63110 28890 397 8201 106471 32419 53022 556 20063 11224 11465 52 268 10402 8402 86 16417 63513 45865 434 29604 4368 62 13154 42987 1539 23066
internal_value=0 -0.0135179 0.0146615 -0.00595302 -0.000817245 -0.00431681 -0.0293591 0.0179985 -0.0156729 -0.0124515 -0.0221753 -0.0203485 0.0151963 -0.00797065 -0.0401132 0.00740471 0.0361828 0.012854 -0.0121555 0.000410635 -0.139637 -0.0156379 -0.0521595 0.0530994 0.0435596 -0.0439215 0.133845 -0.0246114
internal_count=930285 483594 446691 327296 248594 233442 156298 397738 118569 48953 78702 96554 344630 27139 10670 114873 53108 16469 110368 46855 990 85089 15592 15152 13551 59744 1601 55485
shrinkage=0.0721984


Tree=35
num_leaves=29
num_cat=0
split_feature=16 33 0 14 0 1 14 23 9 28 31 26 17 7 5 21 28 18 6 25 20 20 8 10 11 13 13 24
split_gain=159.161 61.8411 42.2076 29.726 29.4091 29.0772 22.8435 18.8959 18.8655 17.9506 16.8486 23.5354 14.1414 17.4541 13.722 13.7004 13.1065 48.7809 35.6477 26.0083 26.1968 41.3405 20.7581 17.1335 13.717 13.0608 13.0456 12.8361
threshold=205.05593474299965 2.5000000000000004 33.000000000000007 21.545241314578529 29.500000000000004 146.50000000000003 19.704770929027518 0.81266729545481697 0.96429235509748723 658.25000000000011 1.5000000000000002 1.4079184875546269 92.358678921227565 -55.304843902587884 27.000001907348636 13.500000000000002 998.25000000000011 1.5000000000000002 0.43181821035995632 1127.2500000000002 1.1328739156091243 0.87058022118929335 1441.5000000000002 0.99503994573229126 0.74351250601250618 34.505759808289305 79.175378823988424 2.5000000000000004
decision_type=2 2 2 2 2 2 2 2 2 2 2 2 2 2 2 2 2 2 2 2 2 2 2 2 2 2 2 2
left_child=4 2 5 15 7 -2 -6 -1 -8 -7 14 -12 -9 -14 -5 27 -11 23 -19 -20 21 -21 24 -18 -23 -10 -3 -4
right_child=1 26 3 10 6 9 8 12 25 16 11 -13 13 -15 -16 -17 17 18 19 20 -22 22 -24 -25 -26 -27 -28 -29
leaf_value=-0.0014545989125455368 -0.0058339249850197531 -0.0033801398114383977 -0.0081600302534309277 -0.0012971821844250753 -0.003302752502135034 0.00075966632760464891 -0.0026602236767063522 0.00017683479696296113 -0.0015182548010293211 0.0021099431373988579 0.00015538879534206438 -0.0051809824199797166 -0.0050663555776477845 0.0073281035953957638 0.00077369614445687033 -0.0076350255381028558 0.0017408263588947778 0.0027988921528804963 -0.0011754208871403698 -0.0059128760304318368 -0.0030611495000073944 -0.012097347867331139 -0.0091244081913010137 -0.020633481480082858 -0.034974567373367488 0.00060900624933799962 0.0029926621694760782 -0.0012845748813582738
leaf_count=52642 3077 23306 1474 18773 55140 218586 43059 41594 39285 134899 12166 6670 741 2950 149513 2040 53495 2709 2361 1195 1425 169 320 179 713 24382 1804 35618
internal_value=0 0.00821269 0.010107 -0.0008998 -0.0209425 0.0160487 -0.0292181 -0.00726347 -0.0206792 0.016765 0.00434192 -0.0240209 0.0077134 0.0670349 0.00751653 -0.0259647 0.0236759 0.0117131 -0.0568891 -0.0987994 -0.149775 -0.213609 -0.344553 0.0230782 -0.423708 -0.00974531 -0.0404759 -0.0215766
internal_count=930285 670492 645382 226254 259793 419128 161866 97927 106726 416051 187122 18836 45285 3691 168286 39132 197465 62566 8892 6183 3822 2397 1202 53674 882 63667 25110 37092
shrinkage=0.0721984


Tree=36
num_leaves=29
num_cat=0
split_feature=16 20 0 29 13 29 29 19 7 11 19 9 11 16 30 10 24 25 25 2 17 17 14 0 16 16 21 18
split_gain=140.313 49.3337 43.8012 31.0348 29.0647 28.5528 24.3903 21.4642 18.5526 19.9267 23.6134 18.1402 16.2943 15.7049 15.9489 14.2906 14.1883 18.577 13.8875 13.8397 14.3344 13.6688 13.5204 12.3165 12.2868 11.0418 10.4981 10.196
threshold=223.07865239086615 0.74800265957446821 48.000000000000007 0.17965380430806779 24.806964975251969 1.5419785114814886 0.12488275445021509 575.75000000000011 -12.079821109771727 0.83613681162700781 880.25000000000011 0.95505830136800307 0.64836151724342128 244.81279198498632 1.0000000180025095e-35 0.99503994573229126 20.500000000000004 645.25000000000011 902.25000000000011 62.40312500000001 52.813165001322794 63.056622562118584 52.796552320999844 29.500000000000004 162.8624426605505 195.74700330175139 13.500000000000002 3.5000000000000004
decision_type=2 2 2 2 2 2 2 2 2 2 2 2 2 2 2 2 2 2 2 2 2 2 2 2 2 2 2 2
left_child=1 18 4 -2 26 7 -6 -4 11 -10 21 -8 -13 14 16 -15 23 27 -1 20 -7 -11 -14 -5 -9 -12 -3 -18
right_child=3 2 5 13 6 19 8 24 9 10 25 12 22 15 -16 -17 17 -19 -20 -21 -22 -23 -24 -25 -26 -27 -28 -29
leaf_value=-0.0017850346646789718 -0.0044229027039488387 -0.0018239594413876048 -0.0029689731088455053 0.0015955329834926133 -0.010465799040843706 -0.0093766682451377256 -0.00021534100954990733 -0.004287029483273825 -0.00082689214345844605 0.00038687696609932394 0.011056783118753922 0.00426322491644759 0.0013261206586621906 0.0037734138672945857 -0.00042883343061230622 -0.02826338481096756 -0.0003156683145565148 0.0019198176984667294 -0.0038934354869728511 0.0021265777913720202 -0.0037970660492461766 -0.0096559665624816431 -0.017722155046959499 0.00064016468146231987 -0.00029332256263472922 0.0033777360006894707 -0.011355994886604987 -0.0039436854829079191
leaf_count=81447 5406 34431 28304 217335 1111 4065 36499 4315 105303 76722 1166 11529 49701 12569 36720 73 8847 10534 20354 1200 5860 713 195 103998 57855 5992 613 7428
internal_value=0 -0.0107875 -0.00605706 0.0139977 -0.0003758 -0.0241732 0.00292286 -0.0182947 0.00349369 -0.00227169 0.00915744 0.014674 0.0251657 0.0150212 0.013882 0.0497022 0.0159727 -0.00612898 -0.0305628 -0.0719803 -0.0842444 0.00407773 0.0173366 0.0178166 -0.007902 0.0641096 -0.0275726 -0.0273069
internal_count=930285 527375 425574 402910 323975 101599 288931 90474 287820 189896 84593 97924 61425 397504 384862 12642 348142 26809 101801 11125 9925 77435 49896 321333 62170 7158 35044 16275
shrinkage=0.0721984


Tree=37
num_leaves=29
num_cat=0
split_feature=16 16 32 20 0 17 11 14 11 17 14 5 16 7 9 17 17 8 0 14 28 8 24 5 7 17 11 8
split_gain=121.236 42.0993 30.2037 28.142 23.3768 24.2939 18.5684 20.6232 17.8543 17.2864 16.4199 15.4801 15.4078 15.2604 17.265 18.6038 14.1145 13.1328 12.5713 14.0352 11.8909 11.4179 11.3278 11.306 11.2431 25.1741 12.1269 12.5481
threshold=222.01052231882906 181.95799572064965 1.5000000000000002 0.34068884395127647 40.500000000000007 51.034197900960642 0.86847949324657414 19.857721474810404 0.82552442033976137 44.008740068005082 8.467301907376326 56.000003814697273 238.16701257918783 -16.571418762207028 0.95100362614856027 69.268880557026662 100.73746907209203 2606.5000000000005 29.500000000000004 21.330474808958705 4501.7500000000009 121.50000000000001 10.500000000000002 60.002210617065437 -19.98310565948486 54.19193433916265 0.77489799472558107 1145.5000000000002
decision_type=2 2 2 2 2 2 2 2 2 2 2 2 2 2 2 2 2 2 2 2 2 2 2 2 2 2 2 2
left_child=1 8 4 -2 9 -6 7 -7 16 -3 -11 -10 18 14 -12 20 -1 22 21 -20 -16 -5 -18 -24 -23 -26 -27 -28
right_child=3 2 -4 12 5 6 -8 -9 11 10 13 -13 -14 -15 15 -17 17 -19 19 -21 -22 24 23 -25 25 26 27 -29
leaf_value=-0.0026693726782293799 -0.0032862477198318443 0.004756508073038835 -0.0025402686642112563 -0.018231982916165713 -0.0030862997070811547 -0.0037367538840349618 0.0014893855727138164 -0.00053202057867301035 -0.00065670780423385808 -0.0056884266441898715 -0.00074931489976066403 0.0081540361261036483 0.0019570354961223452 -0.00014222467927559363 0.0014749650874468457 0.0057093015001764046 -0.0051127524050550112 0.0058120002820777903 -0.0018615217003642398 0.00048873428035163492 -0.018127775654438343 0.0019721663782008695 0.0031957348395759725 -0.031894817521249869 0.00089795872653812266 -0.00011382742252218947 -0.019066449672028651 3.7945282851833511e-05
leaf_count=84985 8197 4437 31280 159 22259 11747 20498 96068 25293 2438 16571 1084 70659 139259 37353 6035 2099 1948 15117 106942 162 59536 2059 49 162614 537 653 247
internal_value=0 -0.0104102 -0.00538914 0.0125084 -0.00277722 -0.0122504 -0.00695989 -0.0122052 -0.0269927 0.00413843 0.00278101 -0.00408067 0.0136505 0.00377844 0.0170934 0.0275467 -0.0336237 0.0126182 0.010901 0.00273767 0.0192569 0.0153543 -0.0188139 0.0329656 0.0155448 0.0112729 -0.120504 -0.191463
internal_count=930285 505624 388107 424661 356827 150572 128313 107815 117517 206255 201818 26377 416464 199380 60121 43550 91140 6155 345805 122059 37515 223746 4207 2108 223587 164051 1437 900
shrinkage=0.0721984


Tree=38
num_leaves=29
num_cat=0
split_feature=16 30 8 0 0 22 2 29 23 10 25 17 14 26 21 0 16 17 13 16 9 26 5 28 28 6 24 0
split_gain=107.163 45.5716 33.7043 21.5277 20.1672 18.7505 18.1167 20.8128 19.4015 17.248 15.6277 15.5288 14.6198 16.107 14.5952 14.5293 14.0082 18.0542 15.2362 13.9423 12.9757 11.8174 11.6815 22.2434 11.3179 11.1849 11.168 11.0852
threshold=203.46944103194105 1.0000000180025095e-35 694.50000000000011 29.500000000000004 29.500000000000004 187.25000000000003 40.215838509316775 1.90239649563017 0.86246520469821453 0.99503994573229126 902.25000000000011 85.858916731060972 19.704770929027518 1.3304764809209788 15.500000000000002 48.000000000000007 146.97140149613418 53.720397978350022 37.223579006177395 97.616917881368508 0.97068425223603005 1.748923984573348 232.00325012207034 26933.000000000004 416.25000000000006 0.90000000301578342 10.500000000000002 35.000000000000007
decision_type=2 2 2 2 2 2 2 2 2 2 2 2 2 2 2 2 2 2 2 2 2 2 2 2 2 2 2 2
left_child=3 2 4 11 5 24 7 8 -3 22 -7 16 -5 25 -6 26 -1 18 -18 -15 -13 -11 23 27 -2 -14 -9 -4
right_child=1 6 9 12 14 10 -8 15 -10 21 -12 20 13 19 -16 -17 17 -19 -20 -21 -22 -23 -24 -25 -26 -27 -28 -29
leaf_value=-0.0034614396434623595 -0.016241464470777157 -0.002578758167431288 0.0014638716653229886 -0.00278164314835176 -0.00060499352938371922 0.00074203059755796282 0.0005410042070354903 -0.0016892360563444684 9.7379654831650727e-05 -0.026575057136460131 -0.004402129929637213 0.0010857813785712029 -0.00052846546953147424 0.010369064472440901 -0.00836307166711402 -0.012224981476696144 -0.00013480194985775082 -0.0019632612914222535 0.0033394983549556983 -0.0040367127717837823 0.0082546804546242362 0.011450115422160087 0.004826071270941765 -0.050182344574790871 -0.00043742368849646924 -0.0026029044264184249 -0.010038874822576538 0.00057658853903917479
leaf_count=8605 550 29698 210676 53479 101298 162019 25938 3299 26923 189 3138 5647 68726 360 1280 1408 43597 25416 7749 12866 1716 55 4564 44 414 16875 1118 112638
internal_value=0 0.00647091 0.00960904 -0.0178955 0.00130445 0.00811222 -0.0147212 -0.0239484 -0.0180928 0.0164088 0.0089239 -0.00588304 -0.0252092 -0.018002 -0.00972046 -0.0808669 -0.00968354 -0.00539461 0.00539527 -0.0504804 0.0381801 -0.249366 0.0166065 0.0158974 -0.130948 -0.0129838 -0.0526693 0.0159942
internal_count=930285 685249 596865 245036 268699 166121 88384 62446 56621 328166 165157 92730 152306 98827 102578 5825 85367 76762 51346 13226 7363 244 327922 323358 964 85601 4417 323314
shrinkage=0.0721984


Tree=39
num_leaves=29
num_cat=0
split_feature=16 26 28 27 12 29 28 10 29 11 1 7 9 16 30 29 19 24 27 27 1 13 7 16 11 33 21 21
