tree
version=v2
num_class=1
num_tree_per_iteration=1
label_index=0
max_feature_idx=33
objective=regression
feature_names=Column_0 Column_1 Column_2 Column_3 Column_4 Column_5 Column_6 Column_7 Column_8 Column_9 Column_10 Column_11 Column_12 Column_13 Column_14 Column_15 Column_16 Column_17 Column_18 Column_19 Column_20 Column_21 Column_22 Column_23 Column_24 Column_25 Column_26 Column_27 Column_28 Column_29 Column_30 Column_31 Column_32 Column_33
feature_infos=[7:53] [1:328009] [0:32783.699999999997] [0:1] [0:542] [0:900.39019775390625] [0:1] [-90:90] [1:389911] [0.22222222222222221:1] [0:1] [0.11851851851851852:1] [0:3935.8519471906084] [0:1059.5611181807872] [0:575.93985377114132] [0:1] [0:255] [0:125.71669539086685] [1:8] [50:328009] [9.2613459205314771e-06:26.586834733893557] [1:22] [50:328009] [9.2613459205314771e-06:33.644680851063832] [1:39] [53.5:328009] [9.2613459205314771e-06:123.60573476702508] [1:67] [79:328009] [9.2613459205314771e-06:214.78481012658227] [0:3] [1:18] [1:18] [0:3]
tree_sizes=2662 2768 2788 2763 2747 2748 2752 2759 2784 2761 2762 2802 2789 2751 2764 2784 2764 2805 2754 2764 2762 2783 2781 2783 2765 2787 2771 2784 2803 2779 2787 2790 2788 2776 2790 2776 2783 2764 2798 2776 2736 2758 2777 2764 2782 2773 2770 2765 2765 2769 2779 2774 2753 2762 2778 2778 2769 2780 2758 2788 2762 2788 2787 2767 2771 2747 2767 2740 2765 2761 2737 2757 2777 2772 2766 2740 2775 2760 2776 2756

Tree=0
num_leaves=32
num_cat=0
split_feature=16 32 16 16 32 20 32 16 16 16 16 20 2 0 29 16 0 29 16 1 23 8 29 0 16 29 16 16 29 16 6
split_gain=22934.8 6131.39 3035.19 2832.9 1653.62 1379.55 748.757 417.302 364.3 357.998 341.471 176.934 160.886 135.815 128.176 124.546 102.729 90.7555 81.3492 80.6227 76.1404 75.3228 69.4619 61.671 57.6755 49.368 42.6591 42.5832 38.48 47.6433 37.5828
threshold=215.01719588754437 1.5000000000000002 195.11974785674195 228.58139792899411 1.5000000000000002 0.63847183915652816 1.5000000000000002 234.7125493019177 173.53932239578862 223.1565625898821 207.16170967299519 0.66915053402222724 33.559411764705892 35.000000000000007 0.53622864946996895 231.94075364563173 40.500000000000007 0.76925066656054775 239.80631392791145 466.50000000000006 0.60243655073467572 558.50000000000011 0.73730207028220285 33.000000000000007 218.78161108711009 0.59491652099009407 230.97162294388323 189.27661982825921 0.78457064342972693 103.18260775985767 0.17303668040265793
decision_type=2 2 2 2 2 2 2 2 2 2 2 2 2 2 2 2 2 2 2 2 2 2 2 2 2 2 2 2 2 2 2
left_child=2 3 6 9 10 14 8 26 12 24 19 25 16 17 -3 -7 22 -10 -9 -4 -8 -12 -1 -21 -2 -6 -5 -15 -14 -30 -20
right_child=1 5 4 7 11 15 20 18 13 -11 21 -13 28 27 -16 -17 -18 -19 30 23 -22 -23 -24 -25 -26 -27 -28 -29 29 -31 -32
leaf_value=0.5142647617227355 0.5335341989626966 0.50384184222001493 0.52288746831887867 0.5418793767696809 0.50403686834591821 0.52664031208122319 0.50372058644037432 0.54660553988228333 0.52004103218873909 0.53925903272339615 0.52823227336379641 0.51975676341126831 0.5173647624869796 0.51666101204143389 0.5133690648173912 0.53867531506622157 0.51138749130477834 0.52548174497721634 0.53548096924952504 0.52911128343738079 0.51224329365661403 0.53160684581704143 0.51952043558283545 0.52533430375886891 0.53591857338977988 0.51194680987255714 0.54396533216878085 0.52029121821696989 0.53759305103325528 0.52293363156324335 0.54975768948849324
leaf_count=27832 55149 13629 26416 51272 9186 6798 14500 80646 21409 110068 32526 3983 2902 28540 6613 4510 29952 17626 589 20495 4281 58126 11088 40700 76163 3412 77849 15845 853 3873 44998
internal_value=0 0.134018 -0.189728 0.161169 -0.103402 -0.293454 -0.283852 0.234592 -0.26167 0.0834951 -0.0753058 -0.405467 -0.31151 -0.215964 -0.449746 -0.013683 -0.326772 -0.172938 0.275477 -0.119826 -0.472738 -0.0322792 -0.292892 -0.099895 0.0482363 -0.463551 0.194621 -0.253803 -0.173712 -0.118055 0.309242
internal_count=901829 528284 373545 496734 194844 31550 178701 255354 159920 241380 178263 16581 76500 83420 20242 11308 68872 39035 126233 87611 18781 90652 38920 61195 131312 12598 129121 44385 7628 4726 45587
shrinkage=1


Tree=1
num_leaves=32
num_cat=0
split_feature=16 20 16 16 30 20 20 30 16 16 16 16 30 0 0 33 30 19 33 1 9 1 16 20 16 13 1 0 16 16 30
split_gain=20439.3 5087.34 2724.6 2584.78 1205.73 1145.16 523.921 420.042 382.192 313.583 274.727 251.753 243.989 142.367 121.082 109.256 109.069 100.476 96.1116 78.2753 77.1868 76.1778 60.8958 59.0908 56.2268 55.4154 54.9714 52.2092 51.3208 50.2455 48.798
threshold=215.01719588754437 0.59589454202951253 195.11974785674195 228.58139792899411 1.0000000180025095e-35 0.63031211071048865 0.61340905259190948 1.0000000180025095e-35 236.17934905626666 223.1565625898821 207.16170967299519 174.68355815287731 1.0000000180025095e-35 43.000000000000007 37.500000000000007 2.5000000000000004 1.0000000180025095e-35 694.25000000000011 2.5000000000000004 364.50000000000006 0.93927869633297867 500.50000000000006 232.10300768882863 0.78222040964292205 245.70614101852649 30.622421046888231 438.50000000000006 40.500000000000007 163.02285614803029 218.78161108711009 1.0000000180025095e-35
decision_type=2 2 2 2 2 2 2 2 2 2 2 2 2 2 2 2 2 2 2 2 2 2 2 2 2 2 2 2 2 2 2
left_child=2 4 6 9 -2 7 12 -4 16 15 25 13 28 17 21 29 22 -8 -11 -6 -19 -13 -5 -18 30 -7 -12 -27 -1 -3 -10
right_child=1 3 5 8 19 10 11 -9 24 18 26 14 -14 -15 -16 -17 23 20 -20 -21 -22 -23 -24 -25 -26 27 -28 -29 -30 -31 -32
leaf_value=-0.020159924450787913 0.003068598029274533 0.0012373088349857822 -0.008502436895097552 0.0097575286902096894 -0.027186482949974021 -0.0082140166938729445 -0.015319305542877372 -0.024614767783758082 0.014925995980668492 0.006589703446543289 -0.0050072855410839808 -0.011183798276725641 -0.026359190006899111 -0.01918680096550476 -0.013408413716703661 -0.012123075246122795 -0.0049418233319398781 -0.014233404614280498 -0.0087746079522382382 -0.019816856492370576 -0.0033890395661483833 -0.0059355018315921599 0.012048822089962616 0.0068635860548467735 0.019122246643466664 -0.0032702782682879597 -0.0011923291595252598 -0.0067545263862562894 -0.014591826647005304 0.0034732025623676658 0.010216457386075089
leaf_count=9484 6885 54539 8788 69886 11728 29631 32445 12162 84572 109434 14141 19841 15593 26620 39168 1623 1544 3850 1299 7419 4475 15558 76725 9966 9294 24476 75469 30405 11607 75645 7557
internal_value=0 0.126789 -0.178817 0.149138 -0.304248 -0.0971066 -0.268042 -0.317993 0.218498 0.0749147 -0.07053 -0.240512 -0.374575 -0.284811 -0.200478 0.0419572 0.187764 -0.247671 0.114144 -0.433303 -0.149667 -0.158091 0.195123 0.0940293 0.266412 -0.111432 -0.0319551 -0.0926162 -0.304451 0.0451718 0.258933
internal_count=901829 528116 373713 502084 26032 195072 178641 20950 259544 242540 174122 141957 36684 67390 74567 131807 158121 40770 110733 19147 8325 35399 146611 11510 101423 84512 89610 54881 21091 130184 92129
shrinkage=0.0561523


Tree=2
num_leaves=32
num_cat=0
split_feature=16 20 16 16 30 20 30 20 16 16 16 0 30 29 16 30 30 29 30 13 16 20 16 16 20 8 29 16 20 14 0
split_gain=18197.8 4575.24 2399.28 2298.39 1092.51 1014.17 426.573 415.503 343.265 309.282 301.867 216.574 195.526 186.726 101.046 88.7835 83.2122 79.6608 74.4565 70.7595 69.1708 67.9574 64.4303 59.5376 54.9025 51.7095 50.023 47.3117 46.9704 46.8963 43.3816
threshold=214.55858543776444 0.59589454202951253 228.58139792899411 192.6427506752751 1.0000000180025095e-35 0.66915053402222724 1.0000000180025095e-35 0.61340905259190948 234.7125493019177 221.70186834367885 203.01022290278237 40.500000000000007 1.0000000180025095e-35 0.77451824103135236 171.28395915678527 1.0000000180025095e-35 1.0000000180025095e-35 0.51700424887173058 1.0000000180025095e-35 31.009998157477749 240.45844741293621 0.83362408254441023 103.18260775985767 163.02285614803029 0.76812624981961375 639.50000000000011 0.54525178873099478 171.28395915678527 0.78222040964292205 20.154444014820275 29.500000000000004
decision_type=2 2 2 2 2 2 2 2 2 2 2 2 2 2 2 2 2 2 2 2 2 2 2 2 2 2 2 2 2 2 2
left_child=3 4 9 7 -2 6 -5 12 16 18 30 13 -1 23 -13 29 -4 -6 25 -12 -10 -17 -15 -9 -20 -3 -8 -24 -18 -11 -7
right_child=1 2 8 5 17 10 26 11 20 15 19 14 -14 22 -16 21 28 -19 24 -21 -22 -23 27 -25 -26 -27 -28 -29 -30 -31 -32
leaf_value=-0.016430279590508811 0.0028198224875956605 0.00078270494020302205 0.0099376619707886582 -0.0083438692600852297 -0.025357678444749197 -0.0051608183508531965 -0.025301213777980044 -0.016289341952459117 0.01274385414907407 0.0033682749642903369 -0.0044470537753662125 -0.018275899624509671 -0.024960875749145139 0.0051318984441200092 -0.013593160341926204 -0.0073918191561616036 -0.0051975049692135509 -0.017639391618878307 -0.011692863418497427 -0.0014790170906958825 0.015547538924020551 0.0031333614259134337 -0.011077897649684709 -0.011808640141518051 -0.00089820607748510159 0.0033742008968543824 -0.018045218685969804 -0.0064851248104973083 0.006101555291046906 0.0065388312571797386 -0.0083613494434446357
leaf_count=20142 7077 44649 120797 11898 13396 19792 9096 15424 89014 17053 37380 25456 14622 1179 33851 2344 1347 6153 1700 78545 40311 11065 11491 23746 11781 53210 4467 18391 8358 107045 41049
internal_value=0 0.117639 0.138791 -0.171574 -0.286448 -0.100197 -0.286791 -0.259427 0.206003 0.0686137 -0.0733208 -0.233376 -0.3565 -0.195801 -0.277871 0.100337 0.16982 -0.408325 0.0294352 -0.0433831 0.242515 0.0230351 -0.137898 -0.241718 -0.0402379 0.0390333 -0.408023 -0.146944 0.0807324 0.108689 -0.130363
internal_count=901829 535300 508674 366529 26626 202227 25461 164302 259827 248847 176766 129538 34764 70231 59307 137507 130502 19549 111340 115925 129325 13409 31061 39170 13481 97859 13563 29882 9705 124098 60841
shrinkage=0.0561523


Tree=3
num_leaves=32
num_cat=0
split_feature=29 17 32 11 0 0 2 1 20 17 9 17 1 1 20 0 1 11 17 31 11 0 1 11 14 17 0 1 31 31 14
split_gain=9553.54 4807.05 2736.49 808.119 699.189 601.746 463.861 442.47 403.191 357.975 269.918 238.785 233.964 203.456 171.373 156.772 144.759 131.808 124.772 115.664 111.038 109.292 105.713 108.169 102.504 107.27 94.4791 84.4628 81.0721 79.5355 77.7249
threshold=0.75322696348405616 48.714536802279611 1.5000000000000002 0.86806076128602372 45.000000000000007 45.000000000000007 14.912404092071613 557.50000000000011 0.64593201242337328 43.29795816557948 0.93842843137353704 52.174781668843174 602.50000000000011 462.50000000000006 0.56851301833783441 35.000000000000007 693.50000000000011 0.84659637868869686 71.499693824079301 1.5000000000000002 0.87053667434715831 37.500000000000007 1539.5000000000002 0.80834123972169525 20.014784596116197 51.756649001266453 24.000000000000004 575.50000000000011 1.5000000000000002 1.5000000000000002 20.501062250713911
decision_type=2 2 2 2 2 2 2 2 2 2 2 2 2 2 2 2 2 2 2 2 2 2 2 2 2 2 2 2 2 2 2
left_child=2 5 3 6 11 7 13 20 -9 28 -6 -3 -7 15 -4 -1 -5 27 30 22 26 -15 23 -14 -8 -26 -2 -12 -10 -11 -13
right_child=1 4 14 16 10 12 24 8 9 29 17 18 19 21 -16 -17 -18 -19 -20 -21 -22 -23 -24 -25 25 -27 -28 -29 -30 -31 -32
leaf_value=-0.010217252491202089 0.0038963828114084113 0.0024281396637830114 -0.023854834659432091 -0.0010947679760521978 -0.012049359165362952 -0.010991363858313809 -0.0065265085422260222 -0.011440730872534808 0.01222299902542796 0.0080862002917170602 -0.0091582081112748775 -0.00510800518935468 -0.0067707587277941244 -0.0014569951288011527 -0.014606976166979648 -0.015385363821322091 0.0089397532347221011 -0.00093988310014978709 0.0038280843133053806 -0.0056034740507470227 0.0071982866996595273 -0.0096025087054333238 0.0087272903532179136 0.0043208103728312073 0.0030184241722650278 -0.0054743283735419505 -0.0027408274510197254 -0.0043489488772169814 0.0075049651024804388 0.0032692689013281958 -0.0012360784798733796
leaf_count=43681 23860 97014 38286 33113 15029 4727 21750 2842 124952 110333 14424 20387 3994 8916 7567 32113 5252 31096 13035 4563 21415 12441 9443 9064 10236 8654 9437 57083 12646 11982 82494
internal_value=0 0.0588886 -0.180037 -0.123394 -0.0275463 0.140697 -0.159133 0.153832 0.170867 0.174964 -0.0894229 0.00663711 0.00952778 -0.196659 -0.397645 -0.220951 0.0049671 -0.0710897 -0.0239988 0.0453802 0.072018 -0.110449 0.0748196 0.0165314 -0.069425 -0.015535 0.0358894 -0.0947254 0.209954 0.135601 -0.035677
internal_count=901829 679820 222009 176156 330562 349258 137791 317467 262755 259913 117632 212930 31791 97151 45853 75794 38365 102603 115916 27064 54712 21357 22501 13058 40640 18890 33297 71507 137598 122315 102881
shrinkage=0.0561523


Tree=4
num_leaves=32
num_cat=0
split_feature=16 32 16 16 32 20 17 16 32 16 16 16 20 17 17 29 29 16 17 16 14 23 16 6 1 17 11 0 14 16 12
split_gain=15103.2 4289.74 2191.43 1596.14 948.905 856.931 417.618 335.685 295.081 267.649 265.374 206.648 167.183 132.701 104.375 92.8449 92.712 89.9469 64.1471 59.6143 51.6393 47.9518 47.8555 47.6173 44.1776 43.3889 42.9208 42.1948 34.929 34.4707 28.9465
threshold=212.53708615777586 1.5000000000000002 227.50119621977527 189.27661982825921 1.5000000000000002 0.65410862041479623 90.7034377091896 234.7125493019177 1.5000000000000002 220.96306691664424 203.01022290278237 164.51644939258418 0.65410862041479623 43.710751600622466 79.310044519249359 0.53622864946996895 0.59491652099009407 230.03526450848798 71.499693824079301 243.84645411186591 19.718180530301115 0.9171938146354951 230.8074121775656 0.17303668040265793 462.50000000000006 49.513781269024271 0.84920866846641252 33.000000000000007 20.228963532366894 198.88687603587798 96.825901807804527
decision_type=2 2 2 2 2 2 2 2 2 2 2 2 2 2 2 2 2 2 2 2 2 2 2 2 2 2 2 2 2 2 2
left_child=3 2 9 6 10 15 8 22 11 20 14 26 -8 -13 25 -3 -6 30 24 -9 -2 -14 -4 -21 -12 -5 -1 -15 -11 -27 -7
right_child=1 5 7 4 16 17 12 19 -10 28 18 13 21 27 -16 -17 -18 -19 -20 23 -22 -23 -24 -25 -26 29 -28 -29 -30 -31 -32
leaf_value=-0.017043920018425418 -0.0012867347661360046 -0.022537716639220814 0.0074619154784489822 -0.0032076936947677773 -0.022312890440192603 -0.011650544841901426 -0.015782896962903911 0.011996170063776457 -0.02215049225838266 0.0027702229023594612 -0.0051713424986087201 -0.0053241986815914227 -0.0048986229057388459 -0.010935508195895925 0.00282293965827484 -0.014933683990565782 -0.013820579147411723 0.0042795535590133297 0.0048795411199586561 -0.008710688083771909 0.0017405665575858146 0.0052153109086185432 0.009459220146084758 0.016146606172890533 -0.002307457877432432 -0.0088974670710567031 -0.011639068289328123 -0.013841470332485126 0.0052947811667623428 -0.0063406250609013238 -0.0032714141081905692
leaf_count=44136 21494 15037 70666 6668 9765 1823 2158 111080 14413 20636 22665 8828 2133 26558 3191 7633 6930 5207 3357 247 102450 4814 81390 14975 67751 44624 5176 38731 106264 26498 4531
internal_value=0 0.100296 0.122488 -0.166981 -0.106812 -0.242784 -0.245373 0.183576 -0.259074 0.0547 -0.0850514 -0.243264 -0.0379484 -0.209888 -0.126985 -0.355772 -0.334586 -0.0212239 -0.0488381 0.221679 0.0216479 0.0375753 0.151926 0.280367 -0.0538778 -0.134256 -0.293427 -0.225448 0.0869822 -0.141488 -0.101072
internal_count=901829 563433 529202 338396 191449 34231 146947 278358 137842 250844 174754 123429 9105 74117 80981 22670 16695 11561 93773 126302 123944 6947 152056 15222 90416 77790 49312 65289 126900 71122 6354
shrinkage=0.0561523


Tree=5
num_leaves=32
num_cat=0
split_feature=16 32 16 16 32 23 17 32 16 16 16 16 23 17 21 29 17 8 16 16 17 16 13 32 10 23 9 5 16 16 29
split_gain=13437.1 3722.22 1798.19 1583.88 890.33 663.515 381.623 308.911 302.498 241.82 213.333 202.155 155.771 119.727 87.172 84.6414 81.7214 69.8862 66.4084 66.0172 48.6458 42.6567 40.6949 38.8269 38.0769 37.3414 37.0361 36.9886 35.0756 32.8377 28.9288
threshold=213.5791516786571 1.5000000000000002 227.50119621977527 192.6427506752751 1.5000000000000002 0.67938494150258866 90.7034377091896 1.5000000000000002 236.17934905626666 165.9166920847949 204.95255999801455 220.96306691664424 0.9171938146354951 46.463336785783348 1.5000000000000002 0.65291976107169425 79.310044519249359 1690.5000000000002 231.28644972765741 179.00515613973184 75.263087790858492 245.70614101852649 29.467147311225087 1.5000000000000002 0.98801608194469925 0.52987963565387131 0.92045675541883254 28.284272193908695 224.36293815373895 198.88687603587798 0.6326588293545049
decision_type=2 2 2 2 2 2 2 2 2 2 2 2 2 2 2 2 2 2 2 2 2 2 2 2 2 2 2 2 2 2 2
left_child=3 2 11 6 10 17 7 9 18 26 16 22 23 -11 -7 -6 29 25 -4 -15 27 -10 -2 -8 -23 -3 -1 -12 -13 -5 -28
right_child=1 5 8 4 15 14 12 -9 21 13 20 28 -14 19 -16 -17 -18 -19 -20 -21 -22 24 -24 -25 -26 -27 30 -29 -30 -31 -32
leaf_value=-0.019284733183069929 -0.00071486322534888803 -0.021358595926869561 0.0071603722978635593 -0.0075913521747072677 -0.020692931545262829 0.0067844758196272097 -0.005961621371160678 -0.02066675017775645 0.01185270065281256 -0.0057043672192715342 -0.0037376999458344942 0.0036665131095269259 0.004881568655234942 -0.013822809479196306 -0.0050466350281373196 -0.012289651590885325 0.0033206428478687218 -0.0082985387167085513 0.0093318019069053987 -0.010259851477417562 0.0063277090834919442 0.016353556429615203 0.0018926164463750621 -0.017439982829607507 -0.016742624383106496 -0.014932468663377744 -0.016053968250173328 -0.0013411616118118059 0.0055341964298142561 -0.0052729893748568804 -0.013196644733199692
leaf_count=6782 24120 14916 80981 34315 10276 2410 2981 15912 90183 13416 31432 62905 5194 24898 10602 5978 2893 1721 98332 48026 2166 8737 86750 1350 111 3525 26252 57370 63925 43920 19450
internal_value=0 0.0977989 0.118672 -0.152347 -0.0897582 -0.226894 -0.224115 -0.236074 0.173222 -0.220947 -0.0686288 0.054794 -0.0298414 -0.188406 -0.0508502 -0.313475 -0.105911 -0.340508 0.148723 -0.204379 -0.0353794 0.217582 0.0236029 -0.169886 0.283842 -0.358494 -0.274478 -0.038991 0.0820602 -0.112014 -0.264245
internal_count=901829 549218 516044 352611 188350 33174 164261 154736 278344 138824 172096 237700 9525 86340 13012 16254 81128 20162 179313 72924 90968 99031 110870 4331 8848 18441 52484 88802 126830 78235 45702
shrinkage=0.0561523


Tree=6
num_leaves=32
num_cat=0
split_feature=16 32 16 16 32 20 17 16 32 16 16 16 26 17 17 16 16 29 1 12 14 16 17 17 16 0 29 18 0 0 16
split_gain=12006.4 3485.79 1797.47 1199.16 710.731 707.865 332.263 296.882 230.913 196.889 188.617 167.138 161.529 107.74 83.6246 82.4338 72.724 71.2203 68.0111 50.9244 47.3885 44.5041 43.9632 38.0592 33.9773 33.6078 33.388 30.8129 30.0857 28.5501 28.4704
threshold=212.00548299327761 1.5000000000000002 227.00329423165937 189.27661982825921 1.5000000000000002 0.64593201242337328 90.7034377091896 233.54723412181042 1.5000000000000002 219.99314780496164 203.01022290278237 161.60728985001748 0.78114660509026723 43.710751600622466 79.310044519249359 230.18738525091803 238.22466754441868 0.5623945845243683 746.50000000000011 89.997474683058343 19.718180530301115 174.68355815287731 68.365955059828934 46.634682451709828 223.67807753873331 28.000000000000004 0.6250934265751239 3.5000000000000004 31.000000000000004 35.000000000000007 171.28395915678527
decision_type=2 2 2 2 2 2 2 2 2 2 2 2 2 2 2 2 2 2 2 2 2 2 2 2 2 2 2 2 2 2 2
left_child=3 2 9 6 10 18 8 27 11 20 14 25 -8 30 23 -7 -9 -6 -3 -12 -2 -15 -21 -5 -11 -1 -25 -4 -14 -23 -13
right_child=1 5 7 4 17 15 12 16 -10 24 19 13 28 21 -16 -17 -18 -19 -20 22 -22 29 -24 26 -26 -27 -28 -29 -30 -31 -32
leaf_value=-0.012986337858048487 -0.0016435274936304391 -0.019678744607058277 0.0074231602063771678 -0.00052498472443031721 -0.02007543347496301 -0.0052872862208912883 -0.011458994987395429 0.0097031312184124759 -0.01971666468275261 0.0031026598805651839 -0.0042350716283172255 -0.008100769168987056 0.007627599936442098 -0.013508014766470669 0.0025494122092767119 0.0041143829382507477 0.012196860904167718 -0.012572869962684112 -0.012351823306420958 -0.0018991007647634272 0.0013557125261326418 -0.0089099273731690284 0.0048328127408006176 -0.0093967797053454843 0.0048951687974817326 -0.016224944007883928 -0.006394312486090771 0.0041325480694102803 -0.00063451104515598825 -0.01172705741233203 -0.0023704354109353111
leaf_count=16150 20197 17793 129223 3000 8975 6734 3449 83864 14360 66369 35541 6094 3140 23166 3190 5220 65808 7182 5151 48427 93543 20214 3265 14479 67005 26984 60366 9642 2493 25847 4958
internal_value=0 0.0878696 0.107821 -0.151476 -0.0977879 -0.218358 -0.218898 0.16143 -0.231111 0.0452251 -0.0785516 -0.217146 -0.0336355 -0.190171 -0.113289 -0.0210467 0.192327 -0.298126 -0.321159 -0.0462826 0.0146589 -0.204808 -0.0262482 -0.119792 0.0712916 -0.267351 -0.124218 0.128128 0.070719 -0.186827 -0.098484
internal_count=901829 570549 535651 331280 184425 34898 146855 288537 137773 247114 168268 123413 9082 80279 81035 11954 149672 16157 22944 87233 113740 69227 51692 77845 133374 43134 74845 138865 5633 46061 11052
shrinkage=0.0561523


Tree=7
num_leaves=32
num_cat=0
split_feature=16 32 16 16 32 20 32 17 16 16 16 16 17 20 2 17 16 0 1 20 0 20 14 14 9 13 13 11 27 20 16
split_gain=10703.5 2708.51 1660.71 1149 827.98 611.224 384.812 342.244 289.617 176.843 165.008 145.751 89.4399 78.0945 77.0169 70.7524 58.2812 55.0104 53.0262 40.3802 39.7883 38.989 38.1086 34.8464 34.4901 34.1172 33.2207 32.3545 31.4301 30.8448 28.9246
threshold=216.16648668106555 1.5000000000000002 197.87284070391033 230.03526450848798 1.5000000000000002 0.60517926575863801 1.5000000000000002 84.224707127810817 173.53932239578862 223.67807753873331 208.79213378176385 237.53580586080588 46.299277349774556 0.72105728464529251 29.38675213675214 79.310044519249359 189.27661982825921 29.500000000000004 1464.5000000000002 0.63031211071048865 40.500000000000007 0.5295413455169794 20.297494534575751 19.640073827676709 0.93390221716753186 31.009998157477749 23.528963001106337 0.85701294219439395 31.500000000000004 0.80325544145865624 245.70614101852649
decision_type=2 2 2 2 2 2 2 2 2 2 2 2 2 2 2 2 2 2 2 2 2 2 2 2 2 2 2 2 2 2 2
left_child=2 3 6 9 10 18 7 8 17 23 15 -5 -10 -6 -7 25 -14 27 -3 -9 -21 -8 -12 -2 -19 -4 -26 -1 -11 -16 -13
right_child=1 5 4 11 13 14 21 19 12 28 22 30 16 -15 29 -17 -18 24 -20 20 -22 -23 -24 -25 26 -27 -28 -29 -30 -31 -32
leaf_value=-0.011983430547820749 7.9826195191404358e-05 -0.018515606844798565 -0.0056052909990936409 0.0082849728353055069 -0.017322398794682177 -0.0077236489276896504 -0.019417310449823387 -0.0094156608648083406 -0.0028868108342627878 0.005506118645526613 -0.0026017380499059875 0.010909273734611693 -0.010324638220087315 -0.0075855322188178283 -0.0025730089861976109 0.0054702199902418288 -0.0074152089675101505 -0.018105798364822481 -0.0091242854148183734 0.0037991214898869799 -0.0041712261377305259 -0.013844359249951071 0.00011315523666641431 0.0026917085302433086 -0.016380643819820479 -0.0033067074555350419 -0.012591717918988478 -0.0063204062904529497 0.0023264605229425905 0.0046289064466226463 0.014318602448011218
leaf_count=25087 18993 16140 33591 148448 13142 3728 14971 1252 8458 120382 21317 67231 45460 3237 2937 2448 41553 6843 2148 6376 2861 5381 69302 105955 10477 51693 24035 3643 10671 5186 8883
internal_value=0 0.0953415 -0.124487 0.113579 -0.0590473 -0.195457 -0.189371 -0.17432 -0.185418 0.0677827 -0.0392867 0.165787 -0.149582 -0.27422 -0.0185513 -0.0702 -0.159125 -0.234234 -0.310095 0.000850474 0.0236935 -0.319557 -0.0093583 0.0408654 -0.257586 -0.0750113 -0.244726 -0.200621 0.0934462 0.0360616 0.201366
internal_count=901829 510702 391127 480563 194730 30139 196397 176045 165556 256001 178351 224562 95471 16379 11851 87732 87013 70085 18288 10489 9237 20352 90619 124948 41355 85284 34512 28730 131053 8123 76114
shrinkage=0.0561523


Tree=8
num_leaves=32
num_cat=0
split_feature=29 17 32 0 14 20 0 0 17 1 9 1 1 0 17 1 30 22 20 17 0 12 17 20 7 0 28 17 30 1 30
split_gain=5614.23 2762.95 1355.78 470.784 440.814 334.373 310.307 277.499 222.974 200.395 184.009 162.693 156.636 150.309 112.071 99.3765 94.6643 92.4542 76.4927 69.6511 68.646 66.1857 65.3481 63.0081 61.2084 54.1937 53.7582 52.7081 51.3233 49.4328 45.3361
threshold=0.70332567632560872 48.714536802279611 1.5000000000000002 45.000000000000007 20.297494534575751 0.68267619276357994 29.500000000000004 43.000000000000007 43.911871187307078 414.50000000000006 0.93489080987870354 470.50000000000006 557.50000000000011 40.500000000000007 49.366821051818967 617.50000000000011 1.0000000180025095e-35 1419.2500000000002 0.53997009333581825 53.803620738848416 52.500000000000007 101.99747468305834 51.544419849796959 0.7327646830593143 -86.619312286376939 51.000000000000007 1167.2500000000002 75.263087790858492 1.0000000180025095e-35 575.50000000000011 1.0000000180025095e-35
decision_type=2 2 2 2 2 2 2 2 2 2 2 2 2 2 2 2 2 2 2 2 2 2 2 2 2 2 2 2 2 2 2
left_child=2 4 6 12 13 30 9 8 21 24 26 -8 19 -2 -11 -12 22 20 -4 -3 29 -7 -14 -18 -1 -17 -5 -24 -23 -9 -6
right_child=1 3 18 10 5 7 11 17 -10 14 15 -13 16 -15 -16 25 23 -19 -20 -21 -22 28 27 -25 -26 -27 -28 -29 -30 -31 -32
leaf_value=-2.1605171914544843e-05 0.0013139245444528116 -0.00051855104393013873 -0.018262702905882854 -0.012670117344627457 0.0016973076533652069 0.0065962972073372716 -0.010571358150819611 -0.0061356319111277686 0.0054483680343653919 0.0044787645704726349 -0.0057305068970957447 -0.0043761401041161841 0.0035053197021949868 -0.0095874662009183577 -0.0034889801509730904 -0.00084239906654383801 -0.012661953207159887 0.0056781821960861329 -0.011988739339084283 -0.0040296243340987789 -0.009287547787106552 0.0096746621445699416 0.00041394588795741802 -0.0012530401541618302 -0.0059692360003737706 -0.0039306744153694015 -0.0054117924970499692 0.0051973664786790306 0.0058881767261761689 0.0019830900859214807 -0.010211845659417459
leaf_count=6081 32957 49444 36437 9054 1331 37967 47332 2734 121319 12296 34973 18625 49403 4537 10170 44000 1655 13735 7366 27849 2332 108905 71079 19629 53065 30223 4991 8090 12592 17506 4152
internal_value=0 0.041018 -0.151956 -0.022199 0.102536 0.114465 -0.106099 0.118699 0.129336 -0.0648746 -0.0719627 -0.157108 0.00480059 -9.27735e-05 0.0155273 -0.0581048 0.0236598 0.0364309 -0.306446 -0.0317637 -0.00293293 0.153916 0.0338859 -0.0381137 -0.0954145 -0.0373969 -0.179704 0.0160768 0.165305 0.015786 -0.130376
internal_count=901829 710457 191372 350390 360067 322573 147569 317090 280783 81612 123241 65957 227149 37494 22466 109196 149856 36307 43803 77293 22572 159464 128572 21284 59146 74223 14045 79169 121497 20240 5483
shrinkage=0.0561523


Tree=9
num_leaves=32
num_cat=0
split_feature=16 32 16 16 20 32 17 16 16 32 16 16 26 17 17 16 12 23 16 0 17 30 16 17 17 11 16 17 21 15 26
split_gain=8901.65 2542.68 1328.71 875.997 499.023 480.869 257.127 213.124 153.933 152.844 136.045 130.808 127.342 90.5451 63.3648 61.2384 58.5939 50.2407 41.1948 36.5421 35.9577 34.2267 32.448 32.1315 30.8564 30.3425 29.8379 31.5908 29.3225 29.1473 25.9551
threshold=211.4792630398118 1.5000000000000002 227.00329423165937 189.27661982825921 0.66170900560563639 1.5000000000000002 90.7034377091896 234.7125493019177 218.78161108711009 1.5000000000000002 161.60728985001748 203.01022290278237 0.78114660509026723 40.4752699736826 75.263087790858492 227.50119621977527 71.938077169749349 0.67938494150258866 242.06674449523595 33.000000000000007 75.263087790858492 1.5000000000000002 230.65919318737096 51.756649001266453 49.513781269024271 0.83628549149121612 223.67807753873331 49.794441223675506 1.5000000000000002 0.17732946640739858 0.85339731897108961
decision_type=2 2 2 2 2 2 2 2 2 2 2 2 2 2 2 2 2 2 2 2 2 2 2 2 2 2 2 2 2 2 2
left_child=3 2 8 6 16 11 9 22 23 10 25 14 -8 -12 24 -6 -3 -7 -9 -15 30 -18 -4 -2 -5 -1 27 -10 -17 -20 -13
right_child=1 4 7 5 15 17 12 18 26 -11 13 20 -14 19 -16 28 21 -19 29 -21 -22 -23 -24 -25 -26 -27 -28 -29 -30 -31 -32
leaf_value=-0.013772958445313411 -0.00091154208396044612 -0.017569874403919775 0.0055666696096353585 -0.0021716010562116356 -0.0052154376209762919 -0.016269487278698203 -0.010025514568517973 0.0089606032610601346 0.0012675322670275739 -0.01674478955792464 -0.0028926800306562708 -0.0039536072729752054 0.0036689107136546393 -0.0083677538760610296 0.001528461142653469 0.0088960061965720413 -0.0060337049215219984 -0.0092364571497035221 -0.002290988901531326 -0.010892645658984427 0.0046021053981667647 -0.013649720375075537 0.0071560227973060447 0.0011951276445054885 -0.0061776897787131895 -0.0095345072745264096 0.0041779359398791413 0.0034676925031320088 0.00045488691618883622 0.011750329711249338 -0.0017804162217065964
leaf_count=36932 35075 12983 77803 6633 5415 11024 3444 100722 34050 14334 6488 25772 5659 31606 3872 1841 2381 4514 475 42212 2319 8512 84482 65381 70461 6223 66931 52005 4396 24992 52892
internal_value=0 0.0744348 0.0914255 -0.132585 -0.184727 -0.0853085 -0.189706 0.137838 0.0385977 -0.200459 -0.189111 -0.0691858 -0.0269302 -0.164777 -0.097609 -0.0150765 -0.26752 -0.253352 0.168662 -0.174732 -0.0407685 -0.213438 0.11387 0.00818431 -0.103879 -0.234394 0.0585681 0.0462517 0.0524731 0.204594 -0.0443864
internal_count=901829 577444 541916 324385 35528 177487 146898 288474 253442 137795 123461 161949 9103 80306 80966 11652 23876 15538 126189 73818 80983 10893 162285 100456 77094 43155 152986 86055 6237 25467 78664
shrinkage=0.0561523


Tree=10
num_leaves=32
num_cat=0
split_feature=16 32 16 16 20 32 17 16 32 16 16 26 16 17 20 17 16 20 16 16 12 17 14 16 10 11 14 0 30 17 24
split_gain=7914.71 2264.39 1182.44 781.269 446.986 418.734 234.82 190.188 142.854 139.675 129.034 115.057 102.112 82.9758 68.3458 50.7249 47.7652 44.9889 42.5066 36.7951 34.995 33.3413 31.988 29.1184 34.7714 29.0201 28.7633 24.7739 24.5368 24.1199 23.4841
threshold=211.4792630398118 1.5000000000000002 227.00329423165937 190.64447655748236 0.70179394580025867 1.5000000000000002 84.224707127810817 236.17934905626666 1.5000000000000002 218.57394010287791 164.51644939258418 0.78114660509026723 202.16907721463269 46.03297707719701 0.4957644450185138 71.499693824079301 234.88061733329843 0.74395519862149617 230.97162294388323 179.00515613973184 79.269552621700484 79.310044519249359 21.043944935783511 245.70614101852649 0.98801608194469925 0.85187130407718648 19.718180530301115 37.500000000000007 1.5000000000000002 50.848934857284291 19.500000000000004
decision_type=2 2 2 2 2 2 2 2 2 2 2 2 2 2 2 2 2 2 2 2 2 2 2 2 2 2 2 2 2 2 2
left_child=3 2 9 6 14 12 8 18 10 26 25 -8 15 -12 28 -5 -6 -7 30 -15 -14 -22 -11 -9 -25 -1 -2 -13 -3 -28 -4
right_child=1 4 7 5 16 17 11 23 -10 22 13 27 20 19 -16 -17 -18 -19 -20 -21 21 -23 -24 24 -26 -27 29 -29 -30 -31 -32
leaf_value=-0.012644754198914046 -0.0016732964467937614 -0.010059813219539006 0.0056093294040545872 -0.0055435431256962847 -0.0024052816898837239 -0.014805717253799894 -0.0093081976056315525 0.0089908976575446622 -0.015762597909403542 0.0016015305333462874 -0.0044888398629236168 0.0051051903486911531 -0.0044671245818209441 -0.010939299371494583 -0.0093496001994076341 0.0011591234388570431 0.0060147805268552 -0.0066610235037402304 0.0070082845270576389 -0.0082411839750133106 -0.0018986382403669716 0.0059891384184303535 0.0035168465401247558 0.012771773899823185 -0.018442033226357488 -0.0080206970227020644 -0.0011773048955147603 -0.0020381793692531751 -0.016519592657800113 0.0013040671466924864 0.0023210857405041715
leaf_count=44130 17776 2105 76770 64519 7337 12332 4153 90166 14749 35616 13339 4340 18216 26971 7495 3768 2990 2587 105223 38955 67617 1733 120569 8720 114 4739 15302 2365 15551 64063 7519
internal_value=0 0.0701621 0.0861877 -0.125027 -0.174589 -0.078472 -0.17674 0.129961 -0.187514 0.036334 -0.176786 -0.0349691 -0.0631515 -0.151869 -0.246513 -0.0921369 0.000580533 -0.238519 0.111404 -0.166423 -0.0405477 -0.0303021 0.0548523 0.165484 0.220275 -0.217201 0.00656001 0.0460456 -0.280477 0.0147037 0.0946712
internal_count=901829 577316 541838 324513 35478 170772 153741 288512 142883 253326 128134 10858 155853 79265 25151 68287 10327 14919 189512 65926 87566 69350 156185 99000 8834 48869 97141 6705 17656 79365 84289
shrinkage=0.0561523


Tree=11
num_leaves=32
num_cat=0
split_feature=23 17 32 14 11 17 12 2 9 11 20 11 12 30 12 9 2 30 2 11 11 17 13 2 13 17 11 14 20 17 2
split_gain=3894.49 1909.22 1023.44 525.635 300.864 230.604 195.668 181.495 110.903 109.569 93.6412 93.1075 93.4185 86.6626 84.8016 80.1302 74.432 70.0143 63.6141 60.0441 59.2498 57.6082 56.4633 52.8486 52.4789 49.7688 45.9212 45.4997 41.4705 41.0627 36.9308
threshold=0.7814852075415456 49.229729867641787 1.5000000000000002 20.014784596116197 0.87308738648693673 44.302557100732237 75.958892449920668 16.831761006289309 0.9408361038291434 0.84074448563831794 0.51853734771884252 0.85096577804911144 81.816756826189717 1.0000000180025095e-35 86.097979746446683 0.93842843137353704 18.095695970695974 1.0000000180025095e-35 11.346546310832027 0.66464030549396413 0.68590224118709886 52.594766234248389 23.972723523742893 50.787593984962413 30.225296559444963 52.670808305468313 0.86548266045548672 19.402789483430443 0.56851301833783441 53.803620738848416 34.671568627450988
decision_type=2 2 2 2 2 2 2 2 2 2 2 2 2 2 2 2 2 2 2 2 2 2 2 2 2 2 2 2 2 2 2
left_child=2 3 4 9 6 14 18 11 30 22 -4 12 -3 24 26 -14 -8 23 -1 -10 -17 -21 -2 -16 -7 -22 -5 -6 -19 -18 -9
right_child=1 7 10 5 27 13 16 8 19 -11 -12 -13 15 -15 17 20 29 28 -20 21 25 -23 -24 -25 -26 -27 -28 -29 -30 -31 -32
leaf_value=-0.0089999267359780356 -0.010999762821191604 -0.0063660203897178049 -0.015206430048685228 -0.0026310777355179021 -0.0013257086728736432 0.0014928201975723447 -0.0048503980728033047 -0.0056762194658500562 0.00444859996008856 0.0016324129552334542 -0.0095497278153102421 -0.0002172728122211774 -0.0059253867470571101 -0.00032222188763288834 0.0064844198915651923 0.0017254651117762404 0.0013913375539791458 -0.011170217686453519 -0.0050854327582710258 0.0020361800849562476 -0.00046700801122005173 -0.00075150114888872157 -0.0029807691028111041 0.0085548968737624125 0.0046395131138731926 -0.0033059212887707971 0.0054436014179688862 0.0031865017231858502 0.0040371363873612951 -0.0042818839706670244 -0.0013163889406519846
leaf_count=47127 3287 22717 38429 4510 17276 19456 34941 9603 15039 19222 12143 48583 17606 14827 95818 12957 12472 586 18124 46201 29437 47308 17555 65404 118461 57512 4375 11900 16095 5938 16920
internal_value=0 0.0348241 -0.123828 0.0829452 -0.0818072 0.0957278 -0.104187 -0.0215747 0.00641331 -0.0253837 -0.246618 -0.0415965 -0.0546673 0.0669084 0.119295 -0.0433189 -0.059267 0.124056 -0.140914 0.0205775 -0.0323569 0.0111454 -0.075606 0.130438 0.0747184 -0.0417578 0.0239513 0.00916587 0.0623822 -0.00780939 -0.0515549
internal_count=901829 703479 198350 379596 147778 339532 118602 323883 135071 40064 50572 188812 140229 152744 186788 117512 53351 177903 65251 108548 99906 93509 20842 161222 137917 86949 8885 29176 16681 18410 26523
shrinkage=0.0561523


Tree=12
num_leaves=32
num_cat=0
split_feature=26 17 32 0 11 14 0 12 17 0 17 11 0 17 0 22 29 11 22 8 30 12 17 29 0 32 30 29 0 14 0
split_gain=3681.3 1673.31 944.216 353.17 312.284 281.217 233.023 194.747 134.303 126.402 118.809 105.024 89.3129 78.1163 74.2727 72.6014 69.8743 65.8891 62.3015 59.401 58.7888 63.461 52.4032 52.1729 50.0133 49.186 47.8694 46.2153 35.7951 34.0313 33.3659
threshold=0.76542382418164367 48.419384293955751 1.5000000000000002 48.000000000000007 0.85771013791943507 19.402789483430443 46.500000000000007 75.958892449920668 43.29795816557948 37.500000000000007 52.526293264023991 0.81655508284818645 35.000000000000007 79.310044519249359 37.500000000000007 1419.2500000000002 0.49758922762338514 0.81559752038874189 1072.2500000000002 621.50000000000011 1.0000000180025095e-35 104.3020382004283 50.992758675348135 1.5421813837628999 29.500000000000004 1.5000000000000002 1.0000000180025095e-35 0.88316805760104733 33.000000000000007 48.011142341640337 24.000000000000004
decision_type=2 2 2 2 2 2 2 2 2 2 2 2 2 2 2 2 2 2 2 2 2 2 2 2 2 2 2 2 2 2 2
left_child=2 5 4 10 7 14 8 12 20 22 19 23 -1 27 -2 17 -4 -8 24 -3 21 30 -9 -5 -6 -10 -21 -12 -29 -25 -7
right_child=1 3 16 11 18 6 15 9 25 -11 13 -13 -14 -15 -16 -17 -18 -19 -20 26 -22 -23 -24 29 -26 -27 -28 28 -30 -31 -32
leaf_value=-0.0064487721792962022 5.814263500976647e-05 -1.1838102825003458e-05 -0.014757881428340171 -0.0047830367931893754 0.00038534966390417247 0.0061413412422035877 -0.0077477803298596449 0.00070882417363691218 0.0045695005207427777 -0.0068371827625265131 -0.0032958831655205303 -0.0015860298498699397 -0.010777852818150118 0.0038311069712044605 -0.0089229485875531485 0.0035507125607346841 -0.010047292946452175 0.00030489904255190538 0.0046653680360002189 0.0030154162160206518 0.0033809867149863838 0.0079151432732633784 -0.0035968095271583854 -0.011327505034095684 -0.0038337327336117632 -0.0026086752093670215 -0.0010170622592642791 0.00040671490011552321 -0.001782532699954603 -0.0022687260416229568 0.0022469593707273769
leaf_count=46737 18297 50630 33423 39367 23118 30362 5328 18529 140010 21187 28207 34571 22147 10121 3451 9323 14125 8036 6652 67190 14313 99559 17174 6943 14363 3076 10770 46374 47844 1611 8991
internal_value=0 0.0360244 -0.113335 -0.0132149 -0.0784759 0.0856803 0.0931813 -0.103871 0.10066 -0.0605719 0.00480366 -0.0702544 -0.139631 -0.0162057 -0.0243443 -0.00449532 -0.237898 -0.0517444 -0.00610183 0.0264593 0.121233 0.127521 -0.0242606 -0.100561 -0.0219303 0.0786288 0.0437799 -0.0231858 -0.0125549 -0.171345 0.0935241
internal_count=901829 684374 217455 343628 169907 340746 318998 125774 296311 56890 261136 82492 68884 132546 21748 22687 47548 13364 44133 128590 153225 138912 35703 47921 37481 143086 77960 122425 94218 8554 39353
shrinkage=0.0561523


Tree=13
num_leaves=32
num_cat=0
split_feature=16 32 16 16 20 32 17 16 16 16 26 16 2 32 17 17 16 14 9 20 16 17 17 17 24 14 17 16 15 20 4
split_gain=6168.65 1638.52 832.384 654.596 334.731 308.29 193.603 164.218 110.912 97.7713 88.4424 81.1411 62.3779 60.4641 66.2319 45.3873 45.3811 38.682 33.8892 33.8779 30.392 29.6782 28.7086 28.255 27.512 24.111 23.9302 23.6064 23.5899 22.5857 22.0811
threshold=211.4792630398118 1.5000000000000002 226.03059553059555 189.27661982825921 0.60517926575863801 1.5000000000000002 90.7034377091896 233.22104452721786 161.60728985001748 203.01022290278237 0.89927532426613455 218.15092592592597 29.38675213675214 1.5000000000000002 40.4752699736826 79.310044519249359 238.72712824025518 29.686980064060474 0.92045675541883254 0.78222040964292205 177.97509536524893 51.756649001266453 48.042293950739385 75.263087790858492 19.500000000000004 19.402789483430443 46.121237689924151 235.6096640216301 0.25467599840793653 0.51853734771884252 6.0041637420654306
decision_type=2 2 2 2 2 2 2 2 2 2 2 2 2 2 2 2 2 2 2 2 2 2 2 2 2 2 2 2 2 2 2
left_child=3 2 11 6 17 9 8 24 18 15 29 21 -6 14 -10 26 -9 -3 -1 -7 -16 -2 -13 -11 -4 -26 -5 -14 -18 -8 -28
right_child=1 4 7 5 12 19 10 16 13 23 -12 22 27 -15 20 -17 28 -19 -20 -21 -22 -23 -24 -25 25 -27 30 -29 -30 -31 -32
leaf_value=-0.014855050826122877 -0.0010652401097186097 -0.013379166663314072 0.0050786536282495156 0.00048951054530231315 -0.0064324164462260898 -0.012551788798440827 -0.013041137724350988 0.0066909817862573339 -0.002401889485149539 -0.0019775912539116446 0.0039549975905521029 0.00093805407936794951 -0.00057740806956094756 -0.012824783626692367 -0.0095216655399057177 0.0020208326403698858 0.0046917772529040972 -0.0062745257578065601 -0.010960318947564666 -0.0052020120127492997 -0.0072396316915096801 0.0011042783415436612 0.002940325219724814 0.0043337039196154935 -0.0030571971276131425 0.0034506635054384945 -0.014838301227245179 0.0055395314704033112 0.0089817185723565507 -0.0042162827242600521 -0.0049161820932249918
leaf_count=8528 29515 19211 138589 2580 4760 13228 1369 97735 6502 78754 5015 28117 5713 8464 34754 3176 4365 2764 40491 2325 39108 60911 114631 2302 2131 11386 714 3052 54558 2754 74327
internal_value=0 0.0619574 0.0755911 -0.110376 -0.146172 -0.0694873 -0.159728 0.109649 -0.169072 -0.0565649 -0.0187688 0.0304928 -0.022398 -0.148 -0.139533 -0.0811822 0.132373 -0.222352 -0.207256 -0.203965 -0.148051 0.0070549 0.0453399 -0.0320263 0.0862442 0.0431804 -0.0859765 0.0276486 0.154293 -0.12727 -0.0892322
internal_count=901829 577438 541938 324391 35500 177406 146985 308764 137847 161853 9138 233174 13525 88828 80364 80797 156658 21975 49019 15553 73862 90426 142748 81056 152106 13517 77621 8765 58923 4123 75041
shrinkage=0.0561523


Tree=14
num_leaves=32
num_cat=0
split_feature=16 32 16 16 20 32 17 16 16 16 16 20 2 32 17 16 17 1 9 17 17 17 29 16 0 24 2 29 0 9 24
split_gain=5515.45 1471.36 763.134 563.539 297.152 265.131 170.484 148.674 96.5739 84.7253 72.0723 69.7581 56.3984 53.7828 59.3812 40.1947 35.5844 34.5909 30.7362 29.5162 29.0379 28.9167 28.5367 27.3955 26.7767 24.3831 22.9534 21.7832 21.7825 21.72 20.8584
threshold=211.20549391108759 1.5000000000000002 225.87551112343201 189.27661982825921 0.60517926575863801 1.5000000000000002 90.7034377091896 233.22104452721786 161.60728985001748 198.88687603587798 218.15092592592597 0.64593201242337328 35.049450549450562 1.5000000000000002 40.4752699736826 238.72712824025518 71.499693824079301 1621.5000000000002 0.92381411581025874 52.38525698502152 48.042293950739385 75.263087790858492 0.53622864946996895 177.97509536524893 40.500000000000007 19.500000000000004 16.584119496855347 2.0304069978245107 29.500000000000004 0.94638549314359799 22.500000000000004
decision_type=2 2 2 2 2 2 2 2 2 2 2 2 2 2 2 2 2 2 2 2 2 2 2 2 2 2 2 2 2 2 2
left_child=3 2 10 6 17 9 8 25 18 21 19 -8 -6 14 -10 -9 26 -3 -1 -2 -12 -5 -7 -16 29 28 27 -11 -4 -13 -22
right_child=1 4 7 5 12 22 11 15 13 16 20 24 -14 -15 23 -17 -18 -19 -20 -21 30 -23 -24 -25 -26 -27 -28 -29 -30 -31 -32
leaf_value=-0.013923974932548138 -0.00079838303636230992 -0.012491971072222198 0.0053122347448932598 -0.0052495266633444003 -0.0054919729887941164 -0.01308062956313389 -0.0099079344437719898 0.0063206944057944145 -0.0022774421974718143 -0.0028534743324755839 0.00068546119141345036 -0.0013706222255564456 0.0018180354246121635 -0.012133827396492094 -0.0090193475815587582 0.0081788813460689936 0.0027244067603313825 -0.0048502719792023197 -0.010301790697752288 0.001213522520846563 0.0029098862384207671 0.00084203717345580464 -0.0082275915218351665 -0.0068523524052672676 -0.0037209629833041165 0.0023093689568366858 -0.0011996915824702436 -0.010866454320531915 0.0038646150339910821 0.0065458927768485249 -0.00092955372571312074
leaf_count=9064 40391 20107 90070 48941 5739 8143 2141 97794 6510 67275 26461 1635 7921 8427 34736 58759 4483 2059 39914 53376 108400 2587 7197 39102 2046 13758 34236 1087 51522 3295 4653
internal_value=0 0.0579787 0.0708788 -0.105376 -0.13833 -0.0668644 -0.150987 0.103235 -0.159752 -0.054723 0.0276176 -0.0185534 -0.0223167 -0.140085 -0.132114 0.124984 -0.0386903 -0.209825 -0.195399 0.00617741 0.0420275 -0.0880409 -0.192401 -0.140186 0.0299058 0.081318 -0.0425008 -0.0530858 0.0852233 0.0698179 0.0490072
internal_count=901829 581010 545184 320819 35826 173949 146870 311903 137753 158609 233281 9117 13660 88775 80348 156553 107081 22166 48978 93767 139514 51528 15340 73838 6976 155350 102598 68362 141592 4930 113053
shrinkage=0.0561523


Tree=15
num_leaves=32
num_cat=0
split_feature=16 33 16 16 20 17 16 20 16 30 30 26 30 16 20 12 30 20 17 17 16 16 12 12 16 20 30 4 17 29 30
split_gain=4906.82 1238.75 705.862 524.652 198.826 155.768 135.641 125.233 97.5325 77.397 82.0434 73.5543 64.0131 63.293 61.0983 58.7551 41.502 39.7805 47.5921 37.624 37.4313 35.7731 32.4207 32.3101 30.6265 29.3024 28.0979 27.2181 24.4149 24.1837 24.0335
threshold=211.4792630398118 2.5000000000000004 225.72007626134243 190.64447655748236 0.66170900560563639 84.224707127810817 233.22104452721786 0.56851301833783441 155.09000278964604 1.0000000180025095e-35 2.5000000000000004 0.88840260486496858 1.5000000000000002 203.4479827243951 0.51853734771884252 98.822853480599591 1.0000000180025095e-35 0.73847763115545562 41.036889363649699 71.499693824079301 238.22466754441868 174.68355815287731 89.997474683058343 40.281222920256972 220.19217363272793 0.66170900560563639 1.0000000180025095e-35 5.0068871974945077 75.263087790858492 1.6504467008094235 1.0000000180025095e-35
decision_type=2 2 2 2 2 2 2 2 2 2 2 2 2 2 2 2 2 2 2 2 2 2 2 2 2 2 2 2 2 2 2
left_child=3 2 9 5 12 8 16 -3 -1 15 -11 -7 27 19 30 23 -4 26 -19 -6 -16 -20 -9 -2 -25 -18 -10 -5 -15 -23 -8
right_child=1 7 6 4 13 11 14 22 17 10 -12 -13 -14 28 20 -17 25 18 21 -21 -22 29 -24 24 -26 -27 -28 -29 -30 -31 -32
leaf_value=-0.010981579965035487 -0.014444031778650092 -0.01263308262960725 0.0044427065872530425 -0.015945551067666822 -0.0041237864295173253 -0.0064840572757709179 0.0057913863075937317 -0.0092693441688835674 -0.00815361633394154 -0.0052171847325231243 0.0010895197978209458 0.00279517151880321 -0.012114618072704152 -0.0016689904466814455 0.0058654096474067335 0.0026400115237128932 -0.0066503255994761045 -0.0030024987574673537 -0.0090538711082307159 0.0014128736432398553 0.0076104470128538874 -0.0061245156176335368 -0.0010057459127773244 -1.7065922415422788e-05 0.0018925699922845807 0.0020319972442632782 -0.011892489801046471 -0.0053078235001101553 0.0044050794269790781 -0.012316801435256193 -0.0080830033251190845
leaf_count=34868 440 15491 149040 806 69250 4940 574 2173 20234 11261 15396 5923 8632 72946 91629 97642 1377 8755 25807 4099 67170 41788 4812 61646 46422 11151 9228 12840 2148 2088 1253
internal_value=0 0.0552953 0.0646158 -0.0984092 -0.0602567 -0.140806 0.0949304 -0.174855 -0.149589 0.0226618 -0.0280432 -0.0253703 -0.148348 -0.0470361 0.115509 0.0292183 0.0744722 -0.134731 -0.122963 -0.0679292 0.117601 -0.131694 -0.0636931 0.0132037 0.0143047 0.0191923 -0.166061 -0.105715 -0.0266284 -0.114318 -0.0663197
internal_count=901829 577477 555001 324352 170721 153631 322194 22476 142768 232807 26657 10863 22278 148443 160626 206150 161568 107900 78438 73349 158799 69683 6985 108508 108068 12528 29462 13646 75094 43876 1827
shrinkage=0.0561523


Tree=16
num_leaves=32
num_cat=0
split_feature=16 32 16 16 20 32 16 17 16 16 26 17 16 0 1 18 16 32 17 17 17 17 6 24 19 16 30 12 29 0 15
split_gain=4371.42 1238.89 704.12 347.192 249.51 176.077 139.311 129.978 65.9015 63.0904 60.2285 59.098 62.3883 43.1313 43.0783 34.9148 33.1627 31.8038 29.2752 29.1772 28.8236 27.3289 26.151 25.4278 25.4197 25.0121 24.617 24.4175 24.1591 23.4109 20.2772
threshold=208.79213378176385 1.5000000000000002 224.8730561117404 184.58385639624973 0.71450295827925614 1.5000000000000002 233.22104452721786 90.7034377091896 216.6214632053636 147.18736855205029 0.89927532426613455 79.310044519249359 198.88687603587798 29.500000000000004 364.50000000000006 1.5000000000000002 240.45844741293621 1.5000000000000002 50.079572725279696 54.380604844115716 48.714536802279611 35.787735030554238 0.17303668040265793 19.500000000000004 442.25000000000006 221.32790728476826 1.5000000000000002 83.805086527633236 0.47700318038240447 29.500000000000004 0.36669063788542844
decision_type=2 2 2 2 2 2 2 2 2 2 2 2 2 2 2 2 2 2 2 2 2 2 2 2 2 2 2 2 2 2 2
left_child=3 2 8 7 14 11 23 9 19 -1 -9 12 20 17 -3 -6 -8 21 25 -2 -5 -11 -18 29 -25 -10 -16 -7 -20 -4 -15
right_child=1 4 6 5 15 27 16 10 18 13 -12 -13 -14 30 26 -17 22 -19 28 -21 -22 -23 -24 24 -26 -27 -28 -29 -30 -31 -32
leaf_value=-0.011080746332623136 -0.00076481512759103481 -0.011850516785063396 0.0046843715234556396 -0.0012103671706842044 0.0034416529123331876 -0.011888407047214517 0.0057838920771781203 -0.0062662633614503404 -0.00069859324985739049 -0.0014295483033780647 0.00325682409320153 0.0023970556368540785 -0.0025319672613257752 -0.012414805777015106 -0.0029034616793781405 -0.0030296533011091569 -0.0046879265718328426 -0.01150023695641743 -0.0026064315962778181 0.0013154041868025869 -0.0052278153735542988 -0.0063368245550761123 0.0078478492773227399 -0.0044448661067401042 0.0026099956257169001 0.0016861940567824989 -0.0087963720819911918 -0.0073330341071822479 0.0027193565758271542 0.0032803858552475553 -0.0084044998228819286
leaf_count=21793 65510 15385 100356 6202 5394 8024 117787 3886 20584 4050 4541 5367 79014 4297 2931 5128 532 3342 2784 31474 61157 30723 38300 1824 13750 42496 9415 6901 76015 59740 53127
internal_value=0 0.048236 0.0599047 -0.100499 -0.125987 -0.0705679 0.0896736 -0.140166 0.0184922 -0.148782 -0.0202062 -0.0603741 -0.064153 -0.137707 -0.175736 0.00512532 0.111359 -0.111627 0.0322251 -0.00159791 -0.0865132 -0.102672 0.136702 0.0703402 0.0317662 0.0161703 -0.131738 -0.174207 0.0450773 0.0740927 -0.155018
internal_count=901829 609405 571152 292424 38253 166665 332289 125759 238863 117332 8427 151740 146373 95539 27731 10522 156619 38115 141879 96984 67359 34773 38832 175670 15574 63080 12346 14925 78799 160096 57424
shrinkage=0.0561523


Tree=17
num_leaves=32
num_cat=0
split_feature=26 17 32 0 1 11 0 0 30 1 1 0 1 30 1 30 11 1 0 0 25 11 12 26 30 11 17 11 17 18 17
split_gain=2189.74 956.508 487.095 249.846 195.524 184.894 146.36 122.676 89.6887 79.1718 78.9653 74.7561 74.1747 70.9797 62.3005 60.0982 57.8709 51.0939 50.5082 48.3635 39.1518 37.5076 35.9895 35.4888 33.8683 32.39 31.7264 31.5093 30.4666 28.7698 28.441
threshold=0.72642327880659574 48.198505869589717 1.5000000000000002 37.500000000000007 512.50000000000011 0.87308738648693673 46.500000000000007 29.500000000000004 1.0000000180025095e-35 617.50000000000011 370.50000000000006 24.000000000000004 496.50000000000006 1.0000000180025095e-35 858.50000000000011 2.5000000000000004 0.82374339012925979 446.50000000000006 28.000000000000004 49.500000000000007 1212.7500000000002 0.83077690261865811 74.056349186104072 1.6484861650198179 1.0000000180025095e-35 0.68096113264427227 52.670808305468313 0.86548266045548672 51.132005064960445 2.5000000000000004 53.88337787523696
decision_type=2 2 2 2 2 2 2 2 2 2 2 2 2 2 2 2 2 2 2 2 2 2 2 2 2 2 2 2 2 2 2
left_child=2 4 5 12 11 7 13 10 9 -5 -1 -2 -3 14 18 23 19 -9 -6 -11 21 -8 -4 -10 25 29 -27 -13 -7 -14 -12
right_child=1 3 22 8 6 28 20 17 15 16 30 27 24 -15 -16 -17 -18 -19 -20 -21 -22 -23 -24 -25 -26 26 -28 -29 -30 -31 -32
leaf_value=-0.0045984514269392408 0.0017453891805302808 -0.0011803958974484698 -0.011517447579774489 -0.0033383520724094254 0.0045944659588539275 0.0014908697606279505 -0.0057546792282328636 -0.0077888480457909675 -0.0063176933405566429 -0.00039205280154054205 0.00062438386480471455 -0.0052225517271689073 0.0021334574961667414 0.0017213090722757163 0.0057467184558257145 -0.0023344747875960678 0.00091083051840644132 -0.0042195138269343875 0.0021545742116625354 -0.0035767637629992364 0.0024168926019340451 0.00046420354921660904 -0.0082663276486614253 -0.013351513634822272 -0.00066101104088445129 0.0021454785327895084 9.1927370518176635e-05 0.00018908500101644967 -0.0025582136258758851 0.0059608958507557999 -0.0035537819363263999
leaf_count=38088 27260 42431 29026 53513 102846 20564 5722 37342 7685 34344 18207 9233 16446 27031 110368 9848 42561 19120 36157 26743 9172 6568 17038 3205 20035 62337 38294 5363 8194 9932 7156
internal_value=0 0.0259102 -0.0938459 -0.00945789 0.0641574 -0.066007 0.0731505 -0.0832771 -0.0363715 -0.0282152 -0.0531049 0.000158937 0.0158114 0.0793273 0.0846033 -0.0981832 -0.0120879 -0.117184 0.0705191 -0.0318112 -0.00639896 -0.0432965 -0.183696 -0.149376 0.0264399 0.0324675 0.0242915 -0.0575962 0.00600451 0.0636588 -0.00987418
internal_count=901829 707094 194735 367374 339720 148671 297864 119913 177899 157161 63451 41856 189475 276402 249371 20738 103648 56462 139003 61087 21462 12290 46064 10890 147044 127009 100631 14596 28758 26378 25363
shrinkage=0.0561523


Tree=18
num_leaves=32
num_cat=0
split_feature=16 32 16 16 29 32 16 17 9 26 16 17 16 14 16 17 17 16 11 17 17 24 15 32 28 0 29 5 4 29 23
split_gain=3643.61 1008.84 567.194 305.064 172.299 138.22 118.169 110.042 58.7975 52.9049 51.9079 50.7293 51.6888 37.6875 32.4465 34.5103 30.726 30.2487 28.3105 25.5282 25.4281 24.809 23.9755 23.0544 22.4162 20.8529 20.7657 19.3591 19.4219 19.153 18.8588
threshold=208.79213378176385 1.5000000000000002 224.53372157515255 184.58385639624973 0.65291976107169425 1.5000000000000002 233.22104452721786 90.7034377091896 0.93390221716753186 0.91716421900620249 216.6214632053636 71.499693824079301 198.88687603587798 50.075817341672156 168.62977732793524 46.03297707719701 49.794441223675506 243.84645411186591 0.67839049043083743 54.380604844115716 48.714536802279611 22.500000000000004 0.17732946640739858 1.5000000000000002 449.25000000000006 29.500000000000004 1.9706223029752443 298.30363464355474 62.020849227905281 0.47700318038240447 0.48778434603812953
decision_type=2 2 2 2 2 2 2 2 2 2 2 2 2 2 2 2 2 2 2 2 2 2 2 2 2 2 2 2 2 2 2
left_child=3 2 10 7 -3 11 21 8 -1 -9 19 12 20 -6 -10 23 -12 -8 26 -2 -5 25 27 -16 -23 -4 -13 -19 -29 -18 -7
right_child=1 4 6 5 13 30 17 9 14 -11 16 18 -14 -15 15 -17 29 22 -20 -21 -22 24 -24 -25 -26 -27 -28 28 -30 -31 -32
leaf_value=-0.010366312763205963 -0.00069710508744165553 -0.0097752319309388196 0.0041754455234067761 -0.0010278790197498831 -0.0034502971429506363 -0.010648717547800919 0.0054033591022461247 -0.0057208561815969691 -0.0080353080102831039 0.0031777347635176785 0.00054526866741251925 0.0053982891250287145 -0.0023251505684495979 0.0033105473735720557 -0.0017342417393440602 -0.0067642965770042243 -0.0021017201880031873 0.0067827528184066137 -0.0024681381709439707 0.0012486486013372977 -0.0048139364054019199 -0.012697495413366153 0.0083506370213650271 -0.010101339493586645 0.0011961975333269386 0.0029057137951315174 -0.0093714581356187932 -0.03220183647978403 0.015337596429522803 0.0024558623068925505 -0.0066425822159774705
leaf_count=21111 65489 20978 108834 6168 14089 7792 141298 4011 52559 4437 50772 4077 77565 3188 7749 34890 3015 151 3477 31481 60040 384 14981 1199 7878 65224 324 120 35 81449 7064
internal_value=0 0.044033 0.0545637 -0.0917524 -0.11318 -0.0636623 0.0806494 -0.128886 -0.136811 -0.0186493 0.0164915 -0.0546445 -0.0589258 -0.0392285 -0.126343 -0.106254 0.0291521 0.100799 0.023489 -0.00116509 -0.0794487 0.0633445 0.143054 -0.0508511 0.00980278 0.0658859 0.0767724 -0.134043 -0.382302 0.0408385 -0.155716
internal_count=901829 609366 571111 292463 38255 166507 338905 125956 117508 8448 232206 151651 143773 17277 96397 43838 135236 156585 7878 96970 66208 182320 15287 8948 8262 174058 4401 306 155 84464 14856
shrinkage=0.0561523


Tree=19
num_leaves=32
num_cat=0
split_feature=16 33 16 16 20 17 20 16 16 16 26 1 30 16 17 0 20 17 2 13 30 17 1 14 17 9 9 16 19 0 27
split_gain=3250.35 813.089 467.237 346.943 129.857 106.914 88.2188 86.7418 71.086 60.608 51.7627 42.354 41.3564 39.492 35.9067 35.3243 34.8352 32.4943 27.3527 25.7983 25.2695 23.6259 23.1992 22.7838 21.919 21.1339 20.74 20.3978 20.3404 19.6696 19.0685
threshold=211.20549391108759 2.5000000000000004 228.58139792899411 190.64447655748236 0.66915053402222724 84.224707127810817 0.56851301833783441 220.96306691664424 155.09000278964604 237.53580586080588 0.72082843735645175 134.50000000000003 1.5000000000000002 202.16907721463269 47.042549147570647 40.500000000000007 0.4357748127381636 51.829739038223515 23.219375000000003 24.59883536056368 1.0000000180025095e-35 71.499693824079301 134.50000000000003 7.34383218962705 54.380604844115716 0.93489080987870354 0.94223905735017699 215.944327689353 2543.5000000000005 35.000000000000007 33.500000000000007
decision_type=2 2 2 2 2 2 2 2 2 2 2 2 2 2 2 2 2 2 2 2 2 2 2 2 2 2 2 2 2 2 2
left_child=3 2 7 5 12 8 -3 11 -1 20 -7 -2 23 21 22 19 -11 29 -8 -10 30 -6 -9 -5 -15 -17 -12 -19 -28 -13 -4
right_child=1 6 9 4 13 10 18 14 15 16 26 17 -14 24 -16 25 -18 27 -20 -21 -22 -23 -24 -25 -26 -27 28 -29 -30 -31 -32
leaf_value=-0.009067287783280786 -0.010062793502597697 -0.010276750410017611 0.0044320782994227287 -0.013503860637072351 -0.0034593912412503396 -0.0064735695676116558 -0.0074529365897702234 -0.012649645675053278 -0.00670955117649202 -0.0065848751306002828 -0.003073650640903495 0.00037573499927911141 -0.009828261261458587 -0.0023490948709969121 0.0028265916256007373 -0.010031892073465838 0.0060786628889010737 0.00048633198987585582 -0.0001282640663608306 -0.004319197181990678 0.0016587024355706446 0.0012205562851849009 0.0009639325326316543 -0.0042555683167121794 -0.00049270090396204193 -0.006782584513128076 0.0019498890514071964 0.0023051806519365807 0.011150963062576253 -0.0016356073386884725 0.0019430540263373401
leaf_count=34935 1205 15602 159904 898 59909 3706 2481 399 23234 691 2047 37998 8493 36317 115854 7475 77909 45291 4566 36762 12433 3606 36589 12986 44786 40549 4185 34063 925 25699 10332
internal_value=0 0.0446702 0.0522045 -0.0807326 -0.0491713 -0.114998 -0.141072 0.0250774 -0.122265 0.0830516 -0.0193578 0.00748933 -0.120062 -0.0382021 0.0416775 -0.109584 0.106271 0.00906197 -0.0482086 -0.0934046 0.0730608 -0.0568756 0.0145511 -0.0864388 -0.0235783 -0.129796 0.0303153 0.0225651 0.0643864 -0.00776024 0.0762394
internal_count=901829 581016 558367 320813 166995 153818 22649 297098 142955 261269 10863 144256 22377 144618 152842 108020 78600 143051 7047 59996 182669 63515 36988 13884 81103 48024 7157 79354 5110 63697 170236
shrinkage=0.0561523


Tree=20
num_leaves=32
num_cat=0
split_feature=16 32 16 16 20 32 16 9 11 16 16 16 16 7 1 16 2 29 2 21 20 16 10 29 9 1 11 5 7 13 29
split_gain=2887.93 805.758 449.797 243.949 169.613 119.379 83.1147 56.3507 57.5972 53.3806 47.6263 30.0909 27.7681 27.333 25.487 24.7464 23.0158 21.3692 20.5499 19.9556 19.699 19.1078 20.9523 18.6419 18.0629 22.9057 28.8006 17.6415 16.4726 16.326 19.95
threshold=208.79213378176385 1.5000000000000002 225.72007626134243 181.88979459520411 0.70179394580025867 1.5000000000000002 236.54959530781659 0.95223560384034234 0.66177189350813648 217.72939340374663 198.88687603587798 227.50119621977527 103.18260775985767 -12.528806686401365 1429.5000000000002 230.03526450848798 14.786474164133741 0.53622864946996895 12.147603485838781 14.500000000000002 0.79066695146231292 247.06882198331525 0.98801608194469925 0.86749642516682568 0.88080728258559704 2526.5000000000005 0.60958865214282243 70.003574371337905 -77.447860717773423 31.009998157477749 2.0304069978245107
decision_type=2 2 2 2 2 2 2 2 2 2 2 2 2 2 2 2 2 2 2 2 2 2 2 2 2 2 2 2 2 2 2
left_child=3 2 9 7 14 10 15 24 27 17 16 -6 23 28 -3 -4 -5 -2 -14 -15 -7 -8 -23 -10 -1 -26 -27 -9 -11 -12 -31
right_child=1 4 6 5 11 20 21 8 12 13 29 -13 18 19 -16 -17 -18 -19 -20 -21 -22 22 -24 -25 25 26 -28 -29 -30 30 -32
leaf_value=-0.010689792501192398 -0.0027864573195168821 -0.0086790282744633167 0.0028537203362014058 -0.004478275663508371 -0.0028290791202293755 -0.0087035466448922277 0.0053670946432022608 -0.0011125069422938294 -0.0027845968223022643 0.0011311565080651643 -0.0028653023917922771 0.0030616191180502235 -0.0069014221407262388 0.0013321734994880562 -0.0032902299760874118 0.0040585538696978271 -0.0024796861346414816 0.00028407970617584666 -0.0048140866854625647 -0.0041085754125949302 -0.0030255462026499689 0.0091286670447121698 -0.024234768431678728 0.010780991551656785 -0.0081788170902530408 0.00580619181950755 -0.0081276905585423529 0.0092391055097337596 0.0036386219493695368 -0.0010082735263864185 -0.0068881065390002201
leaf_count=8577 7665 24123 90695 52600 5293 13732 86858 4320 1025 11485 31341 5656 51922 99506 3126 131959 27755 105647 20841 2172 2241 5483 60 464 25383 861 1024 590 29427 48107 1891
internal_value=0 0.0392979 0.048705 -0.0815669 -0.101313 -0.0583387 0.0740009 -0.117451 -0.102556 0.0175618 -0.0501915 0.00380963 -0.109492 0.0304369 -0.143553 0.0635376 -0.0674586 0.0013601 -0.112258 0.0216545 -0.140812 0.0992138 0.156138 0.0256925 -0.150346 -0.137756 -0.0314003 0.00233959 0.0522635 -0.0331333 -0.0219164
internal_count=901829 609155 570957 292674 38198 177667 315055 115007 79162 255902 161694 10949 74252 142590 27249 222654 80355 113312 72763 101678 15973 92401 5543 1489 35845 27268 1885 4910 40912 81339 49998
shrinkage=0.0561523


Tree=21
num_leaves=32
num_cat=0
split_feature=16 33 16 16 20 17 16 16 20 20 1 16 1 17 30 17 30 30 7 17 20 9 16 29 2 29 9 29 10 16 11
split_gain=2579.47 648.294 366.649 287.271 102.668 88.9064 79.1271 76.6383 71.2699 44.7917 44.1113 43.8352 35.9092 33.8508 32.514 30.9322 29.6456 33.6454 30.4104 26.6547 35.8593 26.6407 25.6694 23.5582 22.9177 21.0651 20.3626 18.7121 18.5574 19.955 18.4042
threshold=211.4792630398118 2.5000000000000004 229.40890765698464 193.88751050950063 0.66170900560563639 84.224707127810817 221.70186834367885 168.62977732793524 0.55933273412086981 0.63031211071048865 134.50000000000003 238.00224361701598 134.50000000000003 71.499693824079301 1.5000000000000002 45.042264748407725 1.0000000180025095e-35 2.5000000000000004 -7.5946431159973136 46.551791154294101 0.16546597987267511 0.95262318079538921 204.95255999801455 1.6504467008094235 23.219375000000003 0.49758922762338514 0.94937014025365285 1.4516734495464123 0.9654894972059741 245.70614101852649 0.66464030549396413
decision_type=2 2 2 2 2 2 2 2 2 2 2 2 2 2 2 2 2 2 2 2 2 2 2 2 2 2 2 2 2 2 2
left_child=3 2 6 5 14 7 12 21 -3 -7 -4 -12 -2 22 -5 -8 18 27 -14 20 -9 -1 -6 25 -10 -21 -11 -18 29 -13 -15
right_child=1 8 10 4 13 9 15 19 24 26 11 28 16 30 -16 -17 17 -19 -20 23 -22 -23 -24 -25 -26 -27 -28 -29 -30 -31 -32
leaf_value=-0.0090196085756472869 -0.009093791422246901 -0.0092630781397755862 -0.01041455372944739 -0.0041833994381847931 -0.002641174105273899 -0.0074033887684680525 -0.00053987971706355431 -0.0096843668747426098 -0.0067266578369268764 -0.0025261138151227969 0.0038149770929459472 0.00535823912303828 0.0021397663019602237 0.005319090373892079 -0.0088819686339283704 0.0024641417375458616 -0.0025542142072739037 0.00046528205057744411 0.00027886124705371579 -0.0070140990033213616 -0.0016265621078650309 -0.0066099304578191237 -0.001046519300815013 -0.010055857106790897 -0.00014754099539597391 -0.0046587255144977663 0.0030781331554506687 -0.0085096604556265127 0.0022395541731404108 0.0083151297472423349 -0.00086656912969657171
leaf_count=21598 1233 15275 644 11620 66730 2523 11676 2015 2602 3183 171624 57792 38997 3220 7735 145359 5478 10798 95490 14856 12826 43812 60855 3170 4658 61679 5714 2389 5191 8220 2867
internal_value=0 0.0400766 0.0468291 -0.0713623 -0.0398707 -0.0994821 0.0241005 -0.105568 -0.126193 -0.014239 0.0759008 0.076594 0.00802426 -0.0300145 -0.107941 0.0399055 0.00939268 -0.0279534 0.0145758 -0.0873616 -0.0484502 -0.131884 -0.0334904 -0.0946069 -0.0446199 -0.091108 0.0191115 -0.0776945 0.0974534 0.101981 0.042841
internal_count=901829 577426 554891 324403 153027 171376 311420 159956 22535 11420 243471 242827 154385 133672 19355 157035 153152 18665 134487 94546 14841 65410 127585 79705 7260 76535 8897 7867 71203 66012 6087
shrinkage=0.0561523


Tree=22
num_leaves=32
num_cat=0
split_feature=16 32 16 16 20 32 16 17 17 16 9 17 14 20 30 26 7 30 18 18 20 12 11 16 16 17 8 24 5 16 32
split_gain=2301.87 650.914 359.553 196.054 141.493 102.036 77.2538 71.9214 54.6527 44.6831 38.8443 35.8546 32.816 29.3867 26.1829 29.9999 29.8698 25.463 25.0419 24.9455 23.4702 23.3383 21.6863 20.9845 21.7507 22.8723 18.9931 18.9501 19.8581 18.6518 18.4336
threshold=208.79213378176385 1.5000000000000002 224.53372157515255 179.00515613973184 0.71450295827925614 1.5000000000000002 234.7125493019177 100.1927657976026 79.310044519249359 198.88687603587798 0.95223560384034234 47.363696195258136 20.297494534575751 0.64593201242337328 1.0000000180025095e-35 1.4341030606165137 -14.878949165344237 2.5000000000000004 1.5000000000000002 3.5000000000000004 0.4957644450185138 40.281222920256972 0.69094049810751168 103.18260775985767 147.18736855205029 35.787735030554238 725.50000000000011 21.500000000000004 20.000001907348636 247.06882198331525 1.5000000000000002
decision_type=2 2 2 2 2 2 2 2 2 2 2 2 2 2 2 2 2 2 2 2 2 2 2 2 2 2 2 2 2 2 2
left_child=3 2 12 7 20 8 19 10 9 11 -1 -5 21 -9 16 -16 -14 -17 -6 -4 -3 -2 -10 -12 -25 30 -18 -21 -29 -8 -26
right_child=1 4 6 5 18 -7 29 13 22 -11 23 -13 14 -15 15 17 26 -19 -20 27 -22 -23 -24 24 25 -27 -28 28 -30 -31 -32
leaf_value=-0.0080713715213374063 -0.012351635192586658 -0.0083225779517786987 0.0031218186403797941 0.00014782996699271023 0.0030963226999808765 -0.0071600260858015576 0.0045613555109937929 -0.0072000287450136573 0.0047076149921362609 -0.0018346131499510439 0.00099801955297188524 -0.0040301532792187756 0.0025391379641273204 0.0021817971935311469 0.00051618423164311944 -0.0089855966270848703 0.00022195456038961455 -0.0010720846489691589 -0.0023877542891523498 0.0021712627882554186 -0.0047858779802798183 -0.00043599416921264388 -0.0022183399607048518 -0.0080386141627347956 -0.00091919131894647305 -0.0057563644924099374 0.0016364004067540411 -0.022767458513368047 -0.0014659462726133276 0.0078796521970479153 -0.0094802792536932187
leaf_count=30506 524 19152 197710 7058 5384 16998 120841 1374 4381 79007 1461 78623 44858 4502 12607 2288 68102 2916 5124 9817 8561 47535 2113 11390 5418 48623 53409 142 4888 5588 929
internal_value=0 0.0350499 0.0435035 -0.0728843 -0.0912918 -0.053615 0.0642696 -0.107683 -0.0462774 -0.0498255 -0.114105 -0.0656428 0.0131925 -0.00021333 0.0192646 -0.0171755 0.0231658 -0.0810538 0.0075176 0.0526269 -0.128758 -0.0100782 0.0437038 -0.100775 -0.103385 -0.0951437 0.0150245 0.0130945 -0.036816 0.0838438 -0.0386852
internal_count=901829 609446 571225 292383 38221 188180 338986 104203 171182 164688 98327 85681 232239 5876 184180 17811 166369 5204 10508 212557 27713 48059 6494 67821 66360 54970 121511 14847 5030 126429 6347
shrinkage=0.0561523


Tree=23
num_leaves=32
num_cat=0
split_feature=29 17 32 1 11 31 9 2 2 2 1 11 1 17 20 26 10 11 20 11 28 29 13 2 11 22 10 10 1 29 17
split_gain=1190.3 496.96 221.292 130.153 98.153 95.4885 83.8872 84.8316 49.5757 46.4535 42.1923 33.2996 32.8394 32.5141 32.2666 28.2577 28.1897 28.1207 20.3949 19.9474 19.9269 18.4696 18.4269 18.0532 18.0097 17.5541 20.5034 17.4553 24.8299 17.4136 16.1478
threshold=0.64600950844737015 49.441724292802739 1.5000000000000002 650.50000000000011 0.85701294219439395 1.5000000000000002 0.92663221654411199 18.65261756876664 23.430194805194809 15.282813781788354 575.50000000000011 0.68096113264427227 466.50000000000006 40.770091768439606 0.74395519862149617 1.4094354053944385 0.90120238299067124 0.92100767390289462 0.74395519862149617 0.87053667434715831 1069.2500000000002 0.18524860476915275 23.032396579507214 43.685855263157897 0.87607298113763643 8036.5000000000009 0.9654894972059741 0.98801608194469925 27913.000000000004 0.056058942442868735 52.312265753027013
decision_type=2 2 2 2 2 2 2 2 2 2 2 2 2 2 2 2 2 2 2 2 2 2 2 2 2 2 2 2 2 2 2
left_child=2 3 4 8 9 13 16 10 12 -1 19 -9 24 25 -7 -16 -3 21 -13 22 -18 -6 -8 -17 -2 26 -5 -27 -29 -11 -20
right_child=1 6 -4 5 17 14 7 11 -10 29 -12 18 -14 -15 15 23 20 -19 30 -21 -22 -23 -24 -25 -26 27 -28 28 -30 -31 -32
leaf_value=-0.0048892402292993247 -0.0025438329209330076 -0.0022046229841151785 -0.0079142983095060408 0.0042789019895671833 -0.0068470517861706796 -0.0040045960077415201 -0.0069106480639343952 0.0029948067276393091 0.002268883199884142 -0.022194513765927182 -0.00028974062456685898 -0.0034314037169916531 0.00078487632182351076 0.0029435226107980801 0.0023958639238392957 -0.0034457044133760781 -0.0078491902297400905 0.0024823675037288621 0.0015538575374599128 -0.00014143027527358074 -0.002876388688646318 -0.00099144095241592749 -0.002142393114819939 0.0010886395283941281 0.00074090424225608002 0.0069623878083634105 0.00011438858141906216 -0.034445531073318325 0.0095516706856806632 -0.0018163342051991486 -6.3265415622095603e-05
leaf_count=65029 18492 22681 41332 65656 1834 4940 2652 20577 51426 133 114531 4019 60039 151766 16507 5767 5978 7586 35611 16272 4419 22977 70198 5325 7357 9147 3952 78 84 22509 42955
internal_value=0 0.0169428 -0.077833 0.0408083 -0.0561079 0.0538281 -0.0111806 -0.00602229 0.0158502 -0.0734884 -0.0178569 0.0173406 0.00114735 0.0609814 0.00311495 0.0164376 -0.0590266 -0.00907372 0.00837249 -0.0341739 -0.102144 -0.0253646 -0.0412445 -0.0225971 -0.0286533 0.0774452 0.071991 0.118228 -0.207154 -0.0344783 0.0119268
internal_count=901829 740429 161400 400536 120068 263222 339893 306815 137314 87671 203653 103162 85888 230683 32539 27599 33078 32397 82585 89122 10397 24811 72850 11092 25849 78917 69608 9309 162 22642 78566
shrinkage=0.0561523


Tree=24
num_leaves=32
num_cat=0
split_feature=16 32 16 16 20 32 17 16 16 17 9 16 26 17 17 0 17 12 20 13 11 0 26 19 7 7 17 16 26 0 6
split_gain=1936.39 528.514 291.233 168.976 113.79 77.354 66.1901 47.4898 45.0219 38.1451 37.522 33.3753 28.2963 27.935 25.3519 25.0166 24.3114 22.2028 22.1792 21.63 19.885 19.7563 18.9018 18.6351 17.4627 17.2871 36.1036 16.6017 16.0342 15.9449 15.5556
threshold=208.79213378176385 1.5000000000000002 227.00329423165937 181.88979459520411 0.74395519862149617 1.5000000000000002 100.1927657976026 218.15092592592597 236.73344575604276 75.263087790858492 0.89059506616758533 198.88687603587798 0.93293958276102151 47.674896109272247 47.363696195258136 45.000000000000007 52.890667753315235 95.026911934581207 0.4957644450185138 24.59883536056368 0.69094049810751168 29.500000000000004 1.3660352176075448 770.25000000000011 -81.82159042358397 -9.4623217582702619 57.331421346534704 228.58139792899411 0.85339731897108961 35.000000000000007 0.27256374662086708
decision_type=2 2 2 2 2 2 2 2 2 2 2 2 2 2 2 2 2 2 2 2 2 2 2 2 2 2 2 2 2 2 2
left_child=3 2 7 6 18 9 10 16 21 11 -1 14 23 -9 -5 19 29 -6 -3 -12 30 -4 -16 -8 -14 -15 -27 -20 -18 -2 -11
right_child=1 4 8 5 17 -7 12 13 -10 20 15 -13 24 25 22 -17 28 -19 27 -21 -22 -23 -24 -25 -26 26 -28 -29 -30 -31 -32
leaf_value=-0.0091763266776864021 7.0309206759625731e-05 -0.0074645125266316571 0.0033916418756900408 0.00035305510051299524 -0.005731620900554439 -0.006393992665946817 0.0017897128290295071 7.4562802108636139e-05 0.0045345110026114733 -0.022020574668416868 -0.0059450787211258104 -0.0016761608375090362 -0.015979758380506269 0.002890151165385762 -0.0033449881465266234 -0.0066693373262436302 -0.00066989911657076666 0.001859890821526934 -0.0058333412495082696 -0.0038895438330715667 -0.0021892143710893382 0.0021828989528531128 -0.0067619913307645765 -0.00741811452470494 0.0046450048468222758 0.0016354337615148453 -0.0078119990176895348 -0.00088912122956898675 0.0013858032343489397 -0.0018314603932210931 0.0042841038732245942
leaf_count=9236 32567 19117 137384 5475 1429 15995 1139 31587 89188 72 28806 78440 135 41031 64922 34062 16066 8102 6285 36714 2689 61821 5540 1770 3143 88888 1294 3248 46852 24253 4579
internal_value=0 0.0321082 0.0397257 -0.0668579 -0.0817981 -0.0475298 -0.0967247 0.0169074 0.0620807 -0.0409684 -0.102445 -0.0443173 0.00388701 0.0280261 -0.0592612 -0.0967899 0.00179018 0.0128522 -0.113286 -0.0853619 0.029466 0.0537204 -0.0643544 -0.067902 0.0675948 0.0344531 0.0267108 -0.0738846 0.0153312 -0.0132041 0.0690425
internal_count=901829 609112 570931 292717 38181 177712 115005 282538 288393 161717 108818 154377 6187 162800 75937 99582 119738 9531 28650 65520 7340 199205 70462 2909 3278 131213 90182 9533 62918 56820 4651
shrinkage=0.0561523


Tree=25
num_leaves=32
num_cat=0
split_feature=16 33 16 16 20 17 16 30 20 8 30 26 0 1 17 0 16 30 26 1 21 26 28 27 1 26 17 16 17 0 18
split_gain=1717.68 418.176 222.745 218.125 79.3895 63.6375 60.034 48.2952 45.9633 42.7834 37.4258 33.9401 30.344 29.7248 28.8431 28.4806 27.2269 24.6013 23.8606 22.8958 22.6968 22.1429 20.0215 20.943 18.9437 17.9962 21.9214 17.5197 19.8135 17.3677 17.2761
threshold=212.53708615777586 2.5000000000000004 229.7341956396717 195.11974785674195 0.6762154855445609 84.224707127810817 165.9166920847949 1.0000000180025095e-35 0.56851301833783441 701.50000000000011 2.5000000000000004 0.72082843735645175 33.000000000000007 134.50000000000003 71.499693824079301 33.000000000000007 239.25693488539113 1.5000000000000002 2.0390275944354186 118.50000000000001 15.500000000000002 1.4341030606165137 880.25000000000011 14.500000000000002 671.50000000000011 0.18600819781396596 40.4752699736826 147.18736855205029 39.392412693725412 29.500000000000004 1.5000000000000002
decision_type=2 2 2 2 2 2 2 2 2 2 2 2 2 2 2 2 2 2 2 2 2 2 2 2 2 2 2 2 2 2 2
left_child=3 2 7 5 17 6 27 9 -3 12 -9 -7 19 -4 18 25 29 -5 24 -2 -14 -17 23 -21 -6 -8 -27 -1 -29 -15 -10
right_child=1 8 13 4 14 11 15 10 30 -11 -12 -13 20 16 -16 21 -18 -19 -20 22 -22 -23 -24 -25 -26 26 -28 28 -30 -31 -32
leaf_value=-0.00752245282444069 -0.0088340082474168361 -0.0074570438342483249 -0.0086956997458776837 -0.0033332557229397712 -0.0017705581536080054 -0.0048130419323030565 -0.0070001433001802395 -0.0031325894347146075 0.0011782161255128622 0.0021988951379798573 0.00075487577092239646 0.0016115731894508628 -0.00019825451029218587 0.0035267488195411959 0.0026271858382809557 -0.0045072115498260481 0.0046351104502886011 -0.0072877280804173267 -0.0066710296641528648 0.0027250990211968792 -0.0096883913653746587 -0.0085239252973979569 -0.0037014579252221558 0.00096193080723512201 -0.00037501760117581871 0.0014226661783028718 -0.0030644987377219483 -0.0035622851516049574 -0.0063712780307707681 0.0022805882107517889 -0.0044881842816414264
leaf_count=21443 690 15025 629 12502 81056 3875 3270 13355 3119 126269 18802 7835 47956 133933 6013 56260 53951 8223 2604 32071 808 4688 2339 62906 49339 3752 40362 11437 25730 47867 3720
internal_value=0 0.0337209 0.0391948 -0.0564156 -0.0295655 -0.080423 -0.0854216 0.0213467 -0.101867 0.0256638 -0.0153086 -0.00916117 0.0140532 0.0622388 -0.0209576 -0.0714732 0.062818 -0.087303 -0.0240204 0.0241956 -0.00633104 -0.0857698 0.0254826 0.0277335 -0.0221275 -0.0530841 -0.0477782 -0.111203 -0.0980708 0.0569637 -0.0339071
internal_count=901829 563440 541576 338389 159737 178652 166942 305196 21864 273039 32157 11710 146770 236380 139012 108332 235751 20725 132999 98006 48764 60948 97316 94977 130395 47384 44114 58610 37167 181800 6839
shrinkage=0.0561523


Tree=26
num_leaves=32
num_cat=0
split_feature=16 32 16 16 32 12 17 16 27 23 29 28 4 0 12 26 0 32 17 1 23 16 16 30 24 15 4 22 29 29 7
split_gain=1537.84 351.175 243.038 154.878 102.984 73.0311 55.6582 54.5332 36.6752 34.9505 31.6949 29.5667 28.3533 28.6533 31.1686 28.9345 25.8318 25.6022 36.355 22.1448 22.0406 21.7333 21.3142 20.4049 19.5812 19.2819 22.3548 40.2597 30.9141 34.5284 21.9092
threshold=215.01719588754437 1.5000000000000002 195.67431430123224 230.03526450848798 1.5000000000000002 92.059397513309008 79.310044519249359 161.60728985001748 31.500000000000004 0.9171938146354951 0.2063220011178877 439.75000000000006 5.0068871974945077 33.000000000000007 95.574116139070426 1.9731342958485378 33.000000000000007 1.5000000000000002 45.042264748407725 470.50000000000006 0.83504104814495994 242.06674449523595 184.58385639624973 1.0000000180025095e-35 21.500000000000004 0.25467599840793653 50.360145568847663 2105.2500000000005 1.1823221613220125 0.99998881256572625 -52.125013351440423
decision_type=2 2 2 2 2 2 2 2 2 2 2 2 2 2 2 2 2 2 2 2 2 2 2 2 2 2 2 2 2 2 2
left_child=2 3 6 8 12 -3 7 -1 10 -8 -2 -10 -4 14 -14 19 -12 18 -9 -15 -7 24 -20 -18 -5 26 27 -23 29 -29 -30
right_child=1 5 4 21 -6 20 9 17 11 -11 16 -13 13 15 -16 -17 23 -19 22 -21 -22 25 -24 -25 -26 -27 -28 28 30 -31 -32
leaf_value=-0.0061045231705266533 -0.0078642646530821189 -0.0064865153570107135 -0.012008924223812589 0.0033331900930562669 -0.0056307626980355279 -0.0033033524648150301 -0.003756782596189152 -0.00099395257873798027 -0.015603138429766477 0.0020101310354777757 0.0021122817952400732 -0.00052141522983917233 -0.00098584142360005791 -0.0032792416380544769 0.001347627950773315 -0.0073264902801829495 0.0011714742130702045 -0.006402230943782128 -0.0048313338069379185 -0.0010055398366755511 0.00091961165152099923 0.0071050825649406251 -0.0031481431047382679 -0.0019152426815575937 0.00073993014535717755 0.0054627868767270025 0.0071951892677297241 0.010197849727972438 -0.0253424461331202 -0.033147508467360927 0.0019074963982418992
leaf_count=47979 1110 15860 730 189210 16308 7396 6310 14589 418 6978 149665 21046 48039 16308 28911 2667 92736 11378 48305 78621 8237 646 46610 7283 9649 22947 937 73 115 281 487
internal_value=0 0.034694 -0.0491324 0.0411879 -0.0242673 -0.0677068 -0.0752854 -0.080189 0.025157 -0.0129714 0.0285525 -0.0145163 -0.0171953 -0.0163727 -0.00194347 -0.0277496 0.029302 -0.0688674 -0.0641763 -0.0248635 -0.0192028 0.0606425 -0.0713198 0.0168597 0.057119 0.0881358 0.00544529 -0.0663164 -0.196631 -0.431132 -0.0587342
internal_count=901829 528096 373733 496603 191584 31493 182149 168861 272258 13288 250794 21464 175276 174546 76950 97596 249684 120882 109504 94929 15633 224345 94915 100019 198859 25486 2539 1602 956 354 602
shrinkage=0.0561523


Tree=27
num_leaves=32
num_cat=0
split_feature=16 32 16 16 20 32 17 16 17 16 17 0 14 0 30 30 17 12 20 18 24 14 20 27 17 11 6 11 20 5 17
split_gain=1378.69 371.994 214.138 124.561 88.9367 60.5615 45.3181 44.7845 36.0404 27.26 26.3207 25.3011 30.4303 24.3357 24.3009 24.9728 24.0346 23.9098 23.5148 17.9482 17.1297 21.8403 17.0249 16.9713 16.7206 15.8256 16.4403 15.2284 15.5585 15.0068 14.8495
threshold=208.79213378176385 1.5000000000000002 224.36293815373895 179.00515613973184 0.7596056721056722 1.5000000000000002 100.1927657976026 232.10300768882863 79.310044519249359 198.88687603587798 49.513781269024271 33.000000000000007 19.056925676907483 24.000000000000004 1.0000000180025095e-35 1.5000000000000002 44.015834925444054 43.088834764831851 0.64593201242337328 1.5000000000000002 21.500000000000004 17.267723166507356 0.4957644450185138 13.500000000000002 49.721729645444213 0.70506076962620268 0.27256374662086708 0.79145263120922371 0.7490442096119837 28.00000095367432 47.042549147570647
decision_type=2 2 2 2 2 2 2 2 2 2 2 2 2 2 2 2 2 2 2 2 2 2 2 2 2 2 2 2 2 2 2
left_child=3 2 11 6 22 8 13 16 9 10 -5 17 -13 -1 29 -16 -4 -2 -8 -6 30 -22 -3 -19 -25 26 -10 -15 -29 -14 -9
right_child=1 4 7 5 19 -7 18 20 25 -11 -12 12 14 27 15 -17 -18 23 -20 -21 21 -23 -24 24 -26 -27 -28 28 -30 -31 -32
leaf_value=-0.0036627169968305429 -0.0082144576197511789 -0.00633978933528996 0.00015010861240350535 -0.0003776388479914851 0.0034534134587775444 -0.0055012268057598743 -0.0063667884417617487 0.0035579677272219784 -0.021562637377707333 -0.0013941172485973593 -0.0032327230330051735 -0.0035013206488066165 -0.00087479708127566748 -0.0062506201330420974 -0.010812872107427879 -0.0015314336393388009 0.0023379916503517722 0.0020429428439931721 0.002019726548503947 -0.0015530501294548479 -0.015825501784576548 0.0013193330830331832 -0.0034827729667475452 -0.00068117851351960114 0.0011942784636110853 -0.0023502088115296511 0.0042715731321160983 -0.0063144379031928781 -0.0034943745723734808 0.00084401302537490553 -0.0011070487222518504
leaf_count=29665 859 19053 17786 11808 4651 16961 1375 170480 79 79163 73894 7548 20586 42147 1035 7822 144069 45302 4518 4388 242 7340 10043 20928 52819 1805 4614 9765 16749 72156 2179
internal_value=0 0.0272002 0.033585 -0.0563196 -0.0684247 -0.0409693 -0.0840576 0.0494291 -0.0353276 -0.0382067 -0.0505652 0.00992166 -0.00109419 -0.0891626 0.00345693 -0.0465882 0.037355 0.0199489 0.00112053 0.0182186 0.0602715 0.0137503 -0.0953414 0.0211484 0.0117904 0.0377208 0.0683265 -0.0995034 -0.0807268 0.00823631 0.0623144
internal_count=901829 609286 571151 292543 38135 188324 104219 342096 171363 164865 85702 229055 109147 98326 101599 8857 161855 119908 5893 9039 180241 7582 29096 119049 73747 6498 4693 68661 26514 92742 172659
shrinkage=0.0561523


Tree=28
num_leaves=32
num_cat=0
split_feature=29 0 32 12 14 30 0 20 0 1 11 1 30 9 23 14 14 11 21 28 4 30 11 11 27 27 11 6 19 11 12
split_gain=718.845 377.902 127.442 109.003 81.8749 82.7166 63.3604 60.1093 58.4594 40.637 35.7484 34.7252 33.5236 31.3128 30.7974 28.6365 26.7333 24.9134 24.85 23.9336 23.6913 22.0421 21.3203 20.6182 20.3881 19.9311 18.1648 17.5961 16.3202 15.6759 15.1702
threshold=0.6395241034673923 35.000000000000007 1.5000000000000002 99.819805153394668 21.642722202792957 1.0000000180025095e-35 29.500000000000004 0.70823791431940275 49.500000000000007 762.50000000000011 0.87308738648693673 462.50000000000006 1.0000000180025095e-35 0.93489080987870354 1.4014599317988068 26.60978152578279 29.399624229985452 0.80342008598311132 1.5000000000000002 1122.2500000000002 7.0084991455078134 2.5000000000000004 0.81655508284818645 0.87607298113763643 2.5000000000000004 31.500000000000004 0.86034369179046843 0.74074074171581195 733.25000000000011 0.9018273918694677 86.097979746446683
decision_type=2 2 2 2 2 2 2 2 2 2 2 2 2 2 2 2 2 2 2 2 2 2 2 2 2 2 2 2 2 2 2
left_child=2 3 6 11 13 8 10 -5 9 30 16 20 18 -3 -7 17 24 -8 -9 22 -2 -16 -10 -22 -1 -13 28 -24 -27 -20 -6
right_child=1 4 -4 7 5 14 15 12 19 -11 -12 25 -14 -15 21 -17 -18 -19 29 -21 23 -23 27 -25 -26 26 -28 -29 -30 -31 -32
leaf_value=-0.010218025981223056 -0.014285057353002204 -0.0077494108121849937 -0.0061329621088601436 -0.003763461185595287 -0.0021886033103602743 -0.0022550889972145455 -0.0057515458063945347 0.0045487426845872382 -0.0030535198388683062 0.0015792803481077184 0.0010218468307859943 0.0014165712121912233 0.00092873731807494335 -0.0024768774411215392 -0.0091895125074811113 9.6670935354367318e-05 0.0041317236161276388 -0.0031508037436478861 0.0024208405475557781 0.00095880156245862211 -0.00085909201679046799 -0.0024496912980558265 0.00073657289605875813 0.0016784747343490886 -0.0021667022197722052 -0.0023783707356315833 0.00096423042380848012 -0.0024142280288299905 -0.013842182275504799 0.0038327273471970053 3.1997712920813393e-05
leaf_count=1013 385 3813 40960 4797 11939 21360 22373 23691 26956 69501 15464 131401 33674 51795 4080 4936 2103 24150 171076 10540 46722 2448 12154 12879 47151 5429 7541 10346 422 28998 51732
internal_value=0 0.0130383 -0.0612041 0.0303886 -0.0162494 -0.00762131 -0.0444217 0.0438892 -0.000271331 0.0114052 -0.0238481 0.0131001 0.0459558 -0.0505485 -0.0585314 -0.0707012 -0.036783 -0.0783852 0.0503826 -0.0261895 -0.00713143 -0.118643 -0.03541 -0.00553418 -0.0416019 0.0214818 -0.0152692 -0.012684 -0.0570803 0.0467563 -0.00684547
internal_count=901829 743679 158150 467015 276664 221056 117190 262236 193168 133172 65731 204779 257439 55608 27888 51459 50267 46523 223765 59996 59986 6528 49456 59601 48164 144793 13392 22500 5851 200074 63671
shrinkage=0.0561523


Tree=29
num_leaves=32
num_cat=0
split_feature=16 32 16 16 20 20 16 17 17 9 29 17 17 16 17 16 26 16 29 32 4 17 16 16 10 19 27 4 9 16 17
split_gain=1154.36 301.874 177.807 104.951 70.7848 49.4352 41.6969 38.5476 33.3653 30.9144 25.4741 23.6731 23.402 26.5761 21.8609 22.7284 19.7626 17.4341 19.1354 16.4085 17.7804 16.3876 16.2389 15.7222 21.3572 15.6507 15.6397 15.5312 14.1794 14.1547 18.648
threshold=208.79213378176385 1.5000000000000002 223.33704450432961 179.00515613973184 0.76812624981961375 0.69555675935957639 231.28644972765741 100.1927657976026 75.263087790858492 0.95223560384034234 2.0304069978245107 44.861320291092461 50.079572725279696 216.16648668106555 47.514892077259681 197.87284070391033 0.93293958276102151 103.18260775985767 0.75870351313495132 1.5000000000000002 5.0068871974945077 54.380604844115716 223.67807753873331 244.66780840373326 0.98801608194469925 767.25000000000011 14.500000000000002 25.961814880371097 0.96810096733448814 147.18736855205029 35.787735030554238
decision_type=2 2 2 2 2 2 2 2 2 2 2 2 2 2 2 2 2 2 2 2 2 2 2 2 2 2 2 2 2 2 2
left_child=3 2 12 7 27 19 11 9 10 -1 14 -4 26 21 -7 -16 25 18 -11 20 -5 -14 -6 -8 -25 -9 -2 -3 -12 -19 -31
right_child=1 4 6 5 22 8 23 16 -10 17 28 -13 13 -15 15 -17 -18 29 -20 -21 -22 -23 -24 24 -26 -27 -28 -29 -30 30 -32
leaf_value=-0.0060826437225783639 0.00044058623889895316 -0.0053754740370755829 0.00016674372237676874 -0.012648699452110198 -0.0022770623110048046 0.0010108107794548373 0.0028836144954975771 0.0019523795572335258 0.0019505857484801096 -0.0023848919951389783 -0.0080215419561594642 0.002078804153330443 -0.00057258544150186102 0.0014962469654831014 -0.0027365501181396516 -0.0012869439741699244 0.0031957383807036679 -0.0058680630686946218 0.011332158987884441 -0.0056059126948651049 -0.002694566650988339 0.0010710059703969447 0.0027695604705601602 0.0052535289846800028 -0.01484898032367409 -0.0066401121196969981 -0.0015373557362587937 -0.0020324567009048322 0.0026610517781094625 -0.00084115007358854371 -0.0040660944317866127
leaf_count=30525 23004 24073 23882 585 3117 8362 185287 1090 7490 966 3028 140708 51407 76170 62556 74982 3070 11367 480 13688 17247 30462 5663 11931 169 1728 27883 5357 450 6396 48706
internal_value=0 0.0246667 0.030426 -0.0517452 -0.0613845 -0.0376541 0.0438335 -0.0771898 -0.0303928 -0.0818909 -0.0336585 0.03208 0.00719662 0.0132022 -0.0316423 -0.0346605 0.00140612 -0.0700103 0.038618 -0.0737923 -0.0538023 0.000693929 0.0174161 0.0536342 0.0885584 -0.0590634 -0.0114547 -0.0848935 -0.118239 -0.0723734 -0.0657455
internal_count=901829 609113 570903 292716 38210 188388 361977 104328 156868 98440 149378 164590 208926 158039 145900 137538 5888 67915 1446 31520 17832 81869 8780 197387 12100 2818 50887 29430 3478 66469 55102
shrinkage=0.0561523


Tree=30
num_leaves=32
num_cat=0
split_feature=16 33 16 16 33 0 17 29 27 16 14 16 29 8 31 31 28 7 17 29 11 29 16 23 23 7 21 28 12 0 13
split_gain=1029.21 224.549 172.767 100.576 56.7749 40.5585 38.1599 32.6558 31.5406 29.8238 29.6809 22.4336 22.3093 27.3943 26.3961 20.9491 19.8403 19.7437 41.4904 19.4881 19.1254 18.9512 18.9501 17.802 15.3348 19.0808 15.3222 15.2529 14.944 14.7604 14.7562
threshold=215.48936049801929 2.5000000000000004 197.87284070391033 230.03526450848798 2.5000000000000004 29.500000000000004 90.7034377091896 0.2063220011178877 27.500000000000004 174.68355815287731 8.6137548627967302 164.51644939258418 1.8367921368208486 718.50000000000011 1.5000000000000002 1.5000000000000002 461.25000000000006 -15.945394992828367 57.015664221775857 1.5821718790468793 0.81736136219758138 0.095137135811654866 238.22466754441868 0.59394068331983163 0.92310145994356529 -56.309932708740227 1.5000000000000002 880.25000000000011 40.281222920256972 29.500000000000004 30.113945730028579
decision_type=2 2 2 2 2 2 2 2 2 2 2 2 2 2 2 2 2 2 2 2 2 2 2 2 2 2 2 2 2 2 2
left_child=2 3 5 7 10 6 11 -2 15 -7 -4 -1 13 27 -14 17 -10 -9 28 30 -20 -5 -23 -3 -8 -26 -25 29 -19 -12 -11
right_child=1 23 4 21 -6 9 24 8 16 19 12 -13 14 -15 -16 -17 -18 18 20 -21 -22 22 -24 26 25 -27 -28 -29 -30 -31 -32
leaf_value=-0.0041568544360841174 -0.0066278125120668076 -0.0054833448928752393 -0.0070913854104598878 -0.0068470410327890526 -0.005477115152389799 -0.0050269934891028047 -0.0011000941937327352 0.0024592714920691552 -0.0063256776287604777 -0.0040080757028336722 -0.00017787890335643129 -0.0020183462823073605 -0.00068945956288208893 0.0004263708288641541 -0.0081996633134049143 -0.0001463187807365313 -6.4719708458460193e-05 -0.021516113904049169 -0.001104659280909936 -0.0070179691192927092 -0.011945811479022607 0.0024088960207893271 0.0035276000197306243 0.0056242308047235526 -0.0054626817042236295 0.0068224701068463605 -0.0028740010104465661 -0.004253187796387615 0.0013721835256782602 -0.0015209084929216179 -0.0022798792331687138
leaf_count=22963 1706 12921 2313 652 8478 52571 2491 59257 1670 26879 44960 47383 3285 57410 2679 24409 35957 90 998 4061 1056 161374 67804 752 474 2507 6058 4596 146466 60555 37054
internal_value=0 0.0287958 -0.0396042 0.0329133 -0.0176115 -0.0602412 -0.0421189 0.0198856 0.0207573 -0.0716375 -0.0137568 -0.0483759 -0.0122565 -0.0101168 -0.0723569 0.0251082 -0.00610127 0.0283626 0.0222084 -0.0578079 -0.118932 0.0483093 0.0487936 -0.0758448 0.0383196 0.0867114 -0.0344701 -0.0193505 0.0241865 -0.0168941 -0.0535411
internal_count=901829 521170 380659 501439 184276 196383 75818 271609 269903 120565 175798 70346 173485 167521 5964 232276 37627 207867 148610 67994 2054 229830 229178 19731 5472 2981 6810 110111 146556 105515 63933
shrinkage=0.0561523


Tree=31
num_leaves=32
num_cat=0
split_feature=16 33 16 16 32 9 17 29 27 14 16 17 13 5 0 30 11 17 28 29 16 6 0 23 0 0 29 24 14 29 23
split_gain=921.85 200.677 153.15 91.2043 67.4319 39.5293 50.0897 30.2134 28.6339 26.9045 24.3395 22.7942 21.611 19.8816 18.4412 18.3031 17.0215 43.5488 17.0213 17.0063 17.497 19.6488 16.761 16.0727 15.6427 15.4827 14.8943 14.8086 15.7663 13.163 12.6309
threshold=215.48936049801929 2.5000000000000004 192.6427506752751 230.03526450848798 1.5000000000000002 0.93927869633297867 84.224707127810817 0.2063220011178877 27.500000000000004 7.34383218962705 204.95255999801455 54.380604844115716 24.59883536056368 70.003574371337905 43.000000000000007 1.0000000180025095e-35 0.74786777706134111 56.472103740735612 461.25000000000006 0.16107854937064431 243.84645411186591 0.17303668040265793 29.500000000000004 0.53996509942570226 29.500000000000004 28.000000000000004 2.0304069978245107 20.500000000000004 18.866570048418577 2.0304069978245107 0.52987963565387131
decision_type=2 2 2 2 2 2 2 2 2 2 2 2 2 2 2 2 2 2 2 2 2 2 2 2 2 2 2 2 2 2 2
left_child=2 3 5 7 9 25 12 -2 15 -4 29 -12 -7 22 -14 16 -9 -18 -10 -5 24 -22 -8 -3 27 30 -17 -21 -29 -11 -1
right_child=1 23 4 19 -6 6 13 8 18 10 11 -13 14 -15 -16 26 17 -19 -20 20 21 -23 -24 -25 -26 -27 -28 28 -30 -31 -32
leaf_value=-0.0062018378545841465 -0.0064067171968007026 -0.0053124100019334248 -0.0095231756120375977 -0.0053429102089024953 -0.0043636270210432732 -0.0042340416644900602 0.0028720270648581255 0.0023990215917214274 -0.0058831110644278223 -0.0014116529236166372 -0.00091761226447427792 0.00067518180535960828 -0.0018758868249775394 0.0080904578392596797 -0.0035885510492468888 0.00042661091028783562 0.0013257079026413061 -0.0068362706535122428 -7.7311378576831117e-05 0.0028890526223560005 -0.010966339463922602 0.0046573554382791831 -0.0026586108892494905 -0.0020403406359364449 0.001633626659894581 -0.0061224546541651485 -0.0036453730409295435 -0.0065767135602901126 0.001352392731373104 -0.0063381725632131016 -0.0023259354492367297
leaf_count=3917 1700 11932 1113 852 18486 44561 3540 50869 1666 78772 67442 48849 41741 1169 37753 21161 154894 2089 35956 149896 258 15618 3375 7846 52872 19979 3270 863 9439 1748 8203
internal_value=0 0.0273091 -0.0374254 0.0312063 -0.0199513 -0.0604504 -0.0528041 0.0188007 0.0196377 -0.0145566 -0.0136799 -0.00442628 -0.0577742 0.0234657 -0.0478923 0.0237829 0.0268263 0.0216749 -0.00595536 0.0458689 0.0463937 0.0784199 0.00307542 -0.0714908 0.0440074 -0.0919273 -0.00210872 0.0489298 0.0122554 -0.0270444 -0.0637297
internal_count=901829 521181 380648 501403 216410 164238 132139 271605 269905 197924 196811 116291 124055 8084 79494 232283 207852 156983 37622 229798 228946 15876 6915 19778 213070 32099 24431 160198 10302 80520 12120
shrinkage=0.0561523


Tree=32
num_leaves=32
num_cat=0
split_feature=29 0 32 12 14 30 11 13 30 0 0 13 14 29 4 9 18 17 21 27 25 13 18 25 17 11 29 0 4 18 11
split_gain=478.833 263.913 85.0969 75.5524 58.5043 60.4016 49.9746 41.7252 39.2894 36.4255 30.2809 26.6238 24.3027 23.9936 31.323 23.3644 20.8231 20.6205 19.319 17.5114 17.2891 34.9253 45.8783 27.7733 18.8994 17.0082 16.8517 16.8502 15.9639 15.7993 15.4351
threshold=0.6395241034673923 35.000000000000007 1.5000000000000002 99.819805153394668 21.642722202792957 1.0000000180025095e-35 0.8333667871002276 30.622421046888231 1.0000000180025095e-35 49.500000000000007 33.000000000000007 25.874531223729011 28.996887395950029 1.7326161882485187 47.333768844604499 0.93489080987870354 2.5000000000000004 51.060833285866529 1.5000000000000002 13.500000000000002 1187.2500000000002 44.34272365074515 1.5000000000000002 1385.2500000000002 45.500782750232219 0.90518905872888189 0.095137135811654866 49.500000000000007 7.0084991455078134 2.5000000000000004 0.88528649860986797
decision_type=2 2 2 2 2 2 2 2 2 2 2 2 2 2 2 2 2 2 2 2 2 2 2 2 2 2 2 2 2 2 2
left_child=2 3 6 11 15 7 10 -6 18 30 12 28 26 -7 27 -3 17 -8 -5 29 -20 22 -22 -24 -23 -21 -1 -15 -2 -13 -9
right_child=1 4 -4 8 5 13 16 9 -10 -11 -12 19 -14 14 -16 -17 -18 -19 20 25 21 24 23 -25 -26 -27 -28 -29 -30 -31 -32
leaf_value=-0.010211654139686858 -0.015413139257147511 -0.0066420971305480676 -0.0050021831510076581 0.003846257394502789 -0.0019919544613209734 -0.0017753996231171056 0.0012242835881972204 0.00059633643012733115 0.00036250908732125234 -0.00089391675053640573 -0.0043616721792482539 0.0011114679911226066 0.0038001529896065185 -0.0051211169340397667 -0.0009957703327947555 -0.0020887365154789732 -0.0025318860155795196 -0.0017975989248395874 0.0023582104630914345 0.00023048749136249052 0.0016856288099092074 0.0021817387776451569 -0.030421587652579192 -0.0026100311786288388 -0.0011294736648903769 0.0021742417856142147 -0.0021553626212145473 -0.011791670902952169 -0.0010848524536413134 0.003314102850574032 0.0023180972925531612
leaf_count=835 248 3815 41007 23612 28556 20088 21296 92516 37457 52118 28436 39580 2154 2529 3057 51788 11965 10696 173156 113061 595 19476 343 169 7539 16232 41858 2262 21561 13865 19959
internal_value=0 0.0107066 -0.0498724 0.0252094 -0.013766 -0.00647361 -0.0361578 -0.000187524 0.0364418 0.00593452 -0.0521479 0.010803 -0.0359615 -0.0499355 -0.0968227 -0.0427614 -0.00950003 0.00381047 0.0414362 0.0147443 0.0382617 0.0152641 -0.158827 -0.378286 0.0223978 0.0084505 -0.0411903 -0.147287 -0.0222215 0.0299701 0.0160611
internal_count=901829 743582 158247 466894 276688 221085 117240 193149 262347 164593 73283 204547 44847 27936 7848 55603 43957 31992 224890 182738 201278 28122 1107 512 27015 129293 42693 4791 21809 53445 112475
shrinkage=0.0561523


Tree=33
num_leaves=32
num_cat=0
split_feature=16 32 16 16 12 32 16 17 17 17 15 27 17 9 29 16 16 11 1 15 16 29 12 27 0 15 9 17 22 8 22
split_gain=774.375 197.686 116.922 72.7115 45.2631 33.454 27.6194 26.7507 26.6928 26.3528 23.0009 21.6939 21.6779 20.7691 20.2563 20.2384 18.0801 17.8905 16.9387 18.2341 16.0028 17.0557 15.2683 15.1143 15.1028 13.9517 12.9832 12.7465 12.7338 49.9519 18.2923
threshold=208.79213378176385 1.5000000000000002 223.67807753873331 174.68355815287731 109.56244584051394 1.5000000000000002 236.54959530781659 42.179268457388531 79.310044519249359 100.1927657976026 0.35240554224652304 26.500000000000004 50.079572725279696 0.95183555280614651 0.53622864946996895 190.64447655748236 217.50832870884207 0.71336099460239988 2654.5000000000005 0.82482603380784691 103.18260775985767 0.70912811762459005 108.30508652763322 14.500000000000002 29.500000000000004 0.26815568219204311 0.95223560384034234 54.720235735146339 2105.2500000000005 2665.5000000000005 2294.7500000000005
decision_type=2 2 2 2 2 2 2 2 2 2 2 2 2 2 2 2 2 2 2 2 2 2 2 2 2 2 2 2 2 2 2
left_child=3 2 12 9 -3 7 11 -5 10 13 -9 24 23 -1 -14 -12 27 -10 26 -20 21 -15 -13 -2 -4 28 -11 -16 -8 30 -30
right_child=1 4 6 5 -6 -7 25 8 17 18 15 22 14 20 16 -17 -18 -19 19 -21 -22 -23 -24 -25 -26 -27 -28 -29 29 -31 -32
leaf_value=-0.0052543599957269099 0.00043365523966844131 -0.0042284694018187019 0.0023002074206706553 0.0032017600619739166 -0.000205341939803268 -0.0040743989602333051 0.0034130561964683939 -0.0050701042585824486 0.0033616316621182464 -0.0055439545371694064 -0.0026224427269271708 -0.00014556573685995972 -0.0019042569922848975 -0.0019775023235168512 -6.3381824799026355e-05 -0.0012679107429907244 0.0016125591486770782 -0.0029560741504547376 0.0072959147179192767 -0.019736283770340937 -0.0035085432820033944 0.01069493426381094 0.0021408286605548929 -0.0014327548361655902 0.0013290979534712549 0.0030469850032580409 0.00084118806459828146 0.0013966811426673693 -0.010161627157584176 0.00036328250514049295 -0.035447505168451937
leaf_count=26537 24865 24404 141717 3644 13806 18371 2572 6516 5317 1667 49431 29341 8920 968 65592 117347 59451 1925 1242 84 56433 512 13422 30415 78448 85992 2525 26458 202 3542 163
internal_value=0 0.0202201 0.0248792 -0.0423751 -0.0494163 -0.0318676 0.0360263 -0.0278088 -0.029521 -0.0660315 -0.0320067 0.0307983 0.00651282 -0.0704063 0.0123977 -0.0297295 0.0151243 0.0299599 0.000922729 0.0994344 -0.0597907 0.0428562 0.0101877 -0.0105649 0.0348016 0.0508913 -0.0302382 0.00634498 0.00614203 -0.0298279 -0.382062
internal_count=901829 609310 571100 292519 38210 202551 355399 184180 180536 89968 173294 262928 215701 84450 160421 166778 151501 7242 5518 1326 57913 1480 42763 55280 220165 92471 4192 92050 6479 3907 365
shrinkage=0.0561523


Tree=34
num_leaves=32
num_cat=0
split_feature=16 33 16 16 29 0 29 21 17 9 29 12 21 6 17 0 0 14 31 29 12 21 14 25 5 14 29 16 16 17 26
split_gain=688.956 177.608 116.07 65.1968 32.3315 27.7642 26.7473 25.2932 24.063 22.8015 22.2666 22.0649 22.1863 24.3474 17.1548 16.8697 16.7434 18.3251 17.9466 18.3188 16.5527 17.3102 15.1923 14.6012 43.8007 12.9707 12.8321 17.0239 19.1525 28.1279 13.5899
threshold=208.79213378176385 2.5000000000000004 224.53372157515255 177.97509536524893 0.49758922762338514 33.000000000000007 1.5821718790468793 6.5000000000000009 100.1927657976026 0.89059506616758533 0.16107854937064431 40.281222920256972 14.500000000000002 0.70967742239092868 56.343944769539561 29.500000000000004 33.000000000000007 19.056925676907483 1.5000000000000002 1.4390214273862856 92.784271247461916 1.5000000000000002 64.68474215777448 976.25000000000011 41.90602111816407 19.793835188984321 0.095137135811654866 103.18260775985767 147.18736855205029 39.392412693725412 1.0486711306874632
decision_type=2 2 2 2 2 2 2 2 2 2 2 2 2 2 2 2 2 2 2 2 2 2 2 2 2 2 2 2 2 2 2
left_child=3 2 11 8 -5 20 14 10 9 -1 -4 -2 16 -14 -7 -12 -13 -18 -19 -20 -6 -22 -3 -9 -25 -16 -11 30 -29 -30 -28
right_child=1 22 7 4 5 6 -8 23 -10 26 15 12 13 -15 25 -17 17 18 19 -21 21 -23 -24 24 -26 -27 27 28 29 -31 -32
leaf_value=-0.0063848581048245893 -0.0076413355218499643 -0.0038737705305991357 -0.0058195435295111189 -0.0033529796453472347 -0.0011722879931490026 -0.0022976623128226387 -0.0052058283806872604 0.0012361687851464387 0.00012365107628218504 -0.0065984241374295047 0.0025711485372614104 0.00088057537520710451 -0.0011975985127261159 -0.011629756327998703 -0.0035777449674255285 0.0015849902418996469 -0.0027283239927574023 0.00038649791077085345 -0.00038232536295567618 -0.0050786130924402794 0.0052480787975020815 0.00021109545060394225 0.0053491795383611715 -0.020590731174767611 0.00090011696710593446 -0.00034886700259809214 -0.00056654694998143804 -0.0050886713823807836 -0.00057071344420580586 -0.0034840658915837618 0.010426618956382404
leaf_count=8492 1092 23450 1081 29095 37580 53610 7211 91664 5779 3640 171558 122184 2586 970 4451 80294 7617 92934 7919 3913 2360 24324 577 388 1304 33055 1645 15600 13082 51922 452
internal_value=0 0.0192227 0.0226806 -0.039831 -0.029011 -0.0235171 -0.0340814 0.0343829 -0.0604454 -0.0642631 0.0395751 0.00574034 0.00639072 -0.0720054 -0.0294416 0.0401898 0.00757919 -0.00123017 0.00221297 -0.0344679 -0.00735317 0.0116928 -0.0650425 0.0203155 -0.0717343 -0.0130369 -0.0594002 -0.0568425 -0.0591567 -0.0516053 0.0321089
internal_count=901829 609531 585504 292298 191686 162591 98327 346289 100612 94833 252933 239215 238123 3556 91116 251852 234567 112383 104766 11832 64264 26684 24027 93356 1692 37506 86341 82701 80604 65004 2097
shrinkage=0.0561523


Tree=35
num_leaves=32
num_cat=0
split_feature=16 33 16 16 16 13 0 29 17 17 17 9 26 23 15 16 14 1 14 28 24 12 17 0 32 17 16 17 17 12 22
split_gain=612.316 161.578 114.367 51.6497 28.0519 26.9307 28.3109 29.7948 25.1861 25.0039 21.0157 17.8856 17.556 16.1046 14.438 16.1586 14.4295 14.3775 17.4073 16.2684 13.6415 18.6674 13.2615 13.1832 12.8541 14.586 12.6426 15.0851 12.6207 23.4088 17.3997
threshold=207.16170967299519 2.5000000000000004 222.07234548940161 174.68355815287731 233.54723412181042 26.327107237293138 33.000000000000007 1.5821718790468793 50.218809331995715 42.877603601036938 100.1927657976026 0.92045675541883254 0.88470848414054759 0.29762169524916221 0.26815568219204311 243.2072241799946 64.68474215777448 2654.5000000000005 96.370320155127601 25353.500000000004 22.500000000000004 69.473611075682086 56.868321801237691 40.500000000000007 1.5000000000000002 47.363696195258136 216.16648668106555 52.890667753315235 45.862998852508063 297.81118318204318 2999.2500000000005
decision_type=2 2 2 2 2 2 2 2 2 2 2 2 2 2 2 2 2 2 2 2 2 2 2 2 2 2 2 2 2 2 2
left_child=3 2 8 10 9 24 13 22 23 -4 11 -1 -10 -7 -6 28 -3 -12 -19 -20 -11 -22 -8 -2 25 -5 27 -14 -16 30 -30
right_child=1 16 4 5 14 6 7 -9 12 20 17 -13 26 -15 15 -17 -18 18 19 -21 21 -23 -24 -25 -26 -27 -28 -29 29 -31 -32
