tree
version=v2
num_class=1
num_tree_per_iteration=1
label_index=0
max_feature_idx=33
objective=regression
feature_names=Column_0 Column_1 Column_2 Column_3 Column_4 Column_5 Column_6 Column_7 Column_8 Column_9 Column_10 Column_11 Column_12 Column_13 Column_14 Column_15 Column_16 Column_17 Column_18 Column_19 Column_20 Column_21 Column_22 Column_23 Column_24 Column_25 Column_26 Column_27 Column_28 Column_29 Column_30 Column_31 Column_32 Column_33
feature_infos=[7:53] [1:328009] [0:46527.857142857145] [0:1] [0:528.9998779296875] [0:844.9998779296875] [0:1] [-90:90] [1:385720] [0.22222222222222221:1] [0:1] [0.11764705882352941:1] [0:3981.8458505361982] [0:977.28110879625115] [0:565.29898221011058] [0:1] [0:255] [0:127.5] [1:8] [50:328009] [1.0004735574838757e-05:17.378234903782349] [1:22] [50:328009] [1.0004735574838757e-05:39.357798165137616] [1:40] [50:328009] [1.0004735574838757e-05:188.28971962616822] [1:67] [50:328009] [1.0004735574838757e-05:214.78481012658227] [0:3] [1:18] [1:18] [0:3]
tree_sizes=1473 1516 1516 1518 1523 1520 1521 1520 1516 1526 1530 1523 1533 1537 1530 1529 1542 1531 1536 1539 1525 1525 1536 1535 1536 1530 1544 1536 1541 1527 1537 1514 1528 1536 1527 1542 1533 1512 1529 1512 1528 1541 1530 1519 1527 1511 1520 1533 1534 1528 1544 1510 1532 1510 1506 1523 1496 1522 1510 1530 1525 1498 1516 1521 1486 1529 1491 1513 1523 1499 1510 1525 1502 1514 1469 1519 1494 1497 1490 1530 1482 1521 1480 1481 1496 1491 1456 1474 1488 1495 1500 1512 1504 1479 1518 1474 1475 1484 1514 1493 1487 1518 1490 1505 1485 1508 1472 1478 1499 1496 1471 1480 1511 1490 1507 1473 1503 1493 1487 1494 1516 1508 1477 1525 1509 1456 1478 1496 1507 1503 1522 1471 1488 1500 1479 1495 1514 1460 1509 1488 1490 1500 1518 1527 1488 1538 1507 1455 1489 1493 1454 1488 1478 1486 1477 1493 1505 1453 1466 1498 1507 1498 1520 1485 1509 1487 1509 1466 1507 1442 1490 1509 1510 1499 1460 1471 1488 1463

Tree=0
num_leaves=17
num_cat=0
split_feature=16 32 16 16 32 20 32 17 16 16 16 16 20 16 17 26
split_gain=22770 6121.21 3104.46 2683.06 1706.08 1462.2 788.126 557.788 443.043 399.363 325.298 323.044 192.436 136.528 122.848 117.612
threshold=215.42538577177757 1.5000000000000002 195.53695169824206 228.57366969313873 1.5000000000000002 0.6076806108030991 1.5000000000000002 86.129141288675186 168.21475827543244 236.11392478080299 206.76395663956643 223.13924881089062 0.67060755719144582 233.20341614906835 43.713433847576567 0.78329795493405274
decision_type=2 2 2 2 2 2 2 2 2 2 2 2 2 2 2 2
left_child=2 3 6 11 10 -3 7 8 -1 -5 -4 -2 -6 -7 -10 -9
right_child=1 5 4 9 12 13 -8 15 14 -11 -12 -13 -14 -15 -16 -17
leaf_value=0.50359164425536163 0.53964381599135602 0.49256806562946442 0.52423166107564356 0.55346855129419992 0.49257286429838432 0.52582373657599224 0.49187046422748693 0.51744460187970476 0.52514076284946565 0.56084007761601473 0.53208165475930369 0.54646636279045613 0.51555622557729786 0.54595414473866966 0.51284817291517615 0.53839542799957574
leaf_count=56673 123628 19091 80147 155139 12735 7966 19328 3247 7343 101001 97264 108437 3980 4328 86272 7123
internal_value=0 0.135372 -0.188182 0.162892 -0.100468 -0.292711 -0.282787 -0.259835 -0.275313 0.233455 -0.0716923 0.0850079 -0.405886 -0.0237375 -0.233068 -0.035521
internal_count=893702 519590 374112 488205 194126 31385 179986 160658 150288 256140 177411 232065 16715 12294 93615 10370
shrinkage=1


Tree=1
num_leaves=17
num_cat=0
split_feature=16 32 16 16 32 20 32 16 16 16 29 0 29 16 8 29
split_gain=18829.7 5274.01 2513.5 2214.64 1273.67 1239.2 582.665 356.887 341.242 281.059 258.862 260.776 155.331 128.46 117.715 112.755
threshold=213.97665806134367 1.5000000000000002 228.57366969313873 193.08622905578554 1.5000000000000002 0.63197742298242987 1.5000000000000002 221.50426829903083 234.85490109674896 203.80589404574692 0.70475579191882154 37.500000000000007 0.59564915830142906 162.68302351286175 473.50000000000006 0.53608414998726428
decision_type=2 2 2 2 2 2 2 2 2 2 2 2 2 2 2 2
left_child=3 2 7 6 9 15 10 -2 -4 -5 13 -12 -6 -1 -11 -3
right_child=1 5 8 4 12 -7 -8 -9 -10 14 11 -13 -14 -15 -16 -17
leaf_value=-0.030660052162243576 0.002741500050707492 -0.042539315450843621 0.016131744119999122 -0.011818566232555948 -0.041415894485287673 -0.0012415943304109483 -0.039516157010343951 0.00964929573587117 0.022794221833925817 -0.0098545059049174408 -0.012730839695178513 -0.023334020130732089 -0.023290596437147575 -0.022777765491955707 -0.0025563253671467855 -0.028144473293130707
leaf_count=30233 113584 14380 131675 67564 9577 11991 18050 137757 124484 23954 35274 42652 6681 39953 79281 6612
internal_value=0 0.117411 0.142594 -0.179485 -0.104856 -0.270072 -0.263499 0.0715474 0.212305 -0.0793977 -0.242827 -0.203151 -0.372311 -0.286878 -0.0465806 -0.416568
internal_count=893702 540483 507500 353219 187057 32983 166162 251341 256159 170799 148112 77926 16258 70186 103235 20992
shrinkage=0.0912343


Tree=2
num_leaves=17
num_cat=0
split_feature=16 32 16 16 32 20 32 17 16 16 16 16 20 17 29 16
split_gain=15602.1 4076.27 2214.42 1779.21 1232.66 1015.18 522.874 467.394 318.53 293.101 271.189 215.543 149.106 127.988 104.956 93.6572
threshold=215.88585309657296 1.5000000000000002 194.96463640574345 230.03345400011398 1.5000000000000002 0.65529126670431026 1.5000000000000002 86.129141288675186 174.35250445276438 223.6612451790634 208.80319283792372 238.13750474949794 0.70184940877553026 76.755345463167615 0.53608414998726428 232.08584159446312
decision_type=2 2 2 2 2 2 2 2 2 2 2 2 2 2 2 2
left_child=2 3 6 9 10 14 7 8 -1 -2 13 -5 -6 -4 -3 -7
right_child=1 5 4 11 12 15 -8 -9 -10 -11 -12 -13 -14 -15 -16 -17
leaf_value=-0.02540708300610809 0.0041338513381147177 -0.038652852082083543 -0.0091393162316208091 0.01652073664533046 -0.035003410674181293 -0.0063280511745190159 -0.035757508684597851 -0.0010233542035323565 -0.016918914844302545 0.010309386579336938 -0.0015130095354635724 0.022676151821041851 -0.014440077877517084 0.0075867079642570256 -0.024678220235465079 0.010962072337170649
leaf_count=71676 126706 13264 98600 158173 13814 6313 18983 10385 75627 129203 84493 67584 3727 3961 6750 4443
internal_value=0 0.114027 -0.153123 0.136569 -0.0823033 -0.238848 -0.235135 -0.21626 -0.230715 0.0794849 -0.0585339 0.201278 -0.335776 -0.0930937 -0.372006 0.0089222
internal_count=893702 512436 381266 481666 204595 30770 176671 157688 147303 255909 187054 225757 17541 102561 20014 10756
shrinkage=0.0912343


Tree=3
num_leaves=17
num_cat=0
split_feature=16 32 26 16 20 16 32 17 16 16 16 16 12 17 0 16
split_gain=12850.4 3558.24 1667.99 1657.23 849.373 809.658 619.253 370.107 318.698 271.805 197.787 179.614 119.908 92.9541 84.4583 78.776
threshold=214.48373023032056 1.5000000000000002 0.7000779354768728 229.54637266768211 0.59008689448142648 199.26640199090392 1.5000000000000002 81.054364818441442 188.89784172661874 221.68065943381853 237.68361375812103 179.66383225236203 92.719300090006314 73.084891878035862 29.500000000000004 208.80319283792372
decision_type=2 2 2 2 2 2 2 2 2 2 2 2 2 2 2 2
left_child=2 3 6 9 -3 7 8 11 14 -2 -5 -4 -6 15 -1 -7
right_child=1 4 5 10 12 13 -8 -9 -10 -11 -12 -13 -14 -15 -16 -17
leaf_value=-0.019144123350036242 0.0024775534574184113 -0.032439936277986782 -0.020478269579413975 0.014660363533399315 -0.019369255681878195 -0.0063984062338803271 -0.034305019208427281 0.0023638895510726477 -0.01209555110751164 0.0084058965198193555 0.02034332448689001 -0.012781928146694408 0.0021156088959756437 0.0089389822477486027 -0.026062660801458221 -0.0016604029859802049
leaf_count=28113 110156 19332 42736 161668 2731 61238 26309 10092 38650 154887 74451 61651 10382 4706 30753 55847
internal_value=0 0.0986276 -0.145848 0.119405 -0.222311 -0.0965771 -0.239861 -0.156957 -0.203129 0.0651288 0.18033 -0.174636 -0.0258562 -0.0398224 -0.249451 -0.045361
internal_count=893702 533607 360095 501162 32445 236270 123825 114479 97516 265043 236119 104387 13113 121791 58866 117085
shrinkage=0.0912343


Tree=4
num_leaves=17
num_cat=0
split_feature=16 32 29 16 16 20 32 17 16 16 16 32 16 16 16 0
split_gain=10663.8 2694.26 1655.65 1158.79 878.227 700.464 529.601 284.776 244.546 214.63 150.697 130.921 130.479 96.7609 91.1734 82.5573
threshold=216.59342318683869 1.5000000000000002 0.6408115898263812 230.79465870667795 199.26640199090392 0.65529126670431026 1.5000000000000002 76.755345463167615 200.30353598014892 224.8272957648326 178.63641148150185 1.5000000000000002 240.25848416110153 210.37237059083782 162.68302351286175 33.000000000000007
decision_type=2 2 2 2 2 2 2 2 2 2 2 2 2 2 2 2
left_child=2 3 6 9 7 -3 8 10 14 -2 -4 13 -5 -6 -1 -12
right_child=1 5 4 12 11 -7 -8 -9 -10 -11 15 -13 -14 -15 -16 -17
leaf_value=-0.023912123858008782 0.0039995400135041572 -0.028057005851920603 -0.018896243071016429 0.014426142428313178 -0.0045145118683583424 0.0011724445947265756 -0.031826044860423008 0.00030406685631520204 -0.0086498865907300437 0.0092236550906101174 -0.0076513913105484719 -0.016172443076905289 0.020164544962414651 0.00015841441829238413 -0.017093434708500305 -0.014345941212869124
leaf_count=26828 139484 19365 42844 168040 78642 10538 26196 11696 21700 123350 23787 5908 41036 69463 41682 43143
internal_value=0 0.0964621 -0.123678 0.114907 -0.0814267 -0.194624 -0.22367 -0.145004 -0.187322 0.0707109 -0.160808 -0.0312835 0.170467 -0.0254603 -0.216624 -0.131164
internal_count=893702 501813 391889 471910 275483 29903 116406 121470 90210 262834 109774 154013 209076 148105 68510 66930
shrinkage=0.0912343


Tree=5
num_leaves=17
num_cat=0
split_feature=26 17 32 14 0 11 0 2 17 1 9 0 1 20 20 0
split_gain=5934.16 2597.53 1341.1 527.637 492.314 394.312 337.75 256.22 219.731 198.562 176.964 157.781 133.991 129.126 123.628 111.687
threshold=0.73530740209362888 48.711656225719175 1.5000000000000002 20.303388004240773 45.000000000000007 0.85734168878213213 45.000000000000007 15.262531328320804 43.918066180041102 500.50000000000006 0.93861006490713228 40.500000000000007 595.50000000000011 0.68949004233498312 0.53145844346075177 40.500000000000007
decision_type=2 2 2 2 2 2 2 2 2 2 2 2 2 2 2 2
left_child=2 3 5 11 9 7 8 15 13 -3 -6 -2 -12 -5 -4 -1
right_child=1 4 14 6 10 -7 -8 -9 -10 -11 12 -13 -14 -15 -16 -17
leaf_value=-0.012686521567179615 0.0016170129994046059 -0.0043565538703585109 -0.029739733330904364 -0.0091308359769911723 -0.015722913444926091 -0.0020130366815189057 0.0015459730427265705 -0.0055581552501876444 0.0087014610750122956 0.0022713794752641041 -0.01048102881121697 -0.015920558032748798 -0.0031271101022228172 0.014090887362888075 -0.017880287515877471 -0.019755574695278003
leaf_count=50580 34460 48207 37604 2018 15033 40279 30668 31370 122817 171367 28357 4874 75616 161941 9084 29427
internal_value=0 0.0436138 -0.152479 0.103154 -0.0191262 -0.106855 0.116691 -0.137519 0.127357 0.00894654 -0.0709222 -0.00609554 -0.0562593 0.151315 -0.300679 -0.167553
internal_count=893702 695358 198344 356778 338580 151656 317444 111377 286776 219574 119006 39334 103973 163959 46688 80007
shrinkage=0.0912343


Tree=6
num_leaves=17
num_cat=0
split_feature=16 32 16 16 20 32 16 20 16 16 2 16 16 32 20 12
split_gain=7906.1 2210.26 1098.58 891.329 500.956 477.411 191.87 189.423 138.779 136.204 123.89 106.2 88.5111 74.3056 68.0775 67.4597
threshold=212.65632252901165 1.5000000000000002 227.46724237546945 189.65450464309691 0.57189695235792681 1.5000000000000002 234.51944145140274 0.69568322981366471 220.16122840286559 203.36324922936413 39.022233201581038 228.41154783353383 165.53348589999226 1.5000000000000002 0.71440913532963057 90.402543263816625
decision_type=2 2 2 2 2 2 2 2 2 2 2 2 2 2 2 2
left_child=3 2 8 7 -3 9 -4 13 -2 -5 12 -6 -9 -1 -7 -11
right_child=1 4 6 5 11 14 -8 10 -10 15 -12 -13 -14 -15 -16 -17
leaf_value=-0.018819361272071115 0.0011825499816729313 -0.025022374810189933 0.0097655090966330162 -0.0081994274801024981 -0.010367343112484493 -0.024610020959931436 0.014554785933570681 -0.018854005424533766 0.0055621970169685174 -0.0059827218560731185 -0.0052890595365623558 0.0052865715861923641 -0.013210557451969741 -0.027024358631590684 -0.0098214533037363216 -0.00091937249600050196
leaf_count=26028 107176 20114 148207 80023 7413 13264 131325 38139 137465 37529 11182 7027 58792 14199 3220 52599
internal_value=0 0.0727232 0.0888717 -0.121576 -0.172245 -0.0755882 0.1317 -0.179437 0.0399356 -0.059846 -0.157639 -0.0301379 -0.169137 -0.238019 -0.238082 -0.0331864
internal_count=893702 558727 524173 334975 34554 186635 279532 148340 244641 170151 108113 14440 96931 40227 16484 90128
shrinkage=0.0912343


Tree=7
num_leaves=17
num_cat=0
split_feature=29 17 30 0 0 11 12 1 20 9 1 30 0 1 0 17
split_gain=4245.91 1736.81 801.407 358.046 324.9 324.66 244.26 240.929 232.099 166.002 161.154 145.841 115.314 112.943 107.157 95.2995
threshold=0.74463112374730744 49.228492829287326 1.0000000180025095e-35 37.500000000000007 40.500000000000007 0.8736465381523415 75.816756826189717 625.50000000000011 0.562703115040179 0.93775145364260448 577.50000000000011 1.0000000180025095e-35 37.500000000000007 574.50000000000011 29.500000000000004 41.581652020601616
decision_type=2 2 2 2 2 2 2 2 2 2 2 2 2 2 2 2
left_child=2 4 5 -3 7 6 14 -2 -4 -5 -6 15 -8 -11 -1 -9
right_child=1 3 8 9 10 -7 12 11 -10 13 -12 -13 -14 -15 -16 -17
leaf_value=-0.010380837127738298 0.0049661696843913781 0.001658145609692801 -0.024593684644958081 -0.012801724969461008 -0.011187945429715133 1.0293609475633037e-05 -0.0021431584090853308 0.013706780417588157 -0.010611130427116287 -0.0079922967706747526 0.0033009847816763208 0.0040154467856020276 -0.010743677351715898 -0.0019816222019334393 -0.0173177292187362 0.0096481176531798482
leaf_count=41820 90530 152513 38687 17968 7340 33392 33780 84316 13271 34681 49358 25190 21070 104213 33291 112282
internal_value=0 0.0389342 -0.122245 -0.0163265 0.0852635 -0.0878372 -0.110435 0.0979061 -0.230421 -0.049871 0.0156222 0.115651 -0.0597029 -0.0381704 -0.147482 0.12483
internal_count=893702 678391 215311 309375 369016 163353 129961 312318 51958 156862 56698 221788 54850 138894 75111 196598
shrinkage=0.0912343


Tree=8
num_leaves=17
num_cat=0
split_feature=16 32 16 16 23 32 17 16 16 17 16 16 23 32 17 21
split_gain=5829.35 1619.44 802.186 621.808 335.121 302.868 259.306 152.03 120.7 115.32 102.284 93.2975 85.0702 80.4719 100.659 73.2094
threshold=211.81169949453533 1.5000000000000002 226.98882186796882 189.65450464309691 0.68014487305029048 1.5000000000000002 93.158835808496619 233.20341614906835 156.61444361035936 73.084891878035862 218.9553102890641 202.94283814589667 0.9190304686735038 1.5000000000000002 42.871663270423177 1.5000000000000002
decision_type=2 2 2 2 2 2 2 2 2 2 2 2 2 2 2 2
left_child=3 2 10 6 -3 9 8 -4 -1 11 -2 -5 -8 14 -10 -6
right_child=1 4 7 5 15 -7 12 -9 13 -11 -12 -13 -14 -15 -16 -17
leaf_value=-0.019466283616386072 0.0006824570818756763 -0.020386390493511819 0.0077708967248503518 -0.0078140954290974243 0.01170084821595847 -0.018249042400525189 -0.0087745860071156007 0.011973519686433592 -0.0054619797255565771 0.0062819396692091458 0.0044926925993500916 -0.0033029976693168296 0.0085210881054424235 -0.021355310627104395 -0.013894588193250278 -0.0053730668446852368
leaf_count=38268 97446 21680 130812 72653 2570 15541 4431 158414 13910 7314 147273 80382 5082 9679 77047 11200
internal_value=0 0.06101 0.0747516 -0.106956 -0.145964 -0.0667332 -0.154624 0.110405 -0.165563 -0.0538147 0.0326135 -0.0596775 0.00509727 -0.147385 -0.138161 -0.023965
internal_count=893702 569395 533945 324307 35450 175890 148417 289226 138904 160349 244719 153035 9513 100636 90957 13770
shrinkage=0.0912343


Tree=9
num_leaves=17
num_cat=0
split_feature=16 20 16 16 20 31 17 16 17 16 32 12 20 16 16 32
split_gain=4816.61 1330.15 691.032 516.328 262.047 241.945 210.399 129.965 110.513 101.672 98.3313 88.2454 83.5636 80.1209 71.0081 67.383
threshold=211.81169949453533 0.59926199010998749 227.46724237546945 188.89784172661874 0.67060755719144582 1.5000000000000002 93.158835808496619 238.367286369482 69.660027368572159 162.68302351286175 1.5000000000000002 76.302038200428285 0.63197742298242987 202.50198957239584 220.91961325073194 1.5000000000000002
decision_type=2 2 2 2 2 2 2 2 2 2 2 2 2 2 2 2
left_child=3 5 10 6 15 -2 9 -4 13 -1 11 -3 -8 -6 -13 -5
right_child=1 2 7 4 8 -7 12 -9 -10 -11 -12 14 -14 -15 -16 -17
leaf_value=-0.017037337077146247 -6.0437111534729841e-05 -0.0029735575654620608 0.0081102775308922129 -0.0096197220628789683 -0.0071494076830156562 -0.018660017316185763 -0.015915336934112199 0.012726230349137765 0.0057442858149749807 -0.011887050410875606 -0.0082755606209122118 0.0018284838362269066 0.0048546172728554868 -0.002863272125833424 0.0050390162852521191 -0.019200282237712227
leaf_count=51504 7933 19371 218052 12280 66751 21870 2068 66181 8737 83841 6682 114307 7318 79582 115062 12163
internal_value=0 0.0553957 0.0667534 -0.0972907 -0.0614597 -0.150263 -0.141733 0.100676 -0.0462907 -0.151773 0.029005 0.0322208 0.00305161 -0.0528138 0.0376945 -0.157694
internal_count=893702 569458 539655 324244 179513 29803 144731 284233 155070 135345 255422 248740 9386 146333 229369 24443
shrinkage=0.0912343


Tree=10
num_leaves=17
num_cat=0
split_feature=16 33 16 16 20 17 16 20 1 17 16 16 26 0 16 30
split_gain=3983.81 1109.16 554.392 465.953 233.532 178.929 134.834 102.916 102.116 98.0914 89.93 73.1139 66.1921 65.3848 60.6958 59.4429
threshold=212.65632252901165 2.5000000000000004 225.83260623839345 189.65450464309691 0.67060755719144582 93.158835808496619 233.20341614906835 0.70810301827250988 315.50000000000006 69.660027368572159 162.68302351286175 203.36324922936413 0.89642726340859802 33.000000000000007 244.86544177078179 1.0000000180025095e-35
decision_type=2 2 2 2 2 2 2 2 2 2 2 2 2 2 2 2
left_child=3 2 8 5 -5 10 -4 -3 -2 11 -1 -6 -7 -12 -8 -10
right_child=1 7 6 4 9 12 14 -9 15 -11 13 -13 -14 -15 -16 -17
leaf_value=-0.015527748263746347 -0.0067216606044197668 -0.018342285141614439 0.0060554833789818741 -0.013044117671557274 -0.0062750098356739743 -0.007665408949349967 0.0092995858623305984 -0.0022544961516735708 0.002993282484462019 0.0057989347919702554 -0.0079621408785407796 -0.0022689431975258614 0.0075930722072419582 -0.012980282455587962 0.015968609654326827 -0.0018662463939991087
leaf_count=51561 10657 17913 157120 24944 69827 4458 150146 4060 182888 8814 39289 82991 5044 48038 12289 23663
internal_value=0 0.0517479 0.0607625 -0.0861769 -0.0529151 -0.127998 0.0872586 -0.168464 0.0217816 -0.0390167 -0.137081 -0.044933 0.00476067 -0.117528 0.107461 0.0267067
internal_count=893702 558736 536763 334966 186576 148390 319555 21973 217208 161632 138888 152818 9502 87327 162435 206551
shrinkage=0.0912343


Tree=11
num_leaves=17
num_cat=0
split_feature=16 20 16 29 16 30 30 32 17 1 17 16 0 25 0 0
split_gain=3300.41 962.763 510.483 360.084 177.781 137.547 124.45 119.44 117.608 113.092 82.1282 72.515 62.3047 57.7076 59.1929 55.2301
threshold=211.25442348073125 0.54219645726701626 230.79465870667795 0.6337189620695628 184.15209800469486 1.5000000000000002 1.0000000180025095e-35 1.5000000000000002 93.158835808496619 574.50000000000011 76.755345463167615 243.34550682548567 29.500000000000004 252.25000000000003 29.500000000000004 46.500000000000007
decision_type=2 2 2 2 2 2 2 2 2 2 2 2 2 2 2 2
left_child=3 5 6 7 8 -2 9 12 15 13 -6 -4 -1 -3 -15 -5
right_child=1 2 11 4 10 -7 -8 -9 -10 -11 -12 -13 -14 14 -16 -17
leaf_value=-0.0077800768265644761 -0.0033216732386884607 -0.021100336170175503 0.0078825756010518881 -0.0083883737654709446 -0.0040922356459674215 -0.017625960178847083 -0.0022151907639703966 -0.017838491343431462 0.0027996117955525744 0.0045986547846470693 0.0061012698470839389 0.01378357758246539 -0.012842965895618792 0.0027410710113560562 -0.0018836556276630243 -0.014165235736064626
leaf_count=41037 8191 988 194884 35715 143562 17658 37939 22139 6000 197815 6895 19026 39907 63307 36214 22425
internal_value=0 0.0450992 0.0539608 -0.0818606 -0.0585266 -0.143512 0.0296658 -0.130437 -0.10261 0.0365263 -0.0397339 0.0921521 -0.112635 0.00921138 0.0115988 -0.116366
internal_count=893702 576022 550173 317680 214597 25849 336263 103083 64140 298324 150457 213910 80944 100509 99521 58140
shrinkage=0.0912343


Tree=12
num_leaves=17
num_cat=0
split_feature=16 33 16 32 16 20 17 16 17 14 12 20 0 8 16 30
split_gain=2770.23 648.225 530.938 267.28 234.626 133.775 155.783 92.0743 82.2558 77.2558 76.9268 67.8297 52.0063 51.5839 53.9298 49.0533
threshold=218.13040573505694 2.5000000000000004 198.76803727252391 1.5000000000000002 231.92319978754082 0.61584217385407403 81.054364818441442 173.16965142308925 46.542289012075983 19.275213662858466 79.088834764831859 0.562703115040179 33.000000000000007 136.50000000000003 244.86544177078179 1.0000000180025095e-35
decision_type=2 2 2 2 2 2 2 2 2 2 2 2 2 2 2 2
left_child=2 4 5 10 9 -1 7 -7 -9 -2 -4 -3 -12 -6 -15 -11
right_child=1 11 3 -5 13 6 -8 8 -10 15 12 -13 -14 14 -16 -17
leaf_value=-0.01354934047746327 -0.00061976181077697434 -0.016246339375400223 -0.0050419514413148703 -0.012887825798288548 -0.020562109319217529 -0.011317998327201513 0.0024276068924508963 0.0019563805077298106 -0.0075181043358097379 0.0046491658745161108 0.001520331509358252 -0.0042498067645203429 -0.0018224885054970283 0.0075385719472745418 0.013830171405863387 0.00013402406529245881
leaf_count=39727 30863 11998 37304 18129 530 57103 11855 8388 84105 216390 66041 5829 93705 177550 12114 22071
internal_value=0 0.0520154 -0.0595953 -0.0250666 0.0592737 -0.0965269 -0.0837355 -0.0924799 -0.0729866 0.0402849 -0.0143765 -0.135078 -0.0048285 0.0861627 0.0870333 0.046378
internal_count=893702 477345 416357 215179 459518 201178 161451 149596 92493 269324 197050 17827 159746 190194 189664 238461
shrinkage=0.0912343


Tree=13
num_leaves=17
num_cat=0
split_feature=16 32 16 32 16 20 20 17 9 13 0 14 17 32 16 13
split_gain=2281.74 540.638 446.935 215.289 186.599 165.553 116.387 133.282 82.1328 58.9539 57.708 53.5523 46.857 42.9189 41.8943 36.0088
threshold=218.13040573505694 1.5000000000000002 199.26640199090392 1.5000000000000002 231.92319978754082 0.75913687488177872 0.69568322981366471 86.129141288675186 0.91473144662829731 30.961193704644309 33.000000000000007 19.359833983397362 69.660027368572159 1.5000000000000002 245.96550973878354 24.565064740369102
decision_type=2 2 2 2 2 2 2 2 2 2 2 2 2 2 2 2
left_child=2 4 6 9 11 -3 13 8 -8 -4 15 -2 -11 -1 -6 -10
right_child=1 5 3 -5 14 -7 7 -9 10 12 -12 -13 -14 -15 -16 -17
leaf_value=-0.0097646525694824703 -6.5548396953409111e-05 -0.012171339052512459 -0.0033349040206613299 -0.011590161818571917 0.0069896235375164666 0.0037307392215138739 -0.014016679555340059 0.003454070444180132 -0.0083470501148345446 -0.00036813471611923872 -0.0083454365801264637 0.0039842385351448436 0.0077384846562566414 -0.015306412768540856 0.013581545408374742 -0.0030385999953260346
leaf_count=31680 30767 20673 65704 17829 177073 7400 14258 9989 14504 121748 76120 233044 6239 18382 8406 39886
internal_value=0 0.0471694 -0.054124 -0.0218831 0.0555816 -0.0874625 -0.0874198 -0.0738618 -0.0815705 -0.0122038 -0.0736977 0.0384935 0.000296377 -0.129332 0.0798863 -0.0488214
internal_count=893702 477363 416339 211520 449290 28073 204819 154757 144768 193691 130510 263811 127987 50062 185479 54390
shrinkage=0.0912343


Tree=14
num_leaves=17
num_cat=0
split_feature=16 20 29 16 30 16 0 32 16 17 9 0 1 0 17 0
split_gain=1894.51 538.692 263.074 246.065 142.982 130.074 83.8538 79.3772 71.2162 57.4859 53.3357 49.0957 47.3562 46.0436 45.2619 38.3689
threshold=213.47784142571382 0.67750095372245223 0.6337189620695628 226.00828538089303 1.5000000000000002 193.68171626579701 35.000000000000007 1.5000000000000002 240.25848416110153 93.158835808496619 0.93861006490713228 29.500000000000004 315.50000000000006 29.500000000000004 69.660027368572159 33.000000000000007
decision_type=2 2 2 2 2 2 2 2 2 2 2 2 2 2 2 2
left_child=2 4 7 12 -2 6 9 11 13 -4 -8 -1 -3 -5 -7 -14
right_child=1 3 5 8 -6 14 10 -9 -10 -11 -12 -13 15 -15 -16 -17
leaf_value=-0.0055516619268376104 -0.00085013626046467861 -0.0068909315389851034 -0.0043094255256680494 0.0059504387863784612 -0.012584019667327809 -0.0022344189758400934 -0.0142253971381389 -0.013702747000437035 0.0091764877073384384 0.0064477498516770414 -0.0071112022639275877 -0.0099721373579204683 0.0030163006295376793 0.0033647979047759019 0.0050017213001728586 0.00045613887329761839
leaf_count=42712 15116 5314 36832 185657 20189 135042 10985 23643 42375 4658 43535 40977 105833 82933 7600 90301
internal_value=0 0.0366121 -0.057911 0.044844 -0.0828647 -0.0394186 -0.0678749 -0.0990287 0.0624817 -0.0339975 -0.0936557 -0.0845743 0.0176177 0.0564707 -0.0202651 0.0201414
internal_count=893702 547718 345984 512413 35305 238652 96010 107332 310965 41490 54520 83689 201448 268590 142642 196134
shrinkage=0.0912343


Tree=15
num_leaves=17
num_cat=0
split_feature=16 32 16 16 12 32 17 16 17 17 9 20 28 2 11 10
split_gain=1575.37 517.294 281.612 160.182 132.824 95.3416 70.1951 67.2913 61.2473 65.7398 56.2281 55.5747 53.6324 41.5044 36.6957 33.6357
threshold=208.80319283792372 1.5000000000000002 223.81256808278872 178.63641148150185 92.719300090006314 1.5000000000000002 101.66698278575178 235.93274599586547 47.3479733480211 76.755345463167615 0.93397334604585913 0.79975277176769721 300.50000000000006 16.144957983193283 0.67653798971628443 0.92809847483775354
decision_type=2 2 2 2 2 2 2 2 2 2 2 2 2 2 2 2
left_child=3 2 12 6 -3 8 10 -4 -5 15 -1 -6 -2 -14 -11 -10
right_child=1 4 7 5 11 -7 -8 -9 9 14 -12 -13 13 -15 -16 -17
leaf_value=-0.013515005959310494 -0.021454320935414828 -0.012638127471075958 0.0041092456946803741 0.003763907789006845 -0.0059942257714116461 -0.010461819243379342 0.0010183720833342345 0.006871941096857381 -0.0038488586295794057 0.0093477827244193741 -0.0079550047806228597 0.0042920164685147678 -0.00033612969036171355 0.002218457151536951 -0.0033655546751071301 -0.010401860130571655
leaf_count=18783 903 20361 247542 9654 11053 16992 6150 104308 144453 4831 78055 7233 116249 97203 3104 6828
internal_value=0 0.0289702 0.0366105 -0.060799 -0.0829667 -0.0432695 -0.0924344 0.0540177 -0.0360851 -0.0407746 -0.0990136 -0.0211052 0.00803786 0.00906669 0.0479491 -0.0454284
internal_count=893702 604852 566205 288850 38647 185862 102988 351850 168870 159216 96838 18286 214355 213452 7935 151281
shrinkage=0.0912343


Tree=16
num_leaves=17
num_cat=0
split_feature=16 20 16 32 16 17 1 9 0 30 5 26 30 5 0 20
split_gain=1316.76 315.576 275.655 151.493 120.764 72.7079 64.3931 59.3159 56.8753 55.0152 53.9139 49.3605 46.8665 42.9033 42.5184 36.1141
threshold=218.53654395627152 0.53145844346075177 190.38541317034728 1.5000000000000002 232.55297235501976 93.158835808496619 444.50000000000006 0.94020707891868727 35.000000000000007 1.0000000180025095e-35 24.000073432922367 2.0097433727570722 1.0000000180025095e-35 21.920311927795414 40.500000000000007 0.52149767384539547
decision_type=2 2 2 2 2 2 2 2 2 2 2 2 2 2 2 2
left_child=2 9 5 6 10 7 -4 -1 -8 -2 -3 -10 -12 -9 -15 -7
right_child=1 4 3 -5 -6 15 8 13 11 -11 12 -13 -14 14 -16 -17
leaf_value=-0.011039361535836647 0.0016208521981425379 -0.0017983857898594879 -0.0040172682106632924 -0.0090074515888770093 0.005655825348867642 -0.012057568038880763 0.0013252138076259995 -0.0089786148066097592 -0.0015012096676716821 -0.011005325883754765 0.0033903811966982081 -0.012554715959834329 -0.00068508786211487289 -0.0030291755481271563 -0.007303606296600448 0.003299283156436511
leaf_count=28555 3583 21387 55832 23147 176774 1513 81827 36260 106881 14485 228231 3472 26181 38562 38921 8091
internal_value=0 0.0364146 -0.0404638 -0.0213586 0.0415884 -0.0745682 -0.0141376 -0.080252 -0.00545259 -0.0931829 0.0285105 -0.0202663 0.0325643 -0.0700223 -0.0567363 0.00964536
internal_count=893702 470641 423061 271159 452573 151902 248012 142298 192180 18068 275799 110353 254412 113743 77483 9604
shrinkage=0.0912343


Tree=17
num_leaves=17
num_cat=0
split_feature=16 20 16 23 30 0 9 16 17 32 22 5 14 0 16 17
split_gain=1095.17 358.453 193.384 120.741 88.1525 85.94 63.3295 53.4526 51.2284 46.2499 43.0816 43.0142 40.6987 39.6473 34.3843 30.9865
threshold=208.80319283792372 0.66310730533733175 224.8272957648326 0.71252986364831683 1.5000000000000002 33.000000000000007 0.95203134127669753 240.25848416110153 73.084891878035862 1.5000000000000002 533.25000000000011 28.00000095367432 19.018837001444201 29.500000000000004 158.2637375376768 40.49193642418259
decision_type=2 2 2 2 2 2 2 2 2 2 2 2 2 2 2 2
left_child=3 4 11 9 -2 8 -7 12 -5 14 -8 -3 -4 -14 -1 -16
right_child=1 2 7 5 -6 6 10 -9 -10 -11 -12 -13 13 -15 15 -17
leaf_value=-0.0094876990667857666 -0.0011547806241213971 -0.0013070590954608146 -0.00080888534972682906 -0.0017871962823783154 -0.0098370119650656104 -0.0089521290170679092 -0.0066330771716403289 0.0072275834580596832 0.0056196189531683271 -0.010818997933997408 -0.0023769105857507759 0.0015149353435864588 0.0047765484463552126 0.0024517171082070717 0.0033911283883913067 -0.0055364965161906659
leaf_count=18886 16907 61260 15373 68584 22943 24907 29287 42373 8766 23073 61083 168957 186130 90867 3456 50850
internal_value=0 0.024218 0.0306836 -0.0506265 -0.0674465 -0.0361743 -0.0534764 0.0460267 -0.0103885 -0.0795456 -0.0411714 0.00837417 0.0412161 0.0439956 -0.0672389 -0.054457
internal_count=893702 604810 564960 288892 39850 192627 115277 334743 77350 96265 90370 230217 292370 276997 73192 54306
shrinkage=0.0912343


Tree=18
num_leaves=17
num_cat=0
split_feature=16 33 16 20 16 0 29 26 19 0 13 23 30 0 14 16
split_gain=906.698 245.185 181.406 110.892 92.5144 61.0728 48.5747 45.459 48.8157 44.7975 35.8632 33.6579 33.3909 32.2235 40.849 28.5536
threshold=216.81663442940041 2.5000000000000004 180.60863039584277 0.69568322981366471 231.27135258358666 33.000000000000007 0.17530168108202793 2.0097433727570722 474.25000000000006 45.000000000000007 33.26419572001118 0.78424742393857327 1.5000000000000002 33.000000000000007 20.907374035131983 245.96550973878354
decision_type=2 2 2 2 2 2 2 2 2 2 2 2 2 2 2 2
left_child=2 4 9 12 6 10 -2 8 -7 11 -5 -1 -4 -8 -15 -6
right_child=1 -3 3 5 15 7 13 -9 -10 -11 -12 -13 -14 14 -16 -17
leaf_value=-0.006793643765979759 -0.016745765596977907 -0.0076286015453220519 -0.0044179262406819041 -0.0012354860669898924 0.0042340862816608645 -0.006123596539439077 0.0027579653026158727 -0.012404914162285417 -0.00149484205595803 -0.0089902137264510646 0.0021450904465878766 -0.0028277755474106596 -0.0097482336276536203 -0.0038492197491791619 0.0014317244148740172 0.0095396847752371432
leaf_count=41593 1158 18807 26744 55279 195166 22838 169371 3795 111823 37120 49520 31155 15424 14078 91006 8825
internal_value=0 0.0283888 -0.0357433 -0.0224523 0.0327809 -0.0142457 0.0208322 -0.0280309 -0.0249891 -0.0702717 0.00396689 -0.0558477 -0.0697941 0.0216946 0.00793826 0.0489248
internal_count=893702 498411 395291 285423 479604 243255 275613 138456 134661 109868 104799 72748 42168 274455 105084 203991
shrinkage=0.0912343


Tree=19
num_leaves=17
num_cat=0
split_feature=16 20 16 30 29 17 9 16 14 21 7 14 17 29 25 29
split_gain=771.631 283.764 154.008 83.5084 66.4214 51.3058 46.4836 41.2999 40.0971 39.4621 38.0703 34.1196 31.4758 29.5586 29.5074 29.4022
threshold=204.97572354635938 0.71440913532963057 223.81256808278872 1.5000000000000002 0.49800451287496689 76.755345463167615 0.89133106086524616 237.47666572557878 19.895278001527661 1.5000000000000002 -16.699242591857907 19.359833983397362 50.067371642576653 0.17530168108202793 873.25000000000011 0.11799705014749264
decision_type=2 2 2 2 2 2 2 2 2 2 2 2 2 2 2 2
left_child=4 3 8 13 15 6 -6 11 -3 -7 14 -4 -10 -2 -11 -1
right_child=1 2 7 -5 5 9 -8 -9 12 10 -12 -13 -14 -15 -16 -17
leaf_value=-0.01163429228765778 -0.014802569584766204 -0.0021537398228522694 -0.00087757032745227486 -0.0083355111658167322 -0.0097793623307307394 0.014051746198326423 -0.0035128268712706521 0.0052860639163834749 -0.0011159032053937883 0.0057122295446715788 -0.0098276713402128939 0.0031942084471026067 0.0016141854232577064 -0.00035873638562618302 -0.0048597723235834066 -0.0060611113223467379
leaf_count=9267 1239 40774 18372 26739 10484 1881 163658 79240 45631 7073 2656 253341 153053 24487 3188 52619
internal_value=0 0.0182479 0.0245107 -0.0522307 -0.0471481 -0.0378349 -0.0426385 0.0378516 0.00495815 0.0186941 -0.00101203 0.0319934 0.0108202 -0.0115567 0.0266085 -0.0755818
internal_count=893702 642876 590411 52465 250826 188940 174142 350953 239458 14798 12917 271713 198684 25726 10261 61886
shrinkage=0.0912343


Tree=20
num_leaves=17
num_cat=0
split_feature=1 0 32 0 20 0 1 1 31 9 31 25 18 11 1 29
split_gain=536.077 270.857 103.264 92.0142 90.8733 70.8354 56.506 44.8954 43.0298 42.0694 36.424 35.5998 40.8908 32.3129 31.0335 44.1996
threshold=436.50000000000006 35.000000000000007 1.5000000000000002 29.500000000000004 0.71440913532963057 49.500000000000007 664.50000000000011 661.50000000000011 1.5000000000000002 0.96485732006544567 1.5000000000000002 252.25000000000003 2.5000000000000004 0.84802196925041762 3487.5000000000005 1.6892320599013428
decision_type=2 2 2 2 2 2 2 2 2 2 2 2 2 2 2 2
left_child=2 4 3 11 -2 6 -3 -6 -8 14 -9 12 -1 -13 15 -7
right_child=1 5 -4 -5 7 9 8 10 -10 -11 -12 13 -14 -15 -16 -17
leaf_value=-0.0047762550492690559 -0.0042645791614876038 -0.0021558365261025027 -0.0087682423260401939 -0.0060720824698238867 0.0016360982436998751 -0.0053580930364793304 0.0018446981166991686 0.0039780400954209831 -0.0032485784368930324 -0.0015625207785412447 0.00070664363052603575 -0.0024453479745763893 -0.032423060535261596 0.0012684641630218315 0.00033907685633127282 -0.015124779176734058
leaf_count=1469 15726 69899 35986 60125 166954 25958 98898 222249 16047 50644 32468 56182 639 29868 6060 4530
internal_value=0 0.012485 -0.048053 -0.0363911 0.0278945 -0.0122915 -0.00120871 0.0306781 0.0124257 -0.0357865 0.0390319 -0.015819 -0.14421 -0.0126738 -0.0616434 -0.0746348
internal_count=893702 709433 184269 148283 437397 272036 184844 421671 114945 87192 254717 88158 2108 86050 36548 30488
shrinkage=0.0912343


Tree=21
num_leaves=17
num_cat=0
split_feature=16 30 8 20 0 16 0 25 1 0 22 26 29 0 9 21
split_gain=567.361 201.91 116.278 84.8616 59.1146 57.5094 42.7378 39.9174 36.2173 33.8607 31.8739 31.7765 31.2705 30.0528 29.6876 27.4957
threshold=204.97572354635938 1.0000000180025095e-35 691.50000000000011 0.48805959509552327 29.500000000000004 165.53348589999226 29.500000000000004 252.25000000000003 2393.5000000000005 29.500000000000004 7896.0000000000009 1.401990099009901 0.19532298549452823 33.000000000000007 0.95203134127669753 3.5000000000000004
decision_type=2 2 2 2 2 2 2 2 2 2 2 2 2 2 2 2
left_child=5 2 4 -3 7 8 -7 15 14 -5 13 -11 -9 -4 -1 -2
right_child=1 3 10 9 -6 6 -8 12 -10 11 -12 -13 -14 -15 -16 -17
leaf_value=-0.0094445888774745499 0.0017495845960182022 -0.0077296274325505815 0.0037749495426054047 0.00077674017965279009 -0.0012471265751143085 -0.001053625404653966 -0.0039197899687251356 -0.012588126043374191 0.0026777737245439002 -0.0014604196278605985 0.0075314141538092867 -0.0080870841095257162 0.0019306343561239355 0.0018910106674673809 -0.005149954442408484 -0.027655313113786606
leaf_count=20034 447 20770 182953 37239 91358 68407 118004 1245 3741 20961 13819 8452 150529 114646 40448 649
internal_value=0 0.0157623 0.0227908 -0.02891 0.00645558 -0.0403267 -0.0314355 0.0184827 -0.0661338 -0.0115178 0.0356016 -0.036879 0.0198559 0.0334215 -0.0720398 -0.171675
internal_count=893702 643068 555646 87422 244228 250634 186411 152870 64223 66652 311418 29413 151774 297599 60482 1096
shrinkage=0.0912343


Tree=22
num_leaves=17
num_cat=0
split_feature=16 13 33 9 11 14 0 16 12 16 31 24 25 12 32 11
split_gain=477.006 118.575 113.827 98.3397 90.1977 40.1091 39.9432 34.2385 31.0302 30.5542 28.3911 28.0081 30.9668 28.9981 27.0273 32.1958
threshold=218.9553102890641 26.19590237158199 2.5000000000000004 0.94303374245738969 0.65500397456279824 19.895278001527661 26.000000000000004 202.94283814589667 197.30865786510145 242.23047384566775 1.5000000000000002 21.500000000000004 427.75000000000006 42.538582233137681 1.5000000000000002 0.84074705072884692
decision_type=2 2 2 2 2 2 2 2 2 2 2 2 2 2 2 2
left_child=1 14 5 6 8 11 -3 -6 -5 10 -7 13 -13 -2 15 -1
right_child=2 3 -4 4 7 9 -8 -9 -10 -11 -12 12 -14 -15 -16 -17
leaf_value=-0.0052965806215202185 -0.013610988640083305 -0.0016916851679172336 -0.0052579459217171939 0.004158495956837014 -0.0022418991517650965 0.0026355371549240101 -0.0064241109666466605 -5.9868456395335841e-05 0.015946352949510707 0.0056763044674810305 -0.00026435555830216337 -0.03162009507533553 -0.0043262096453614155 0.0010691779181999947 -0.0078297519728380335 -0.0014436145457105691
leaf_count=59570 1153 24340 17175 17478 107651 343967 38057 134818 2080 25270 30602 368 5789 39149 20334 25901
internal_value=0 -0.0239822 0.0222555 -0.0145014 -0.00600537 0.0253298 -0.0501793 -0.0112747 0.0593213 0.0285613 0.0262908 -0.00248118 -0.0652994 0.00711567 -0.0530525 -0.0452569
internal_count=893702 430229 463473 324424 262027 446298 62397 242469 19558 399839 374569 46459 6157 40302 105805 85471
shrinkage=0.0912343


Tree=23
num_leaves=17
num_cat=0
split_feature=16 30 19 16 20 24 25 17 25 7 17 32 14 27 11 16
split_gain=394.576 138.228 72.3879 58.5391 57.6438 35.3696 34.8743 34.2318 32.1747 32.9234 31.6749 38.624 30.9567 29.0033 28.7924 28.6865
threshold=208.80319283792372 1.0000000180025095e-35 572.25000000000011 174.35250445276438 0.48805959509552327 21.500000000000004 409.25000000000006 81.054364818441442 252.25000000000003 -2.7263108491897579 49.788520962231921 1.5000000000000002 9.3293468263826203 2.5000000000000004 0.83102172463322055 224.8272957648326
decision_type=2 2 2 2 2 2 2 2 2 2 2 2 2 2 2 2
left_child=3 2 5 14 -3 8 -7 10 9 -2 11 -5 -4 -10 -1 -15
right_child=1 4 12 7 -6 6 -8 -9 13 -11 -12 -13 -14 15 -16 -17
leaf_value=-0.0055025357814023328 0.0050789701124088977 -0.0065913981535637598 -0.033080367295671063 0.0023898705891440717 -0.00083862713274316194 -0.029056666331372372 -0.0034395025117598512 0.0039041877437929859 -0.013981035941890886 -0.025295630415949077 -0.0026407187369501864 -0.0059027026051973004 0.0025569052889005102 -0.00035387858977680776 -0.0012710126158140386 0.0023502640079765612
leaf_count=72477 476 18962 203 22447 61588 458 12940 8096 1105 790 163394 5905 376483 72646 16416 59316
internal_value=0 0.0145334 0.0204575 -0.0303977 -0.0240356 0.00169684 -0.0472981 -0.0209012 0.00658346 -0.152083 -0.0235905 0.00726414 0.0278152 0.00809301 -0.0517469 0.00944398
internal_count=893702 604967 524417 288735 80550 147731 13398 199842 134333 1266 191746 28352 376686 133067 88893 131962
shrinkage=0.0912343


Tree=24
num_leaves=17
num_cat=0
split_feature=16 29 20 0 29 7 9 28 16 11 16 29 30 7 25 17
split_gain=334.985 105.129 76.236 61.2148 44.5231 38.7182 39.9804 37.027 36.0374 35.2093 31.2625 27.0011 25.4319 24.8913 27.4775 27.5172
threshold=220.35352502503312 0.52710032878126523 0.36713162355164081 48.000000000000007 1.5481568231881837 -12.081263542175291 0.94170538332183529 300.50000000000006 233.52965712150993 0.65500397456279824 188.89784172661874 0.15034153371075659 1.0000000180025095e-35 -15.945394992828367 252.25000000000003 54.876404880389103
decision_type=2 2 2 2 2 2 2 2 2 2 2 2 2 2 2 2
left_child=1 11 -2 5 10 6 -3 -7 12 -8 -5 -1 13 -4 -15 -16
right_child=2 3 8 4 -6 7 9 -9 -10 -11 -12 -13 -14 14 15 -17
leaf_value=-0.0082012849450931683 -0.0060973975881943128 -0.0022084911661219881 0.0031635044925275393 -0.0049919849341326225 -0.0088289642665275152 -0.016513262959340025 0.0057679427428989783 -0.00104124004231575 0.003078969963999477 0.0010485533649232165 -0.0011958633143061316 -0.0038578584503876378 -0.0012433369352838157 -0.024865322970908328 0.0012440359106698749 -0.010603810462337805
leaf_count=14175 9950 22707 65637 26185 9943 1297 17313 175411 157419 54833 58178 74667 28323 339 175678 1647
internal_value=0 -0.0190246 0.0197023 -0.0115319 -0.0334817 -0.00390928 0.0123884 -0.0126575 0.0217092 0.0239063 -0.0260223 -0.0498811 0.0147322 0.0180336 0.0118857 0.0124295
internal_count=893702 454709 438993 365867 94306 271561 94853 176708 429043 72146 84363 88842 271624 243301 177664 177325
shrinkage=0.0912343


Tree=25
num_leaves=17
num_cat=0
split_feature=16 1 0 32 0 30 1 9 13 26 17 16 17 9 32 0
split_gain=284.306 112.513 57.018 46.0539 39.9557 34.6255 38.4242 33.8431 35.5848 33.7122 31.049 28.2424 26.8799 26.412 26.2707 26.2435
threshold=203.36324922936413 440.50000000000006 29.500000000000004 1.5000000000000002 29.500000000000004 1.0000000180025095e-35 706.50000000000011 0.95203134127669753 28.314077716062304 1.401990099009901 86.129141288675186 149.02345679012348 40.056601235226339 0.963395560839304 1.5000000000000002 29.500000000000004
decision_type=2 2 2 2 2 2 2 2 2 2 2 2 2 2 2 2
left_child=4 3 -3 15 10 6 -4 -6 -9 -7 11 -1 14 -12 -13 -2
right_child=1 2 5 -5 7 9 -8 8 -10 -11 13 12 -14 -15 -16 -17
leaf_value=-0.0062797458173438998 0.00026831358313718037 0.0022649390136872788 -0.00061668153719803595 -0.0058462214314449271 -0.0061073649845760072 -0.00051060209492891724 0.0018067085688504548 -0.0048166825924965502 -0.0014916537363557855 -0.0071286452109694332 0.00017075154443718998 0.0053708726300297381 -0.0018032244014887921 0.011301574053836205 -0.0064664431041524936 -0.0038232461204820442
leaf_count=9914 45470 315041 91318 20838 35148 22353 134926 45475 65207 8981 4659 8510 62785 2866 1911 18300
internal_value=0 0.0107733 0.0158027 -0.0232653 -0.0296601 0.0047669 0.00908173 -0.0399082 -0.0313235 -0.0263878 -0.0131728 -0.0187415 -0.0119581 0.0483379 0.0350762 -0.00992868
internal_count=893702 657227 572619 84608 236475 257578 226244 145830 110682 31334 90645 83120 73206 7525 10421 63770
shrinkage=0.0912343


Tree=26
num_leaves=17
num_cat=0
split_feature=16 20 20 0 17 16 17 9 29 27 19 13 16 30 29 12
split_gain=236.546 80.7902 54.2045 51.2141 41.8037 36.2926 49.5513 33.8268 31.2269 29.8475 27.1191 26.4485 24.5218 23.9139 23.2522 22.5597
threshold=221.11264936468044 0.74794575579982181 0.36713162355164081 48.000000000000007 67.072581584564361 165.53348589999226 40.056601235226339 0.9485388250412774 1.5481568231881837 33.500000000000007 577.25000000000011 139.01473253290169 245.96550973878354 1.0000000180025095e-35 0.17530168108202793 71.026911934581207
decision_type=2 2 2 2 2 2 2 2 2 2 2 2 2 2 2 2
left_child=1 -1 -2 4 5 -3 -7 11 10 12 -5 -6 13 -4 -8 -11
right_child=2 3 9 8 7 6 14 -9 -10 15 -12 -13 -14 -15 -16 -17
leaf_value=-0.0037990064106225721 -0.0052258993425440253 -0.0037913454677512858 0.0020412369893363516 -0.0044594244956234399 -0.0046109358042869149 0.0094191654484263084 -0.011399380022993798 0.0064796532598932451 -0.0075874444804981452 -0.019236871283670333 -0.00094740000951476163 0.0087517874706993463 0.0066753088127863101 -0.00035667237048579579 -0.00026561047326772644 -0.00090992342481879742
leaf_count=94582 9590 25351 342845 27297 5180 4412 1572 13312 9655 572 55532 1618 8782 38506 230156 24740
internal_value=0 -0.0155288 0.017048 -0.00892699 -0.00222157 -0.00560041 -0.00174035 0.0417136 -0.0293441 0.0187638 -0.0230705 -0.015679 0.0209228 0.0197197 -0.00373916 -0.0145129
internal_count=893702 468667 425035 374085 281601 261491 236140 20110 92484 415445 82829 6798 390133 381351 231728 25312
shrinkage=0.0912343


Tree=27
num_leaves=17
num_cat=0
split_feature=16 14 16 1 0 9 11 5 30 23 5 22 15 11 32 17
split_gain=204.838 90.9497 42.2882 36.2868 37.1481 32.0783 40.2041 40.411 27.3308 29.2577 27.1987 20.6862 20.03 19.9088 25.0302 18.9584
threshold=202.08746883431814 19.895278001527661 228.24619761786985 142.50000000000003 26.000000000000004 0.94094573664614123 0.66071555056361697 68.70127105712892 1.0000000180025095e-35 1.8325761888306815 30.200242996215824 7896.0000000000009 0.38236300312404986 0.84896247350291476 1.5000000000000002 50.067371642576653
decision_type=2 2 2 2 2 2 2 2 2 2 2 2 2 2 2 2
left_child=5 3 8 -2 -5 12 7 -7 10 -10 -3 15 -1 -8 -15 -4
right_child=1 2 11 4 -6 6 13 -9 9 -11 -12 -13 -14 14 -16 -17
leaf_value=-0.0082706588123762272 -0.0067029824037520124 -0.00038550087130998276 0.0020003351961129564 0.0003684919710363172 -0.003292550264023586 0.0011353915316068437 -0.0027189439914978224 0.016654502245243397 -0.00095144067695401597 -0.010223900898457363 0.0015589888278470388 0.0051900599486652925 -0.0035587120101705158 0.00081989758920954139 -0.0060505491561991809 -0.0055013533146012561
leaf_count=9701 10606 91788 235023 58278 38186 11484 136219 1590 38566 3057 172221 17168 33237 28518 5222 2838
internal_value=0 0.0087562 0.0138564 -0.0179502 -0.011846 -0.0260755 -0.0203047 0.0331318 0.00592303 -0.017893 0.00967781 0.0233638 -0.0506748 -0.0244153 -0.00266845 0.0209442
internal_count=893702 667731 560661 107070 96464 225971 183033 13074 305632 41623 264009 255029 42938 169959 33740 237861
shrinkage=0.0912343


Tree=28
num_leaves=17
num_cat=0
split_feature=16 14 0 28 29 0 0 9 13 7 30 22 26 23 20 1
split_gain=164.905 76.3914 40.4348 34.7535 31.6873 31.5945 28.2171 26.9558 26.2191 24.7109 23.9403 26.0761 23.8801 22.1748 19.7936 18.9089
threshold=202.08746883431814 19.895278001527661 33.000000000000007 300.50000000000006 0.19532298549452823 33.000000000000007 26.000000000000004 0.93861006490713228 26.19590237158199 -1.0000000180025095e-35 1.0000000180025095e-35 578.25000000000011 1.86010852424655 0.88717286159146636 0.7380798771121353 4680.0000000000009
decision_type=2 2 2 2 2 2 2 2 2 2 2 2 2 2 2 2
left_child=6 3 14 9 -5 -6 13 15 -9 -2 11 -4 -12 -1 -3 -8
right_child=1 2 10 4 5 -7 7 8 -10 -11 12 -13 -14 -15 -16 -17
leaf_value=-0.0018817100282195675 0.00066375981304902187 -0.0016657625307596802 -0.0016327466795469064 -0.0062873339396231883 0.0001573358113939113 -0.0036576214519154038 -0.0062669224819310448 -0.0042134589066852865 -0.0014142059508234195 -0.022758728244781781 -0.0011990269077109641 0.0010576447585447714 -0.0085862056448834673 0.0014335605468910175 0.0018859800083404891 0.0032420764322445375
leaf_count=44753 574 13590 37587 9672 71444 24187 23330 40657 88428 1081 21779 148296 4374 26880 335189 1881
internal_value=0 0.0078634 0.0125343 -0.0166278 -0.014368 -0.00885131 -0.0233911 -0.0310058 -0.0251645 -0.160413 0.00164409 0.00562975 -0.0266841 -0.00698934 0.0191549 -0.0609141
internal_count=893702 667773 560815 106958 105303 95631 225929 154296 129085 1655 212036 185883 26153 71633 348779 25211
shrinkage=0.0912343


Tree=29
num_leaves=17
num_cat=0
split_feature=16 29 0 7 29 28 9 29 24 12 11 30 22 21 13 16
split_gain=141.92 57.934 37.6714 32.6004 32.1377 30.0277 29.7042 26.812 24.0392 24.2714 23.3934 20.0018 19.6668 19.0307 19.0144 18.8733
threshold=222.03368520578422 0.51774734215093499 48.000000000000007 -10.30484628677368 0.17530168108202793 300.50000000000006 0.9485388250412774 1.5310857648685785 21.500000000000004 71.026911934581207 0.66071555056361697 1.0000000180025095e-35 7896.0000000000009 2.5000000000000004 131.24754873487208 97.46313204127101
decision_type=2 2 2 2 2 2 2 2 2 2 2 2 2 2 2 2
left_child=1 -1 3 6 -2 13 14 -4 11 -10 -8 12 -6 -5 -3 -16
right_child=4 2 7 5 8 -7 10 -9 9 -11 -12 -13 -14 -15 15 -17
leaf_value=-0.0031618152677926128 -0.0056272322538916059 -0.0018173527827971545 -0.0015987106961760492 -0.0012983563331014651 0.0016118202498103019 -0.00068490429259980318 0.0050458938525459098 -0.0063898124006581385 -0.019809415984367335 -0.0010693359592570846 0.0012836346591626946 -0.000386739886329738 0.0052351301998017812 -0.023222768600758645 0.026255213965920583 0.0033009938277509458
leaf_count=88698 5571 28727 87486 557 326059 191265 18134 10938 591 21606 56989 40844 12965 807 347 2118
internal_value=0 -0.0115482 -0.00639022 -0.000803401 0.0137526 -0.00856145 0.0132532 -0.0233591 0.0147978 -0.0171897 0.024024 0.0166669 0.0191856 -0.156408 -0.0126872 0.0715989
internal_count=893702 486066 397368 298944 407636 192629 106315 98424 402065 22197 75123 379868 339024 1364 31192 2465
shrinkage=0.0912343


Tree=30
num_leaves=17
num_cat=0
split_feature=13 0 20 16 0 14 28 9 25 29 30 26 28 30 2 22
split_gain=124.098 71.2557 40.2226 34.786 29.4508 26.9815 22.2498 21.6131 20.0503 19.335 18.609 24.3506 20.2443 18.0664 18.8993 16.5843
threshold=27.526549046775198 33.000000000000007 0.47631466467201844 197.71002319353147 40.500000000000007 19.753921202029943 851.25000000000011 0.95424032037108264 15901.500000000002 0.11799705014749264 1.0000000180025095e-35 1.4244802867383515 697.25000000000011 2.5000000000000004 59.066964285714292 612.75000000000011
decision_type=2 2 2 2 2 2 2 2 2 2 2 2 2 2 2 2
left_child=4 2 -2 7 6 -5 15 -3 9 -4 12 -12 -7 14 -13 -1
right_child=1 3 8 5 -6 10 -8 -9 -10 -11 11 13 -14 -15 -16 -17
leaf_value=-0.0017539961607246067 -0.0061570278041940645 -0.0045688015580381868 -0.013357845913868786 -0.0035893051265945249 -0.0043594265689651116 -0.00041811159142813523 -0.0054425393482869285 -0.0011777828908169968 0.0070875247242931164 0.0013432993007037076 -0.00022267346646088931 -0.013120636030168097 0.001473750432591086 -0.0014096861901561014 0.0018631803223629945 0.00089685332171683479
leaf_count=88307 5967 23864 746 16358 41184 89615 11108 45425 5073 414259 19358 3517 99192 3589 875 25265
internal_value=0 0.00571218 0.0140398 -0.00604398 -0.0245978 -0.000183079 -0.0169394 -0.0257106 0.0151978 0.014434 0.00278045 -0.0216036 0.00631123 -0.0680835 -0.111093 -0.0127616
internal_count=893702 727838 426045 301793 165864 232504 124680 69289 420078 415005 216146 27339 188807 7981 4392 113572
shrinkage=0.0912343


Tree=31
num_leaves=17
num_cat=0
split_feature=14 0 0 20 21 32 24 14 16 5 10 9 29 23 1 22
split_gain=107.074 59.5133 43.9007 35.8304 30.5834 30.4861 28.3714 26.6876 28.6004 24.9747 22.8898 22.6602 20.9626 19.8991 21.3001 19.7992
threshold=19.895278001527661 48.000000000000007 26.000000000000004 0.59926199010998749 1.5000000000000002 1.5000000000000002 2.5000000000000004 33.731229354187512 97.46313204127101 268.72648620605474 0.69243086944894838 0.87102798707174112 0.11799705014749264 1.239394567615691 2393.5000000000005 4536.2500000000009
decision_type=2 2 2 2 2 2 2 2 2 2 2 2 2 2 2 2
left_child=2 3 5 -2 7 -1 9 12 -9 13 -8 -12 -5 14 -6 -16
right_child=1 -3 -4 4 6 -7 10 8 -10 -11 11 -13 -14 -15 15 -17
leaf_value=0.00012372349744805796 -0.00380442138316013 -0.001391408694328345 -0.0031341149229713434 -0.018763824600277236 -0.0040417221768134859 -0.004123908960426817 0.00011320592012420796 0.024675669209135925 0.0041986504294466397 -0.042905707274316265 -0.0027858369399844287 0.0015387978116958836 0.00063255520622459884 0.001931663000480458 -0.032875839688796357 -0.008624635918806205
leaf_count=93364 13002 109564 103533 478 4362 16559 185386 577 35401 137 10435 300791 15599 3323 451 740
internal_value=0 0.00609608 -0.0195754 0.0101945 0.0114043 -0.00565739 0.00902822 0.0344842 0.0496201 -0.046575 0.0100374 0.0152771 0.00061231 -0.0400352 -0.0766628 -0.195189
internal_count=893702 680246 213456 570682 557680 109923 505625 52055 35978 9013 496612 311226 16077 8876 5553 1191
shrinkage=0.0912343


Tree=32
num_leaves=17
num_cat=0
split_feature=16 33 2 28 29 9 17 12 14 0 22 27 6 16 11 13
split_gain=95.0177 46.9056 33.5802 27.1906 23.2795 22.5836 27.6578 21.0892 21.0108 19.7136 23.6429 21.0927 18.4604 15.8741 15.6634 16.5606
threshold=202.50198957239584 2.5000000000000004 21.715633423180595 300.50000000000006 0.17530168108202793 0.95669489576642808 67.072581584564361 197.30865786510145 64.65040338780635 29.500000000000004 542.25000000000011 22.500000000000004 0.90000000491512522 177.61684397163125 0.84616635397123219 23.947323233820175
decision_type=2 2 2 2 2 2 2 2 2 2 2 2 2 2 2 2
left_child=5 2 3 -2 -5 13 14 -8 -3 -6 11 -11 -9 -1 15 -7
right_child=1 8 -4 4 9 6 7 12 -10 10 -12 -13 -14 -15 -16 -17
leaf_value=-0.0042175682133101852 -0.012014880164629481 -0.0035672452223126905 0.00145941548343159 -0.0077929458342470368 0.0010544805972397186 -0.0037366213190373173 0.0021757776842926072 0.019932159399534976 0.012925474680307971 -0.0010559253778476654 0.00018818993068897373 -0.0056530920482608694 -0.028418931011041385 -0.0015335653470281002 0.00040164761465647018 -0.0011846569162254064
leaf_count=37870 1529 26394 280815 3024 146573 28492 10301 885 659 34044 160320 10989 71 35569 33846 82321
internal_value=0 0.00608654 0.00781776 0.0013751 0.00194831 -0.0175208 -0.0107106 0.0370341 -0.0346963 0.00269902 -0.00362414 -0.0238697 0.179113 -0.0319794 -0.014426 -0.0201768
internal_count=893702 664347 637294 356479 354950 229355 155916 11257 27053 351926 205353 45033 956 73439 144659 110813
shrinkage=0.0912343


Tree=33
num_leaves=17
num_cat=0
split_feature=16 13 21 9 33 1 11 16 17 16 6 8 7 23 29 16
split_gain=77.4091 39.1862 23.426 20.835 20.5417 19.2017 28.5784 21.7087 29.3269 17.6601 19.7873 17.4407 17.9528 17.2867 16.9027 17.4006
threshold=202.08746883431814 30.557417994916314 14.500000000000002 0.89863308008469311 2.5000000000000004 2393.5000000000005 0.60960776046982956 146.86135011441652 40.056601235226339 239.63853563813589 0.17434479881573386 136.50000000000003 -6.5819447040557852 1.3178006355029976 1.6626666026656429 174.35250445276438
decision_type=2 2 2 2 2 2 2 2 2 2 2 2 2 2 2 2
left_child=3 2 4 -1 11 7 -7 -5 -9 -3 13 -2 -13 -11 15 -10
right_child=1 9 -4 5 -6 6 -8 8 14 10 -12 12 -14 -15 -16 -17
leaf_value=-0.0044650996091977185 -0.0065655216709473337 0.00068638797706558339 -0.0095057595216054645 -0.0042220044629785007 -0.003557627084129285 0.013163252392497505 -0.0012964383878369121 0.0023905693289511102 -0.0028985750937574294 -0.0069033471850106169 0.0026885143433975577 0.0018069193136056858 -0.00075028379345782887 -0.048165884596567329 -0.0077126350453450392 -0.00072800400396475851
leaf_count=17694 3549 476489 2557 19624 18126 1909 2816 18740 41291 451 49076 31069 86401 104 3476 120330
internal_value=0 0.00541779 -0.00934237 -0.0159975 -0.00759939 -0.0131976 0.0498232 -0.0146611 -0.0112862 0.0093932 0.0273449 -0.0028971 -0.000810475 -0.160416 -0.0155416 -0.0140577
internal_count=893702 667822 141702 225880 139145 208186 4725 203461 183837 526120 49631 121019 117470 555 165097 161621
shrinkage=0.0912343


Tree=34
num_leaves=17
num_cat=0
split_feature=13 0 9 1 22 20 29 16 0 7 16 17 32 22 5 24
split_gain=67.986 48.7624 30.3485 28.9853 26.0881 25.6401 20.0902 21.5847 17.9952 17.0346 19.5853 17.5139 16.917 23.7828 21.0069 18.6657
threshold=26.50489771185914 29.500000000000004 0.95669489576642808 3761.5000000000005 620.75000000000011 0.47631466467201844 2.2436129265829545 179.66383225236203 40.500000000000007 -18.434947013854977 230.95674436394731 47.665471989801226 1.5000000000000002 610.75000000000011 17.003228187561039 20.500000000000004
decision_type=2 2 2 2 2 2 2 2 2 2 2 2 2 2 2 2
left_child=8 5 3 6 -4 -2 7 -3 12 -7 -11 -12 13 -1 15 -15
right_child=1 2 4 -5 -6 9 -8 -9 -10 10 11 -13 -14 14 -16 -17
leaf_value=-0.0014374373929057222 -0.0051576397283461745 -0.0050900622399697231 -0.0010803226631230503 0.0015524991891006704 0.0007783867903556267 0.0020540962723918695 -0.0077427394690615312 -0.0013104505437794285 -0.0036544618675609557 3.6602956924694235e-05 0.0017290466553549395 -0.011800961886993411 -0.0034290324202200847 0.0082675173164030499 0.0002787680581843067 -0.020645171122338393
leaf_count=66235 5439 16002 99621 17787 170308 119212 5691 58755 34360 145805 112992 802 23291 5023 12186 193
internal_value=0 0.00375999 -0.00446434 -0.0195144 0.00101283 0.01164 -0.0275914 -0.0232313 -0.020147 0.0126188 0.00807458 0.0179065 -0.0137496 -0.00711198 0.0257866 0.0788925
internal_count=893702 752414 368164 98235 269929 384250 80448 74757 141288 378811 259599 113794 106928 83637 17402 5216
shrinkage=0.0912343


Tree=35
num_leaves=17
num_cat=0
split_feature=16 9 11 8 17 2 24 19 26 30 18 24 25 32 7 16
split_gain=59.0301 37.9582 45.0818 23.6044 19.0092 18.6603 17.2248 21.6688 16.7946 15.6905 14.6972 13.841 14.0257 13.8396 14.949 13.1526
threshold=223.31649383910027 0.96208701828231014 0.68139889393079989 723.50000000000011 63.152514530460003 27.372685185185187 21.500000000000004 359.25000000000006 1.584712627075167 1.0000000180025095e-35 3.5000000000000004 1.5000000000000002 32530.000000000004 1.5000000000000002 -58.298570632934563 146.86135011441652
decision_type=2 2 2 2 2 2 2 2 2 2 2 2 2 2 2 2
left_child=1 5 4 13 -3 8 9 -8 15 -2 -9 -11 -13 14 -4 -1
right_child=6 2 3 -5 -6 -7 7 10 -10 11 -12 12 -14 -15 -16 -17
leaf_value=-0.0049798524071803007 0.0012240347216917018 0.0019730520601857096 0.001547861045758499 0.0011334974203991489 0.0077033515695455104 -0.00024513451997268274 -0.024532603414296413 0.0008211949972224521 -0.0060588910298402625 0.0044599504250279068 -0.004101852900522643 -0.0010986077067996636 -0.040330885131387821 -0.0038503724278206425 -0.00086913137081489722 -0.0016862397029639839
leaf_count=11087 319607 13185 23876 70795 7594 53832 340 11656 9024 4005 8903 38317 76 11531 197410 112464
internal_value=0 -0.00701643 -0.000481736 -0.00356577 0.0445806 -0.0183883 0.00940699 -0.0185073 -0.0247638 0.0110185 -0.0143664 -0.00705722 -0.0128928 -0.00842795 -0.00666795 -0.0217221
internal_count=893702 510798 324391 303612 20779 186407 382904 20899 132575 362005 20559 42398 38393 232817 221286 123551
shrinkage=0.0912343


Tree=36
num_leaves=17
num_cat=0
split_feature=2 30 22 26 20 16 4 12 30 6 29 11 21 6 25 13
split_gain=53.9154 31.2514 28.5439 24.606 22.1966 21.5436 19.6899 21.5938 19.3446 18.16 17.8671 16.2028 14.9701 21.2085 18.8457 17.6155
threshold=20.345883180858554 1.0000000180025095e-35 596.75000000000011 1.4365766713417487 0.71440913532963057 180.60863039584277 5.0068869590759286 60.074116139070419 2.5000000000000004 0.76666666785137827 0.42329069707710493 0.8809639953542393 1.5000000000000002 0.24001353180361093 1180.2500000000002 170.89774674656863
decision_type=2 2 2 2 2 2 2 2 2 2 2 2 2 2 2 2
left_child=1 2 9 -3 -2 11 -7 -8 -5 -1 -9 -4 13 15 -14 -6
right_child=4 3 5 8 12 6 7 10 -10 -11 -12 -13 14 -15 -16 -17
leaf_value=-0.00038964586189082909 -0.0017656214721054578 -0.0016849450425624225 -0.002297427818031749 -0.0096838933295041035 -0.014799611811107857 -0.019731518018494702 0.0070864972016984589 -0.0045919848822838869 -0.000853460545567743 -0.0021167283581935261 0.00071318006322350315 0.0080918773586763047 0.0011346544361975693 0.0032044961632482195 -0.00097854896555381148 0.002634927427252198
leaf_count=125700 24824 67508 30425 6122 1024 393 4331 5420 3116 84907 210771 1303 248327 37704 40915 912
internal_value=0 -0.00640164 -0.00330522 -0.0250921 0.00948149 0.00386169 0.00736125 0.0077598 -0.0734961 -0.0119026 0.0063592 -0.020505 0.0116579 0.0298824 0.00916025 -0.0721949
internal_count=893702 539996 463250 76746 353706 252643 220915 220522 9238 210607 216191 31728 328882 39640 289242 1936
shrinkage=0.0912343


Tree=37
num_leaves=17
num_cat=0
split_feature=23 0 22 9 29 21 25 13 18 19 19 7 17 12 11 6
split_gain=46.4114 37.5996 27.3444 23.8287 18.22 17.9924 35.8934 38.4438 49.7972 33.6668 30.226 27.0543 25.5494 25.7097 23.1968 21.989
threshold=0.79424786948051251 48.000000000000007 519.75000000000011 0.96208701828231014 0.083116645715993961 1.5000000000000002 1180.2500000000002 44.997000513723684 1.5000000000000002 1298.2500000000002 912.25000000000011 -16.699242591857907 50.778677586892236 713.7853172679886 0.70932038640371986 0.24001353180361093
decision_type=2 2 2 2 2 2 2 2 2 2 2 2 2 2 2 2
left_child=3 2 -2 -1 -4 15 11 8 -8 10 -10 -7 13 -9 -15 -6
right_child=1 -3 4 -5 5 6 7 12 9 -11 -12 -13 -14 14 -16 -17
leaf_value=-0.0024344907490549397 -0.00052407909328773083 -0.0012646963510328682 -0.019028839874647614 -0.00041897256422342979 -0.005752711057589799 0.0022992171897248336 0.0012322916784183234 0.00023110482869828297 -0.011555247311730755 0.012086811680018204 -0.052863203441321761 0.00056672959554309138 -0.0056108570257089535 -0.0084892076916327722 -0.059166317171355579 0.0030362848018828936
leaf_count=80748 132167 102237 379 123501 2492 106411 738 32731 217 124 460 254377 8603 233 111 48173
internal_value=0 0.00383633 0.0069177 -0.013326 0.0105953 0.010778 0.00855032 -0.0186838 -0.173894 -0.346555 -0.434296 0.0118126 -0.0129525 -0.000325147 -0.272282 0.0285418
internal_count=893702 689453 587216 204249 455049 454670 404005 43217 1539 801 677 360788 41678 33075 344 50665
shrinkage=0.0912343


Tree=38
num_leaves=17
num_cat=0
split_feature=16 2 30 22 26 27 18 21 28 7 19 11 17 16 17 1
split_gain=41.0433 24.0594 21.6602 18.9789 18.8155 15.9098 16.5623 16.3493 14.9913 15.4402 15.081 14.9499 16.3024 16.1177 23.6055 15.2805
threshold=197.71002319353147 21.715633423180595 1.0000000180025095e-35 544.25000000000011 1.401990099009901 22.500000000000004 6.5000000000000009 1.5000000000000002 300.50000000000006 -1.0000000180025095e-35 288.25000000000006 0.8257111733582323 93.158835808496619 151.02438118811884 39.915206442873817 2628.5000000000005
decision_type=2 2 2 2 2 2 2 2 2 2 2 2 2 2 2 2
left_child=11 2 3 5 -4 7 -7 -2 9 -9 -11 12 13 -1 -15 -14
right_child=1 -3 4 -5 -6 6 -8 8 -10 10 -12 -13 15 14 -16 -17
leaf_value=-0.0040439230237765212 -0.0069034489824779518 0.00094252502185975516 -0.0011120691238505316 0.00055401630184414251 -0.0058392862571595523 -0.0032570874821689472 0.02058816490989257 0.0036020875283330391 0.00016673683447286557 -0.022629697006859472 0.0071530269731398359 0.00024675694814944128 -0.00011584050836699671 0.0029949588814363695 -0.0018173317221199454 0.00830906269663775
leaf_count=23689 2989 297749 47250 247909 8229 23345 245 485 70452 706 177 46577 6954 9228 105304 2414
internal_value=0 0.00351826 -0.00153027 0.00140851 -0.0198745 -0.010342 -0.0329858 -0.00320153 -0.00018566 -0.103867 -0.182603 -0.0129151 -0.0178445 -0.0205806 -0.0156695 0.0225259
internal_count=893702 699536 401787 346308 55479 98399 23590 74809 71820 1368 883 194166 147589 138221 114532 9368
shrinkage=0.0912343


Tree=39
num_leaves=17
num_cat=0
split_feature=13 11 10 16 7 9 7 13 27 23 16 10 28 27 9 1
split_gain=35.857 21.4417 24.6042 20.5917 20.375 26.3027 17.101 14.2726 20.5249 20.3792 19.7243 19.4095 16.1791 16.1529 14.7339 13.6795
threshold=26.50489771185914 0.92817111831415322 0.96675497447494851 242.23047384566775 -8.1301016807556135 0.90515548603467089 -76.010265350341783 184.93868831196178 6.5000000000000009 2.4536208174637664 243.34550682548567 0.97401989085570306 496.25000000000006 15.500000000000002 0.9423922101122203 710.50000000000011
decision_type=2 2 2 2 2 2 2 2 2 2 2 2 2 2 2 2
left_child=-1 2 3 4 5 -2 -7 8 10 -10 12 -12 -4 -11 -13 -6
right_child=1 -3 7 -5 15 6 -8 -9 9 13 11 14 -14 -15 -16 -17
leaf_value=-0.0013311230711796236 -0.0018826993972532739 0.002490799622672922 -0.028716236870246725 0.0031601506727656696 -0.00068907721347252423 -0.00027615547522731566 0.0015918944407332914 0.0019861056661435112 -0.000358736234992235 -0.0052367325730475625 -0.062287330257197841 -0.050310844884148553 -0.0062800565171000858 -0.038076826096823155 0.0023111738802712679 0.00034136351570251234
leaf_count=141079 26959 34053 282 19430 240162 53966 167080 3453 7454 293 108 65 5214 217 139 193748
internal_value=0 0.00278239 0.00162045 0.00253748 0.00162284 0.00885309 0.0124496 -0.035718 -0.0501316 -0.0171638 -0.0953373 -0.339924 -0.0814525 -0.210555 -0.158445 -0.00250967
internal_count=893702 752623 718570 701345 681915 248005 221046 17225 13772 7964 5808 312 5496 510 204 433910
shrinkage=0.0912343


Tree=40
num_leaves=17
num_cat=0
split_feature=0 14 29 11 7 28 9 17 26 5 4 31 21 24 29 20
split_gain=37.7597 29.5324 25.3254 17.8633 22.2161 23.3725 16.8577 20.8179 16.7802 20.0578 18.2237 18.7061 15.9088 14.6782 13.6449 11.4843
threshold=35.000000000000007 20.907374035131983 0.17530168108202793 0.90545329067068203 -16.699242591857907 300.50000000000006 0.9512770286798663 64.777102894458224 1.584712627075167 29.497016906738285 45.533237457275398 1.5000000000000002 15.500000000000002 2.5000000000000004 7.0383625161483678 0.76834254604038787
decision_type=2 2 2 2 2 2 2 2 2 2 2 2 2 2 2 2
left_child=2 -2 -1 4 6 13 -4 -8 9 12 11 -10 -3 -6 -9 -7
right_child=1 8 3 -5 5 15 7 14 10 -11 -12 -13 -14 -15 -16 -17
leaf_value=-0.0032242643816642481 -0.0022769328612440277 -0.001498854086891231 6.6561264569470771e-05 0.0019643585928480847 0.0035666650600653408 -0.0013691750494713687 0.001530287126016122 0.0061466651657219578 -0.0021875828815603108 0.00046640073924231136 0.0015506665046461109 -0.0085530560272930947 -0.025292270532613931 -0.017726564056824778 -0.057633613379589624 0.00019031694096254459
leaf_count=15238 82674 50183 63845 65185 369 45853 89576 9749 15078 167121 7142 5157 235 999 28 275270
internal_value=0 -0.00861486 0.00487459 0.005987 0.00390083 -0.000910365 0.0134081 0.0215554 -0.0030984 -0.000162005 -0.0264311 -0.0417591 -0.0176442 -0.131343 0.0653702 -0.000354715
internal_count=893702 327590 566112 550874 485689 322491 163198 99353 244916 217539 27377 20235 50418 1368 9777 321123
shrinkage=0.0912343


Tree=41
num_leaves=17
num_cat=0
split_feature=0 14 29 26 10 27 16 0 11 7 25 21 9 29 16 16
split_gain=31.5457 28.335 17.5537 15.4892 18.4264 14.5117 14.2641 13.35 12.9295 15.7143 16.7563 18.3976 11.5828 11.481 10.9429 10.0968
threshold=29.500000000000004 21.077936794711764 0.17530168108202793 1.6072809390709935 0.69243086944894838 25.500000000000004 97.46313204127101 52.500000000000007 0.92260465742361031 -18.434947013854977 252.25000000000003 3.5000000000000004 0.95489041753319481 1.3489033995052406 179.66383225236203 162.68302351286175
decision_type=2 2 2 2 2 2 2 2 2 2 2 2 2 2 2 2
left_child=2 13 -1 4 5 -3 -5 -8 9 12 11 -11 -4 -2 -6 -12
right_child=1 3 8 6 14 -7 7 -9 -10 10 15 -13 -14 -15 -16 -17
leaf_value=-0.0028520242572797304 -0.001654543694085749 -0.00039113845490105841 0.00037231173004580425 0.020440898779157064 -0.0018658414545791352 -0.0035733024572557849 -0.0013879901449615705 -0.0067142945454462871 0.0023806988400901386 0.00039383791173308027 -0.0024206939081875944 -0.021564239844888724 0.0020697758783412173 -0.0093625246259292499 0.00095427191629655201 0.00026279561455468277
leaf_count=12450 116474 101062 61492 235 12389 13525 28660 4537 32259 649 12197 622 73400 1631 151585 270535
internal_value=0 -0.00610966 0.00578108 -0.00111577 0.00132521 -0.00840405 -0.0214544 -0.0231923 0.00680327 0.00531767 0.00109656 -0.113466 0.0142048 -0.0193018 0.00812413 0.00161157
internal_count=893702 430098 463604 311993 278561 114587 33432 33197 451154 418895 284003 1271 134892 118105 163974 282732
shrinkage=0.0912343


Tree=42
num_leaves=17
num_cat=0
split_feature=0 23 29 16 27 16 9 25 22 16 5 0 27 21 7 21
split_gain=27.6712 23.0969 21.2762 17.7889 15.6516 15.3796 14.833 13.3747 12.9791 12.3539 11.0672 11.061 10.9757 12.1785 10.3166 14.0642
threshold=46.500000000000007 0.88717286159146636 0.083116645715993961 97.46313204127101 3.5000000000000004 151.02438118811884 0.96208701828231014 679.25000000000011 477.25000000000006 170.76819016330083 14.005387783050539 17.500000000000004 22.500000000000004 5.5000000000000009 -89.940933227539048 1.5000000000000002
decision_type=2 2 2 2 2 2 2 2 2 2 2 2 2 2 2 2
left_child=1 6 4 -4 -3 -5 -1 -2 10 -9 -7 -12 -13 -14 -10 -16
right_child=7 2 3 5 -6 8 -8 9 14 -11 11 12 13 -15 15 -17
leaf_value=-0.0014902632185231903 -0.0020699449819654978 -0.020124261930236257 0.0098752095072018528 -0.0041918452242385336 0.016667742949833371 -0.014150633068164701 4.0181838843898945e-05 -0.0031212019604359622 -0.00258655116637037 2.3536127943664178e-06 0.00094228027332274561 -0.00068674975952262162 -0.015737573662006902 -0.0033220393687258837 0.0023941774573396114 0.00067971138401974065
leaf_count=85717 67650 649 1711 5614 113 492 136897 12066 7348 83313 29445 35695 729 6717 44559 374987
internal_value=0 0.00247498 0.00619662 0.00644743 -0.160775 0.00610294 -0.00601871 -0.0119334 0.00668738 -0.00430534 -0.00562709 -0.00461392 -0.0148123 -0.0497355 0.00879544 0.00944602
internal_count=893702 730673 508059 507297 762 505586 222614 163029 499972 95379 73078 72586 43141 7446 426894 419546
shrinkage=0.0912343


Tree=43
num_leaves=17
num_cat=0
split_feature=0 14 9 10 21 6 13 16 29 0 14 5 25 27 19 19
split_gain=24.693 26.2046 13.9965 16.5328 16.3199 14.0108 14.1921 12.9505 14.7094 13.2871 12.236 12.0508 11.8467 20.1052 11.5242 11.9877
threshold=22.000000000000004 20.168995441181274 0.96284882121137683 0.69034271831294458 1.5000000000000002 0.24001353180361093 207.42047116795888 182.45165417995702 2.0085448244307513 51.000000000000007 38.858512906421332 160.66774749755862 7151.5000000000009 2.5000000000000004 689.25000000000011 5772.0000000000009
decision_type=2 2 2 2 2 2 2 2 2 2 2 2 2 2 2 2
left_child=-1 -2 4 -4 5 6 11 -6 10 -10 -9 -3 13 14 -5 -16
right_child=1 2 3 12 7 -7 -8 8 9 -11 -12 -13 -14 -15 15 -17
leaf_value=0.00063136621019618149 -0.0015036257697134037 -0.011787288119682108 -0.00042038560845063293 -0.017693582639222025 -0.0036033502705950164 0.001650788776639362 0.003126336985863688 -0.0001675331266623227 -0.0023927836565482276 -0.010198003350731399 -0.0042013196948274363 -0.04531170033090496 0.0081722425836056201 0.0010685248344526384 -0.0019405484162557613 -0.021723790902995643
leaf_count=324631 129991 595 126048 553 15831 27887 516 92819 10806 2182 6712 105 1886 149660 3203 277
internal_value=0 -0.00400936 -0.00031711 0.00390448 -0.00786802 0.0135122 -0.091562 -0.0127159 -0.00894814 -0.0405995 -0.00481789 -0.184316 0.010801 0.00983434 -0.059839 -0.0385299
internal_count=893702 569071 439080 281627 157453 29103 1216 128350 112519 12988 99531 700 155579 153693 4033 3480
shrinkage=0.0912343


Tree=44
num_leaves=17
num_cat=0
split_feature=0 29 14 11 7 28 9 17 27 29 16 14 26 4 30 5
split_gain=22.6277 17.2735 15.8222 11.6797 12.5916 17.1566 14.103 19.8586 13.5997 11.6968 11.2236 10.9133 10.7418 13.5972 13.8014 12.3093
threshold=35.000000000000007 0.17530168108202793 20.907374035131983 0.94358170565067134 -18.434947013854977 300.50000000000006 0.94594820724338813 64.777102894458224 2.5000000000000004 7.0383625161483678 204.97572354635938 17.673820953039783 1.584712627075167 44.999996185302741 1.0000000180025095e-35 29.497016906738285
decision_type=2 2 2 2 2 2 2 2 2 2 2 2 2 2 2 2
left_child=1 -1 -2 4 6 8 -3 -8 -6 -9 -5 -10 15 14 -14 -4
right_child=2 3 12 10 5 -7 7 9 11 -11 -12 -13 13 -15 -16 -17
leaf_value=-0.0026739370562092108 -0.0016868368216167141 -0.00021433331637646722 -0.001261995806296181 0.014131994242299157 0.0087878686036107333 0.00011523443730051735 0.0012165313889285444 0.0055450812538121157 -0.017015808944617933 -0.050579424059734444 0.0023787754262484672 0.0060270680025821307 -0.0017634595420487086 0.0014431106494592063 -0.0072676682371015074 0.0003642206256485686
leaf_count=15226 82649 51807 50437 709 280 368933 102800 10482 1088 31 14659 203 14936 7282 5082 167098
internal_value=0 0.0039175 -0.00652561 0.00483566 0.0040558 0.000819009 0.0113187 0.0175677 -0.103462 0.0589645 0.0320166 -0.146792 -0.00248711 -0.0211847 -0.0346451 -0.000140615
internal_count=893702 566218 327484 550992 535624 370504 165120 113313 1571 10513 15368 1291 244835 27300 20018 217535
shrinkage=0.0912343


Tree=45
num_leaves=17
num_cat=0
split_feature=16 11 18 29 27 22 22 4 4 33 20 14 16 26 23 13
split_gain=18.7767 16.4298 16.1158 15.847 16.1239 27.919 26.2039 24.9615 16.5934 13.1566 13.8602 13.1608 12.1273 15.8625 16.2251 12.0957
threshold=177.61684397163125 0.83102172463322055 6.5000000000000009 0.17530168108202793 22.500000000000004 1145.7500000000002 462.75000000000006 60.001482009887702 30.913235664367679 2.5000000000000004 1.0984662946556527 64.65040338780635 97.46313204127101 1.050117940929397 1.2100275550583215 283.2229001974664
decision_type=2 2 2 2 2 2 2 2 2 2 2 2 2 2 2 2
left_child=1 12 3 -2 9 6 -6 -7 -8 10 -5 -11 13 15 -15 -1
right_child=2 -3 -4 4 5 7 8 -9 -10 11 -12 -13 -14 14 -16 -17
leaf_value=-0.0006122538191088516 -0.0028714716898359189 0.0012554683970177592 0.018300469662906462 0.00068956789568182253 -0.0041369105753831775 -0.011861111750134179 2.3676047605481331e-06 -0.064456516455235174 -0.0060087167356428963 -0.0022572436163387877 -0.00051564184300306856 0.010731121947418196 -0.0019963954390386836 0.023533347784802816 -0.0052044897313770358 0.034685629907187071
leaf_count=3059 14272 18728 407 493589 15060 790 150638 83 3922 20141 94657 671 76825 543 234 83
internal_value=0 -0.0129246 0.00164953 0.00154753 0.00215208 -0.00644377 -0.00552572 -0.184816 -0.00164593 0.00455831 0.00543253 -0.0201513 -0.0191141 0.0351472 0.163082 0.00350949
internal_count=893702 99472 794230 793823 779551 170493 169620 873 154560 609058 588246 20812 80744 3919 777 3142
shrinkage=0.0912343


Tree=46
num_leaves=17
num_cat=0
split_feature=0 23 29 16 25 18 28 19 16 32 13 11 8 14 23 4
split_gain=18.387 16.6061 17.4854 14.9393 13.8502 13.8214 25.0646 18.6768 21.0353 15.0369 21.3048 14.1856 12.0424 11.3602 17.8219 13.5463
threshold=49.500000000000007 0.88717286159146636 0.083116645715993961 97.46313204127101 613.25000000000011 2.5000000000000004 892.25000000000011 858.25000000000011 219.35324316772389 1.5000000000000002 97.94976293210776 0.80672447778600598 119.50000000000001 37.194583664929354 0.32318157487651428 35.00041580200196
decision_type=2 2 2 2 2 2 2 2 2 2 2 2 2 2 2 2
left_child=1 5 -3 -4 12 9 -7 8 -8 10 11 13 -5 -1 -15 -16
right_child=-2 2 3 4 -6 6 7 -9 -10 -11 -12 -13 -14 14 15 -17
leaf_value=-0.00023994280348961126 -0.001156835260781824 -0.012984808635163318 0.0085224643829778374 -0.015346034033260141 0.00078838122485585431 -0.001208050627258576 -0.011838635169652742 -0.0028695921112827823 -0.04037990765615955 -0.0016403090696366206 -0.013857064506562653 0.0015181998574826713 -0.0001162049825868198 0.023157290463403934 -0.041106045668053877 -0.0089458889350981247
leaf_count=60250 102466 809 1896 433 326078 75830 792 1140 295 36541 859 63416 221543 132 121 1101
internal_value=0 0.00155685 0.00458402 0.00480013 0.00449357 -0.00537621 -0.0163121 -0.120877 -0.214661 -0.00012057 0.00506352 0.00614189 -0.00159932 -0.00466569 -0.0952512 -0.132958
internal_count=893702 791236 550759 549950 548054 240477 78057 2227 1087 162420 125879 125020 221976 61604 1354 1222
shrinkage=0.0912343


Tree=47
num_leaves=17
num_cat=0
split_feature=0 14 29 23 6 29 11 7 28 5 17 6 21 23 4 26
split_gain=17.092 11.45 11.8946 11.3227 11.4894 10.1043 10.7463 13.623 13.0691 12.1325 17.0272 14.2378 12.4532 18.5585 19.3454 18.408
threshold=35.000000000000007 21.669566976118578 1.3584325537443895 1.179538555546795 0.7999999943133852 0.17530168108202793 0.90545329067068203 -16.699242591857907 300.50000000000006 49.489854812622077 64.777102894458224 0.70975333174136834 1.5000000000000002 1.161459852338359 49.011991500854499 1.0094702245294169
decision_type=2 2 2 2 2 2 2 2 2 2 2 2 2 2 2 2
left_child=5 2 -2 4 -3 -1 7 9 -9 10 11 -7 -11 14 -14 -16
right_child=1 3 -4 -5 -6 6 -8 8 -10 12 -12 -13 13 -15 15 -17
leaf_value=-0.0020216635685871239 -0.0012087888315960816 0.0007382654648063837 -0.0088466743953482599 -0.0012591734409959209 -0.00086331449493297829 0.0019106927603591603 0.0014649792726798084 -0.0090741149258667404 -8.8537231419652223e-05 0.0016953005307737852 0.0046894549953879257 -0.00011141069438781562 -0.0033967817558967243 0.00064111178345083793 -0.026858997768241646 -0.00049768832450019899
leaf_count=15166 98168 113188 1727 58824 55597 63124 65229 1353 320975 12671 11312 53589 10044 11791 593 351
internal_value=0 -0.0057714 -0.0146966 -0.00185423 0.00230957 0.00330473 0.00400557 0.00238737 -0.00138385 0.0098232 0.0143565 0.0107661 -0.00654829 -0.0205271 -0.050095 -0.186961
internal_count=893702 327504 99895 227609 168785 566198 551032 485803 322328 163475 128025 116713 35450 22779 10988 944
shrinkage=0.0912343


Tree=48
num_leaves=17
num_cat=0
split_feature=16 16 26 17 29 10 21 12 15 12 6 25 21 27 26 11
split_gain=15.5305 16.1732 14.7223 14.433 13.6002 12.8683 20.2533 12.8111 12.7205 12.6082 11.739 14.5127 14.6531 12.8507 14.4295 11.8025
threshold=151.02438118811884 97.46313204127101 1.050117940929397 36.432496012898916 0.49800451287496689 0.69243086944894838 14.500000000000002 62.059397513308987 0.26450759575013749 49.088834764831851 0.51837196355993997 20554.500000000004 11.500000000000002 50.500000000000007 0.98746965298916833 0.88477539309237285
decision_type=2 2 2 2 2 2 2 2 2 2 2 2 2 2 2 2
left_child=1 2 -1 8 7 6 -6 -5 -2 -7 11 12 13 15 -15 -11
right_child=3 -3 -4 4 5 9 -8 -9 -10 10 -12 -13 -14 14 -16 -17
leaf_value=0.00048518322056983321 -0.0021868515275634136 -0.002780217230149097 0.013341626339686045 -0.00012745774431882241 -0.00035781279856022678 -0.015580234396033109 -0.0091841954774859284 -0.0024855058659030045 0.0020081988518947727 -0.0010320002920576091 0.00068649751744963674 0.010057790092253622 0.0030004120519964228 -0.045639026404477895 0.0092094078591340705 0.0010826361006728976
leaf_count=3819 6862 28133 920 43178 247961 412 2183 34502 48832 106429 331543 1118 9954 109 63 27684
internal_value=0 -0.0213696 0.0326747 0.000777526 -0.00029941 0.00104363 -0.00476619 -0.0128767 0.0163462 0.00408838 0.00423944 -0.00325353 -0.00413323 -0.00687738 -0.280039 -0.00652705
internal_count=893702 32872 4739 860830 805136 727456 250144 77680 55694 477312 476900 145357 144239 134285 172 134113
shrinkage=0.0912343


Tree=49
num_leaves=17
num_cat=0
split_feature=0 22 30 26 27 5 18 28 18 21 6 27 22 27 17 23
split_gain=14.5496 13.822 11.2418 12.7385 15.7779 10.9623 10.6202 10.0428 28.201 16.0767 12.1423 10.0128 15.903 9.81888 10.9425 12.469
threshold=22.000000000000004 614.75000000000011 1.0000000180025095e-35 1.401990099009901 14.500000000000002 448.97219848632818 6.5000000000000009 966.25000000000011 1.5000000000000002 10.500000000000002 0.33333333690165251 22.500000000000004 465.25000000000006 14.500000000000002 69.660027368572159 0.89693203264904231
decision_type=2 2 2 2 2 2 2 2 2 2 2 2 2 2 2 2
left_child=7 6 -3 -4 5 -5 11 13 -9 10 -10 -2 -13 -1 -15 -16
right_child=1 2 3 4 -6 -7 -8 8 9 -11 -12 12 -14 14 15 -17
leaf_value=0.0013827124823430352 -0.00053573624902158534 0.00030771496716454138 -0.00039131092257103218 -0.0011793912698808142 -0.0083817372206387922 -0.0436039206764103 0.018605341625125362 0.00023781522345231478 0.0029209681785393972 -0.03319077981026318 -0.0065943733078586073 -0.0057579771943183679 -0.0013051814101919315 0.00013483098352459644 -0.0013370178625158712 0.0082865094619023038
leaf_count=108370 162210 292332 51554 8540 3977 51 233 44453 1341 172 6661 7939 41973 159161 1821 2914
internal_value=0 -0.00306216 0.000742641 -0.0112482 -0.0397948 -0.0156875 -0.0094488 0.00532604 -0.00731983 -0.0613033 -0.0548014 -0.00968318 -0.0220689 0.00777039 0.00288719 0.0502603
internal_count=893702 568809 356454 64122 12568 8591 212355 324893 52627 8174 8002 212122 49912 272266 163896 4735
shrinkage=0.0912343


Tree=50
num_leaves=17
num_cat=0
split_feature=16 18 7 25 21 11 13 7 17 19 27 15 13 14 28 23
split_gain=12.566 11.6707 11.0795 18.5648 21.3417 16.8588 14.682 13.6104 13.5431 12.2403 11.7029 11.0342 10.8326 9.62449 12.2863 9.44853
threshold=165.53348589999226 6.5000000000000009 -8.1301016807556135 252.25000000000003 3.5000000000000004 0.87624114474036319 51.891539039615303 -78.852966308593736 59.014989684975184 366.25000000000006 6.5000000000000009 0.26450759575013749 147.41929919628859 23.587165606251002 892.25000000000011 2.2472065296070425
decision_type=2 2 2 2 2 2 2 2 2 2 2 2 2 2 2 2
left_child=12 2 7 4 -4 11 8 9 -7 -2 -11 15 -1 14 -13 -5
right_child=1 -3 3 5 -6 6 -8 -9 -10 10 -12 13 -14 -15 -16 -17
leaf_value=-0.0014036678968820939 0.0029295669600251924 0.015407995036984456 0.00042424942555651686 -0.0029384361612480293 -0.019233565090714548 0.00033229927466849957 0.0025133623402941565 0.00094038634355380767 -0.0092900008341485207 -0.0029403449830982462 -0.00018581579888077331 -0.00066569904029103869 0.0068291850592965414 8.7563603760097366e-05 -0.0038583929637352231 -0.015598458958092266
leaf_count=62991 7785 414 929 7944 910 142722 28601 204132 1228 17259 50125 176364 1359 179778 10638 523
internal_value=0 0.00102652 0.000942684 -0.00166346 -0.101969 -0.00132672 0.00685422 0.00607131 0.00274254 -0.00543231 -0.00976969 -0.00508859 -0.0134796 -0.00426469 -0.00928732 -0.0407789
internal_count=893702 829352 828938 549637 1839 547798 172551 279301 143950 75169 67384 375247 64350 366780 187002 8467
shrinkage=0.0912343


Tree=51
num_leaves=17
num_cat=0
split_feature=0 17 29 17 15 25 4 29 23 25 11 1 7 7 25 25
split_gain=12.5851 10.1489 9.32495 11.0208 11.2545 9.36141 19.2326 17.8252 12.2172 25.0666 23.5101 20.9021 9.24668 13.6692 14.2329 13.0265
threshold=46.500000000000007 55.25206928883712 0.15034153371075659 33.827959300762757 0.26450759575013749 1469.2500000000002 44.999996185302741 0.97840018867150669 1.0292149753047737 2529.7500000000005 0.61765675287913469 8295.5000000000018 -33.618085861206048 -44.937038421630852 1139.2500000000002 252.25000000000003
decision_type=2 2 2 2 2 2 2 2 2 2 2 2 2 2 2 2
left_child=2 -2 -1 4 5 -4 7 -7 9 -9 -11 -10 13 14 -5 -14
right_child=1 -3 3 12 -6 6 -8 8 11 10 -12 -13 15 -15 -16 -17
leaf_value=-0.0020366236512459235 -0.0011920330430799306 0.00038285160857856447 0.0047876601532369396 0.00081460420525330949 0.0024450875925721401 0.0056748947461712392 0.0025916194085879368 -0.059075290796191532 0.0047413574855257601 -0.061108874622465899 -0.0018644763227252698 -0.059492680175461492 -0.0077466771776289805 0.0030321067454743035 -0.0015242850400928412 -3.3260719576544221e-05
leaf_count=15690 114416 48496 756 131102 27924 242 882 175 223 73 236 52 1829 18789 25942 506875
internal_value=0 -0.00792704 0.00179264 0.00232176 0.0209008 -0.0415207 -0.0792594 -0.174126 -0.249476 -0.34511 -0.173846 -0.0811615 0.00149225 0.00774364 0.0046939 -0.000668538
internal_count=893702 162912 730790 715100 30563 2639 1883 1001 759 484 309 275 684537 175833 157044 508704
shrinkage=0.0912343


Tree=52
num_leaves=17
num_cat=0
split_feature=16 16 17 29 16 18 17 7 25 21 18 21 14 5 13 17
split_gain=11.2072 14.6702 12.1262 11.61 11.3445 10.1527 9.90989 9.90857 14.2092 17.3958 12.786 13.7291 16.0618 12.4973 11.9892 17.7294
threshold=146.86135011441652 97.46313204127101 38.108009871051557 2.5574545454545459 177.61684397163125 6.5000000000000009 45.039312333317405 -8.1301016807556135 252.25000000000003 2.5000000000000004 3.5000000000000004 11.500000000000002 30.479074133764612 49.489854812622077 124.20192684737886 64.777102894458224
decision_type=2 2 2 2 2 2 2 2 2 2 2 2 2 2 2 2
left_child=1 3 -2 -1 6 7 -4 13 9 -9 11 -10 -13 -6 15 -15
right_child=2 -3 4 -5 5 -7 -8 8 10 -11 -12 12 -14 14 -16 -17
leaf_value=0.0016359816373561448 0.0011268313558922135 -0.0029002735878720957 0.00063352642887909655 0.021610868407874441 0.00085398415103697613 0.014712278937235843 -0.0019689911546159687 0.0047089716143156627 -0.00012578419525300844 -0.015588953039511157 -0.001754257115665226 0.0029319063915208077 -0.022173687408349754 -0.00095130145143770904 0.0020422749036491873 -0.0086136160953437842
leaf_count=4494 80638 21068 16863 256 192749 393 43841 527 426396 1055 38815 15803 215 37723 10173 2693
internal_value=0 -0.0204707 0.000671649 0.0297314 -0.000524669 0.000572608 -0.0136575 0.000485643 -0.00213682 -0.0967537 -0.00182577 -0.000298992 0.0284425 0.00568891 -0.00829959 -0.0160231
internal_count=893702 25818 867884 4750 787246 726542 60704 726149 482811 1582 481229 442414 16018 243338 50589 40416
shrinkage=0.0912343


Tree=53
num_leaves=17
num_cat=0
split_feature=0 9 6 21 21 6 25 17 14 16 21 28 17 7 5 19
split_gain=10.5325 15.9323 13.3002 12.6444 12.5226 12.0946 9.19733 15.4195 14.3512 13.3304 13.4982 9.38217 8.89948 9.31447 10.061 8.39436
threshold=22.000000000000004 0.95424032037108264 0.74504076459448909 14.500000000000002 1.5000000000000002 0.24001353180361093 849.25000000000011 45.671522789272487 115.83050931960031 233.20341614906835 2.5000000000000004 693.25000000000011 86.129141288675186 -51.84277153015136 213.48718261718753 5772.0000000000009
decision_type=2 2 2 2 2 2 2 2 2 2 2 2 2 2 2 2
left_child=6 4 -3 -4 5 15 11 -8 9 -9 -11 -1 -7 14 -14 -2
right_child=1 2 3 -5 -6 12 7 8 -10 10 -12 -13 13 -15 -16 -17
leaf_value=0.00040071989689951349 -0.010389955104588892 0.00043658973397437962 -0.00053071189603493452 -0.0097299667497477531 -0.0015534972720147836 0.00081978142953358492 0.00040728750607196921 -0.0024926095443374963 0.0094089836355527 -0.0035706122162405696 -0.028392734162152187 0.0017915442592826259 0.0094414989190894499 0.01491190592946717 -0.03044478574021196 0.0023998998875107442
leaf_count=202056 1331 266511 167154 1253 106175 24843 49837 20975 816 396 338 50452 131 717 88 629
internal_value=0 -0.00254722 0.000389464 -0.00656724 -0.0120848 0.00683429 0.00458977 -0.0053496 -0.0270628 -0.0319565 -0.164422 0.00743812 0.0125919 0.108314 -0.0721863 -0.0688936
internal_count=893702 568832 434918 168407 133914 27739 324870 72362 22525 21709 734 252508 25779 936 219 1960
shrinkage=0.0912343


Tree=54
num_leaves=17
num_cat=0
split_feature=6 22 14 9 27 8 28 12 9 22 11 16 5 6 27 24
split_gain=9.9371 11.3613 11.2942 12.7567 14.4927 17.3938 25.3183 16.5593 30.8393 14.6202 18.7078 11.7914 11.9518 11.6099 10.6813 10.2377
threshold=0.87964878410860015 554.25000000000011 69.985052903198365 0.92693047489530589 2.5000000000000004 1433.5000000000002 389.75000000000006 258.93250352560284 0.97795707424129008 3558.7500000000005 0.81591334695267292 97.46313204127101 75.127388000488295 0.49930926699354811 4.5000000000000009 15.500000000000002
decision_type=2 2 2 2 2 2 2 2 2 2 2 2 2 2 2 2
left_child=2 15 3 13 5 6 -5 -7 9 10 -9 12 -6 -1 -14 -2
right_child=1 -3 -4 4 11 7 -8 8 -10 -11 -12 -13 14 -15 -16 -17
leaf_value=-0.0022947031325086038 -0.0012850149931543998 -0.00010012945893792976 0.0021000270553879034 0.0091757242380709307 0.0035017519653166426 0.004558821330467356 -0.0063039540679779536 -0.002064467777043325 -0.027404787606968416 0.0018799420680041606 -0.048807048778056902 0.00024138740845734282 0.032473561565938509 -7.1386871143776972e-05 0.0041322315940353696 -0.0049638238681574175
leaf_count=34335 39798 84304 23329 972 1689 4389 9240 193 412 2341 113 639256 256 45400 195 7480
internal_value=0 -0.0080561 0.00135448 0.00067041 0.00211576 -0.0261449 -0.0529468 0.0106035 -0.0458765 -0.00626382 -0.211824 0.00289388 0.0769994 -0.0112762 0.221622 -0.0204644
internal_count=893702 131582 762120 738791 659056 17660 10212 7448 3059 2647 306 641396 2140 79735 451 47278
shrinkage=0.0912343


Tree=55
num_leaves=17
num_cat=0
split_feature=27 25 28 27 4 28 30 19 0 20 24 15 21 18 25 27
split_gain=9.43989 23.2402 18.8247 18.112 13.3947 16.5386 13.0473 12.2208 11.2351 13.0166 10.3321 9.65332 9.41382 12.9549 12.4754 11.2202
threshold=22.500000000000004 1041.7500000000002 448.25000000000006 32.500000000000007 29.830111503601078 768.25000000000011 1.0000000180025095e-35 516.25000000000011 51.000000000000007 0.69568322981366471 27.500000000000004 0.44553707717072294 11.500000000000002 3.5000000000000004 409.25000000000006 45.500000000000007
decision_type=2 2 2 2 2 2 2 2 2 2 2 2 2 2 2 2
left_child=8 2 3 -2 5 12 -6 10 9 -1 -5 -3 15 -14 -15 -4
right_child=1 11 4 7 6 -7 -8 -9 -10 -11 -12 -13 13 14 -16 -17
leaf_value=-0.00083746937689584545 -0.0022124438530999888 0.0057070575259009779 -0.00077834991201196661 -0.024869188919697895 -0.0022393229876017506 0.002654997556896761 -0.01216079277798068 -0.0021474698860120623 -0.0010027457632056202 0.00042009331277698776 -0.004546287068628951 -0.026501170742231128 0.0026191346196157753 -0.02477935484640325 -0.00075029458140122218 -0.0101005208348475
leaf_count=77925 3118 96 125176 804 4729 15125 1439 482 63609 567043 281 401 17019 182 15189 1084
internal_value=0 -0.00633094 -0.00574961 -0.0683285 -0.00412031 -0.00249484 -0.0499156 -0.156035 0.00168868 0.00293919 -0.214895 -0.222283 -0.00550704 0.0097016 -0.0113423 -0.00940858
internal_count=893702 185125 184628 4685 179943 173775 6168 1567 708577 644968 1085 497 158650 32390 15371 126260
shrinkage=0.0912343


Tree=56
num_leaves=17
num_cat=0
split_feature=16 16 26 17 16 32 16 23 9 5 29 13 14 1 10 24
split_gain=9.9871 11.0062 11.2242 9.33133 11.6098 11.4916 12.1562 8.70355 8.68061 11.9621 10.9831 10.8739 8.31077 22.4802 8.30925 14.153
threshold=146.86135011441652 97.46313204127101 1.050117940929397 36.432496012898916 184.15209800469486 1.5000000000000002 170.76819016330083 1.2100275550583215 0.9485388250412774 78.422302246093764 0.34948317806918655 240.56997562628757 48.726215208923371 10533.000000000002 0.69243086944894838 22.500000000000004
decision_type=2 2 2 2 2 2 2 2 2 2 2 2 2 2 2 2
left_child=1 2 8 4 5 6 -2 -4 11 -10 -11 -1 13 -6 15 -5
right_child=3 -3 7 14 12 -7 -8 -9 9 10 -12 -13 -14 -15 -16 -17
leaf_value=-0.0056422948023191572 0.0039554803263018821 -0.0026619207072804004 0.017394273833479808 -0.00031483219997608026 -0.0002755876135926379 -0.0014648619474011706 0.013304183312424731 -0.0015468383363248623 0.001420212088207404 0.039774209837431879 0.0038909645899940968 0.023978981668082242 0.0021131513167908841 -0.057131574231591847 0.00019422236116284786 -0.0044379519071089338
leaf_count=1924 6831 20989 622 277728 29097 2555 1394 299 1507 142 142 109 17799 58 525399 7107
internal_value=0 -0.0193437 0.0241516 0.000646164 0.0129293 0.0425246 0.060722 0.123255 0.000282757 0.0510446 0.239302 -0.0444366 0.00613462 -0.0042604 -0.000229082 -0.00457842
internal_count=893702 25734 4745 867968 57734 10780 8225 921 3824 1791 284 2033 46954 29155 810234 284835
shrinkage=0.0912343


Tree=57
num_leaves=17
num_cat=0
split_feature=9 11 17 16 26 13 20 29 5 4 14 23 5 4 27 28
split_gain=8.3997 13.8299 13.9325 12.8789 11.0405 11.0053 9.80136 10.4304 11.0049 15.8714 10.0056 9.57081 9.27028 15.8262 9.23867 12.705
threshold=0.96083391123993733 0.67401632586124161 61.024846484205348 228.57366969313873 7.019156192063682 44.997000513723684 1.1448813443623516 2.0085448244307513 298.69085693359381 188.99998474121097 37.96082658789885 0.78907412552869638 82.822822570800795 56.970235824584968 2.5000000000000004 374.75000000000006
decision_type=2 2 2 2 2 2 2 2 2 2 2 2 2 2 2 2
left_child=3 2 -2 4 6 14 7 8 9 11 -8 -1 13 -4 15 -3
right_child=1 5 12 -5 -6 -7 10 -9 -10 -11 -12 -13 -14 -15 -16 -17
leaf_value=-0.0013336363539197611 0.00095513017983419246 0.0073791337103416921 0.004603358708478859 0.00038358212191599373 0.011765265487673272 0.001106039830853982 -0.0019939921184803015 -0.0035875054626148812 0.011306164784706068 -0.025243332824622464 -0.0093665423689750626 6.6461844632531057e-05 0.014808388564846555 -0.044513068032205901 -2.1566430747798443e-05 -0.0050724392688869194
leaf_count=63666 26942 778 7621 124578 582 77628 25543 9135 663 215 1630 112364 761 55 436008 5533
internal_value=0 0.00244288 0.0215741 -0.00387766 -0.00858698 0.00114113 -0.00896242 -0.00637126 -0.00466979 -0.00515353 -0.0267031 -0.00482189 0.0570361 0.046599 -0.000786228 -0.0387732
internal_count=893702 555326 35379 338376 213798 519947 213216 186043 176908 176245 27173 176030 8437 7676 442319 6311
shrinkage=0.0912343


Tree=58
num_leaves=17
num_cat=0
split_feature=11 7 22 9 5 12 21 24 27 25 25 10 17 29 24 25
split_gain=8.11604 12.8495 10.3918 9.59005 9.50507 14.6399 10.1006 8.66421 12.6782 11.8889 13.1543 7.84284 7.77906 10.342 8.44638 13.739
threshold=0.87624114474036319 -4.2170312404632559 297.75000000000006 0.95424032037108264 40.999996185302741 123.30508652763324 12.500000000000002 9.5000000000000018 10.500000000000002 1041.7500000000002 1374.7500000000002 0.96315454070394924 64.777102894458224 7.0383625161483678 3.5000000000000004 988.25000000000011
decision_type=2 2 2 2 2 2 2 2 2 2 2 2 2 2 2 2
left_child=1 3 -3 -1 5 -2 7 8 -7 -10 -11 -4 -5 14 -14 -16
right_child=4 2 11 12 -6 6 -8 -9 9 10 -12 -13 13 -15 15 -17
leaf_value=-0.00029457148576873522 0.000278891051538762 -0.0039929269407352735 -0.00038632887307579072 0.00052496076899834784 0.0016558268671633654 -0.004373319353141958 -0.048921748612283156 0.00025374940748093999 -0.0096785767060577604 -0.049900253829699766 0.0032640039648326852 -0.0032171548524787437 0.0086709218251155538 -0.044256199737024562 0.0031073089008709716 -0.005645135992440908
leaf_count=141666 144620 7022 361802 166001 46150 995 46 1125 281 172 50 8334 1793 39 11899 1707
internal_value=0 -0.00169128 -0.00565609 0.0029368 0.00562627 0.00170247 -0.0716854 -0.0635388 -0.113345 -0.242735 -0.415702 -0.0049331 0.0077508 0.0292221 0.0305246 0.0220228
internal_count=893702 700263 377158 323105 193439 147289 2669 2623 1498 503 222 370136 181439 15438 15399 13606
shrinkage=0.0912343


Tree=59
num_leaves=17
num_cat=0
split_feature=0 9 28 27 22 28 18 13 2 10 21 21 7 27 23 14
split_gain=7.88946 10.3644 9.98945 9.54321 15.8067 9.21821 18.0105 9.195 9.12748 9.12631 12.9272 8.66584 8.47595 8.81746 8.58853 8.29814
threshold=17.500000000000004 0.96284882121137683 695.25000000000011 22.500000000000004 462.75000000000006 966.25000000000011 1.5000000000000002 30.452804466593864 27.372685185185187 0.94765383801290282 9.5000000000000018 1.5000000000000002 -6.0265491008758536 2.5000000000000004 1.2591872403304885 16.238366434862904
decision_type=2 2 2 2 2 2 2 2 2 2 2 2 2 2 2 2
left_child=5 8 3 11 -5 -1 -7 -4 -2 10 -8 -3 13 15 -15 -13
right_child=1 2 7 4 -6 6 9 -9 -10 -11 -12 12 -14 14 -16 -17
leaf_value=0.00066935893935331356 -0.0010336288090148779 -0.0030878673176634032 -0.0008960075385091304 -0.0053502659833739238 -0.00070577152372773306 -3.1663886919271399e-06 -0.0060789779943977015 0.0010052349911238876 0.00018998987661095724 0.0024350110334538677 -0.034077451768675208 0.011368244583715326 -0.00017203802182220635 0.0018311943481105334 -0.0016904506340222026 -0.02086276949810608
leaf_count=212578 162999 6838 25394 6768 61731 34542 5178 127398 73680 1064 141 88 126418 41930 6683 272
internal_value=0 -0.00190046 0.00118105 -0.00270303 -0.0127657 0.00469084 -0.00905263 0.00755471 -0.00715418 -0.0578537 -0.0747655 0.00107948 0.0024411 0.0136102 0.0147649 -0.142316
internal_count=893702 640199 403520 250728 68499 253503 40925 152792 236679 6383 5319 182229 175391 48973 48613 360
shrinkage=0.0912343


Tree=60
num_leaves=17
num_cat=0
split_feature=18 0 17 20 27 11 7 22 10 5 12 28 9 17 17 21
split_gain=7.98836 7.46703 9.25497 8.60887 6.7308 6.29285 7.86941 12.1452 7.87066 8.45243 8.86065 8.3979 7.81221 7.43934 7.43793 21.1417
threshold=6.5000000000000009 48.000000000000007 52.266454027669432 1.1968969232885509 44.500000000000007 0.90545329067068203 -1.9091523885726926 273.25000000000006 0.96675497447494851 298.69085693359381 872.73863607376256 300.50000000000006 0.95317873476960913 110.59926477246496 59.807676777421086 1.5000000000000002
decision_type=2 2 2 2 2 2 2 2 2 2 2 2 2 2 2 2
left_child=1 5 3 -3 -5 6 12 -8 9 10 14 -10 -1 -7 -9 -16
right_child=-2 2 -4 4 -6 13 7 8 11 -11 -12 -13 -14 -15 15 -17
leaf_value=-0.00019755224283561022 0.012486958446813128 -0.0011744711148951614 4.954380155637179e-05 -0.0050068293673646586 -0.04047352180957025 0.00079053489340403886 -0.0045130053584350478 -9.2355625823288583e-05 -0.041947418374395869 0.0088871107066929005 -0.010157368409742686 -0.0032263670762976838 0.00072673814477909777 0.018769040888478385 0.010682895733274004 -0.0040433098492087156
leaf_count=130645 426 55341 72720 4349 45 86950 5566 338072 47 857 740 5800 182362 192 895 8695
internal_value=0 -0.000103697 -0.00703298 -0.0162558 -0.05886 0.00110266 6.83005e-05 -0.00311564 -0.00238914 -0.00177999 -0.00202398 -0.0387751 0.0037371 0.00909907 -0.00179132 -0.029254
internal_count=893702 893276 132455 59735 4394 760821 673679 360672 355106 349259 348402 5847 313007 87142 347662 9590
shrinkage=0.0912343


Tree=61
num_leaves=17
num_cat=0
split_feature=27 22 4 28 27 8 19 24 28 4 18 0 22 21 14 16
split_gain=7.37407 20.388 19.6911 14.6505 14.0461 10.3509 9.80679 8.89856 8.3608 18.0317 10.5201 9.52883 11.3554 10.1412 17.7227 8.60277
threshold=22.500000000000004 1145.7500000000002 60.001482009887702 448.25000000000006 32.500000000000007 2143.5000000000005 501.25000000000006 27.500000000000004 768.25000000000011 27.280031204223636 3.5000000000000004 33.000000000000007 491.25000000000006 12.500000000000002 32.629807988414058 203.36324922936413
decision_type=2 2 2 2 2 2 2 2 2 2 2 2 2 2 2 2
left_child=-1 3 5 4 -2 -3 7 -6 11 -10 -11 13 -13 -5 15 -15
right_child=1 2 -4 8 6 -7 -8 -9 9 10 -12 12 -14 14 -16 -17
leaf_value=0.00013546717030782322 -0.0018970298176873117 -0.015077973553906065 -0.056567628419764149 -0.00034995017319404273 -0.022240304629975585 0.0089631550696048397 -0.0020378849829412373 -0.0033985735739196737 0.0028692052958938616 -0.0043308919540923458 -0.029296065501014486 -0.0051520845901896995 -0.0010037319140652023 0.0084197478951901911 -0.044592178040803752 0.001626751093292079
leaf_count=708624 3117 679 82 89834 802 191 514 282 13992 2020 151 6135 52443 1762 67 13007
internal_value=0 -0.00560384 -0.151569 -0.00484915 -0.0598732 -0.107416 -0.136102 -0.190046 -0.00340309 0.018292 -0.0665024 -0.0055511 -0.0157638 0.00016437 0.0243855 0.0267134
internal_count=893702 185078 952 184126 4715 870 1598 1084 179411 16163 2171 163248 58578 104670 14836 14769
shrinkage=0.0912343


Tree=62
num_leaves=17
num_cat=0
split_feature=26 15 23 27 17 16 5 21 7 33 29 4 19 16 26 25
split_gain=6.83423 7.43272 14.8821 15.4568 8.47569 9.32372 8.46967 11.2047 11.3318 7.62539 7.59263 10.2206 14.3143 11.5359 11.2735 9.90352
threshold=7.019156192063682 0.26450759575013749 2.8178023613291479 14.500000000000002 33.395834831747827 151.02438118811884 109.20078277587892 1.5000000000000002 -41.633537292480462 2.5000000000000004 0.11799705014749264 12.789388656616213 329.25000000000006 216.59342318683869 0.44590002326749051 802.25000000000011
decision_type=2 2 2 2 2 2 2 2 2 2 2 2 2 2 2 2
left_child=1 2 -1 -4 -3 6 -6 8 -8 10 -7 12 13 -12 -14 -15
right_child=-2 4 3 -5 5 9 7 -9 -10 -11 11 -13 14 15 -16 -17
leaf_value=-0.0012348076140484628 0.0043074651867059189 0.0015067291956866269 -0.0037980185978638129 -0.03781621770579803 -0.0021467403568791008 -0.0042939620304941585 -0.0038370954216293777 -0.0085619360239658944 0.020105694299667239 -0.0015025843794257774 0.0011589652246168981 2.924913710618146e-05 0.0020162045088506836 -0.0037463899712385355 0.007449597433613917 -0.023852600816171594
leaf_count=26296 3046 30978 270 189 23367 3298 245 303 501 26386 10253 751033 9608 2960 4750 219
internal_value=0 -0.000235133 -0.0166504 -0.195162 0.000273248 -0.000330812 -0.0195837 0.0683205 0.134187 0.000250605 0.000814683 0.00101743 0.0198498 -0.00361511 0.0418013 -0.0562453
internal_count=893702 890656 26755 459 863901 832923 24416 1049 746 808507 782121 778823 27790 13432 14358 3179
shrinkage=0.0912343


Tree=63
num_leaves=17
num_cat=0
split_feature=18 27 14 28 1 21 22 20 28 18 0 27 21 14 16 20
split_gain=6.67493 6.59426 16.2264 11.1357 12.3724 11.9939 9.42613 8.92581 8.09975 15.9563 9.72662 9.81769 8.66568 15.6892 8.84563 7.87867
threshold=6.5000000000000009 22.500000000000004 69.985052903198365 448.25000000000006 1458.5000000000002 9.5000000000000018 1145.7500000000002 1.030665530948325 695.25000000000011 1.5000000000000002 33.000000000000007 52.500000000000007 12.500000000000002 32.629807988414058 203.36324922936413 1.0817699398039859
decision_type=2 2 2 2 2 2 2 2 2 2 2 2 2 2 2 2
left_child=1 15 3 4 5 -3 8 -7 10 -10 12 -12 -5 14 -14 -1
right_child=-2 2 -4 6 -6 7 -8 -9 9 -11 11 -13 13 -15 -16 -17
leaf_value=0.00025460136691004946 0.011488876668387309 0.00017986525353087915 -0.044094412616439982 -0.00049435754719957738 -0.052995201318986808 -0.013482228386316601 -0.009700569586751558 -0.0018122231598433881 -0.0067291576616867405 0.0011701239432019735 -0.0015889958497741746 -0.014066397666826543 0.0083776990446969846 -0.042417160323620452 0.0013319362681710844 -0.00058817733166184865
leaf_count=599512 421 2366 71 74529 44 1438 894 879 2243 41698 45698 531 1683 66 12491 109138
internal_value=0 -1.88598e-05 -0.00534181 -0.00515794 -0.0530686 -0.0481096 -0.00389858 -0.0992497 -0.00338684 0.00840582 -0.00722528 -0.0189875 -0.00109975 0.0215039 0.0237689 0.00136798
internal_count=893702 893281 184631 184560 4727 4683 179833 2317 178939 43941 134998 46229 88769 14240 14174 708650
shrinkage=0.0912343


Tree=64
num_leaves=17
num_cat=0
split_feature=25 4 25 10 7 29 6 16 26 15 10 28 5 9 12 14
split_gain=6.31194 8.90306 15.6222 14.1785 7.20211 8.99803 8.97554 7.11173 7.57727 6.08734 5.8649 11.5453 6.94997 9.27294 9.62594 8.83403
