tree
version=v2
num_class=1
num_tree_per_iteration=1
label_index=0
max_feature_idx=33
objective=regression
feature_names=Column_0 Column_1 Column_2 Column_3 Column_4 Column_5 Column_6 Column_7 Column_8 Column_9 Column_10 Column_11 Column_12 Column_13 Column_14 Column_15 Column_16 Column_17 Column_18 Column_19 Column_20 Column_21 Column_22 Column_23 Column_24 Column_25 Column_26 Column_27 Column_28 Column_29 Column_30 Column_31 Column_32 Column_33
feature_infos=[7:53] [1:192974] [0:18266.900000000001] [0:1] [0:367] [0:900.29925537109375] [0:1] [-90:90] [1:236286] [0.234375:1] [0:1] [0.125:1] [0:3129.7981233214459] [0:1051.0701942889702] [0:389.36819431187206] [0:1] [0:255] [0:125.86273702501694] [1:8] [50:198302] [1.7727353306151392e-05:26.420168067226889] [1:22] [50:198302] [1.7727353306151392e-05:33.644680851063832] [1:40] [50:198302] [1.7727353306151392e-05:188.28971962616822] [1:67] [50:198302] [1.9887041603691034e-05:188.28971962616822] [0:3] [1:18] [1:18] [0:3]
tree_sizes=1229 1270 1270 1273 1271 1270 1273 1278 1274 1279 1276 1278 1274 1273 1283 1275 1286 1282 1278 1276 1270 1287 1277 1288 1288 1277 1283 1285 1286 1279 1287 1283 1296 1282 1287 1284 1293 1273 1287 1287 1281 1294 1285 1292 1287 1287 1292 1290 1300 1284 1299 1289 1287 1298 1291 1289 1296 1283 1278 1296 1288 1289 1291 1295 1285 1278 1279 1297 1292 1297 1279 1289 1289 1282 1293 1280 1273 1289 1269 1281 1282 1295 1280 1284 1283 1294 1276 1298 1299 1289 1288 1263 1292 1288 1267 1289 1293 1279 1276 1295 1270 1291 1293 1284 1285 1281 1247 1287 1282 1299 1281 1298 1292 1299 1287 1292 1280 1291 1277 1247 1261 1263 1288 1284 1259 1290 1263 1276 1281 1240 1256 1251 1280 1286 1280 1258 1280 1243 1278 1259 1299 1270 1245 1280 1275 1271 1272 1256 1247 1277 1255 1281 1255 1286 1257 1259 1276 1241 1248 1228 1265 1278 1245 1255 1270 1239 1262 1284 1274 1290 1265 1242 1231 1254 1270 1255 1273 1264 1258 1258 1251 1257 1276 1255 1283 1264 1238 1259 1243 1292 1279 1242 1238 1252 1234 1230 1278 1273 1244 1259 1269 1228 1264 1226 1265 1266 1238 1256 1275 1253 1245 1236

Tree=0
num_leaves=14
num_cat=0
split_feature=16 32 16 16 32 20 32 17 16 16 16 16 20
split_gain=21620.9 5918.73 2906.13 2749.04 1586.5 1341.1 765.33 594.586 426.867 393.338 323.579 282.823 180.263
threshold=215.00340259950511 1.5000000000000002 195.51934401370386 228.53829551743226 1.5000000000000002 0.59914628147356408 1.5000000000000002 86.355533035298023 173.94860790139765 235.022911699731 223.14604152367883 208.66070562957725 0.67428069735356833
decision_type=2 2 2 2 2 2 2 2 2 2 2 2 2
left_child=2 3 6 10 11 -3 7 8 -1 -5 -2 -4 -6
right_child=1 5 4 9 12 -7 -8 -9 -10 -11 -12 -13 -14
leaf_value=0.52330452076939804 0.53952412771381997 0.5176444373032032 0.53287942429449009 0.54583333046165583 0.51769119965906152 0.53599606382356313 0.51713613311040285 0.53657439942977159 0.52794701176560499 0.54923067710420814 0.54271325619389787 0.53639633801621289 0.52849206052920805
leaf_count=67828 128149 18413 96855 134185 12034 11960 17861 9914 77000 115426 105717 73024 3672
internal_value=0 0.131563 -0.188496 0.158463 -0.101629 -0.29663 -0.281896 -0.259273 -0.275492 0.231452 0.0805611 -0.0735156 -0.405707
internal_count=872038 513850 358188 483477 185585 30373 172603 154742 144828 249611 233866 169879 15706
shrinkage=1


Tree=1
num_leaves=14
num_cat=0
split_feature=16 32 16 16 32 20 32 17 16 16 16 16 20
split_gain=19828.4 5412.47 2669.36 2525.38 1464.93 1232.15 699.557 549.14 395.73 362.858 299.464 261.583 165.379
threshold=215.00340259950511 1.5000000000000002 195.51934401370386 228.53829551743226 1.5000000000000002 0.63475563207562502 1.5000000000000002 86.355533035298023 166.04808582551564 235.91523630564197 222.2488171355499 207.0226592665214 0.67428069735356833
decision_type=2 2 2 2 2 2 2 2 2 2 2 2 2
left_child=2 3 6 10 11 -3 7 8 -1 -5 -2 -4 -6
right_child=1 5 4 9 12 -7 -8 -9 -10 -11 -12 -13 -14
leaf_value=-0.014343099678599527 0.0016975264043689654 -0.018561446643360895 -0.0047447195218184848 0.0081407856046428976 -0.018992987447107278 -0.0006771782983884426 -0.019500463454847274 -0.00088468946396155952 -0.0096479313576245517 0.01146867344459444 0.0047539710315612225 -0.0013939652570308693 -0.0086649271275551082
leaf_count=49830 112250 19398 81401 150531 12110 10987 17935 9918 94999 98819 121592 88587 3681
internal_value=0 0.125937 -0.180533 0.15168 -0.0973362 -0.283442 -0.27004 -0.248372 -0.263961 0.22169 0.0770273 -0.0702713 -0.388686
internal_count=872038 513577 358461 483192 185779 30385 172682 154747 144829 249350 233842 169988 15791
shrinkage=0.0426706


Tree=2
num_leaves=14
num_cat=0
split_feature=16 32 16 16 32 20 32 17 16 16 16 16 29
split_gain=18191.8 4728.52 2744.38 2091.23 1514.97 1119.36 644.684 506.089 364 306.118 297.349 258.123 166.592
threshold=216.17240432824909 1.5000000000000002 195.51934401370386 229.6365437732677 1.5000000000000002 0.59914628147356408 1.5000000000000002 86.355533035298023 173.94860790139765 208.66070562957725 223.65750557209435 236.11215472886644 0.65804500956795431
decision_type=2 2 2 2 2 2 2 2 2 2 2 2 2
left_child=2 3 6 10 9 -3 7 8 -1 -4 -2 -5 -6
right_child=1 5 4 11 12 -7 -8 -9 -10 -11 -12 -13 -14
leaf_value=-0.013070881495797935 0.0021472836359877796 -0.018191679509988557 -0.0042572973443773029 0.0081144408801789754 -0.019058579294093204 -0.0010590457331134922 -0.018693417630913992 -0.000841312053780818 -0.0087822956148846942 -0.00079161967784219071 0.0051479953099437693 0.01102972345554539 -0.010329729925164054
leaf_count=67658 121533 17421 96924 131202 10851 11545 17932 9957 77100 89033 119005 95589 6288
internal_value=0 0.125768 -0.165901 0.150069 -0.0871051 -0.266298 -0.258594 -0.237791 -0.252791 -0.0608848 0.0851142 0.218961 -0.371594
internal_count=872038 496295 375743 467329 203096 28966 172647 154715 144758 185957 240538 226791 17139
shrinkage=0.0426706


Tree=3
num_leaves=14
num_cat=0
split_feature=16 32 16 16 32 20 32 17 16 16 16 16 20
split_gain=16639.3 4270.98 2612.97 1845.98 1491.96 1018.4 540.818 468.036 358.571 300.357 278.698 213.311 171.687
threshold=216.62585847396886 1.5000000000000002 193.68937071399759 230.08455729278836 1.5000000000000002 0.589913323985511 1.5000000000000002 92.364897328868452 208.66070562957725 166.04808582551564 224.33145959074753 237.99625430958923 0.67428069735356833
decision_type=2 2 2 2 2 2 2 2 2 2 2 2 2
left_child=2 3 6 10 8 -3 7 9 -4 -1 -2 -5 -6
right_child=1 5 4 11 12 -7 -8 -9 -10 -11 -12 -13 -14
leaf_value=-0.01313683006514069 0.0022808328273610057 -0.017552236749858202 -0.0042733377721355702 0.0081800139624711183 -0.017458083076386958 -0.0011233998027541392 -0.017967242755918805 0.00014770706455105465 -0.0006662883659469287 -0.0089963392582171776 0.0051676329036142443 0.011090035142255586 -0.0078063746792894082
leaf_count=50327 128007 16817 106146 151263 14254 11615 17033 7932 95171 87124 116137 65823 4389
internal_value=0 0.122101 -0.156281 0.145289 -0.0852476 -0.254057 -0.252482 -0.232731 -0.0601851 -0.246361 0.0856341 0.21238 -0.355886
internal_count=872038 489662 382376 461230 219960 28432 162416 145383 201317 137451 244144 217086 18643
shrinkage=0.0426706


Tree=4
num_leaves=14
num_cat=0
split_feature=16 32 16 16 32 20 32 17 16 16 16 16 17
split_gain=15276.5 4408.15 2247.2 1738.71 1021.46 980.206 437.638 444.9 343.348 261.161 250.504 214.666 151.495
threshold=213.28055239279638 1.5000000000000002 227.77799853314153 191.10059916571865 1.5000000000000002 0.65119774599075775 1.5000000000000002 92.364897328868452 234.01750243335252 220.95376155070434 203.25978191816208 164.62355750487333 43.717890376924913
decision_type=2 2 2 2 2 2 2 2 2 2 2 2 2
left_child=3 2 9 6 10 -3 7 11 -4 -2 -5 -1 -13
right_child=1 5 8 4 -6 -7 -8 -9 -10 -11 -12 12 -14
leaf_value=-0.012684977779085694 0.00092770471916048616 -0.016178515247307367 0.0065704338576732862 -0.0053498126886660372 -0.014697065061879129 -0.0004850588561191882 -0.017345623474953636 0.000127749886063631 0.0096414483834654958 0.0037481473264537471 -0.002031064161356737 -0.0037696169876437918 -0.009715942585239017
leaf_count=47459 111652 21294 130156 71898 16062 10985 15691 7725 135083 128658 97664 8797 68914
internal_value=0 0.104297 0.127173 -0.167941 -0.103409 -0.253988 -0.248559 -0.229911 0.190634 0.0571289 -0.0805774 -0.244284 -0.211921
internal_count=872038 537828 505549 334210 185624 32279 148586 132895 265239 240310 169562 125170 77711
shrinkage=0.0426706


Tree=5
num_leaves=14
num_cat=0
split_feature=16 32 16 16 32 20 32 17 16 16 16 16 29
split_gain=14005.7 3796.94 1937.06 1743.64 1089.4 883.809 453.104 395.732 271.575 251.475 249.245 205.657 144.029
threshold=215.24698920726141 1.5000000000000002 193.68937071399759 229.6365437732677 1.5000000000000002 0.63475563207562502 1.5000000000000002 92.364897328868452 223.65750557209435 203.66345223015833 176.18130994152048 237.52933431770643 0.54700983762156352
decision_type=2 2 2 2 2 2 2 2 2 2 2 2 2
left_child=2 3 6 8 9 -3 7 10 -2 -4 -1 -5 -6
right_child=1 5 4 11 12 -7 -8 -9 -10 -11 -12 -13 -14
leaf_value=-0.011322415626256877 0.0017285332883225108 -0.015654732334611787 -0.0048397958072519155 0.0073148977048614365 -0.017631294521409557 -0.00043577599416908387 -0.016469626372647535 0.0001549435351226092 0.0045270063522009378 -0.0015012436437061515 -0.0076778914266812598 0.010071249056445073 -0.0097410930701671752
leaf_count=74170 134231 19205 62431 154083 9048 10886 17007 7938 119218 120124 63348 72467 7882
internal_value=0 0.106739 -0.150463 0.128341 -0.0844436 -0.237845 -0.231526 -0.213468 0.071358 -0.0619391 -0.226 0.19209 -0.327108
internal_count=872038 510090 361948 479999 199485 30091 162463 145456 253449 182555 137518 226550 16930
shrinkage=0.0426706


Tree=6
num_leaves=14
num_cat=0
split_feature=16 32 16 16 32 20 32 17 16 16 16 16 29
split_gain=12844.5 3271.93 2021.41 1420.7 1083.66 803.43 503.634 385.767 318.802 258.339 187.722 144.032 135.678
threshold=216.62585847396886 1.5000000000000002 197.70810847829065 230.85132232989307 1.5000000000000002 0.57147227867741879 1.5000000000000002 81.35853954168401 177.21473375806201 224.83779513059406 208.66070562957725 237.99625430958923 0.65804500956795431
decision_type=2 2 2 2 2 2 2 2 2 2 2 2 2
left_child=2 3 6 9 10 -3 7 8 -1 -2 -4 -5 -6
right_child=1 5 4 11 12 -7 -8 -9 -10 -11 -12 -13 -14
leaf_value=-0.010840317644672118 0.002093827804391676 -0.015673284843954624 -0.0033385700734927031 0.0073426282297165213 -0.016243418247340397 -0.0011581351318702561 -0.015603170533147475 -0.00086506045821704955 -0.0069746294637772575 0.004785935193948306 -0.00057495711704117576 0.0097776778730216205 -0.0082009469206107688
leaf_count=75676 137569 16281 84457 134831 10463 12106 19108 11837 79810 122871 95195 65819 6015
internal_value=0 0.10727 -0.137304 0.127556 -0.0664337 -0.22224 -0.211861 -0.194297 -0.207545 0.0788346 -0.0439219 0.190796 -0.31187
internal_count=872038 489477 382561 461090 196130 28387 186431 167323 155486 260440 179652 200650 16478
shrinkage=0.0426706


Tree=7
num_leaves=14
num_cat=0
split_feature=16 32 16 29 20 16 32 17 16 16 16 0 29
split_gain=11792.1 3365.87 1732.49 1416.22 771.904 692.599 506.408 338.564 276.164 225.384 204.998 158.064 143.703
threshold=213.28055239279638 1.5000000000000002 227.77799853314153 0.64396138371301648 0.68874550398826029 197.70810847829065 1.5000000000000002 81.35853954168401 233.22141942245364 181.27869931542918 220.95376155070434 40.500000000000007 0.53833599574014923
decision_type=2 2 2 2 2 2 2 2 2 2 2 2 2
left_child=3 2 10 6 12 7 9 11 -4 -1 -2 -5 -3
right_child=1 4 8 5 -6 -7 -8 -9 -10 -11 -12 -13 -14
leaf_value=-0.010933461297832086 0.00080601379487930946 -0.016497157941944431 0.0055568445744946836 -0.0058198317780425715 0.00046212066774723365 -0.0021907103139243533 -0.016129207739920746 0.00058456545240500755 0.0083396137870981185 -0.0064356703675193553 0.0033048398830752431 -0.0092217800037585652 -0.0094163984358559497
leaf_count=44203 111663 13995 113684 46837 9894 120538 22262 10066 151423 37490 128645 53016 8322
internal_value=0 0.0917586 0.111734 -0.147398 -0.221664 -0.103691 -0.244292 -0.161098 0.167476 -0.207857 0.0502388 -0.178719 -0.324738
internal_count=872038 537626 505415 334412 32211 230457 103955 109919 265107 81693 240308 99853 22317
shrinkage=0.0426706


Tree=8
num_leaves=14
num_cat=0
split_feature=16 32 16 29 20 16 32 17 16 16 16 0 17
split_gain=10811.7 3094.05 1587.72 1306.51 712.189 629.283 464.737 309.592 225.926 217.694 208.52 143.41 141.188
threshold=213.28055239279638 1.5000000000000002 228.53829551743226 0.64396138371301648 0.68874550398826029 197.70810847829065 1.5000000000000002 81.35853954168401 221.69133359456637 234.69041235797272 189.59249264833076 35.000000000000007 70.594498462837009
decision_type=2 2 2 2 2 2 2 2 2 2 2 2 2
left_child=3 2 8 6 -3 7 10 11 -2 -4 -1 -5 -7
right_child=1 4 9 5 -6 12 -8 -9 -10 -11 -12 -13 -14
leaf_value=-0.010085507420049768 0.00090219661849326243 -0.013284863141696355 0.0057563632000192603 -0.0053188283751436291 0.0004935061559172445 -0.0024435199998030501 -0.015446462672826063 0.00056239362531815111 0.0034382307193066394 0.0082780283840293636 -0.0055686244964642494 -0.008617190000443321 0.0041290822114733268
leaf_count=53047 124531 22365 127631 40223 9834 114196 22336 10073 131502 121842 28665 59515 6278
internal_value=0 0.0878447 0.106989 -0.141165 -0.212717 -0.0991456 -0.234165 -0.153899 0.0516688 0.163765 -0.199223 -0.170773 -0.049238
internal_count=872038 537705 505506 334333 32199 230285 104048 109811 256033 249473 81712 99738 120474
shrinkage=0.0426706


Tree=9
num_leaves=14
num_cat=0
split_feature=16 32 16 16 32 20 29 17 32 16 16 13 16
split_gain=9930.62 2488.1 1597.96 1083.79 855.487 647.515 444.967 293.008 227.774 192.451 153.847 144.154 126.596
threshold=216.8545385256451 1.5000000000000002 199.25942867113693 230.85132232989307 1.5000000000000002 0.56161037307169115 0.63721872567007687 77.299733560088455 1.5000000000000002 224.83779513059406 178.26646351257298 31.080777142290597 234.17803366544288
decision_type=2 2 2 2 2 2 2 2 2 2 2 2 2
left_child=2 3 6 9 11 -3 8 10 -1 -2 -8 -4 -7
right_child=1 5 4 -5 -6 12 7 -9 -10 -11 -12 -13 -14
leaf_value=-0.0091875481219974315 0.0018648330708048179 -0.013936972238005914 -0.0031499641774747249 0.0071640553416338236 -0.011795263737769849 -0.0038774518363813514 -0.0089047436937001873 0.00030005700145140167 -0.01505278253295474 0.0042010066577561067 -0.0055889121806846952 -0.00055198775233547266 0.0053993427427647409
leaf_count=62673 134468 15899 59018 200632 15851 8307 41244 11530 14927 122874 66649 114013 3953
internal_value=0 0.095058 -0.119793 0.112798 -0.0540721 -0.193457 -0.182799 -0.144491 -0.241754 0.0698442 -0.160683 -0.0337027 -0.0207714
internal_count=872038 486133 385905 457974 188882 28159 197023 119423 77600 257342 107893 173031 12260
shrinkage=0.0426706


Tree=10
num_leaves=14
num_cat=0
split_feature=16 32 16 16 32 20 26 17 16 32 16 16 0
split_gain=9104.73 2287.93 1450.33 1012.9 885.441 586.842 273.085 284.745 257.227 164.966 156.568 141.792 130.563
threshold=216.62585847396886 1.5000000000000002 191.10059916571865 230.08455729278836 1.5000000000000002 0.57147227867741879 0.70948969256854932 92.364897328868452 204.86900423520146 1.5000000000000002 223.65750557209435 237.99625430958923 40.500000000000007
decision_type=2 2 2 2 2 2 2 2 2 2 2 2 2
left_child=2 3 6 10 8 -3 9 12 -4 -1 -2 -5 -8
right_child=1 5 4 11 -6 -7 7 -9 -10 -11 -12 -13 -14
leaf_value=-0.0091503885625128338 0.001545753146427365 -0.01320278564185587 -0.0038661196975420895 0.0059754127475270657 -0.011442152070713205 -0.00079247234945162466 -0.0052770792475949433 0.0022272372554945205 -0.00084051548021451216 -0.014461187998091301 0.003710886918983124 0.0083481296985135553 -0.0089783646279450024
leaf_count=59950 115274 16272 84697 151175 19930 12094 32965 6330 129218 12950 128716 65826 36641
internal_value=0 0.090238 -0.115668 0.107199 -0.0665545 -0.185411 -0.192834 -0.150865 -0.0477722 -0.236552 0.0629933 0.156903 -0.169331
internal_count=872038 489357 382681 460991 233845 28366 148836 75936 213915 72900 243990 217001 69606
shrinkage=0.0426706


Tree=11
num_leaves=14
num_cat=0
split_feature=16 32 16 29 20 16 32 16 17 17 16 16 29
split_gain=8365.9 2507.21 1377.44 908.624 590.96 418.011 331.665 249.561 238.986 165.015 155.769 141.155 127.038
threshold=211.63991468690338 1.5000000000000002 226.80574931946339 0.64396138371301648 0.70258543441657462 188.82892684464031 1.5000000000000002 233.22141942245364 92.364897328868452 73.839915033040697 161.71592173987503 219.99088833540893 0.53833599574014923
decision_type=2 2 2 2 2 2 2 2 2 2 2 2 2
left_child=3 2 11 6 12 8 10 -4 -5 -7 -1 -2 -3
right_child=1 4 7 5 -6 9 -8 -9 -10 -11 -12 -13 -14
leaf_value=-0.010492079845865188 0.00039541902231725941 -0.014119303964710639 0.0045150548158320262 -0.0073301095205767237 0.00068050959809639504 -0.0029659595143033527 -0.013669067536772753 0.0070475108666091619 0.0013130067394992715 0.0036247726522015663 -0.0064015750806644504 0.0024651447004815285 -0.0077365216059598453
leaf_count=24500 115141 14991 133313 67844 9896 130839 21197 151221 6372 7303 55009 125273 9139
internal_value=0 0.0732173 0.0902682 -0.130962 -0.189841 -0.0938624 -0.209194 0.137354 -0.154393 -0.0613428 -0.179562 0.0345412 -0.274238
internal_count=872038 558974 524948 313064 34026 212358 100706 284534 74216 138142 79509 240414 24130
shrinkage=0.0426706


Tree=12
num_leaves=14
num_cat=0
split_feature=16 32 16 26 29 32 16 17 16 16 17 16 0
split_gain=7692.96 2293.49 1262.92 834.771 515.492 342.66 341.946 239.045 202.756 171.288 153.564 151.097 113.918
threshold=211.63991468690338 1.5000000000000002 227.4399990782089 0.70948969256854932 0.66490671513502575 1.5000000000000002 188.82892684464031 92.364897328868452 234.69041235797272 190.37259526452092 73.839915033040697 220.95376155070434 43.000000000000007
decision_type=2 2 2 2 2 2 2 2 2 2 2 2 2
left_child=3 2 11 5 -3 9 7 12 -4 -1 -8 -2 -5
right_child=1 4 8 6 -6 -7 10 -9 -10 -11 -12 -13 -14
leaf_value=-0.0084678290394667489 0.00051880470370740505 -0.01256570462744978 0.0046615606050328271 -0.005138328796311333 -0.0020115763288882423 -0.012954153016408749 -0.00275905931680402 0.0019360038037364829 0.0070053782678539843 -0.0045923781820908652 0.0037263174506815765 0.0026044389225632807 -0.0087776136309024224
leaf_count=58936 131164 18465 149840 32125 15499 22781 123487 6100 121852 32062 7026 122143 30558
internal_value=0 0.0702296 0.0865221 -0.125564 -0.181612 -0.193904 -0.0865482 -0.143606 0.13388 -0.166446 -0.0564775 0.0357268 -0.161996
internal_count=872038 558963 524999 313075 33964 113779 199296 68783 271692 90998 130513 253307 62683
shrinkage=0.0426706


Tree=13
num_leaves=14
num_cat=0
split_feature=16 20 16 29 32 16 32 17 16 16 16 17 0
split_gain=7016.4 2066.48 1157.22 826.029 406.526 385.32 287.365 201.364 161.651 160.686 144.308 129.888 117.378
threshold=212.46258775437664 0.59914628147356408 228.53829551743226 0.64396138371301648 1.5000000000000002 193.08389639639643 1.5000000000000002 92.364897328868452 236.89260221953722 221.69133359456637 161.71592173987503 70.594498462837009 35.000000000000007
decision_type=2 2 2 2 2 2 2 2 2 2 2 2 2
left_child=3 4 9 6 -2 7 10 12 -4 -3 -1 -7 -5
right_child=1 2 8 5 -6 11 -8 -9 -10 -11 -12 -13 -14
leaf_value=-0.009710784906151175 7.1861851261321926e-05 0.00054978758761449909 0.0048508206607500992 -0.0043369686052506153 -0.011531037792195758 -0.0023787598432022791 -0.012504171957889642 0.00137696909380006 0.007136522567950057 0.0026425688703843615 -0.0057835222442055014 0.0033948614883475194 -0.0076079055191736683
leaf_count=24473 7542 134633 169076 33950 20288 124326 21753 6802 84490 132590 56061 7524 48530
internal_value=0 0.0689503 0.0831378 -0.116747 -0.196543 -0.0823758 -0.191055 -0.133103 0.131529 0.0372195 -0.163507 -0.0480258 -0.146741
internal_count=872038 548619 520789 323419 27830 221132 102287 89282 253566 267223 80534 131850 82480
shrinkage=0.0426706


Tree=14
num_leaves=14
num_cat=0
split_feature=16 20 16 16 32 32 20 17 16 16 13 17 32
split_gain=6454.14 1638.32 1070.53 763.78 579.719 323.324 298.066 249.247 193.432 144.951 121.308 119.826 99.8524
threshold=216.8545385256451 0.59914628147356408 199.25942867113693 231.32740101235106 1.5000000000000002 1.5000000000000002 0.61705497938303844 81.35853954168401 176.18130994152048 224.83779513059406 31.080777142290597 46.524098780363225 1.5000000000000002
decision_type=2 2 2 2 2 2 2 2 2 2 2 2 2
left_child=2 5 6 9 10 -2 12 8 -8 -3 -4 -10 -1
right_child=1 3 4 -5 -6 -7 7 -9 11 -11 -12 -13 -14
leaf_value=-0.0078365108925966525 0.00067867955732543229 0.0013620831208222073 -0.0026835388012149781 0.0058588384693305786 -0.0096477565668927588 -0.010917941247116763 -0.0078150372617153963 0.00051941961002848727 0.00075406925906438453 0.0033430736354838034 -0.00030153278035169621 -0.0051412844750576983 -0.012238003261783216
leaf_count=22288 5914 135173 59049 194263 15814 16850 61052 11594 6820 133846 114240 78925 16210
internal_value=0 0.0766531 -0.0965514 0.0895226 -0.0428146 -0.185261 -0.148163 -0.128981 -0.140129 0.055019 -0.0260885 -0.109499 -0.227084
internal_count=872038 486046 385992 463282 189103 22764 196889 158391 146797 269019 173289 85745 38498
shrinkage=0.0426706


Tree=15
num_leaves=14
num_cat=0
split_feature=16 32 16 26 29 32 16 17 16 16 17 14 0
split_gain=5938.21 1837.68 993.364 648.258 406.108 261.799 259.934 187.98 182.796 137.477 130.501 110.349 97.142
threshold=211.37022952716384 1.5000000000000002 226.80574931946339 0.70948969256854932 0.6785320000891647 1.5000000000000002 189.59249264833076 92.364897328868452 233.22141942245364 161.71592173987503 77.299733560088455 19.214119034210501 35.000000000000007
decision_type=2 2 2 2 2 2 2 2 2 2 2 2 2
left_child=3 2 11 5 -3 9 7 12 -4 -1 -8 -2 -5
right_child=1 4 8 6 -6 -7 10 -9 -10 -11 -12 -13 -14
leaf_value=-0.0089268880035254169 -0.0010693195898366407 -0.011135569455876826 0.0037936392559608676 -0.0040165338713951896 -0.0017846245793864547 -0.011426665058533377 -0.002392183982872359 0.0017778260446616671 0.0059607228338006135 -0.0052411529391044043 0.0043017825597321761 0.0015921460756572229 -0.0073718460462019733
leaf_count=25782 32778 18972 133232 26568 15257 22610 119965 6196 151416 64585 5548 210684 38445
internal_value=0 0.0612569 0.0758105 -0.111179 -0.163287 -0.171551 -0.076507 -0.124766 0.115921 -0.147472 -0.0491274 0.0289151 -0.140628
internal_count=872038 562339 528110 309699 34229 112977 196722 71209 284648 90367 125513 243462 65013
shrinkage=0.0426706


Tree=16
num_leaves=14
num_cat=0
split_feature=16 33 16 16 32 29 0 20 32 17 30 9 13
split_gain=5475.39 1352.41 1021.32 553.083 522.395 298.668 191.545 158.728 133.288 122.082 116.38 116.141 100.773
threshold=218.14471878954183 2.5000000000000004 202.03077952836992 231.32740101235106 1.5000000000000002 0.62169381337667395 37.500000000000007 0.54158738800004358 1.5000000000000002 77.299733560088455 1.0000000180025095e-35 0.93417607378068979 31.080777142290597
decision_type=2 2 2 2 2 2 2 2 2 2 2 2 2
left_child=2 3 5 10 12 8 9 -3 -1 -7 -2 -8 -4
right_child=1 7 4 -5 -6 6 11 -9 -10 -11 -12 -13 -14
leaf_value=-0.0068371070832688808 0.0025729691367804867 -0.011763559699597748 -0.0021330576074043424 0.0053035839328452556 -0.0088330972557448938 -0.0033879224730220679 -0.0097992687831558647 -0.0030722569891706488 -0.011216322481896444 0.0023148292728611365 -0.00059643990220902248 -0.0051575029116575103 5.8479960319393342e-05
leaf_count=62948 230217 10942 56820 195423 15511 54554 11570 5883 15839 7814 23223 64693 116601
internal_value=0 0.073883 -0.0849635 0.0843164 -0.0311829 -0.131698 -0.103757 -0.204463 -0.180862 -0.0626528 0.0534924 -0.137371 -0.015457
internal_count=872038 465688 406350 448863 188932 217418 138631 16825 78787 62368 253440 76263 173421
shrinkage=0.0426706


Tree=17
num_leaves=14
num_cat=0
split_feature=16 20 20 16 16 30 17 32 16 16 30 17 17
split_gain=5006.26 1394.88 761.986 654.306 581.073 284.141 200.704 170.492 149.483 112.824 111.98 101.21 99.9958
threshold=215.4926631881514 0.61705497938303844 0.6959249224314995 230.08455729278836 198.77037112671175 1.5000000000000002 81.35853954168401 1.5000000000000002 173.94860790139765 239.23773493665891 1.0000000180025095e-35 46.441349308631793 70.594498462837009
decision_type=2 2 2 2 2 2 2 2 2 2 2 2 2
left_child=2 5 7 10 6 -2 8 -1 -4 -5 -3 -10 -6
right_child=1 3 4 9 12 -7 -8 -9 11 -11 -12 -13 -14
leaf_value=-0.0060780780566185933 -0.0010623075518159952 0.0021053055885805524 -0.0070282584365655735 0.0044350948175342613 -0.0012450439462910739 -0.010363324701215556 0.00078374340551334864 -0.010385456466690981 0.00070068804098293383 0.0067138769714415484 -0.00084443737514198309 -0.0045728390468871959 0.0040612055526378331
leaf_count=40785 9461 234465 52049 168786 143301 16256 10902 28370 7260 51670 26035 75926 6772
internal_value=0 0.0642278 -0.0893389 0.0763606 -0.067273 -0.162678 -0.112156 -0.183853 -0.122679 0.116455 0.0424297 -0.0963801 -0.0235666
internal_count=872038 506673 365365 480956 296210 25717 146137 69155 135235 220456 260500 83186 150073
shrinkage=0.0426706


Tree=18
num_leaves=14
num_cat=0
split_feature=16 20 16 16 32 29 32 0 17 32 32 9 13
split_gain=4594.71 1131.3 900.703 467.488 465.492 265.091 210.509 167.196 112.518 111.8 106.114 100.265 93.8201
threshold=218.56138668128258 0.58174242292762235 202.03077952836992 232.12354809437389 1.5000000000000002 0.64396138371301648 1.5000000000000002 40.500000000000007 81.35853954168401 1.5000000000000002 1.5000000000000002 0.93417607378068979 30.969601336355876
decision_type=2 2 2 2 2 2 2 2 2 2 2 2 2
left_child=2 6 5 10 12 9 -2 8 -7 -1 -3 -9 -4
right_child=1 3 4 -5 -6 7 -8 11 -10 -11 -12 -13 -14
leaf_value=-0.0062716573286114513 0.00086123863569643653 0.0023795571583099251 -0.0019581981023015565 0.0050801888267572037 -0.0081183372009348033 -0.0030614924681914837 -0.0094921751225725895 -0.0092125454556814691 0.0024724637903656703 -0.010226273137228134 -0.0032117223846000174 -0.0047332347381507925 0.00013149828227055119
leaf_count=67396 4686 254596 57537 177970 16066 57184 15091 10775 7576 16132 6334 58490 122205
internal_value=0 0.0689961 -0.0763752 0.0795384 -0.027172 -0.12066 -0.164962 -0.093103 -0.0565752 -0.164878 0.0525849 -0.127255 -0.0125949
internal_count=872038 458677 413361 438900 195808 217553 19777 134025 64760 83528 260930 69265 179742
shrinkage=0.0426706


Tree=19
num_leaves=14
num_cat=0
split_feature=16 20 16 26 30 16 32 16 17 17 16 8 9
split_gain=4246.61 1332.9 737.778 482.191 306.161 198.681 183.205 158.656 138.215 122.394 117.727 87.8985 77.0878
threshold=211.37022952716384 0.65119774599075775 225.99652139906144 0.71492852082403713 1.5000000000000002 184.8549123716808 1.5000000000000002 235.022911699731 100.95286870959625 73.839915033040697 161.71592173987503 332.50000000000006 0.93417607378068979
decision_type=2 2 2 2 2 2 2 2 2 2 2 2 2
left_child=3 4 11 6 -2 8 10 -4 12 -7 -1 -3 -5
right_child=1 2 7 5 -6 9 -8 -9 -10 -11 -12 -13 -14
leaf_value=-0.0077878951481895236 -0.0011476099905044443 -0.004117325576645724 0.0033289057077722328 -0.0085049648775248725 -0.0094334494598441315 -0.0021597030814599545 -0.0096372932955014999 0.0053312487807032696 0.002446790519837361 0.0033004634662060607 -0.0044000115426568714 0.0010231578063617992 -0.0045737314872153429
leaf_count=26066 13761 6229 185966 11654 19806 129989 22751 117622 4380 7931 65869 218861 41153
internal_value=0 0.0517598 0.0640285 -0.0940511 -0.14147 -0.0638034 -0.145509 0.0961949 -0.113361 -0.0432551 -0.125627 0.0206443 -0.127519
internal_count=872038 562245 528678 309793 33567 195107 114686 303588 57187 137920 91935 225090 52807
shrinkage=0.0426706


Tree=20
num_leaves=14
num_cat=0
split_feature=16 32 16 20 16 20 17 16 17 32 0 16 14
split_gain=3888.19 1227.19 653.305 461 326.004 305.857 139.827 139.402 122.6 112.6 86.4586 83.0172 81.4183
threshold=211.63991468690338 1.5000000000000002 225.84606451473516 0.6959249224314995 184.8549123716808 0.7450369552959154 92.364897328868452 235.91523630564197 77.299733560088455 1.5000000000000002 35.000000000000007 203.25978191816208 19.30070109914136
decision_type=2 2 2 2 2 2 2 2 2 2 2 2 2
left_child=3 2 12 9 6 -3 10 -4 11 -1 -5 -6 -2
right_child=1 5 7 4 8 -7 -8 -9 -10 -11 -12 -13 -14
leaf_value=-0.0056023365384990156 -0.0011325858099611801 -0.0080853244786056669 0.0032945870560301556 -0.0040872559680633792 -0.0030211391628986797 0.0012098875705374762 0.00099997167650568469 0.0052464196692814857 0.0036335513723415899 -0.0092834143331486721 -0.0068919239031028411 -0.0010459248261487756 0.0012139568701790668
leaf_count=38261 31363 25351 204909 37703 83531 8643 6353 98726 7087 25027 42652 72258 190174
internal_value=0 0.0500369 0.0619557 -0.0891787 -0.0698493 -0.134097 -0.119383 0.0920826 -0.0434797 -0.165407 -0.130675 -0.0493313 0.0206643
internal_count=872038 559166 525172 312872 249584 33994 86708 303635 162876 63288 80355 155789 221537
shrinkage=0.0426706


Tree=21
num_leaves=14
num_cat=0
split_feature=16 33 16 32 16 20 0 17 14 20 2 16 30
split_gain=3574.59 883.498 726.413 408.736 333.782 178.347 157.124 112.368 103.856 101.774 93.2606 74.732 69.5661
threshold=218.9760883770318 2.5000000000000004 199.25942867113693 1.5000000000000002 232.58531048052819 0.71521597783682933 37.500000000000007 81.35853954168401 19.384634184196514 0.53069512986678491 16.144957983193283 171.4328158448742 1.0000000180025095e-35
decision_type=2 2 2 2 2 2 2 2 2 2 2 2 2
left_child=2 4 5 10 8 -1 7 -7 -2 -3 -4 -8 -10
right_child=1 9 3 -5 -6 6 11 -9 12 -11 -12 -13 -14
leaf_value=-0.0069154048990658018 -0.00034651532413021571 -0.0097414049549957218 -0.0013634681345174925 -0.0072771222955038172 0.0044869588521033767 -0.0030918501801490725 -0.0072865076133467963 0.0026366016354476877 0.0025796802316894645 -0.0027023063705929047 0.00049292265315874575 -0.0044039970716861386 -3.1099009989874442e-05
leaf_count=50138 29035 10233 122640 18277 168799 64943 24192 6897 217613 5894 82367 50692 20318
internal_value=0 0.0618417 -0.0662921 -0.027249 0.0703479 -0.110575 -0.0929805 -0.0595701 0.0483408 -0.168003 -0.014474 -0.125033 0.0552309
internal_count=872038 451892 420146 223284 435765 196862 146724 71840 266966 16127 205007 74884 237931
shrinkage=0.0426706


Tree=22
num_leaves=14
num_cat=0
split_feature=16 33 16 26 16 32 0 16 16 20 1 17 9
split_gain=3292.66 1009.12 526.873 453.703 190.793 159.301 149.973 106.875 102.499 100.06 97.2593 96.9822 89.6825
threshold=213.28055239279638 2.5000000000000004 227.27189747287082 0.70948969256854932 203.25978191816208 1.5000000000000002 40.500000000000007 239.23773493665891 155.48759765171192 0.54158738800004358 316.50000000000006 81.35853954168401 0.93417607378068979
decision_type=2 2 2 2 2 2 2 2 2 2 2 2 2
left_child=3 2 10 5 6 8 11 -4 -1 -3 -2 -5 -8
right_child=1 9 7 4 -6 -7 12 -9 -10 -11 -12 -13 -14
leaf_value=-0.0074251178950971398 -0.0031719679543058868 -0.009409809439041265 0.0032855265017678213 -0.0022767965845932755 -0.00057736852212423716 -0.0085583033949551326 -0.0081411988819475589 0.0054276947365889299 -0.0039411708464942513 -0.0030913206625611017 0.0011299372188232895 0.002942729310673897 -0.0038903074190293659
leaf_count=19391 9992 13404 229447 55715 84163 24013 10682 52020 74251 6919 226040 7335 58666
internal_value=0 0.0484724 0.0570564 -0.0779163 -0.050759 -0.127903 -0.0744243 0.0862757 -0.10927 -0.170109 0.0222126 -0.0391271 -0.106516
internal_count=872038 537822 517499 334216 216561 117655 132398 281467 93642 20323 236032 63050 69348
shrinkage=0.0426706


Tree=23
num_leaves=14
num_cat=0
split_feature=16 20 16 32 16 32 16 0 30 26 14 17 17
split_gain=3030.01 759.33 609.19 391.55 322.909 136.522 121.684 117.315 93.4471 90.0703 81.0253 72.1525 69.8214
threshold=218.56138668128258 0.55164694235701761 189.59249264833076 1.5000000000000002 231.80438166311305 1.5000000000000002 207.0226592665214 31.000000000000004 1.0000000180025095e-35 0.79545594819943677 20.215268089409758 92.364897328868452 77.299733560088455
decision_type=2 2 2 2 2 2 2 2 2 2 2 2 2
left_child=2 5 7 6 8 -2 12 9 10 -1 -3 -11 -4
right_child=1 4 3 -5 -6 -7 -8 -9 -10 11 -12 -13 -14
leaf_value=-0.0046812625969518172 0.00099563153466854432 5.6574098259144471e-05 -0.0022731189024487349 -0.0068134041011757322 0.0040976651995927142 -0.0080752437682731163 -0.00013888450229212497 -0.0059866645648792571 -0.00075092490741660088 -0.0022886747739412953 0.002347407607198215 0.0047077018087149439 0.0029079895928139426
leaf_count=40218 3828 32756 104807 22848 185058 14332 139171 80675 24460 17471 198283 3171 4960
internal_value=0 0.0559587 -0.0620934 -0.0343888 0.064219 -0.144436 -0.0228899 -0.115294 0.0411782 -0.0821463 0.0474008 -0.0284482 -0.0477847
internal_count=872038 458717 413321 271786 440557 18160 248938 141535 255499 60860 231039 20642 109767
shrinkage=0.0426706


Tree=24
num_leaves=14
num_cat=0
split_feature=16 20 26 16 16 32 0 16 32 9 30 17 14
split_gain=2773.28 690.692 582.433 298.352 275.986 195.78 129.546 129.298 128.28 86.8056 82.2343 79.356 76.2967
threshold=218.9760883770318 0.58174242292762235 0.71492852082403713 203.66345223015833 232.90419328739227 1.5000000000000002 37.500000000000007 190.37259526452092 1.5000000000000002 0.93417607378068979 1.0000000180025095e-35 81.35853954168401 20.215268089409758
decision_type=2 2 2 2 2 2 2 2 2 2 2 2 2
left_child=2 8 5 6 10 7 11 -1 -2 -8 12 -4 -3
right_child=1 4 3 -5 -6 -7 9 -9 -10 -11 -12 -13 -14
leaf_value=-0.0052742112343669547 0.00068130883601929702 0.00017496872635304307 -0.0019545815656247371 -0.00012091086994464224 0.0040708336866834734 -0.0079496853752616496 -0.0074916751319146473 -0.0022560135327526283 -0.0074868581572859793 -0.003442408739159698 -0.00049398263466382346 0.0028963323407438769 0.002374795284328267
leaf_count=59736 4584 33178 51528 152702 161340 28599 11357 45550 14815 63739 24919 6971 213020
internal_value=0 0.0543732 -0.0584884 -0.0330282 0.0626538 -0.112932 -0.0675412 -0.0930019 -0.130224 -0.0950255 0.0431659 -0.0322593 0.0487067
internal_count=872038 451856 420182 286297 432457 133885 133595 105286 19399 75096 271117 58499 246198
shrinkage=0.0426706


Tree=25
num_leaves=14
num_cat=0
split_feature=16 20 16 20 16 30 17 16 17 17 32 1 11
split_gain=2546.89 871.366 482.519 295.926 212.069 194.733 115.53 111.385 97.8918 86.8122 80.1163 72.2728 68.6862
threshold=210.49608334143505 0.65119774599075775 225.99652139906144 0.71521597783682933 178.26646351257298 1.5000000000000002 77.299733560088455 240.49109065449773 46.441349308631793 100.95286870959625 1.5000000000000002 329.50000000000006 0.86420074253927892
decision_type=2 2 2 2 2 2 2 2 2 2 2 2 2
left_child=3 5 11 10 9 -2 8 -4 -6 12 -1 -3 -5
right_child=1 2 7 4 6 -7 -8 -9 -10 -11 -12 -13 -14
leaf_value=-0.0045716222988522988 -0.001066198669951803 -0.0035356100418857468 0.0029043511090314908 -0.005299403324378252 0.0029140158638306999 -0.0075625335938634781 0.0032720402237928943 0.0053662015590270227 -0.0021568988905991374 0.0013137637693152154 -0.0076647239040533279 0.00077237912304164362 0.00040226338528728909
leaf_count=40473 14286 7319 265081 58259 7262 20397 8184 38297 152333 4347 24463 227218 4119
internal_value=0 0.0391082 0.0490137 -0.074705 -0.0581623 -0.114521 -0.0391979 0.0753475 -0.0451402 -0.105848 -0.134446 0.0149504 -0.11537
internal_count=872038 572598 537915 299440 234504 34683 167779 303378 159595 66725 64936 234537 62378
shrinkage=0.0426706


Tree=26
num_leaves=14
num_cat=0
split_feature=16 33 1 16 16 32 0 0 9 12 20 2 20
split_gain=2346.34 623.456 481.857 251.29 246.286 149.934 135.421 122.2 92.9411 73.5073 70.7749 66.7227 65.2918
threshold=218.14471878954183 2.5000000000000004 421.50000000000006 203.25978191816208 231.32740101235106 1.5000000000000002 37.500000000000007 29.500000000000004 0.93417607378068979 73.47056274847715 0.64274923264756578 35.265686274509811 0.77027799227799243
decision_type=2 2 2 2 2 2 2 2 2 2 2 2 2
left_child=2 4 5 6 9 7 10 -1 -8 -2 -4 -3 -5
right_child=1 11 3 12 -6 -7 8 -9 -10 -11 -12 -13 -14
leaf_value=-0.002568215675789058 -0.0017028981244096913 -0.007741955464050764 -0.0071497470737931605 -0.0034572805774370548 0.0035061773369797736 -0.007790248485643721 -0.0070852568583711327 -0.0055270901498355408 -0.0031877638246958525 0.0016556214443208498 -0.00074114593923580916 -0.0018731451282774339 9.0856577750778207e-05
leaf_count=56517 12480 11828 3333 10154 195397 21865 13386 46180 66402 241043 53545 5026 134882
internal_value=0 0.0483996 -0.0555856 -0.0326846 0.0554885 -0.107377 -0.0634527 -0.0913683 -0.0900303 0.0349256 -0.0261699 -0.140421 -0.00369222
internal_count=872038 465774 406264 281702 448920 124562 136666 102697 79788 253523 56878 16854 145036
shrinkage=0.0426706


Tree=27
num_leaves=14
num_cat=0
split_feature=16 20 16 32 16 2 0 32 30 8 26 1 9
split_gain=2150.25 547.484 472.117 300.323 225.96 109.459 99.1388 91.9729 82.7418 70.4489 64.8652 57.9022 60.1378
threshold=218.9760883770318 0.53069512986678491 189.59249264833076 1.5000000000000002 232.74993319080707 14.780625000000002 29.500000000000004 1.5000000000000002 1.0000000180025095e-35 610.50000000000011 0.80035651331880708 342.50000000000006 0.9387918940185328
decision_type=2 2 2 2 2 2 2 2 2 2 2 2 2
left_child=2 7 6 5 8 -4 10 -2 9 -3 -1 -8 -13
right_child=1 4 3 -5 -6 -7 11 -9 -10 -11 -12 12 -14
leaf_value=-0.00384399623655059 0.0009322645320972066 0.00074253467514740217 -0.001527092819933945 -0.0058137095905708494 0.0035750187178721317 0.00025580459767787149 -0.0069750348549120359 -0.0070830066735778682 -0.00073944183170617558 0.0023044840524757081 -0.00077896640550889542 -0.0069300269852309616 -0.0037449589156149533
leaf_count=37647 3231 76647 144815 23321 165560 110571 22636 13489 25523 167425 18875 13891 48407
internal_value=0 0.0478804 -0.0514984 -0.0276174 0.0547033 -0.0176978 -0.0985505 -0.129694 0.036846 0.0425112 -0.0660984 -0.120147 -0.104408
internal_count=872038 451875 420163 278707 435155 255386 141456 16720 269595 244072 56522 84934 62298
shrinkage=0.0426706


Tree=28
num_leaves=14
num_cat=0
split_feature=16 20 16 16 30 32 16 17 17 17 12 0 30
split_gain=1979.97 712.385 409.676 214.224 160.688 131.014 97.6192 95.912 105.4 69.1036 66.0128 71.4178 71.2741
threshold=208.98275936701896 0.65119774599075775 225.84606451473516 177.21473375806201 1.5000000000000002 1.5000000000000002 238.69941616303421 77.299733560088455 47.328986223189013 100.95286870959625 72.884776310850256 33.000000000000007 1.0000000180025095e-35
decision_type=2 2 2 2 2 2 2 2 2 2 2 2 2
left_child=3 4 10 9 -2 7 -4 8 -5 -1 -3 -12 -13
right_child=1 2 6 5 -6 -7 -8 -9 -10 -11 11 12 -14
leaf_value=-0.0049060290078725231 -0.001020511522444153 -0.0025355041772634032 0.0024590861347302804 0.0021644897652888491 -0.0067679733961271554 -0.0056853462965848192 0.0044022697025281384 0.0026314021982418011 -0.0022744738778002305 -1.4545585249647329e-05 0.0013746115282964127 0.00024058438663554423 -0.0033178897717934604
leaf_count=87728 15183 12461 248788 10402 21258 17018 58057 8601 152905 5594 120628 102022 11393
internal_value=0 0.0329392 0.041858 -0.0689043 -0.10249 -0.0495416 0.0662458 -0.0412561 -0.0466769 -0.108103 0.0115003 0.0152763 -0.0027391
internal_count=872038 589790 553349 282248 36441 188926 306845 171908 163307 93322 246504 234043 113415
shrinkage=0.0426706


Tree=29
num_leaves=14
num_cat=0
split_feature=16 32 16 13 12 9 0 16 13 20 25 32 11
split_gain=1813.22 656.697 369.189 202.812 186.149 148.897 110.119 80.7528 71.794 71.0042 70.0778 58.7879 67.4666
threshold=208.98275936701896 1.5000000000000002 225.84606451473516 26.405741065773427 94.23401871576776 0.94110573970098355 37.500000000000007 240.49109065449773 67.539324928559964 0.80193705736128706 255.25000000000003 1.5000000000000002 0.84654951935796818
decision_type=2 2 2 2 2 2 2 2 2 2 2 2 2
left_child=3 2 10 11 -3 -5 8 -4 -7 -6 -2 12 -1
right_child=1 4 7 5 9 6 -8 -9 -10 -11 -12 -13 -14
leaf_value=-0.0047943330138212588 -0.011130690694386085 -0.0070902661293191166 0.0024542435903862222 -0.0043493963290264313 -0.0031468604221762376 -0.0004176247008414321 -0.0024526236139528943 0.0045814523267693405 0.0076893822024683926 0.0024436949680587258 0.00054209096886474566 -0.0070919175862385973 -0.0016497949668964054
leaf_count=53548 940 19155 266618 41262 10780 65746 89424 37003 2051 6712 248591 14032 16176
internal_value=0 0.0315823 0.040171 -0.0658791 -0.0980561 -0.0484657 -0.0344343 0.0635916 -0.00403957 -0.0234743 0.0116736 -0.107145 -0.09526
internal_count=872038 589799 553152 282239 36647 198483 157221 303621 67797 17492 249531 83756 69724
shrinkage=0.0426706


Tree=30
num_leaves=14
num_cat=0
split_feature=16 26 33 16 16 32 0 16 14 0 9 0 2
split_gain=1684.02 418.081 415.744 188.454 146.167 132.034 98.3876 93.6711 66.0523 61.7319 55.2848 50.902 49.9857
threshold=219.99088833540893 0.73202026614002924 2.5000000000000004 203.66345223015833 233.06260469332844 1.5000000000000002 43.000000000000007 163.23733787749697 20.215268089409758 29.500000000000004 0.93417607378068979 33.000000000000007 55.716117216117219
decision_type=2 2 2 2 2 2 2 2 2 2 2 2 2
left_child=1 5 4 6 8 7 -3 -1 -2 -9 -8 -5 -4
right_child=2 3 12 11 -6 -7 10 9 -10 -11 -12 -13 -14
leaf_value=-0.0052164907727665962 -0.00014019738719494578 -0.0010176280445199884 -0.006246659213240224 0.00084245592542149463 0.0031531157774608498 -0.0062991904835031486 -0.0062659582154223218 -0.0012814533818026235 0.0017897508598064939 -0.0035895590262246132 -0.0028214930580445908 -0.00066619297919549598 -0.00021796381937044156
leaf_count=28521 37765 66228 12228 73230 158578 29694 10079 43989 222678 40546 53626 91727 3149
internal_value=0 -0.0438575 0.0440325 -0.022353 0.0499589 -0.088281 -0.0508368 -0.0726948 0.0353851 -0.0559754 -0.078894 8.31339e-05 -0.117459
internal_count=872038 437640 434398 294890 419021 142750 129933 113056 260443 84535 63705 164957 15377
shrinkage=0.0426706


Tree=31
num_leaves=14
num_cat=0
split_feature=16 20 16 1 0 30 9 16 20 0 25 0 30
split_gain=1547.75 565.853 325.427 183.882 122.16 116.542 79.1804 72.0487 70.9513 68.7804 67.9125 71.0137 70.5414
threshold=208.66070562957725 0.62623602646416587 227.27189747287082 433.50000000000006 45.000000000000007 1.5000000000000002 0.93417607378068979 240.49109065449773 0.6959249224314995 29.500000000000004 255.25000000000003 33.000000000000007 1.0000000180025095e-35
decision_type=2 2 2 2 2 2 2 2 2 2 2 2 2
left_child=3 5 10 9 8 -2 -6 -4 -5 -1 -3 -12 -13
right_child=1 2 7 4 6 -7 -8 -9 -10 -11 11 12 -14
leaf_value=-0.0029535168804233911 -0.0010210790838299764 -0.01052276879513583 0.0023184506518130889 -0.0051586042997252834 -0.0061092003971134016 -0.0061111583782480954 -0.0024001447851124793 0.0043097718187650163 -0.00038379477031221171 -0.0051143130879153752 0.0012011225021541783 0.000167969238384646 -0.0031731588989134538
leaf_count=55132 13575 1008 240395 6065 12425 20647 66935 38362 86213 52235 150709 115559 12778
internal_value=0 0.0289236 0.0365678 -0.061394 -0.0410896 -0.0958987 -0.0698573 0.060756 -0.016349 -0.093853 0.0124917 0.0134276 -0.00385965
internal_count=872038 593033 558811 279005 171638 34222 79360 278757 92278 107367 280054 279046 128337
shrinkage=0.0426706


Tree=32
num_leaves=14
num_cat=0
split_feature=16 1 20 16 16 32 0 0 30 17 9 30 30
split_gain=1422.24 387.189 341.25 186.688 123.776 121.071 99.1664 95.8053 63.2197 63.8283 61.586 61.1382 60.5727
threshold=220.95376155070434 437.50000000000006 0.50889684723033313 202.03077952836992 233.54290828503244 1.5000000000000002 29.500000000000004 37.500000000000007 1.0000000180025095e-35 70.594498462837009 0.93417607378068979 1.0000000180025095e-35 1.0000000180025095e-35
decision_type=2 2 2 2 2 2 2 2 2 2 2 2 2
left_child=1 5 12 7 11 6 -1 -3 9 -5 -9 -4 -2
right_child=2 3 4 8 -6 -7 -8 10 -10 -11 -12 -13 -14
leaf_value=-0.0018149549140721929 0.0014628458575440886 -0.0006774027730615807 0.0016671602695862771 0.00019284675197128945 0.003005467064533801 -0.0062471544638849699 -0.004307785610842072 -0.0057775252239177909 -0.0018236144140552149 0.0047477049019000938 -0.0025204579787194616 -0.00062455479592510852 -0.0060309749691985779
leaf_count=64828 2365 50571 231008 155537 149051 24192 52657 12841 28484 5811 59775 23337 11581
internal_value=0 -0.0386088 0.0422352 -0.0189767 0.047552 -0.0819835 -0.0687182 -0.049293 0.000696261 0.00836387 -0.0725657 0.0341427 -0.111556
internal_count=872038 454696 417342 313019 403396 141677 117485 123187 189832 161348 72616 254345 13946
shrinkage=0.0426706


Tree=33
num_leaves=14
num_cat=0
split_feature=16 32 16 16 12 20 17 17 16 17 9 12 25
split_gain=1304.59 458.373 226.561 193.374 137.558 119.734 92.6715 81.2518 61.9391 60.8518 57.6444 58.1032 48.7819
threshold=211.37022952716384 1.5000000000000002 225.84606451473516 178.26646351257298 108.98832970144353 0.6959249224314995 73.839915033040697 46.441349308631793 240.49109065449773 100.95286870959625 0.95211107006921814 176.61879502661802 255.25000000000003
decision_type=2 2 2 2 2 2 2 2 2 2 2 2 2
left_child=3 2 12 9 -3 -5 7 -7 -4 10 -1 -12 -2
right_child=1 4 8 5 -6 6 -8 -9 -10 -11 11 -13 -14
leaf_value=-0.0056769231927089646 -0.0098000205945000338 -0.0057221340587838027 0.0020741586882637108 -0.0038118294764603847 -0.00017452953241990863 0.0030541465850632216 0.0029553773931922773 -0.001493272308559638 0.0039375158698323172 0.00047530770999616923 -0.0034988174479526225 0.0080250090814340935 0.00055147834810168538
leaf_count=28055 832 20844 266881 34210 13351 7486 9903 161406 36982 5703 62075 807 223503
internal_value=0 0.0288642 0.0361281 -0.0519623 -0.0833394 -0.0351297 -0.0247589 -0.0302717 0.0539233 -0.0890631 -0.0953472 -0.0785301 0.0120244
internal_count=872038 562393 528198 309645 34195 213005 178795 168892 303863 96640 90937 62882 224335
shrinkage=0.0426706


Tree=34
num_leaves=14
num_cat=0
split_feature=16 33 20 16 16 17 17 32 11 0 14 26 19
split_gain=1195.49 320.877 295.446 205.926 121.188 80.8694 80.6879 71.1827 66.1967 61.6988 58.0504 50.9315 54.8398
threshold=218.9760883770318 2.5000000000000004 0.7450369552959154 189.59249264833076 232.58531048052819 70.594498462837009 92.364897328868452 1.5000000000000002 0.82581613871936466 33.000000000000007 19.30070109914136 2.0896391331016155 609.75000000000011
decision_type=2 2 2 2 2 2 2 2 2 2 2 2 2
left_child=2 4 7 6 10 9 8 -1 -4 -5 -2 12 -11
right_child=1 -3 3 5 -6 -7 -8 -9 -10 11 -12 -13 -14
leaf_value=-0.0029062174628171379 -0.00066215924941173622 -0.0043794578440060957 -0.0036119176304044787 0.00026004439890113713 0.0026394833735754273 0.0033048732849629346 0.0018262412429749192 -0.00543712619075566 -0.00076560019371201069 -0.0021131759611002668 0.0013936491037164454 -0.006386156954679271 -0.00029053203395679948
leaf_count=53123 27933 16157 73084 97478 168734 10369 6676 32682 18680 50380 238917 3313 74512
internal_value=0 0.0357481 -0.038352 -0.0249236 0.0408811 -0.00890053 -0.0633456 -0.0906997 -0.0710678 -0.0128679 0.0276175 -0.0272854 -0.0240392
internal_count=872038 451741 420297 334492 435584 236052 98440 85805 91764 225683 266850 128205 124892
shrinkage=0.0426706


Tree=35
num_leaves=14
num_cat=0
split_feature=16 20 16 16 13 30 0 12 30 16 25 10 1
split_gain=1113.3 418.509 239.718 143.943 87.46 86.2651 74.8921 65.9703 67.5428 54.6175 53.5708 52.6148 47.7024
threshold=208.66070562957725 0.62623602646416587 228.53829551743226 172.6593666243476 26.257343492183818 1.5000000000000002 37.500000000000007 95.47056274847715 1.0000000180025095e-35 244.79049871750803 255.25000000000003 0.98756596388109963 2435.5000000000005
decision_type=2 2 2 2 2 2 2 2 2 2 2 2 2
left_child=3 5 7 12 -5 -2 -6 10 -9 -4 -3 -11 -1
right_child=1 2 9 4 6 -7 -8 8 -10 11 -12 -13 -14
leaf_value=-0.0039836099168279191 -0.0008973325819215804 -0.0099773227066413291 0.002153887702191912 -0.0032159230973515256 -4.7203176056372106e-05 -0.0052703272712194141 -0.0019552416758356886 0.0013528724781043087 -0.0010192969546843377 0.0054618690371672374 -0.00017128720983531728 -0.016289018660774226 0.0011069203172803927
leaf_count=76184 13627 1023 240818 47323 66913 20676 85082 159132 25334 11896 120318 206 3506
internal_value=0 0.0244128 0.0309951 -0.0521869 -0.0378249 -0.0828003 -0.0261366 0.0121578 0.0240701 0.0537714 -0.00595164 0.119324 -0.0881087
internal_count=872038 593030 558727 279008 199318 34303 151995 305807 184466 252920 121341 12102 79690
shrinkage=0.0426706


Tree=36
num_leaves=14
num_cat=0
split_feature=16 1 20 0 32 0 9 20 16 14 16 11 30
split_gain=1016.36 308.602 252.297 156.224 97.5514 93.5616 93.1683 90.117 88.9047 53.6521 50.0986 47.691 45.7704
threshold=221.69133359456637 441.50000000000006 0.51972257353026219 46.500000000000007 1.5000000000000002 29.500000000000004 0.94382698984100111 0.64274923264756578 235.36879224765281 21.015486627456937 193.08389639639643 0.84740500240500249 1.0000000180025095e-35
decision_type=2 2 2 2 2 2 2 2 2 2 2 2 2
left_child=1 4 -2 7 5 11 -5 -3 9 -4 -8 -1 -11
right_child=2 3 8 6 -6 -7 10 -9 -10 12 -12 -13 -14
leaf_value=-0.0021270742397540405 -0.0040950155424764618 -0.0046763293863702681 7.1675616964255611e-05 -0.0046638640459968706 -0.0054144442241052743 -0.0037935630664018378 -0.0030104222476454354 0.00022041915397785344 0.0027846030091567102 0.001816996165169075 -0.00074756521107061124 0.00039915474995151515 -0.00035529292066506746
leaf_count=48093 13825 7078 48498 18760 24826 54424 24413 206130 112149 209675 65907 18975 19285
internal_value=0 -0.0316831 0.0367872 -0.014392 -0.0697694 -0.0580973 -0.0451728 0.00135594 0.0414979 0.031894 -0.0318534 -0.0330989 0.038294
internal_count=872038 468606 403432 322288 146318 121492 109080 213208 389607 277458 90320 67068 228960
shrinkage=0.0426706


Tree=37
num_leaves=14
num_cat=0
split_feature=16 32 16 16 20 2 14 32 17 17 17 1 25
split_gain=946.89 358.257 191.409 128.219 110.666 85.0087 55.6242 51.4585 49.9111 49.249 46.8506 45.6124 45.4525
threshold=208.66070562957725 1.5000000000000002 224.6533524904215 164.62355750487333 0.78013303378705789 13.409673659673661 20.602425495870325 1.5000000000000002 46.524098780363225 77.299733560088455 43.717890376924913 2435.5000000000005 255.25000000000003
decision_type=2 2 2 2 2 2 2 2 2 2 2 2 2
left_child=3 2 12 11 -3 7 -4 8 -5 10 -7 -1 -2
right_child=1 4 6 5 -6 9 -8 -9 -10 -11 -12 -13 -14
leaf_value=-0.0040930405680843955 -0.009377528794037214 -0.00434194545268928 0.00032293782633915669 0.00089810106146552635 0.0013006998992274987 0.0028280159034592737 0.0020953440334813751 -0.0049835521525837829 -0.0022777047519203864 0.0025744590819541517 -0.0011673512628315986 0.0013662607781468302 0.00032779919335747146
leaf_count=55804 882 28836 36263 9833 8108 5742 290604 11664 107713 8210 77080 2933 228366
internal_value=0 0.0226251 0.02896 -0.0480201 -0.0727332 -0.0369489 0.044497 -0.0534393 -0.0471529 -0.0135426 -0.0208658 -0.0895332 0.00680701
internal_count=872038 593059 556115 278979 36944 220242 326867 129210 117546 91032 82822 58737 229248
shrinkage=0.0426706


Tree=38
num_leaves=14
num_cat=0
split_feature=16 20 16 32 2 9 16 16 11 8 0 32 0
split_gain=867.957 338.454 181.485 120.872 107.426 63.5341 60.6458 59.0293 55.2372 45.402 53.6226 44.8911 46.7228
threshold=207.0226592665214 0.7450369552959154 224.83779513059406 1.5000000000000002 13.409673659673661 0.94249013784517555 155.48759765171192 240.8602989856542 0.64623449923783638 332.50000000000006 33.000000000000007 1.5000000000000002 29.500000000000004
decision_type=2 2 2 2 2 2 2 2 2 2 2 2 2
left_child=4 3 9 -2 6 -6 -1 -4 -7 -3 -11 12 -8
right_child=1 2 7 -5 5 8 11 -9 -10 10 -12 -13 -14
leaf_value=-0.0045817416927905127 -0.00014061817854095325 -0.0032087872275752796 0.0016517639828966236 -0.0042366485182922823 -0.0028798447383171178 0.003311546580173518 -0.00075771837445926741 0.0035175252295787931 -0.00071922120622308291 0.0010458544902127761 -0.0002571816510735842 -0.0048282762881567149 -0.0026311757144513131
leaf_count=27023 24004 6547 285929 28924 23954 6791 33360 34613 69985 115095 114918 12253 88642
internal_value=0 0.0206656 0.0279258 -0.0557529 -0.0481495 -0.0225279 -0.0641521 0.0434312 -0.0084998 0.00691587 0.00925316 -0.0554522 -0.0496572
internal_count=872038 610030 557102 52928 262008 100730 161278 320542 76776 236560 230013 134255 122002
shrinkage=0.0426706


Tree=39
num_leaves=14
num_cat=0
split_feature=16 12 16 16 32 30 13 17 17 30 12 16 0
split_gain=791.508 313.816 170.191 102.357 93.1254 67.8822 62.6659 57.519 61.6007 54.1445 51.1431 46.1602 39.8161
threshold=207.0226592665214 73.47056274847715 225.99652139906144 172.6593666243476 1.5000000000000002 1.0000000180025095e-35 27.562758135771595 77.299733560088455 46.524098780363225 1.0000000180025095e-35 95.47056274847715 243.96136158258579 45.000000000000007
decision_type=2 2 2 2 2 2 2 2 2 2 2 2 2
left_child=3 4 5 12 -2 10 -5 8 -8 11 -3 -4 -1
right_child=1 2 9 6 -6 -7 7 -9 -10 -11 -12 -13 -14
leaf_value=-0.0025654934773290776 -0.0012439283488800189 -0.00019765398885806772 0.001845382540530696 -0.0026174235016759887 -0.0054660156790898402 -0.0014169854797830919 0.0025254439303861844 0.0024522148743075945 -0.0013902268332643812 2.348156649484201e-05 0.0011096706104898797 0.0043900131447824854 -0.0045920402977215969
leaf_count=53266 27043 91528 264076 54333 14673 35891 7830 8747 111279 28694 134625 13651 26402
internal_value=0 0.0197614 0.0259047 -0.0459641 -0.0639547 0.00719411 -0.0328902 -0.0208002 -0.026548 0.0419056 0.013606 0.0461784 -0.0758624
internal_count=872038 610181 568465 261857 41716 262044 182189 127856 119109 306421 226153 277727 79668
shrinkage=0.0426706


Tree=40
num_leaves=14
num_cat=0
split_feature=16 33 29 16 0 9 1 13 9 17 14 0 29
split_gain=736.07 242.283 161.021 110.085 90.5167 70.7945 62.7347 49.1751 48.4851 44.6165 43.7557 43.2705 41.0524
threshold=215.00340259950511 2.5000000000000004 0.58973456756707998 229.6365437732677 40.500000000000007 0.93525391576085815 571.50000000000011 31.803936108521246 0.94313258299908798 65.462685217773057 12.161887625464638 33.000000000000007 0.15918280514046301
decision_type=2 2 2 2 2 2 2 2 2 2 2 2 2
left_child=2 3 -1 10 6 -6 -4 -7 -8 -10 -2 -12 -5
right_child=1 -3 4 12 5 7 8 -9 9 -11 11 -13 -14
leaf_value=-0.0030235514359335624 -0.0038196274127989017 -0.003679805950754554 -0.0010350676885100736 -0.0080513869001410544 -0.0044500421675630264 -0.0026190155301250881 -0.0011060621785003524 -0.0007533404268580846 0.00089737680592849307 0.0043322887246826855 0.0011462708583811598 2.3479453848975627e-05 0.0019280643159316833
leaf_count=91950 3981 19101 73158 753 15645 39041 17546 75410 37202 8449 153179 105566 231057
internal_value=0 0.0242732 -0.0347761 0.0285415 -0.0223246 -0.041194 -0.00432128 -0.0325693 0.0187569 0.0359288 0.014527 0.0161277 0.0444252
internal_count=872038 513637 358401 494536 266451 130096 136355 114451 63197 45651 262726 258745 231810
shrinkage=0.0426706


Tree=41
num_leaves=14
num_cat=0
split_feature=16 13 0 32 2 30 1 1 9 30 17 16 20
split_gain=686.064 291.891 165.671 92.9687 78.8754 78.477 77.3401 71.497 55.1377 50.5369 46.3063 45.2655 40.3351
threshold=204.0639829823356 26.257343492183818 33.000000000000007 1.5000000000000002 13.409673659673661 1.0000000180025095e-35 640.50000000000011 661.50000000000011 0.95588705330843193 1.0000000180025095e-35 65.462685217773057 153.65357145376441 0.47464602951980234
decision_type=2 2 2 2 2 2 2 2 2 2 2 2 2
left_child=4 3 7 -2 11 6 -4 12 -6 -9 -10 -1 -3
right_child=1 2 5 -5 8 -7 -8 9 10 -11 -12 -13 -14
leaf_value=-0.0042538064917868306 -0.0010951707816757332 -0.0053260199424786363 -0.0010070131913895684 -0.0049397771487668732 -0.0023276968120623629 -0.0021786150741618872 0.00090911275738105187 0.0022710279825853118 -0.00063801391945935587 0.00036113271811395953 0.002901323902098284 -0.0022444628935739852 0.00089878555800626265
leaf_count=24521 36593 1920 54157 16669 33462 25407 131443 194914 46629 28976 7866 121862 147619
internal_value=0 0.0170065 0.0234651 -0.0538635 -0.0462666 0.00106706 0.00820233 0.0361212 -0.0225989 0.0474296 -0.00297942 -0.0604879 0.0191903
internal_count=872038 637698 584436 53262 234340 211007 185600 373429 87957 223890 54495 146383 149539
shrinkage=0.0426706


Tree=42
num_leaves=14
num_cat=0
split_feature=1 0 32 0 20 9 1 1 11 2 30 14 26
split_gain=618.839 319.042 133.975 118.137 97.1663 76.8461 72.2229 72.066 54.9506 48.3907 40.4079 45.7502 39.4191
threshold=465.50000000000006 40.500000000000007 1.5000000000000002 29.500000000000004 0.7450369552959154 0.9573731951561032 676.50000000000011 661.50000000000011 0.84740500240500249 58.219387755102048 1.0000000180025095e-35 67.725427974892497 1.5929545937100276
decision_type=2 2 2 2 2 2 2 2 2 2 2 2 2
left_child=2 4 3 8 -2 9 -7 -6 -1 12 11 -9 -3
right_child=1 5 -4 -5 7 6 -8 10 -10 -11 -12 -13 -14
leaf_value=-0.0013804601871977484 -0.0018182923275980453 -0.0020665821260684955 -0.0044665235366157978 -0.0029207750838821166 0.00065122577161267736 -0.0013982996594981143 0.00049273737149768194 0.0018359968280271882 0.00071322005566333514 0.00070170745545254307 0.00039665650979593404 0.0044771684475200394 -0.0051592290317851982
leaf_count=62494 18069 35677 35009 68762 160658 61977 90427 238089 35958 9048 33795 12572 9503
internal_value=0 0.0146976 -0.0484219 -0.0366445 0.0292746 -0.017978 -0.00647464 0.0321928 -0.014431 -0.0503075 0.0417554 0.0461317 -0.0636757
internal_count=872038 669815 202223 167214 463183 206632 152404 445114 98452 54228 284456 250661 45180
shrinkage=0.0426706


Tree=43
num_leaves=14
num_cat=0
split_feature=16 20 16 16 30 17 32 13 17 0 30 29 16
split_gain=591.075 248.915 147.358 73.0597 67.9149 53.5255 73.5203 53.3148 49.7608 43.1857 47.3962 47.1211 43.1357
threshold=204.0639829823356 0.66667723190702599 228.53829551743226 164.62355750487333 1.5000000000000002 46.016366675093884 1.5000000000000002 30.969601336355876 81.35853954168401 33.000000000000007 1.0000000180025095e-35 1.4808806989635743 183.99451223215164
decision_type=2 2 2 2 2 2 2 2 2 2 2 2 2
left_child=3 4 7 -1 -2 6 -5 -3 12 -9 -11 -12 -7
right_child=1 2 -4 5 -6 8 -8 9 -10 10 11 -13 -14
leaf_value=-0.0031403775458318504 -0.00057532600272942078 -0.00061345156324927198 0.0016834846898666656 0.0020969305640788686 -0.0039444876129422577 -0.0030246142986478128 -0.0042862693156357828 0.0011754941130450462 0.0013936486433458208 0.00036230078015134953 -0.00042661545689473015 -0.0055402184764357749 -0.0013970111922565552
leaf_count=58606 19832 83586 251800 15178 24171 41169 4193 129782 9132 114310 9249 5085 105945
internal_value=0 0.0157161 0.0210938 -0.043023 -0.0568546 -0.0328203 0.0167619 0.00757708 -0.0389674 0.0146778 0.00169362 -0.0525109 -0.0434137
internal_count=872038 637815 593812 234223 44003 175617 19371 342012 156246 258426 128644 14334 147114
shrinkage=0.0426706


Tree=44
num_leaves=14
num_cat=0
split_feature=16 13 20 9 0 1 16 17 0 14 0 32 11
split_gain=549.269 190.689 130.946 120.642 78.5093 61.0442 59.7851 48.8142 47.1452 40.8943 40.8332 46.1543 37.648
threshold=222.07459768323204 26.257343492183818 0.49879662013083992 0.93960078661952606 33.000000000000007 664.50000000000011 237.52933431770643 67.838207905884445 24.000000000000004 20.075342536511311 35.000000000000007 1.5000000000000002 0.73461920024420035
decision_type=2 2 2 2 2 2 2 2 2 2 2 2 2
left_child=1 10 -2 8 7 -6 9 -5 -3 -4 11 -1 -9
right_child=2 3 6 4 5 -7 -8 12 -10 -11 -12 -13 -14
leaf_value=-0.0014204155227684084 -0.0031253412012854156 -0.00067946093189410453 -0.00036116680630684432 0.00037694356291102045 -0.001530580420651094 3.9043880834054925e-05 0.0023899843381359935 0.0046658548393468079 -0.0031637381531794896 0.0012202305979281383 -0.0037121443881087991 -0.0042109539436668668 -0.0016814755804033211
leaf_count=55981 12502 21777 33388 117920 91099 89373 75323 8504 38497 275072 37106 13369 2127
internal_value=0 -0.0229323 0.0274718 -0.0121832 -0.00420089 -0.0176532 0.0307527 0.0146848 -0.0531084 0.0245851 -0.0602208 -0.0458949 0.0795844
internal_count=872038 475753 396285 369297 309023 180472 383783 128551 60274 308460 106456 69350 10631
shrinkage=0.0426706


Tree=45
num_leaves=14
num_cat=0
split_feature=16 29 12 16 0 0 29 1 30 19 32 32 11
split_gain=503.827 169.627 126.226 97.5135 54.8258 52.506 49.4718 58.4539 47.0411 45.7477 40.2772 39.2805 39.8264
threshold=221.33420657656674 0.51848337089607244 74.056349186104057 184.8549123716808 33.000000000000007 29.500000000000004 1.5298249289149168 676.50000000000011 1.0000000180025095e-35 211.25000000000003 1.5000000000000002 1.5000000000000002 0.83038356092645815
decision_type=2 2 2 2 2 2 2 2 2 2 2 2 2
left_child=1 11 10 -3 9 -4 7 -6 -8 -5 -2 12 -1
right_child=2 3 5 4 6 -7 8 -9 -10 -11 -12 -13 -14
leaf_value=-0.0029534354148273768 -0.00066211916841370417 -0.0019236618204173314 0.0016107700195488277 -0.01031927263271201 -0.0012831722461462964 0.00056752188490218243 -0.0012696320925202288 0.00039790144083842483 -0.00617222263008807 0.00046567207528573271 -0.0046384461505188717 -0.0041843254271474875 -0.00063012729219635453
leaf_count=37808 11324 78600 257399 720 82683 133345 9775 69166 5608 133149 7856 23766 20839
internal_value=0 -0.0226417 0.0255178 -0.0137159 -0.0055281 0.0294055 -0.0176011 -0.0121268 -0.0716398 0.0095538 -0.0536856 -0.0637658 -0.049868
internal_count=872038 462114 409924 379701 301101 390744 167232 151849 15383 133869 19180 82413 58647
shrinkage=0.0426706


Tree=46
num_leaves=14
num_cat=0
split_feature=16 20 0 32 19 19 9 13 13 30 0 23 25
split_gain=469.806 203.859 107.514 81.4568 69.0165 61.8242 59.8507 80.4477 55.5926 54.7687 40.6416 38.9003 38.0347
threshold=204.0639829823356 0.77027799227799243 33.000000000000007 1.5000000000000002 576.25000000000011 617.75000000000011 0.93960078661952606 69.337630576909064 26.257343492183818 1.0000000180025095e-35 40.500000000000007 1.2731327254104474 255.25000000000003
decision_type=2 2 2 2 2 2 2 2 2 2 2 2 2
left_child=6 3 4 -2 12 -4 -1 8 -8 -7 -10 -11 -3
right_child=1 2 5 -5 -6 9 7 -9 10 11 -12 -13 -14
leaf_value=-0.0031114371295792955 -0.00015739556133942493 -0.0076165197911748743 -0.0011111764494271857 -0.0032207098511382775 0.001676369697920347 0.00081867346218351207 -0.0024206968924637986 0.0049710206849937722 -6.7103097403971171e-05 -0.00036177545810447807 -0.0016273735136121295 -0.0049242959838059486 0.00048918017427367468
leaf_count=41075 31434 1064 57890 31789 256644 131006 67529 3634 57300 10255 64741 5092 112585
internal_value=0 0.014111 0.0200418 -0.0397851 0.0302014 0.00162253 -0.0382529 -0.0308832 -0.0337085 0.0125648 -0.02097 -0.0439549 0.00968567
internal_count=872038 637759 574536 63223 370293 204243 234279 193204 189570 146353 122041 15347 113649
shrinkage=0.0426706


Tree=47
num_leaves=14
num_cat=0
split_feature=14 16 0 0 32 20 29 17 16 10 30 16 11
split_gain=438.389 233.471 100.407 98.0631 85.4257 67.569 64.7093 46.9493 42.6555 52.763 43.1412 36.1018 35.8718
threshold=19.781103955889904 223.14604152367883 29.500000000000004 48.000000000000007 1.5000000000000002 0.7450369552959154 1.5298249289149168 77.299733560088455 244.79049871750803 0.98756596388109963 1.0000000180025095e-35 185.72343233389654 0.84654951935796818
decision_type=2 2 2 2 2 2 2 2 2 2 2 2 2
left_child=2 3 4 5 12 -2 11 -7 10 -10 -3 -5 -1
right_child=1 8 -4 6 -6 7 -8 -9 9 -11 -12 -13 -14
leaf_value=-0.0011111901473349318 -0.0023651174197431989 0.0013766428152955084 -0.0029266497862711714 -0.0027069443707047288 -0.0036709402278112657 0.00022178622303096983 -0.0044931639129423577 0.0028962856225504463 0.004150562979913586 -0.018225510555367461 -0.00030535702802247347 -0.00055219511278402377 0.00056296337601916165
leaf_count=61312 17713 296463 80304 18300 17998 213091 11256 12661 11974 195 30634 62546 37591
internal_value=0 0.0122346 -0.0413624 -0.00646788 -0.0226606 0.0040464 -0.0342616 0.00871284 0.0307332 0.0888669 0.0285704 -0.0243713 -0.0111289
internal_count=872038 674833 197205 335567 116901 243465 92102 225752 339266 12169 327097 80846 98903
shrinkage=0.0426706


Tree=48
num_leaves=14
num_cat=0
split_feature=14 0 0 13 32 30 16 30 26 14 13 22 11
split_gain=402.81 211.683 92.665 85.1986 79.561 67.8082 54.4885 43.7428 49.9062 43.7104 37.7115 34.9308 29.7033
threshold=20.004960194116411 45.000000000000007 29.500000000000004 31.803936108521246 1.5000000000000002 1.0000000180025095e-35 192.4266702801682 1.0000000180025095e-35 1.4404978171293237 73.661613717268139 31.907261617703316 244.25000000000003 0.84654951935796818
decision_type=2 2 2 2 2 2 2 2 2 2 2 2 2
left_child=2 3 4 -2 11 9 -3 10 -9 -5 -8 -1 -13
right_child=1 6 -4 5 -6 -7 7 8 -10 -11 -12 12 -14
leaf_value=-0.0041604278296018303 -0.00011567663850408358 -0.0023418220633863547 -0.0027268213715582312 0.0013442363218664286 -0.0035011078129490976 -0.00024436204449496959 -0.0017858183381168401 -0.00091484203891863862 -0.0058902829137728483 0.0039537591880604321 0.00029245328016286895 -0.00085230195846584898 0.00066262225045549117
leaf_count=4399 110477 35161 84915 335731 18136 50075 19607 12224 5246 12109 84026 61867 38065
internal_value=0 0.0119634 -0.0385183 0.0218574 -0.0209166 0.0286786 -0.0202261 -0.0101643 -0.0564534 0.0336316 -0.00236107 -0.0102897 -0.00645067
internal_count=872038 664656 207382 508392 122467 397915 156264 121103 17470 347840 103633 104331 99932
shrinkage=0.0426706


Tree=49
num_leaves=14
num_cat=0
split_feature=16 14 0 32 31 16 17 32 19 1 28 16 25
split_gain=376.26 164.424 87.9039 77.0139 56.9257 56.5423 47.741 57.8361 47.1709 44.0609 42.6049 38.6027 36.6985
threshold=204.0639829823356 20.145405274949379 29.500000000000004 1.5000000000000002 1.5000000000000002 153.65357145376441 40.802624256334774 1.5000000000000002 625.75000000000011 2435.5000000000005 306.25000000000006 181.27869931542918 3728.2500000000005
decision_type=2 2 2 2 2 2 2 2 2 2 2 2 2
left_child=5 3 -3 10 8 9 7 -7 -4 -1 -2 -8 -12
right_child=1 2 4 -5 -6 6 11 -9 -10 -11 12 -13 -14
leaf_value=-0.0034525982338620273 -0.0079081416164251527 0.0013383765404915756 -0.00058043760039697427 -0.0034890914824129739 -0.0015395205429913775 0.0025099805529312145 -0.0022761769898425486 -0.0035854808680374621 0.00086224757506477403 0.0025661304693901325 -0.00030410381589581511 -0.00095119183323877149 -0.018836757598123172
leaf_count=32608 1379 292552 56152 18719 28886 12018 59009 3709 155655 2376 84260 124520 195
internal_value=0 0.0126099 0.0197195 -0.0236509 0.00556446 -0.0342542 -0.0277441 0.0251332 0.0112438 -0.0713331 -0.0109765 -0.0322753 -0.00812959
internal_count=872038 637798 533245 104553 240693 234240 199256 15727 211807 34984 85834 183529 84455
shrinkage=0.0426706


Tree=50
num_leaves=14
num_cat=0
split_feature=26 0 32 1 11 25 30 22 26 0 21 0 30
split_gain=347.093 175.105 80.2365 71.2759 65.5678 61.856 56.4674 48.3919 45.561 40.9217 31.5135 31.0283 29.9531
threshold=0.76606183154451124 35.000000000000007 1.5000000000000002 655.50000000000011 0.85716059896387775 641.25000000000011 1.0000000180025095e-35 193.50000000000003 1.4404978171293237 33.000000000000007 1.5000000000000002 49.500000000000007 1.0000000180025095e-35
decision_type=2 2 2 2 2 2 2 2 2 2 2 2 2
left_child=2 3 4 7 9 -3 11 -2 -8 -1 -5 -7 -12
right_child=1 5 -4 10 -6 6 8 -9 -10 -11 12 -13 -14
leaf_value=-0.00095900501576726268 -0.0082392231051692313 -0.0012765560178197369 -0.0031138779535594841 0.0027582960602556719 0.0003286725242311553 0.00090146819963076309 -0.00055769605819338327 0.00039243895496550446 -0.0047896872197882223 -0.0025876766117548483 0.0014694972244651944 -0.00049432934699613392 -8.6137831186738149e-05
leaf_count=70607 1191 95290 45292 30221 43756 87655 14167 167871 6882 46647 193620 43334 25505
internal_value=0 0.0111535 -0.0357913 0.0236226 -0.0253317 -0.00994062 0.00257931 0.00777189 -0.0454962 -0.0376591 0.0343698 0.0103047 0.0301948
internal_count=872038 665736 206302 418408 161010 247328 152038 169062 21049 117254 249346 130989 219125
shrinkage=0.0426706


Tree=51
num_leaves=14
num_cat=0
split_feature=16 13 0 9 12 30 8 32 13 20 21 26 17
split_gain=327.456 143.586 83.7266 53.5159 66.9617 48.1769 52.5863 44.1988 41.9429 37.9999 32.8918 31.9327 28.724
threshold=203.25978191816208 26.257343492183818 29.500000000000004 0.95526123865771451 191.36753236814715 1.0000000180025095e-35 707.50000000000011 1.5000000000000002 26.257343492183818 0.47464602951980234 14.500000000000002 1.4278110280837202 73.839915033040697
decision_type=2 2 2 2 2 2 2 2 2 2 2 2 2
left_child=3 7 9 -1 8 6 -4 10 -5 -3 -2 -7 -10
right_child=1 2 5 4 -6 11 -8 -9 12 -11 -12 -13 -14
leaf_value=-0.0023984889676951422 -0.00057550622941964055 -0.0035534853479232947 -0.00049234325182790273 -0.0019559178860460379 0.0073057603017634646 -0.00061862755635332513 0.00083980805210863245 -0.0034079966725227111 -0.00073751346155880536 0.0011848914678484427 -0.0084269669785964185 -0.0036721237001055003 0.0019108137229501565
leaf_count=67231 36590 3111 87209 59184 1763 22982 141490 16962 91442 326399 998 8558 8119
internal_value=0 0.0115908 0.0161311 -0.0325237 -0.0226026 0.0027236 0.0077764 -0.0374941 -0.0247551 0.0267199 -0.0183726 -0.0339146 -0.0122227
internal_count=872038 644299 589749 227739 160508 260239 228699 54550 158745 329510 37588 31540 99561
shrinkage=0.0426706


Tree=52
num_leaves=14
num_cat=0
split_feature=1 0 0 32 20 16 26 16 11 30 16 10 29
split_gain=306.313 160.865 78.3748 67.3645 64.2986 47.9245 43.3432 35.998 33.0443 31.8042 29.0338 31.983 28.7225
threshold=494.50000000000006 46.500000000000007 29.500000000000004 1.5000000000000002 0.7503556907483977 223.81504479501012 1.4974402059483907 181.27869931542918 0.84740500240500249 1.0000000180025095e-35 245.85629154181942 0.98756596388109963 0.51848337089607244
decision_type=2 2 2 2 2 2 2 2 2 2 2 2 2
left_child=2 4 3 8 -2 -6 7 -3 -1 -8 -7 -12 -4
right_child=1 6 12 -5 5 10 9 -9 -10 -11 11 -13 -14
leaf_value=-0.00081775683906829889 -0.0015737489981875793 -0.0024706965366903485 -0.0031880941197471196 -0.0029619474695888413 0.00040752379189522883 0.0011916946342668256 -0.0016341184559928094 -0.0002486523960542284 0.00067534509239120064 -0.005585738653377032 0.004061974301146032 -0.018036341900257241 -0.0016792843400335691
leaf_count=71939 19629 15472 36310 19631 199973 284198 11926 93480 43192 5382 8244 121 62541
internal_value=0 0.0113635 -0.0309567 -0.0152695 0.0192449 0.0214816 -0.0206069 -0.0132222 -0.00603722 -0.0670929 0.0296369 0.0877026 -0.0523429
internal_count=872038 638425 233613 134762 512165 492536 126260 108952 115131 17308 292563 8365 98851
shrinkage=0.0426706


Tree=53
num_leaves=14
num_cat=0
split_feature=14 0 0 23 32 25 16 30 26 22 13 30 21
split_gain=284.533 152.889 75.5227 67.574 61.0657 44.4016 40.6915 33.6044 38.5032 31.2083 29.4151 28.229 26.4569
threshold=20.145405274949379 45.000000000000007 33.000000000000007 0.8221788847947421 1.5000000000000002 661.25000000000011 193.08389639639643 1.0000000180025095e-35 1.4039607190900634 302.25000000000006 35.317677975046927 1.0000000180025095e-35 1.5000000000000002
decision_type=2 2 2 2 2 2 2 2 2 2 2 2 2
left_child=2 3 4 11 9 -5 -3 10 -9 -1 -8 -2 -7
right_child=1 6 -4 5 -6 12 7 8 -10 -11 -12 -13 -14
leaf_value=-0.0028113132408545262 -4.8614004366609612e-05 -0.0019981451052020235 -0.0024734011465473633 0.00050938495901625344 -0.0028937966622399609 0.0023734289995864495 -0.0010931112991907201 -0.00073077292352537605 -0.005077440638917287 -0.00021396038095873764 0.0004472374082322668 -0.0022666905101974685 0.0011688287271802472
leaf_count=9110 44084 35711 72458 201977 21180 39678 33721 11765 5420 111690 68280 13692 203272
internal_value=0 0.010252 -0.0316951 0.0187159 -0.0182886 0.0228939 -0.017217 -0.00834505 -0.0492535 -0.00960467 -0.00145285 -0.0134581 0.0320024
internal_count=872038 657600 214438 502703 141980 444927 154897 119186 17185 120800 102001 57776 242950
shrinkage=0.0426706


Tree=54
num_leaves=14
num_cat=0
split_feature=16 13 0 9 13 20 1 30 1 2 16 21 26
split_gain=263.165 115.759 70.7871 49.5361 62.7494 38.031 34.6005 33.4879 36.5584 32.4404 29.7441 27.8827 26.1048
threshold=203.25978191816208 26.257343492183818 33.000000000000007 0.95211107006921814 67.539324928559964 0.47464602951980234 134.50000000000003 1.0000000180025095e-35 691.50000000000011 13.530931122448981 237.99625430958923 14.500000000000002 1.7260260379455428
decision_type=2 2 2 2 2 2 2 2 2 2 2 2 2
left_child=3 6 5 -1 9 -3 -2 8 -4 -5 -7 -8 -9
right_child=1 2 7 4 -6 10 11 12 -10 -11 -12 -13 -14
leaf_value=-0.0023043751606702241 -0.0039611049113277737 -0.0033283125928438169 -0.00056620301091819 -0.0013895802679633773 0.0057964788031179904 0.00084777591689050075 -0.00081414210955113001 -0.00077528440298593152 0.00065833047754754528 -0.00011403937057402241 0.0019080706471883209 -0.0075117343100621946 -0.0041895539478375562
leaf_count=59633 8396 3716 71568 111635 2530 314890 44938 20928 116905 53800 56874 1161 5064
internal_value=0 0.0103111 0.0143846 -0.0292443 -0.0204538 0.0226631 -0.0337863 -0.000109377 0.00453108 -0.0228441 0.0236693 -0.0230327 -0.0337582
internal_count=872038 644440 589945 227598 167965 375480 54495 214465 188473 165435 371764 46099 25992
shrinkage=0.0426706


Tree=55
num_leaves=14
num_cat=0
split_feature=16 20 29 16 17 17 11 17 16 30 11 9 23
split_gain=247.988 95.0387 61.5993 61.5203 51.3208 49.7352 41.478 38.055 37.5968 34.2481 29.8525 29.7907 27.4748
threshold=222.2488171355499 0.7450369552959154 0.15918280514046301 180.2948092024964 70.594498462837009 44.020367315145087 0.86250142987874645 100.95286870959625 239.23773493665891 1.0000000180025095e-35 0.71345345830639961 0.96330421596810367 1.7898499845467444
decision_type=2 2 2 2 2 2 2 2 2 2 2 2 2
left_child=1 11 -2 6 5 -5 7 -3 9 -4 -6 -1 -7
right_child=2 3 8 4 10 12 -8 -9 -10 -11 -12 -13 -14
leaf_value=-0.0027142521465979858 -0.0040035136685909025 -0.0020654697455230646 0.00082662069335239668 0.0042244453166619201 0.0037667605093176693 -0.00022477086051357769 0.0022473084104982807 0.002192563895221827 0.0019074634707146668 -0.00061174452274140214 -0.00073825748591173519 -0.0011740312730877513 -0.0028072007182729387
leaf_count=42706 4821 60793 301640 4508 9472 292067 4969 4078 52849 33487 3734 49215 7699
internal_value=0 -0.0153768 0.0185171 -0.00851645 -0.00260535 -0.00525411 -0.0353872 -0.042132 0.0199131 0.0160039 0.0584235 -0.0442837 -0.00682194
internal_count=872038 479241 392797 387320 317480 304274 69840 64871 387976 335127 13206 91921 299766
shrinkage=0.0426706


Tree=56
num_leaves=14
num_cat=0
split_feature=14 0 13 0 30 32 29 14 14 13 22 30 9
split_gain=230.814 126.574 66.1457 65.0753 48.8555 48.2507 37.1541 37.8134 36.6317 32.1186 27.917 25.5341 25.4852
threshold=20.004960194116411 48.000000000000007 30.969601336355876 33.000000000000007 1.0000000180025095e-35 1.5000000000000002 1.5298249289149168 49.824998216597564 73.661613717268139 35.100963875530589 193.50000000000003 1.0000000180025095e-35 0.97347687010928718
decision_type=2 2 2 2 2 2 2 2 2 2 2 2 2
left_child=3 2 -2 5 8 10 9 11 -4 -3 -1 -8 -12
right_child=1 6 4 -5 -6 -7 7 -9 -10 -11 12 -13 -14
leaf_value=-0.0049080123159531801 -0.00033297267406082485 -0.001652970570966694 0.00095695636529612236 -0.0023039230971340446 -0.00030684183101879065 -0.0025945379605235254 -0.0027503092060722949 0.0007035928803892171 0.0032260298035286994 -2.5113189757451729e-06 -0.0007138463724571121 -0.007049979849708116 0.00064499438241489269
leaf_count=2413 102509 34544 385375 69752 56561 20851 7966 3995 13405 56718 76957 3675 37317
internal_value=0 0.00910604 0.0151465 -0.0291131 0.0203131 -0.0164953 -0.0224162 -0.0674565 0.0242141 -0.0146995 -0.0085777 -0.0962652 -0.00633005
internal_count=872038 664748 557850 207290 455341 137538 106898 15636 398780 91262 116687 11641 114274
shrinkage=0.0426706


Tree=57
num_leaves=14
num_cat=0
split_feature=16 33 1 16 17 32 8 30 0 14 10 17 11
split_gain=213.583 94.9628 58.9147 43.9834 47.9778 45.2811 41.3483 41.2604 40.0288 34.7257 32.0701 31.181 30.519
threshold=203.66345223015833 2.5000000000000004 655.50000000000011 153.65357145376441 40.802624256334774 1.5000000000000002 123.50000000000001 1.0000000180025095e-35 29.500000000000004 67.725427974892497 0.93503887752503234 77.299733560088455 0.70002413127413143
decision_type=2 2 2 2 2 2 2 2 2 2 2 2 2
left_child=3 2 6 9 5 -5 -2 -4 -8 -1 11 -6 -13
right_child=1 -3 7 4 10 -7 8 -9 -10 -11 -12 12 -14
leaf_value=-0.0027189920698277846 -0.0054737939442020579 -0.0021660553757489394 0.0010126155174227942 0.0026690545320147601 -0.0010869328924575259 -0.002733092709934013 0.00047361225386677059 -0.00039275641989677297 -0.00065687439904406559 0.0058707303090292 -0.003630470032171713 0.0027305467983613921 -0.0019642522001020123
leaf_count=34143 2490 25172 326316 12022 160266 3693 153226 43056 90839 879 8417 7792 3727
internal_value=0 0.00944099 0.0119014 -0.0260273 -0.0201924 0.0327991 -6.9373e-05 0.0198919 0.00123866 -0.0586681 -0.0248137 -0.0218607 0.0283927
internal_count=872038 641099 615927 230939 195917 15715 246555 369372 244065 35022 180202 171785 11519
shrinkage=0.0426706


Tree=58
num_leaves=14
num_cat=0
split_feature=26 0 25 32 11 25 9 19 16 21 25 16 23
split_gain=200.14 109.177 53.3553 45.1785 52.1154 40.1869 35.4789 33.9676 29.0717 22.592 28.2813 23.4742 22.6457
threshold=0.76606183154451124 40.500000000000007 661.25000000000011 1.5000000000000002 0.83038356092645815 641.25000000000011 0.9573731951561032 183.25000000000003 158.70087199542681 1.5000000000000002 6439.7500000000009 213.53400464856443 1.5558173950586609
decision_type=2 2 2 2 2 2 2 2 2 2 2 2 2
left_child=3 2 7 4 8 -3 -7 -2 -1 11 -11 -4 -12
right_child=1 5 9 -5 -6 6 -8 -9 -10 10 12 -13 -14
leaf_value=-0.002896583079535651 -0.0072910436879560928 -0.0012872454167191197 0.0052717281829238703 -0.0023533093302170985 0.00010481668078487508 -0.0010898185110019688 0.00046731520822879081 0.00031064179227926889 -0.0010755373906507369 0.0010493808262254406 -0.011413539289607165 0.0017961578463445459 0.0015783316674708346
leaf_count=20232 1075 72153 4042 45255 65065 38793 85062 244378 75629 190949 598 28394 413
internal_value=0 0.00841827 0.0166888 -0.0272367 -0.0193868 -0.011407 -0.000478066 0.00649977 -0.0342128 0.027834 0.0237094 0.0522436 -0.143103
internal_count=872038 665857 469849 206181 160926 196008 123855 245453 95861 224396 191960 32436 1011
shrinkage=0.0426706


Tree=59
num_leaves=14
num_cat=0
split_feature=14 0 0 20 16 32 30 26 22 21 11 16 9
split_gain=188.998 108.277 53.745 51.3188 44.6173 33.1141 31.0441 32.2507 31.8921 30.8606 26.4658 25.2135 25.4037
threshold=19.781103955889904 35.000000000000007 26.000000000000004 0.56161037307169115 193.08389639639643 1.5000000000000002 1.0000000180025095e-35 1.7572534934620352 544.25000000000011 1.5000000000000002 0.80303163890714602 224.6533524904215 0.9387918940185328
decision_type=2 2 2 2 2 2 2 2 2 2 2 2 2
left_child=2 3 5 -2 -3 -1 8 -8 -6 -5 -4 12 -11
right_child=1 4 10 9 6 -7 7 -9 -10 11 -12 -13 -14
leaf_value=-0.00015656244777455315 -0.0027907275436280772 -0.0015109412939335503 -0.0027038203812512268 0.0020188216201349929 -0.0012670137208710354 -0.0022893277079405689 -0.00070454346675779048 -0.0044342397458283838 0.00034677701454636643 -0.0010466918140559142 -0.0012662457965105119 0.0010058532897893504 0.0005202236588022944
leaf_count=86467 7242 48276 41416 36390 25900 15655 21976 5225 160280 22125 53359 220871 126856
internal_value=0 0.00796376 -0.0272473 0.0180379 -0.00795593 -0.0113312 -0.00174476 -0.0333011 0.00286563 0.0195254 -0.0443972 0.0167914 0.0067382
internal_count=872038 675141 196897 413484 261657 102122 213381 27201 186180 406242 94775 369852 148981
shrinkage=0.0426706


Tree=60
num_leaves=14
num_cat=0
split_feature=13 16 9 11 17 0 11 32 16 10 21 20 1
split_gain=175.157 111.513 76.4874 67.594 39.1264 32.7427 30.0301 31.7181 28.7549 32.3355 27.7753 25.9637 23.837
threshold=26.257343492183818 223.14604152367883 0.95462878940646645 0.69005474997016358 65.462685217773057 24.000000000000004 0.82221024904214568 1.5000000000000002 245.85629154181942 0.98756596388109963 14.500000000000002 0.58174242292762235 697.50000000000011
decision_type=2 2 2 2 2 2 2 2 2 2 2 2 2
left_child=6 2 5 4 -4 11 -1 10 -3 -10 -8 -2 -5
right_child=1 8 3 12 -6 -7 7 -9 9 -11 -12 -13 -14
leaf_value=-0.0020847282756294161 -0.0043628847207379607 0.00072826007497485867 0.0009246278119407976 -0.00040999179284349313 0.0042504552940279333 -0.0018191655332757313 -0.00011280247836295706 -0.0027144227132345632 0.0034900571923302615 -0.018195942473252524 -0.0070164550586668591 4.0932003944817211e-05 0.00045868799020303344
leaf_count=67509 2614 348250 18449 167074 9895 65960 46286 12156 8796 127 1086 36125 87711
internal_value=0 0.00575458 -0.00598642 0.00255351 0.0488788 -0.0290803 -0.0344188 -0.0180456 0.0185033 0.0745573 -0.00635258 -0.00600473 -0.00260002
internal_count=872038 745001 387828 283129 28344 104699 127037 59528 357173 8923 47372 38739 254785
shrinkage=0.0426706


Tree=61
num_leaves=14
num_cat=0
split_feature=16 30 8 9 13 25 21 2 0 16 17 29 23
split_gain=163.461 76.1714 61.6727 40.1657 49.7701 37.028 37.7467 33.8608 31.2189 28.1077 29.9721 26.8337 33.6532
threshold=202.03077952836992 1.0000000180025095e-35 692.50000000000011 0.9387918940185328 69.337630576909064 255.25000000000003 3.5000000000000004 47.693979933110377 29.500000000000004 149.72507309941523 45.137074463774489 1.8646468766432538 0.86260205774975118
decision_type=2 2 2 2 2 2 2 2 2 2 2 2 2
left_child=3 2 5 -1 9 6 -2 11 -7 -5 -11 12 -3
right_child=1 7 -4 4 -6 8 -8 -9 -10 10 -12 -13 -14
leaf_value=-0.0022723313589761455 0.00012006577910641783 -0.0020165358070319442 0.00091230472697253671 -0.0024216009767552941 0.0043005019345278049 0.00043566223573180204 -0.013649364204234312 0.00060504962728008592 -0.00054774573879910586 0.00060272181324906463 -0.00093613084393683401 -0.0039860501439741907 1.400696412178216e-05
leaf_count=38098 723 30907 317207 18472 3488 151889 727 22311 95880 28036 129456 6218 28626
internal_value=0 0.00787748 0.0121312 -0.0237631 -0.0175024 0.000359041 -0.158977 -0.0194829 0.00129151 -0.0198471 -0.0155187 -0.0309054 -0.0243766
internal_count=872038 654488 566426 217550 179452 249219 1450 88062 247769 175964 157492 65751 59533
shrinkage=0.0426706


Tree=62
num_leaves=14
num_cat=0
split_feature=14 0 13 0 30 29 14 14 32 13 22 22 30
split_gain=152.508 92.9179 48.6222 47.9227 34.7667 31.8092 34.1512 28.745 27.778 24.7336 24.4909 22.4783 21.2811
threshold=20.004960194116411 48.000000000000007 30.565184818635249 29.500000000000004 1.0000000180025095e-35 1.5298249289149168 49.824998216597564 73.661613717268139 1.5000000000000002 35.100963875530589 322.75000000000006 3797.7500000000005 1.0000000180025095e-35
decision_type=2 2 2 2 2 2 2 2 2 2 2 2 2
left_child=3 2 -2 8 7 9 12 -4 10 -3 -1 -12 -7
right_child=1 5 4 -5 -6 6 -8 -9 -10 -11 11 -13 -14
leaf_value=-0.0021890511525145232 -0.00035443506130246392 -0.0014313673911372198 0.00078558657377013666 -0.0017902219395075217 -0.00027203754214974403 -0.0025482520599463174 0.00078276871617963088 0.002794366873457404 -0.0020100336959272759 1.5642384896543769e-05 4.6680926161091477e-05 -0.012842725688599163 -0.0064770740998396515
leaf_count=10195 93212 34665 393946 84942 57161 7963 4003 13412 18183 56668 93775 247 3666
internal_value=0 0.00735939 0.0125372 -0.0237047 0.0167197 -0.0196385 -0.0613218 0.0199605 -0.01104 -0.0125042 -0.00474748 0.000300438 -0.0887449
internal_count=872038 664696 557731 207342 464519 106965 15632 407358 122400 91333 104217 94022 11629
shrinkage=0.0426706


Tree=63
num_leaves=14
num_cat=0
split_feature=16 13 0 9 13 20 30 28 26 27 8 21 16
split_gain=143.262 65.7019 48.2624 37.1654 46.9245 23.6814 22.2075 26.8762 23.2074 21.89 20.5671 23.7879 19.4461
threshold=202.03077952836992 26.257343492183818 29.500000000000004 0.95526123865771451 67.539324928559964 0.49879662013083992 1.0000000180025095e-35 684.25000000000011 1.4278110280837202 36.500000000000007 140.50000000000003 14.500000000000002 153.65357145376441
decision_type=2 2 2 2 2 2 2 2 2 2 2 2 2
left_child=3 10 5 -1 9 -3 7 -4 -8 12 -2 -12 -5
right_child=1 2 6 4 -6 -7 8 -9 -10 -11 11 -13 -14
leaf_value=-0.0018068715507933537 -0.0030052469272535171 -0.0025727061166368618 -0.00033097172652615575 -0.0020514948729238001 0.0057434010709668821 0.00082498923076996925 -0.00033558621987803908 0.00058751044531426514 -0.0028997175871670342 0.0022191686149510676 -0.00058399419146117212 -0.0067286711686795836 -0.00057880236955414359
leaf_count=64936 8563 3778 108349 18731 2102 328494 23789 124848 8806 4608 46736 1176 127122
internal_value=0 0.00731536 0.0103941 -0.0223081 -0.0137799 0.0184285 0.000350119 0.0037675 -0.0240991 -0.0158528 -0.0252883 -0.0172207 -0.0179967
internal_count=872038 654539 598064 217499 152563 332272 265792 233197 32595 150461 56475 47912 145853
shrinkage=0.0426706


Tree=64
num_leaves=14
num_cat=0
split_feature=14 0 23 0 22 29 14 13 29 31 9 17 7
split_gain=133.748 85.8392 45.3483 42.0112 31.3962 27.0463 29.0841 29.0528 25.895 22.5919 21.9505 21.6563 25.2924
threshold=19.704490273367014 46.500000000000007 0.8221788847947421 33.000000000000007 554.75000000000011 1.4660877709853601 49.824998216597564 31.803936108521246 0.1831701599050449 1.5000000000000002 0.96196401099416529 77.299733560088455 -56.967945098876946
decision_type=2 2 2 2 2 2 2 2 2 2 2 2 2
left_child=3 2 -2 8 -4 7 9 -3 -1 -7 -10 -6 -13
right_child=1 5 4 -5 11 6 -8 -9 10 -11 -12 12 -14
leaf_value=-0.0023712443266970004 -0.00052386707728546288 -0.0016380007727542021 1.6306266104268625e-05 -0.0018815458335229209 0.00079533877634488457 -0.0019596535835568968 0.00077348338843256253 -3.7399053714386955e-05 -0.001059535302456352 -0.0054927748854932817 0.00013534071265813738 -0.001828950439369395 0.0038846050025752228
leaf_count=12769 66742 27259 106187 64398 362551 11599 4951 85138 46938 4603 69358 1721 7824
internal_value=0 0.00657381 0.0121413 -0.0232329 0.0155487 -0.0161473 -0.048951 -0.0099737 -0.0128237 -0.0694487 -0.00813021 0.0198769 0.0668945
internal_count=872038 678575 545025 193463 478283 133550 21153 112397 129065 16202 116296 372096 9545
shrinkage=0.0426706


Tree=65
num_leaves=14
num_cat=0
split_feature=23 0 22 9 1 29 9 29 25 19 29 18 0
split_gain=125.359 83.5034 40.5363 39.7624 38.9841 32.8926 28.1809 26.9092 25.9107 23.4278 28.7647 21.4215 20.761
threshold=0.80500115794349247 35.000000000000007 537.25000000000011 0.96196401099416529 309.50000000000006 1.0146271477241087 0.9573731951561032 0.054889041222998834 623.25000000000011 3526.5000000000005 1.5122325303007633 5.5000000000000009 51.000000000000007
decision_type=2 2 2 2 2 2 2 2 2 2 2 2 2
left_child=3 4 -3 -1 5 11 9 -6 -9 10 -4 -2 -12
right_child=1 2 6 -5 7 -7 -8 8 -10 -11 12 -13 -14
leaf_value=-0.0016805641546158237 -0.0014349309653899748 -0.0014709737858960602 -0.00069877018869169078 -0.00045422283525048011 -0.016370332516385137 -0.014735736087298714 0.00023553107593066573 0.00031980528657674009 0.0010024652355832948 0.00064804281735979133 -0.0020117382415183386 -0.021216410266471194 -0.0059329461780265541
leaf_count=78610 7602 46858 30170 124198 168 369 145121 176825 236811 13524 8163 101 3518
internal_value=0 0.00659562 -0.00799243 -0.0217846 0.0151489 -0.053678 -0.0018037 0.0164915 0.016654 -0.0209962 -0.0326888 -0.0397065 -0.074822
internal_count=872038 669230 247354 202808 421876 8072 200496 413804 413636 55375 41851 7703 11681
shrinkage=0.0426706


Tree=66
num_leaves=14
num_cat=0
split_feature=16 9 11 13 17 29 16 0 16 6 17 8 0
split_gain=116.551 56.7092 67.3453 39.5512 33.809 32.5533 29.4264 29.342 26.9608 32.5101 19.7035 19.5853 19.5763
threshold=223.14604152367883 0.95557007827751894 0.69005474997016358 31.803936108521246 65.462685217773057 0.15918280514046301 177.21473375806201 43.000000000000007 243.27639604868969 0.12994275515243339 110.47614441227775 2640.5000000000005 29.500000000000004
decision_type=2 2 2 2 2 2 2 2 2 2 2 2 2
left_child=1 6 4 7 -3 -2 10 -4 12 -10 -1 -12 -7
right_child=5 2 3 -5 -6 8 -8 -9 9 -11 11 -13 -14
leaf_value=-0.0025339050046613489 -0.0029885110395428292 0.00075548735838078295 -0.00040994148334899308 0.00014745077045129413 0.0037812726324162596 0.00074637037010023561 -0.00081661701475744359 -0.0016133597211327184 -0.0141734441804412 0.002362168046547927 -0.0028297279733251017 0.0059834354651736501 6.6377015324983719e-05
leaf_count=31689 4632 19915 120353 162555 10151 238129 96484 53196 219 18876 839 1014 113986
internal_value=0 -0.0100675 -0.00369696 -0.0077531 0.0416461 0.0132777 -0.0280076 -0.0182517 0.0143173 0.0509138 -0.0535221 0.0467071 0.0123327
internal_count=872038 496196 366170 336104 30066 375842 130026 173549 371210 19095 33542 1853 352115
shrinkage=0.0426706


Tree=67
num_leaves=14
num_cat=0
split_feature=13 0 20 16 11 32 18 30 28 26 17 30 21
split_gain=112.123 75.6638 40.0399 39.8566 24.1561 24.9408 24.6825 22.6482 28.0666 23.5803 20.2523 19.3427 18.3298
threshold=26.257343492183818 29.500000000000004 0.51972257353026219 196.62172668018727 0.83335960842604695 1.5000000000000002 4.5000000000000009 1.0000000180025095e-35 684.25000000000011 1.4155124684705473 34.031405552848206 2.5000000000000004 9.5000000000000018
decision_type=2 2 2 2 2 2 2 2 2 2 2 2 2
left_child=4 2 -2 -3 -1 6 -6 8 -5 -9 -4 -11 -10
right_child=1 3 10 7 5 -7 -8 9 12 11 -12 -13 -14
leaf_value=-0.0016507100908357546 -0.0025602397157466093 -0.0010927179170330465 0.0019928888751373688 -0.0003392625272987774 0.00023140528812467693 -0.0022476523781437682 -0.0057767021556783416 -0.00033905338768774418 0.00043555806313483233 -0.0045143871934705737 0.00061035923476656653 -0.00068560651862425092 0.0025020020886715958
leaf_count=75757 7049 77570 20408 117751 39054 11057 1286 26208 124991 5366 352854 4350 8337
internal_value=0 0.00479755 0.0146654 -0.00549628 -0.0273321 -0.0105984 0.00093443 -6.05045e-05 0.00329966 -0.0235453 0.0160754 -0.0656233 0.0132356
internal_count=872038 744884 380311 364573 127154 51397 40340 287003 251079 35924 373262 9716 133328
shrinkage=0.0426706


Tree=68
num_leaves=14
num_cat=0
split_feature=13 0 20 17 26 1 25 9 17 14 0 11 32
split_gain=102.721 70.5503 53.6242 33.2874 25.4019 25.2255 30.5151 26.9891 32.0617 31.1343 22.3389 21.9901 23.3532
threshold=26.257343492183818 48.000000000000007 0.51972257353026219 34.031405552848206 1.5145356507772616 718.50000000000011 944.25000000000011 0.96217185027311258 67.838207905884445 22.822455207128598 29.500000000000004 0.83335960842604695 1.5000000000000002
decision_type=2 2 2 2 2 2 2 2 2 2 2 2 2
left_child=11 2 -2 -4 -3 6 10 9 -9 -7 -5 -1 -13
right_child=1 4 3 5 -6 7 -8 8 -10 -11 -12 12 -14
leaf_value=-0.0015888607325844292 -0.00238559279280305 -0.0005516672019815652 0.00188730884333732 0.00044668768534788042 -0.0024950669064668887 -0.0017610315497548271 -0.0023770600494188786 0.00095581310489082684 0.0043454877529614175 0.00044259647437220549 -0.00030683131871348489 3.0157933986061478e-05 -0.002188081328488997
leaf_count=75751 12666 100679 26895 189627 13942 12798 8869 126127 5294 132922 115128 40343 10997
internal_value=0 0.00435283 0.00850272 0.00982353 -0.0184683 0.00825717 0.00211448 0.0152085 0.0255998 0.00583682 0.00379721 -0.0264065 -0.0104284
internal_count=872038 744947 630326 617660 114621 590765 313624 277141 131421 145720 304755 127091 51340
shrinkage=0.0426706


Tree=69
num_leaves=14
num_cat=0
split_feature=14 0 0 16 20 30 22 23 21 9 30 25 22
split_gain=96.6239 58.9407 37.2698 31.1323 28.7529 23.9735 27.9916 23.7993 20.8029 20.2777 20.1108 19.1223 20.0876
threshold=20.004960194116411 29.500000000000004 26.000000000000004 188.82892684464031 0.55164694235701761 1.0000000180025095e-35 537.25000000000011 1.3915904239645249 1.5000000000000002 0.95429719693815573 2.5000000000000004 863.25000000000011 193.50000000000003
decision_type=2 2 2 2 2 2 2 2 2 2 2 2 2
left_child=2 4 11 -3 -2 6 -5 -7 -6 -4 -9 12 -1
right_child=1 3 9 5 8 7 -8 10 -10 -11 -12 -13 -14
leaf_value=-0.0043384970043244186 -0.0025024605260628081 -0.0011991912851040366 -0.0025439527016048683 -0.00096903163359962543 0.0017940412120753201 -0.00046111730244335181 0.00034069193662164283 -0.0051134960650339846 0.0006020506190600952 -0.0010717829939079862 -0.00058586603847491498 -0.0020682877667133359 1.9937398579571379e-05
leaf_count=1965 5155 44209 21750 34365 29300 29165 219419 4193 295691 78596 3112 9553 95565
internal_value=0 0.00597378 -0.0187487 -0.0033825 0.0154524 0.000382786 0.00382797 -0.0235912 0.0166278 -0.0325957 -0.0746341 -0.00577292 -0.00159067
internal_count=872038 664609 207429 334463 330146 290254 253784 36470 324991 100346 7305 107083 97530
shrinkage=0.0426706


Tree=70
num_leaves=14
num_cat=0
split_feature=16 9 11 13 12 29 0 21 17 27 16 10 13
split_gain=89.6208 49.2086 58.5526 33.3952 29.693 26.2397 25.5496 22.2267 21.5588 25.5045 21.3173 24.8398 19.6505
threshold=223.65750557209435 0.94110573970098355 0.66383579757182365 31.803936108521246 187.2253967444162 0.15918280514046301 43.000000000000007 1.5000000000000002 65.462685217773057 16.500000000000004 247.23929127352594 0.98756596388109963 52.016727823290459
decision_type=2 2 2 2 2 2 2 2 2 2 2 2 2
left_child=1 7 4 6 8 -2 -4 -1 -3 -10 -7 -12 -9
right_child=5 2 3 -5 -6 10 -8 12 9 -11 11 -13 -14
leaf_value=0.0003386147659959985 -0.0027202639314427954 0.00038227415127910778 -0.00040872570739733941 6.1955099994745217e-05 0.0062397421787650231 0.00050537524355951616 -0.001476802388258691 -0.0011760466523547837 -0.00045181204639978051 0.0045129968932128379 0.0034089778484810616 -0.025669387842655884 -0.0027781478279505886
leaf_count=11850 4532 17153 141118 202027 2384 355723 57352 45218 2727 6094 5654 54 20152
internal_value=0 -0.00867386 -0.00448956 -0.00759882 0.0394221 0.0118683 -0.0168118 -0.0319121 0.0296188 0.0697936 0.0128165 0.0734437 -0.0391355
internal_count=872038 506075 428855 400497 28358 365963 198470 77220 25974 8821 361431 5708 65370
shrinkage=0.0426706


Tree=71
num_leaves=14
num_cat=0
split_feature=16 13 0 11 32 17 0 22 14 23 30 28 30
split_gain=84.362 50.5055 30.6322 28.9745 28.665 26.8748 25.7643 26.1296 25.3933 24.5381 24.0188 22.6549 21.0032
threshold=181.27869931542918 30.141764928847937 29.500000000000004 0.82581613871936466 1.5000000000000002 100.95286870959625 40.500000000000007 193.50000000000003 18.55134488676401 1.4030605631034672 1.0000000180025095e-35 411.25000000000006 2.5000000000000004
decision_type=2 2 2 2 2 2 2 2 2 2 2 2 2
left_child=3 4 -3 5 6 -1 7 11 -4 -10 -11 -2 -12
right_child=1 2 8 -5 -6 -7 -8 -9 9 10 12 -13 -14
leaf_value=-0.0016874060668255388 -0.010425706289196928 0.00063696009087615925 -0.0018831621332877197 0.00022010906467758112 -0.0017585286668008817 0.0014259672780287697 -0.0013153537888564047 0.00013530386691937686 0.00026484654096332481 -0.00035913464547424843 -0.0049326231434065537 -0.00011263681740022312 -0.0003535174896208208
leaf_count=78756 802 309753 12173 23036 27227 5394 32022 110035 236973 27553 4493 751 3070
internal_value=0 0.00369025 0.00804811 -0.0262657 -0.0114624 -0.034868 -0.00582222 0.00135296 0.000551949 0.00255109 -0.0221185 -0.127453 -0.0720369
internal_count=872038 764852 594015 107186 170837 84150 143610 111588 284262 272089 35116 1553 7563
shrinkage=0.0426706


Tree=72
num_leaves=14
num_cat=0
split_feature=13 0 20 29 17 26 4 15 2 18 11 32 9
split_gain=79.7362 57.4791 43.4162 28.3139 30.4068 21.7206 21.461 20.8613 20.2341 20.1724 22.0336 22.4346 19.932
threshold=26.257343492183818 48.000000000000007 0.51972257353026219 0.093727122986822856 34.031405552848206 1.5929545937100276 47.171993255615241 0.2603012211615427 25.505319148936174 4.5000000000000009 0.82221024904214568 1.5000000000000002 0.95620699954412325
decision_type=2 2 2 2 2 2 2 2 2 2 2 2 2
left_child=9 2 -2 -4 7 -3 -7 -5 12 10 -1 -12 -6
right_child=1 5 3 4 8 6 -8 -9 -10 -11 11 -13 -14
leaf_value=-0.0014502543425477367 -0.0021487909163233954 -0.00051605909761907084 -0.0075420168918667978 -0.0016495764492732655 -0.00045383217479193796 -0.003484879647936276 0.0006424369404925001 0.002208625787750074 0.00062458310486809962 -0.0050639558850990316 0.00011402298529185174 -0.0019609544056613734 0.00029522374151938572
leaf_count=67053 12695 102554 822 2859 85216 8979 3081 23740 236503 2180 45980 11954 268422
internal_value=0 0.00378458 0.00753064 0.00872063 0.00896783 -0.0168148 -0.0569587 0.0420413 0.00747713 -0.0233091 -0.0216457 -0.00736161 0.0026886
internal_count=872038 744871 630257 617562 616740 114614 12060 26599 590141 127167 124987 57934 353638
shrinkage=0.0426706


Tree=73
num_leaves=14
num_cat=0
split_feature=14 0 0 20 29 14 13 25 25 21 21 25 17
split_gain=75.8754 46.2353 35.5176 31.0364 24.3322 24.3737 23.6837 22.1847 20.9181 40.0067 18.0082 31.9375 23.5292
threshold=20.538064546478626 49.500000000000007 40.500000000000007 0.80193705736128706 1.5298249289149168 49.824998216597564 31.803936108521246 869.25000000000011 255.25000000000003 3.5000000000000004 1.5000000000000002 5768.7500000000009 60.074342653946708
decision_type=2 2 2 2 2 2 2 2 2 2 2 2 2
left_child=2 3 7 -2 -3 -6 -5 8 9 -1 12 -12 -8
right_child=1 4 -4 6 5 -7 10 -9 -10 -11 11 -13 -14
leaf_value=-8.6752915480468369e-05 -0.00081074688878456612 -0.00039508625237254729 -0.0016240460506031491 -0.0001326092746128772 -0.0035667770505922935 0.00076282060797975421 0.0011290765403155012 -0.0018843030963379163 -0.0001602167338095459 -0.010851607982576093 0.0005350005670799984 -0.00483438759013114 0.0048931008579184932
leaf_count=1766 37043 68206 53086 97285 9190 3189 44937 16044 162790 976 372256 2028 3242
internal_value=0 0.00572585 -0.015307 0.00896603 -0.0166618 -0.0574497 0.0109592 -0.00865491 -0.00521368 -0.0918301 0.0141986 0.0118561 0.0323961
internal_count=872038 637376 234662 556791 80585 12379 519748 181576 165532 2742 422463 374284 48179
shrinkage=0.0426706


Tree=74
num_leaves=14
num_cat=0
split_feature=16 30 8 11 25 21 2 29 0 17 21 20 15
split_gain=72.1373 44.5841 42.0187 27.0029 24.6034 38.6843 23.2666 29.8545 22.4736 21.8671 21.3935 19.7206 19.4527
threshold=181.27869931542918 1.0000000180025095e-35 689.50000000000011 0.82581613871936466 255.25000000000003 3.5000000000000004 44.057565789473692 1.8646468766432538 29.500000000000004 100.95286870959625 15.500000000000002 0.83336539694754408 0.2603012211615427
decision_type=2 2 2 2 2 2 2 2 2 2 2 2 2
left_child=3 2 4 9 5 -2 7 11 -6 -1 -10 -3 -4
right_child=1 6 12 -5 8 -7 -8 -9 10 -11 -12 -13 -14
leaf_value=-0.0015713324218310032 0.00043345343289662744 -0.0014266932479704839 -0.0011842384448336101 0.00025847531946107915 0.00026274643859995085 -0.011374926434437502 0.00045030841955365268 -0.0036625426279312512 -0.00040880124533362438 0.0012315680892690931 -0.0050799348160383995 -2.6750575976183391e-05 0.00065693783737870882
leaf_count=78654 1153 38808 10783 23028 176741 899 25841 7104 130443 5417 1810 34706 336651
internal_value=0 0.00342836 0.00649807 -0.024282 -0.00194448 -0.111081 -0.0155587 -0.0239284 -0.00121971 -0.0325923 -0.0110786 -0.0179463 0.0140564
internal_count=872038 764939 658480 107099 311046 2052 106459 80618 308994 84071 132253 73514 347434
shrinkage=0.0426706


Tree=75
num_leaves=14
num_cat=0
split_feature=16 29 0 22 11 30 23 17 25 21 12 9 26
split_gain=65.8091 40.6572 37.6754 26.4042 24.5136 24.363 20.7146 20.5714 19.4888 30.2733 19.4638 15.7619 15.7424
threshold=181.27869931542918 0.1831701599050449 29.500000000000004 537.25000000000011 0.82581613871936466 1.0000000180025095e-35 1.3915904239645249 100.95286870959625 255.25000000000003 3.5000000000000004 173.62184335382292 0.88719841872297367 0.93145937457682504
decision_type=2 2 2 2 2 2 2 2 2 2 2 2 2
left_child=4 -2 8 -4 7 -5 -7 11 9 -3 -6 -1 -9
right_child=1 2 3 5 10 6 -8 12 -10 -11 -12 -13 -14
leaf_value=-0.0032851382189855081 -0.0022095065834407267 0.0012488364672936538 -0.00094237726792061212 0.00019023409595813272 7.5241604989581539e-06 -0.0005128771710863156 -0.0031197266598631023 -0.0012821592462280967 0.00048154537795566047 -0.010614618776425278 0.0067900078830535979 -0.001298817696938226 0.0033309523477011967
leaf_count=8111 13187 841 61897 246835 22260 35258 6587 2490 399626 733 798 70481 2934
internal_value=0 0.0032647 0.00423025 -0.00334283 -0.023205 0.000675732 -0.0216363 -0.0311316 0.0108478 -0.100207 0.00567733 -0.0352424 0.0284319
internal_count=872038 764964 751777 350577 107074 288680 41845 84016 401200 1574 23058 78592 5424
shrinkage=0.0426706


Tree=76
num_leaves=14
num_cat=0
split_feature=23 0 9 22 1 29 29 17 7 11 27 16 18
split_gain=61.5502 43.5878 28.4869 24.3203 23.4208 24.632 22.5508 21.3705 27.1195 23.2149 22.0958 24.8394 19.4357
