tree
version=v2
num_class=1
num_tree_per_iteration=1
label_index=0
max_feature_idx=33
objective=regression
feature_names=Column_0 Column_1 Column_2 Column_3 Column_4 Column_5 Column_6 Column_7 Column_8 Column_9 Column_10 Column_11 Column_12 Column_13 Column_14 Column_15 Column_16 Column_17 Column_18 Column_19 Column_20 Column_21 Column_22 Column_23 Column_24 Column_25 Column_26 Column_27 Column_28 Column_29 Column_30 Column_31 Column_32 Column_33
feature_infos=[7:53] [1:325927] [0:40080.375] [0:1] [0:554] [0:900.39019775390625] [0:1] [-90:90] [1:389911] [0.26530612244897961:1] [0:1] [0.14285714285714285:1] [0:3853.0235200658617] [0:1059.5611181807872] [0:582.10542021879837] [0:1] [0:255] [0:124.93532547141068] [1:7] [52:325927] [6.2249252230857579e-06:17.378234903782349] [1:22] [53.5:325927] [6.2249252230857579e-06:25.040078201368523] [1:39] [55:325927] [6.2249252230857579e-06:123.58064516129032] [1:67] [80:325927] [6.2249252230857579e-06:169.26404494382024] [0:3] [1:18] [1:18] [0:3]
tree_sizes=1311 1350 1345 1350 1344 1351 1349 1354 1346 1368 1362 1382 1362 1362 1361 1367 1353 1372 1370 1367 1362 1365 1365 1365 1369 1362 1356 1374 1363 1371 1358 1357 1362 1365 1348 1369 1372 1368 1350 1358 1364 1359 1361 1363 1346 1348 1377 1361 1345 1346 1347 1361 1306 1364 1324 1351 1355 1354 1354 1341 1340 1340

Tree=0
num_leaves=15
num_cat=0
split_feature=16 33 16 16 33 26 23 17 16 16 30 16 29 16
split_gain=22639.7 5328.73 2930.8 2883.1 1065.36 565.407 543.904 462.118 404.075 390.762 385.9 356.516 236.525 218.419
threshold=214.8133177751848 2.5000000000000004 195.27878026736173 228.59129864084193 2.5000000000000004 0.63314749694876171 0.60150702426564506 84.743525659169691 222.04699373100308 234.77188460903372 1.0000000180025095e-35 204.62353101974074 0.055989555343780383 174.01500368080957
decision_type=2 2 2 2 2 2 2 2 2 2 2 2 2 2
left_child=2 3 5 8 11 10 -3 13 -2 -5 -1 -4 -11 -7
right_child=1 6 4 9 -6 7 -8 -9 -10 12 -12 -13 -14 -15
leaf_value=0.5000860038602386 0.53858247720576347 0.4797802742638132 0.51872988254884889 0.55588280301635673 0.48480778701973776 0.4998754027169684 0.51868489923880923 0.53336157890014702 0.5475384480127049 0.47577943448072618 0.48023910138288006 0.52895627293299863 0.56479210530253487 0.51057631242378321
leaf_count=54175 115904 12897 66381 131494 8378 38353 6662 8429 131401 366 15375 111964 123885 59477
internal_value=0 0.133216 -0.192006 0.153127 -0.104761 -0.284667 -0.378885 -0.238787 0.0761412 0.227572 -0.354763 -0.0883891 0.267784 -0.258144
internal_count=885141 522609 362532 503050 186723 175809 19559 106259 247305 255745 69550 178345 124251 97830
shrinkage=1


Tree=1
num_leaves=15
num_cat=0
split_feature=29 17 32 11 20 14 17 12 17 12 20 2 32 2
split_gain=10683 5132.4 3199.83 904.303 687.034 618.321 547.757 546.449 506.486 262.617 238.366 227.089 200.488 214.201
threshold=0.75941251395270815 48.737861965068532 1.5000000000000002 0.85731858621315749 0.64507907843765488 20.675116867137231 52.298292120182715 75.716251762801377 44.154149332709693 104.74568901432424 0.56618233417769026 25.300943396226419 1.5000000000000002 17.261387163561078
decision_type=2 2 2 2 2 2 2 2 2 2 2 2 2 2
left_child=2 4 3 7 -2 -6 -3 -1 -7 -5 -4 -9 13 -8
right_child=1 6 10 9 5 8 12 11 -10 -11 -12 -13 -14 -15
leaf_value=-0.025729088233284295 -0.024856450063829232 0.0025903258819988434 -0.05098343196391146 -0.0045887703563840749 0.0036255060808799895 0.022755330564411307 -0.0090462537222535527 -0.015294114591251148 0.013572724541518581 0.019084523253327261 -0.02958063184064243 0.00044542692151715215 -0.027089486721765321 -0.0013817751979106503
leaf_count=69952 4845 129670 37369 40726 37148 168391 114993 43963 130205 6666 7666 15039 5719 72789
internal_value=0 0.0634084 -0.190266 -0.129511 0.149064 0.154459 -0.0268638 -0.172923 0.169596 -0.0113867 -0.42817 -0.102043 -0.0605658 -0.0549484
internal_count=885141 663760 221381 176346 340589 335744 323171 128954 298596 47392 45035 59002 193501 187782
shrinkage=0.110564


Tree=2
num_leaves=15
num_cat=0
split_feature=16 32 16 16 32 20 17 16 16 32 16 16 20 17
split_gain=15718 4422.06 2055.71 1788.5 986.913 948.955 382.663 370.775 291.622 266.359 230.595 222.267 156.497 138.152
threshold=212.77858756311457 1.5000000000000002 227.00622163559476 189.45174426275199 1.5000000000000002 0.60444845019098115 91.160864507483993 236.21409856951624 203.02020408163267 1.5000000000000002 220.7748534205347 164.75454600890302 0.64507907843765488 43.762417479292104
decision_type=2 2 2 2 2 2 2 2 2 2 2 2 2 2
left_child=3 2 10 6 8 -3 9 -4 -5 11 -2 -1 -8 -13
right_child=1 5 7 4 -6 -7 12 -9 -10 -11 -12 13 -14 -15
leaf_value=-0.03370324987281937 0.002846513360545175 -0.04252724528831206 0.017510036502159435 -0.014343901104460313 -0.037687453754721552 -0.0041368394035338676 -0.033067597301463567 0.025999047661780742 -0.0052404506965560791 -0.043936942790382044 0.0097831343782934111 -0.010938248867754193 0.0018247002849535426 -0.025833975452565279
leaf_count=48920 116342 20311 188616 78942 16491 12851 2030 94362 94524 14219 118007 8640 6955 63931
internal_value=0 0.103915 0.126607 -0.170896 -0.107092 -0.250083 -0.254658 0.183973 -0.0848677 -0.267891 0.0573375 -0.252734 -0.0547971 -0.217617
internal_count=885141 550489 517327 334652 189957 33162 144695 282978 173466 135710 234349 121491 8985 72571
shrinkage=0.110564


Tree=3
num_leaves=15
num_cat=0
split_feature=16 32 16 16 20 32 16 17 32 16 16 16 26 17
split_gain=12475.6 3575.54 1737.26 1309.4 776.724 710.291 352.327 316.228 222.527 197.071 187.66 175.07 137.387 113.053
threshold=211.98807683423072 1.5000000000000002 229.69755515802032 190.86892546565164 0.65284507461575692 1.5000000000000002 223.67426261549397 84.743525659169691 1.5000000000000002 164.75454600890302 238.10853128991064 203.43111213161248 0.80020893219225486 43.762417479292104
decision_type=2 2 2 2 2 2 2 2 2 2 2 2 2 2
left_child=3 2 6 7 -3 11 -2 8 9 -1 -4 -5 -9 -11
right_child=1 4 10 5 -6 -7 -8 12 -10 13 -12 -13 -14 -15
leaf_value=-0.030196472993236943 0.003565894497290029 -0.036751132457304464 0.017530305728971646 -0.012321549886241338 -0.0015065865426414405 -0.033632427618001642 0.011278144585488233 -0.021656328987314458 -0.039078444563915994 -0.0094067331365526499 0.024579469247661669 -0.0049499594351476639 0.0038125154975261447 -0.022715023984531148
leaf_count=48384 177539 22435 162492 75691 11594 15040 122290 4345 14592 8799 64488 82104 6407 68941
internal_value=0 0.0903735 0.110667 -0.156028 -0.223789 -0.0965431 0.060702 -0.223904 -0.236534 -0.223008 0.176668 -0.0767516 -0.0586061 -0.191823
internal_count=885141 560838 526809 324303 34029 172835 299829 151468 140716 126124 226980 157795 10752 77740
shrinkage=0.110564


Tree=4
num_leaves=15
num_cat=0
split_feature=16 32 16 16 32 20 32 17 16 16 13 16 16 17
split_gain=9887.94 2685.69 1258.7 1210.1 633.701 605.119 274.246 297.595 239.989 236.643 154.037 135.696 121.401 118.835
threshold=213.81594299541601 1.5000000000000002 195.27878026736173 230.14494897521658 1.5000000000000002 0.57618614626826725 1.5000000000000002 84.743525659169691 223.3286663679809 172.77061176556941 30.807118898608199 238.3583628780938 232.02013533272466 72.608868701632218
decision_type=2 2 2 2 2 2 2 2 2 2 2 2 2 2
left_child=2 3 6 8 10 -3 7 9 -2 -1 -4 -5 -7 -12
right_child=1 5 4 11 -6 12 -8 -9 -10 -11 13 -13 -14 -15
leaf_value=-0.025716895045001301 0.0035894703152009283 -0.03446017485451508 -0.010378037954261102 0.01588072735062504 -0.029712672728282676 -0.01170205548584056 -0.033806175064281317 -0.0010594565298227504 0.0099849936124025776 -0.016821033315724911 -0.0040854762900597143 0.022027723415083678 0.01011231698787134 0.012573330895945433
leaf_count=66624 148779 18690 56545 155892 14757 8485 18540 9927 138487 80994 95844 61109 4931 5537
internal_value=0 0.0850727 -0.131228 0.102928 -0.0705641 -0.195362 -0.190719 -0.177181 0.0603512 -0.188452 -0.0520463 0.15929 -0.0333225 -0.0287222
internal_count=885141 536373 348768 504267 172683 32106 176085 157545 287266 147618 157926 217001 13416 101381
shrinkage=0.110564


Tree=5
num_leaves=15
num_cat=0
split_feature=16 32 16 16 32 20 32 17 16 16 1 20 16 17
split_gain=7852.08 1896.34 1326.32 755.098 635.54 488.169 261.34 260.336 230.743 149.6 134.707 116.06 89.4974 85.7906
threshold=216.66179845681623 1.5000000000000002 198.45998021142532 231.40535117943284 1.5000000000000002 0.70100322787039648 1.5000000000000002 79.76637960818924 178.28242989400243 224.85724578015649 463.50000000000006 0.72037518675464718 240.70743915123782 47.380404952504527
decision_type=2 2 2 2 2 2 2 2 2 2 2 2 2 2
left_child=2 3 6 9 10 -3 7 8 -1 -2 -4 -6 -5 -10
right_child=1 5 4 12 11 -7 -8 -9 13 -11 -12 -13 -14 -15
leaf_value=-0.022096064660612581 0.0047228871412587792 -0.028032737335669095 -0.0087023285282977238 0.015196831645514289 -0.030826989433250438 0.0031229249249113563 -0.029956409008015931 -0.0010766329362330068 -0.0024718282113072366 0.0098746227857063416 -0.0015914376719782181 -0.0074747695491585208 0.021408838677409409 -0.014913405078589233
leaf_count=80781 139219 19738 42923 155502 12994 8929 20382 12093 7440 136429 134973 3253 34673 75812
internal_value=0 0.0838575 -0.105824 0.0992199 -0.0472025 -0.165774 -0.16374 -0.151335 -0.161774 0.0657781 -0.0299118 -0.236527 0.147692 -0.124829
internal_count=885141 494490 390651 465823 194143 28667 196508 176126 164033 275648 177896 16247 190175 83252
shrinkage=0.110564


Tree=6
num_leaves=15
num_cat=0
split_feature=26 0 32 17 0 1 0 1 1 1 9 1 20 17
split_gain=3865.88 1654.03 912.088 707.823 316.58 263.164 225.37 224.318 200.898 147.059 140.939 132.301 119.929 101.352
threshold=0.72821655259340246 40.500000000000007 1.5000000000000002 46.481983953194813 31.000000000000004 595.50000000000011 49.500000000000007 523.50000000000011 486.50000000000006 367.50000000000006 0.94366416363102379 451.50000000000006 0.54654497439922511 50.599273717707298
decision_type=2 2 2 2 2 2 2 2 2 2 2 2 2 2
left_child=2 3 4 7 9 -3 13 -2 -5 -1 -8 -6 -9 -7
right_child=1 5 -4 8 11 6 10 12 -10 -11 -12 -13 -14 -15
leaf_value=-0.0091935610582080489 0.0025740205668843075 -0.011570042805011185 -0.027693736516233334 -0.0032568618596747053 -0.019578372819932466 0.0053043973956134272 -0.017132090047126791 -0.020792709708639404 0.0047557552068486202 7.1442861780210152e-05 -0.0045704213940331176 -0.0087685384739203884 0.013155024181589725 -0.0020744547064715495
leaf_count=50816 29046 48995 44786 47044 39476 41020 14043 1280 204676 35624 49073 21313 206844 51105
internal_value=0 0.03483 -0.125515 0.0664037 -0.0875031 -0.0407496 -0.0205836 0.105604 0.0294696 -0.0486165 -0.066616 -0.142799 0.117093 0.0109537
internal_count=885141 693126 192015 488890 147229 204236 155241 237170 251720 86440 63116 60789 208124 92125
shrinkage=0.110564


Tree=7
num_leaves=15
num_cat=0
split_feature=16 32 16 16 20 20 16 17 17 16 0 16 16 26
split_gain=5537.42 1601.34 854.281 434.768 347.817 237.276 174.211 138.76 136.534 115.425 93.478 86.3264 78.651 77.0351
threshold=208.82856510637035 1.5000000000000002 226.0201098634505 181.27258404235837 0.57618614626826725 0.59469882832247911 233.30616393780278 91.160864507483993 72.608868701632218 218.61711238934751 43.000000000000007 233.14956997461744 198.97821481220237 0.93270550760947701
decision_type=2 2 2 2 2 2 2 2 2 2 2 2 2 2
left_child=3 2 9 7 -3 -5 -4 10 12 -2 -1 -6 -7 -9
right_child=1 4 6 5 11 8 -8 13 -10 -11 -12 -13 -14 -15
leaf_value=-0.016505231876774017 0.00042812598214573411 -0.024995324459928043 0.0088848381317648585 -0.020188361655574832 -0.0085853719681063239 -0.011133115406150616 0.01418579448605257 -0.014609807391505535 0.0055952232740594677 0.0051109000642474379 -0.023366779869922347 0.0097864142376344141 -0.0060172701748915716 0.0074602128324749396
leaf_count=62495 124444 22083 153149 21278 10779 72598 150031 3952 8851 133240 39683 4404 74369 3785
internal_value=0 0.0547673 0.0681047 -0.114204 -0.145964 -0.0835418 0.104085 -0.163607 -0.0700155 0.0257718 -0.173384 -0.0294529 -0.0772799 -0.0344867
internal_count=885141 598130 560864 287011 37266 177096 303180 109915 155818 257684 102178 15183 146967 7737
shrinkage=0.110564


Tree=8
num_leaves=15
num_cat=0
split_feature=16 32 16 16 12 32 16 17 17 0 12 1 16 23
split_gain=4395.21 1263.27 679.351 348.741 254.061 181.604 163.658 117.067 93.2772 85.1013 74.8043 70.6988 61.4352 57.6504
threshold=208.82856510637035 1.5000000000000002 224.85724578015649 184.78525641025644 94.059397513309008 1.5000000000000002 234.77188460903372 91.160864507483993 72.608868701632218 45.000000000000007 76.159902576697334 2479.5000000000005 153.70395335239087 0.80122558856179937
decision_type=2 2 2 2 2 2 2 2 2 2 2 2 2 2
left_child=3 2 10 7 -3 8 -4 9 -5 12 -2 -9 -1 -6
right_child=1 4 6 5 13 -7 -8 11 -10 -11 -12 -13 -14 -15
leaf_value=-0.0194317431615364 -0.003576716639926837 -0.022813517095574276 0.0080711191490664708 -0.0073960942338738853 -0.011818010972961869 -0.019702501915640023 0.01319927668218502 -0.0092354059104401993 0.0049157182306610288 -0.020624379859193999 0.0028452251196578108 0.013694479577475572 -0.012368503681819526 0.001104117499144905
leaf_count=20939 24795 19989 205735 140807 7436 14496 120710 6014 7947 41030 209665 2262 53556 9760
internal_value=0 0.0488231 0.0606563 -0.10171 -0.129672 -0.0713571 0.0901502 -0.141736 -0.0609453 -0.149966 0.0195912 -0.026846 -0.129824 -0.0405534
internal_count=885141 598090 560905 287051 37185 163250 326445 123801 148754 115525 234460 8276 74495 17196
shrinkage=0.110564


Tree=9
num_leaves=15
num_cat=0
split_feature=16 20 16 16 30 20 0 30 16 23 17 17 8 30
split_gain=3501.13 949.677 481.489 351.571 205.549 196.84 117.763 103.411 90.2493 86.3446 89.2825 84.8683 81.1063 60.9687
threshold=211.16717069127282 0.62094580973848668 228.59129864084193 189.45174426275199 1.0000000180025095e-35 0.66768415536015857 40.500000000000007 1.0000000180025095e-35 239.70258926344053 0.70548697877465016 91.160864507483993 69.499628898089227 659.50000000000011 1.0000000180025095e-35
decision_type=2 2 2 2 2 2 2 2 2 2 2 2 2 2
left_child=3 4 7 6 -2 13 9 12 -4 -1 -11 -7 -3 -5
right_child=1 2 8 5 -6 11 -8 -9 -10 10 -12 -13 -14 -15
leaf_value=-0.014334741231664158 0.00011143382626919718 0.0017307304123855547 0.008776448702594827 -0.0097398962461774773 -0.019209100912533136 -0.0051262202580019851 -0.017024058833683187 -0.0028663525366823032 0.014181690725868517 -0.008847368639486472 0.0082349879083424733 0.006179946072557535 0.0056930950586486168 -0.021074529244450697
leaf_count=40098 9645 116580 207100 11575 22283 137779 61947 31210 46181 38559 4142 8624 137788 11630
internal_value=0 0.0466231 0.056552 -0.0847976 -0.120949 -0.0539034 -0.120998 0.028401 0.0882927 -0.0963267 -0.0650337 -0.0403406 0.0350665 -0.139473
internal_count=885141 570787 538859 314354 31928 169608 144746 285578 253281 82799 42701 146403 254368 23205
shrinkage=0.110564


Tree=10
num_leaves=15
num_cat=0
split_feature=16 32 16 16 32 29 0 32 17 0 16 16 13 16
split_gain=2780.74 644.654 476.616 254.889 209.213 158.25 110.739 103.259 71.0128 68.9291 67.8597 59.8977 59.8577 57.8134
threshold=216.19648608981205 1.5000000000000002 198.45998021142532 232.19268839359054 1.5000000000000002 0.6403748892971376 33.000000000000007 1.5000000000000002 91.160864507483993 33.000000000000007 153.70395335239087 168.91031675983135 30.613991724585713 245.66672185654696
decision_type=2 2 2 2 2 2 2 2 2 2 2 2 2 2
left_child=2 3 6 9 12 -3 7 8 10 -2 -1 -8 -4 -5
right_child=1 5 4 13 -6 -7 11 -9 -10 -11 -12 -13 -14 -15
leaf_value=-0.014800260130219239 0.0057401496832796845 -0.018442228230845761 -0.0049058544329671216 0.0093278876420038945 -0.015301244572730155 -0.0021888133601841216 -0.016920942200097433 -0.018807358748593895 0.0059732680653969026 0.0022563885558815069 -0.0060389864998432168 -0.011399086850118059 -0.00051541282672012089 0.018687915536835232
leaf_count=13092 188565 14954 56700 165176 15699 14350 36487 9673 5053 109887 61919 70249 114856 8481
internal_value=0 0.0491066 -0.0639972 0.0580398 -0.0278972 -0.0948141 -0.0984035 -0.0725113 -0.0607206 0.0403157 -0.0684502 -0.120172 -0.0177858 0.0885009
internal_count=885141 501413 383728 472109 187255 29304 196473 89737 80064 298452 75011 106736 171556 173657
shrinkage=0.110564


Tree=11
num_leaves=15
num_cat=0
split_feature=16 20 16 29 30 0 16 16 30 30 30 19 16 0
split_gain=2218.56 671.708 355.429 216.607 147.729 114.793 92.0417 84.2356 74.0207 54.2484 51.3193 62.0519 44.6834 43.3315
threshold=208.82856510637035 0.64507907843765488 224.85724578015649 0.63393867790619163 1.0000000180025095e-35 37.500000000000007 236.61323637282194 193.4881063316416 1.0000000180025095e-35 1.0000000180025095e-35 1.0000000180025095e-35 577.25000000000011 158.84451524237883 35.000000000000007
decision_type=2 2 2 2 2 2 2 2 2 2 2 2 2 2
left_child=3 4 10 8 -2 -5 9 -7 12 -4 11 -3 -1 -12
right_child=1 2 6 5 -6 7 -8 -9 -10 -11 13 -13 -14 -15
leaf_value=-0.014860172207520254 -0.00068680962941844621 -0.00042540963004687694 0.0064628522992970505 -0.0028271627832860934 -0.015449904879580586 -0.011502083993794912 0.010136377190630871 -0.0052405049160800304 -0.017937705036663434 0.00020213427816010376 0.00049964256497977532 0.0035520279133560055 -0.0088912287227446794 -0.0085710777541582132
leaf_count=21551 12418 76754 221327 85398 24901 51106 89690 54030 21793 18319 16351 127762 53122 10619
internal_value=0 0.0346017 0.0432462 -0.0723529 -0.0953063 -0.0528052 0.0643522 -0.074927 -0.110962 0.054125 0.0132185 0.0186255 -0.0959978 -0.0277831
internal_count=885141 598141 560822 287000 37319 190534 329336 105136 96466 239646 231486 204516 74673 26970
shrinkage=0.110564


Tree=12
num_leaves=15
num_cat=0
split_feature=16 32 16 16 32 2 23 17 9 0 32 0 17 4
split_gain=1784.05 378.132 344.535 142.42 142.273 108.638 97.7899 102.881 67.4038 50.1629 49.9863 47.8436 42.9406 41.8616
threshold=217.77812875241995 1.5000000000000002 202.19912871104557 232.99160034327502 1.5000000000000002 35.601886792452838 0.64933076112249177 75.902316898305443 0.91668661241423333 35.000000000000007 1.5000000000000002 33.000000000000007 69.499628898089227 18.000169754028324
decision_type=2 2 2 2 2 2 2 2 2 2 2 2 2 2
left_child=2 3 6 11 12 -3 10 8 -8 -10 -1 -2 -4 -13
right_child=1 5 4 -5 -6 -7 7 -9 9 -11 -12 13 -14 -15
leaf_value=-0.0099745014478218215 0.0049552315533042332 -0.013597096578498061 -0.0012422358051443166 0.0080457818084850481 -0.012081265143058011 0.0006263639663046704 -0.014736912357312327 0.0029988929084605247 -0.0041452174836324723 -0.0086026665956304912 -0.016747085919254986 -0.0049830587694272106 0.0082065310147373411 0.0027069262277243569
leaf_count=53195 189882 16674 162699 156867 15163 10827 14339 12281 53028 73837 17773 9542 6100 92934
internal_value=0 0.0414942 -0.0485643 0.0484626 -0.0164821 -0.0723327 -0.0748589 -0.0606657 -0.068301 -0.0609557 -0.105555 0.03542 -0.00814713 0.0180066
internal_count=885141 476726 408415 449225 183962 27501 224453 153485 141204 126865 70968 292358 168799 102476
shrinkage=0.110564


Tree=13
num_leaves=15
num_cat=0
split_feature=16 20 16 20 16 9 13 32 31 17 16 14 17 26
split_gain=1414.93 331.344 283.859 150.521 124.092 78.1397 91.774 69.6829 56.2831 56.1688 50.4644 50.4532 47.7658 43.456
threshold=217.97897686423801 0.56618233417769026 199.49727783270174 0.6749888691006235 231.86401496999159 0.93949725093148773 27.502419029892007 1.5000000000000002 1.5000000000000002 72.608868701632218 245.66672185654696 20.065976457444062 69.499628898089227 2.0254572307608352
decision_type=2 2 2 2 2 2 2 2 2 2 2 2 2 2
left_child=2 7 5 -4 8 -1 -7 -2 11 -8 -6 -3 13 -5
right_child=1 4 3 12 10 6 9 -9 -10 -11 -12 -13 -14 -15
leaf_value=-0.012229495950840099 0.0018739870551062186 -0.00034887657788039189 -0.010078189950644028 -0.000889836050003854 0.0065362334524360953 -0.0095690676491151719 -0.0052742611514027876 -0.01342175894499676 -0.0016489461290139834 0.0035434335663024931 0.015055871645571159 0.0043691184993639408 0.0079593885831400531 -0.012671255993359182
leaf_count=37517 4779 31896 24116 172593 175338 73293 83108 15289 26149 9881 8932 211009 7327 3914
internal_value=0 0.0372937 -0.0428643 -0.0168713 0.0428601 -0.0693868 -0.0600859 -0.0884486 0.0291679 -0.0392288 0.0628523 0.0339134 -0.00712686 -0.010411
internal_count=885141 473392 411749 207950 453324 203799 166282 20068 269054 92989 184270 242905 183834 176507
shrinkage=0.110564


Tree=14
num_leaves=15
num_cat=0
split_feature=16 20 16 16 30 13 0 16 28 0 0 0 30 9
split_gain=1129.52 373.33 207.427 112.762 72.8203 69.5413 59.911 58.3888 58.232 49.7446 43.5401 42.5511 47.7472 42.0883
threshold=207.13248540696256 0.59469882832247911 223.67426261549397 174.01500368080957 1.5000000000000002 27.502419029892007 33.000000000000007 239.1472413635604 300.25000000000006 29.500000000000004 28.000000000000004 33.000000000000007 1.0000000180025095e-35 0.93403496141111508
decision_type=2 2 2 2 2 2 2 2 2 2 2 2 2 2
left_child=3 4 8 10 -2 -5 -7 9 -3 -4 -1 -10 -13 -8
right_child=1 2 7 5 -6 6 13 -9 11 -11 -12 12 -14 -15
leaf_value=-0.0060780497774826012 -0.0022369379760134632 -0.026695908986782431 0.0053436840218826984 -0.0077186390707893677 -0.012796866436835114 8.4490649528063861e-05 -0.011751348009876856 0.0083312890408016021 0.002271994747210751 0.0023266952153387878 -0.011219497160410428 5.5723782498405497e-05 -0.0071789109915927213 -0.0039311920119248613
leaf_count=32273 13018 947 201704 54958 20639 47753 9547 52760 115072 99894 53534 99648 12557 70837
internal_value=0 0.0236029 0.029519 -0.0540721 -0.0788001 -0.0400534 -0.0272902 0.044662 0.0060067 0.0392932 -0.0839852 0.00703779 -0.0068188 -0.0439562
internal_count=885141 616239 582582 268902 33657 183095 128137 354358 228224 301598 85807 227277 112205 80384
shrinkage=0.110564


Tree=15
num_leaves=15
num_cat=0
split_feature=16 30 29 16 20 8 32 0 0 0 8 0 26 16
split_gain=896.322 215.678 208.771 110.252 101.194 76.4544 72.762 60.1949 51.8329 45.0276 37.9221 39.9328 50.4077 37.0844
threshold=218.2034391013008 1.0000000180025095e-35 0.63393867790619163 197.44694177863087 0.49332648167180548 692.50000000000011 1.5000000000000002 46.500000000000007 29.500000000000004 29.500000000000004 233.50000000000003 33.000000000000007 1.8603895986691497 243.69244359880403
decision_type=2 2 2 2 2 2 2 2 2 2 2 2 2 2
left_child=2 5 6 7 -3 9 8 -4 -1 -2 -5 -12 -13 -7
right_child=1 4 3 10 -6 13 -8 -9 -10 -11 11 12 -14 -15
leaf_value=-0.0036573677501863626 0.0034237840308684307 -0.011764916229699215 -0.0029436399301347345 -0.028928717932629147 -0.00058178926428861018 0.0050215785740521544 -0.012857788054039795 -0.008209193066707721 -0.0089973603118205011 -0.00071804401614094615 0.0013857459233258154 -0.0013821369855099061 -0.013367535090731112 0.010914409873508881
leaf_count=45905 112667 12886 69405 575 42562 242998 26340 42972 43067 44863 79611 103018 4476 13796
internal_value=0 0.0298033 -0.033961 -0.020063 -0.0287682 0.0376418 -0.0701255 -0.0448351 -0.0564578 0.020298 -0.00523027 -0.00444227 -0.0170146 0.0482812
internal_count=885141 469772 415369 300057 55448 414324 115312 112377 88972 157530 187680 187105 107494 256794
shrinkage=0.110564


Tree=16
num_leaves=15
num_cat=0
split_feature=16 30 8 29 16 0 2 28 0 8 17 9 32 17
split_gain=722.144 248.615 127.753 103.035 80.1725 60.75 53.6306 48.664 47.5883 40.4274 42.5929 38.4986 37.4425 39.3858
threshold=207.13248540696256 1.0000000180025095e-35 692.50000000000011 0.53596506356558604 170.21434634974534 29.500000000000004 13.32630878438332 300.25000000000006 35.000000000000007 2504.5000000000005 72.608868701632218 0.95029906252289187 1.5000000000000002 46.481983953194813
decision_type=2 2 2 2 2 2 2 2 2 2 2 2 2 2
left_child=4 2 5 -3 9 7 12 -2 -4 11 -11 -1 13 -6
right_child=1 3 8 -5 6 -7 -8 -9 -10 10 -12 -13 -14 -15
leaf_value=-0.012451272445540769 -0.022064681435281674 -0.010832861719769922 0.0054141051003358783 -0.0014625948323053382 0.0036808602528591379 -0.0014036306058821039 -0.0013907245003250026 0.0025074366836045749 0.0024927018513289014 -0.0099915609665215468 0.013031541497390749 -0.0067959005375952154 -0.01151202454589971 -0.0050641070227277771
leaf_count=20840 992 18613 203264 62563 6731 83160 79810 144969 102552 1744 2249 50063 10219 97372
internal_value=0 0.018906 0.0267312 -0.0326609 -0.0431936 0.00887738 -0.0324712 0.0211682 0.0401075 -0.0709865 0.0269154 -0.0765 -0.0463586 -0.0406885
internal_count=885141 616113 534937 81176 269028 229121 194132 145961 305816 74896 3993 70903 114322 104103
shrinkage=0.110564


Tree=17
num_leaves=15
num_cat=0
split_feature=16 29 30 16 20 0 19 24 30 10 17 0 17 19
split_gain=583.357 164.709 125.57 89.2952 64.7524 58.4176 45.4389 50.2443 36.7156 35.8843 35.312 34.4453 32.1841 30.2868
threshold=220.18683168613811 0.53596506356558604 1.0000000180025095e-35 202.19912871104557 0.52614870672813951 35.000000000000007 694.25000000000011 22.500000000000004 1.0000000180025095e-35 0.92294681241044241 52.298292120182715 35.000000000000007 79.76637960818924 356.25000000000006
decision_type=2 2 2 2 2 2 2 2 2 2 2 2 2 2
left_child=1 8 6 5 -4 12 7 -2 -1 -7 11 -5 -3 -9
right_child=2 3 4 10 -6 9 -8 13 -10 -11 -12 -13 -14 -15
leaf_value=-0.0056135029948776085 0.002728700990095242 -0.0020713199898110858 -0.0091891461456263274 -6.844819266922097e-05 -2.6427740131806221e-05 -0.0049948825947981057 0.004641372082165111 -0.036272547561311173 -0.010547035424949521 -0.014409761346256388 0.00093612119475453448 -0.004853736213054188 0.0058527373640952351 -0.0038180870083709931
leaf_count=62860 161981 61698 12588 43508 37562 85729 211900 363 26095 5252 125682 31849 6974 11100
internal_value=0 -0.0253218 0.0260289 -0.0158171 -0.0210406 -0.0334733 0.0321547 0.0201521 -0.0638613 -0.050092 -0.00179556 -0.0189113 -0.0114557 -0.0438283
internal_count=885141 449647 435494 360692 50150 159653 385344 173444 88955 90981 201039 75357 68672 11463
shrinkage=0.110564


Tree=18
num_leaves=15
num_cat=0
split_feature=16 30 13 9 16 17 20 0 1 28 20 26 32 11
split_gain=472.281 140.658 87.9056 79.1038 70.4531 66.7726 62.7622 38.5605 37.813 32.4392 29.3829 28.7143 27.6438 36.2881
threshold=212.51366776067846 1.0000000180025095e-35 26.379053073300835 0.9360286823979771 230.8978888888889 67.146302845643774 0.75812582858029853 29.500000000000004 583.50000000000011 300.25000000000006 0.76345243736704671 1.4055651450011502 1.5000000000000002 0.84801157283438222
decision_type=2 2 2 2 2 2 2 2 2 2 2 2 2 2
left_child=2 4 12 7 8 -5 -3 -4 9 -2 -7 -8 13 -1
right_child=1 6 3 5 -6 10 11 -9 -10 -11 -12 -13 -14 -15
leaf_value=-0.0066207411956851845 -0.021571826122363264 -0.0069559472197879757 -0.002596859482151743 -0.0018785873666860775 0.0043003336271882544 -0.0061146669266781009 0.0018371203444943497 -0.0094609921276322083 0.0024908685003456181 4.1667310563831236e-05 0.0071420052315704302 -0.0042351581367974182 -0.010294087689627621 -0.00099177333522567105
leaf_count=59395 856 26093 17239 178692 190329 2369 29765 23840 190894 102101 14892 13996 16362 18318
internal_value=0 0.0178539 -0.029883 -0.019618 0.023906 -0.0112537 -0.0240951 -0.0595169 0.0141979 -0.00124842 0.0481403 -0.000949363 -0.0557467 -0.047881
internal_count=885141 554034 331107 237032 484180 195953 69854 41079 293851 102957 17261 43761 94075 77713
shrinkage=0.110564


Tree=19
num_leaves=15
num_cat=0
split_feature=1 0 0 32 9 21 30 14 25 1 29 25 21 7
split_gain=341.117 198.365 85.1804 67.8985 57.3366 53.7584 46.5826 40.0643 36.5733 35.4017 29.5521 27.2376 41.3578 25.3258
threshold=463.50000000000006 45.000000000000007 29.500000000000004 1.5000000000000002 0.95737954437707418 1.5000000000000002 1.0000000180025095e-35 19.843715174538385 840.25000000000011 676.50000000000011 0.16303122619954305 242.25000000000003 3.5000000000000004 -32.640075683593743
decision_type=2 2 2 2 2 2 2 2 2 2 2 2 2 2
left_child=2 5 3 11 8 10 7 -7 -3 -6 -2 12 -1 -9
right_child=1 4 -4 -5 9 6 -8 13 -10 -11 -12 -13 -14 -15
leaf_value=-0.00082173458690260612 -0.011933616889883529 -0.0096371706943163601 -0.0065413146175346592 -0.0079938956227363234 -0.003316264731302635 -0.0018651829487898381 -0.0012931372400890606 0.0040922722619727934 -0.0030456422045836025 0.00064988888997234609 0.0062179153489495603 -0.0005998964129338098 -0.032965521910620806 0.0020398616569288252
leaf_count=1243 1123 17177 87516 19447 46042 26869 50313 97617 25665 68356 46381 99154 807 297431
internal_value=0 0.0108758 -0.035412 -0.0181837 -0.0202454 0.0202912 0.0170655 0.0204952 -0.0514493 -0.00855954 0.0523571 -0.00778467 -0.121879 0.0230366
internal_count=885141 676974 208167 120651 157240 519734 472230 421917 42842 114398 47504 101204 2050 395048
shrinkage=0.110564


Tree=20
num_leaves=15
num_cat=0
split_feature=16 20 16 20 0 11 26 13 17 16 0 17 17 9
split_gain=326.117 102.688 72.679 68.1971 46.7635 45.3741 44.6345 46.4364 38.9116 37.6119 35.5226 32.4624 34.0723 27.4842
threshold=220.7748534205347 0.74259041650346014 180.28633115982245 0.34509385067936693 33.000000000000007 0.87037796615319185 2.1066040886055171 30.19508031124801 99.568983673879345 245.66672185654696 29.500000000000004 43.95796405121321 65.072698693010196 0.84604069509976887
decision_type=2 2 2 2 2 2 2 2 2 2 2 2 2 2
left_child=1 -1 5 -2 11 8 7 -6 13 10 -5 -4 -13 -3
right_child=3 2 4 9 6 -7 -8 -9 -10 -11 -12 12 -14 -15
leaf_value=-0.0053438874047486273 -0.0073984513868999334 -0.016222546245902605 0.011538137183720591 0.0029957089564627347 -0.0048509112178272114 0.0071329546725565993 -0.012856658197143133 -0.00037392460081345756 0.0053243673521636333 0.0094843532299991404 0.00081639932900713055 0.00029759226532458083 0.007138353940263519 -0.0052243268100916262
leaf_count=92138 8851 2911 3544 268334 36721 3955 4266 123813 4148 8987 138687 118566 9623 60597
internal_value=0 -0.0184766 -0.0110043 0.0199435 -0.0040995 -0.0395961 -0.0153271 -0.0126443 -0.0456821 0.0217915 0.0203786 0.00994635 0.00733621 -0.0518112
internal_count=885141 460282 368144 424859 296533 71611 164800 160534 67656 416008 407021 131733 128189 63508
shrinkage=0.110564


Tree=21
num_leaves=15
num_cat=0
split_feature=16 14 16 16 1 30 7 29 1 29 1 24 28 7
split_gain=258.678 105.52 51.1588 43.4402 38.4114 34.5656 36.8878 35.9754 33.5264 28.1889 39.4961 25.2829 23.7262 25.1341
threshold=207.13248540696256 18.434983770112769 229.69755515802032 161.73847617883374 4761.5000000000009 1.0000000180025095e-35 -15.945394992828367 1.8130140259969232 148.50000000000003 1.7121861218612187 565.50000000000011 1.5000000000000002 300.25000000000006 -1.0000000180025095e-35
decision_type=2 2 2 2 2 2 2 2 2 2 2 2 2 2
left_child=3 8 5 4 -1 6 -3 -7 -2 10 -5 -4 13 -10
right_child=1 2 11 9 -6 7 -8 -9 12 -11 -12 -13 -14 -15
leaf_value=-0.0061891237649080166 -0.0092181849970854497 0.0033409537538995259 0.0073938507873216666 -0.0031943375410000644 0.01118758774608683 -0.00077182867278495992 0.0005159439772224574 -0.0098881043745154239 0.0059038949900707943 -0.0088475608352100079 -0.00010074565414377136 0.0026876242750549493 -0.0016845388474833215 -0.030376334813190218
leaf_count=52016 9523 77386 14930 121862 1603 36362 209380 6193 348 7423 86089 213526 47791 709
internal_value=0 0.0113582 0.0155916 -0.0258101 -0.0512792 0.00761498 0.0115616 -0.0189801 -0.0290952 -0.0194694 -0.0173079 0.0270901 -0.0185135 -0.166706
internal_count=885141 616148 557777 268993 53619 329321 286766 42555 58371 215374 207951 228456 48848 1057
shrinkage=0.110564


Tree=22
num_leaves=15
num_cat=0
split_feature=16 29 0 29 30 1 9 11 21 18 27 25 20 16
split_gain=206.486 69.9117 54.64 53.6275 48.9352 35.4565 30.8458 47.8389 26.8847 25.3577 31.0853 27.2768 25.2353 24.8637
threshold=220.7748534205347 0.51650570775779292 48.000000000000007 1.5435581196478256 1.0000000180025095e-35 574.50000000000011 0.93949725093148773 0.657328592356483 1.5000000000000002 3.5000000000000004 30.500000000000004 664.25000000000011 0.52614870672813951 177.27890052243461
decision_type=2 2 2 2 2 2 2 2 2 2 2 2 2 2
left_child=1 -1 5 13 9 -3 8 -8 -7 -2 -11 -12 -6 -4
right_child=4 2 3 -5 12 6 7 -9 -10 10 11 -13 -14 -15
leaf_value=-0.0044898562735616841 0.002436556010622923 -0.00144694332563119 -0.0063100394169318371 -0.010793341583020883 -0.0059032261087434788 0.0058868499357917796 0.0079986502863922861 0.001010060638197382 -0.0037383609111061793 0.0021482132817044692 -0.0083055007805837872 0.0056765443131675418 -8.3070111789070597e-05 -0.001446527130980048
leaf_count=84482 350478 138616 15750 10282 12150 4182 13597 100295 23378 14816 8864 2112 36359 69780
internal_value=0 -0.014615 -0.00877271 -0.0293862 0.0159567 -0.00172077 0.00941751 0.0166817 -0.0206018 0.0198105 -0.0104511 -0.0507858 -0.0139362 -0.0211834
internal_count=885141 460362 375880 95812 424779 280068 141452 113892 27560 376270 25792 10976 48509 85530
shrinkage=0.110564


Tree=23
num_leaves=15
num_cat=0
split_feature=16 14 30 9 12 29 28 13 16 17 6 27 26 11
split_gain=173.777 75.4641 36.4631 36.0253 46.345 31.3063 30.1883 29.8497 28.97 28.7779 28.0153 27.3225 32.3969 24.8904
threshold=206.43889733109765 20.065976457444062 1.0000000180025095e-35 0.93949725093148773 196.23759005323598 0.28833650426007118 300.25000000000006 31.933876230258949 147.67818952315577 40.719276052416099 0.85714286661156458 16.500000000000004 2.0254572307608352 0.68645400682267044
decision_type=2 2 2 2 2 2 2 2 2 2 2 2 2 2
left_child=3 5 7 -1 8 -2 -7 -3 -5 -10 -6 -4 -13 -11
right_child=1 2 11 4 10 6 -8 -9 9 13 -12 12 -14 -15
leaf_value=-0.0052413346760668998 -0.0067627430627852482 8.8053116117186699e-05 0.0003925245780017857 -0.006483111662689914 0.013988035692839526 -0.01705190665530518 -0.00075717788125353829 0.0022903635236707371 0.0026481934030345533 0.0020230381533649249 -0.021702655009651375 -0.0029853873592378985 -0.017417784643853768 -0.0024668600458877189
leaf_count=44921 13579 94178 42243 16323 3143 1414 81421 373999 17467 16629 294 13884 2203 163443
internal_value=0 0.00906099 0.013771 -0.0216259 -0.0162966 -0.0166599 -0.00936408 0.0167084 -0.018148 -0.0148024 0.0989026 -0.00980573 -0.0448772 -0.0185615
internal_count=885141 622921 526507 262220 217299 96414 82835 468177 213862 197539 3437 58330 16087 180072
shrinkage=0.110564


Tree=24
num_leaves=15
num_cat=0
split_feature=1 0 0 20 32 26 21 30 9 5 28 14 29 25
split_gain=127.196 80.6199 75.3832 45.6779 44.7093 37.481 36.0442 29.3083 25.5494 33.6974 21.9479 18.9307 18.7924 17.9214
threshold=559.50000000000011 46.500000000000007 29.500000000000004 0.71381058561720701 1.5000000000000002 1.4298827797390339 1.5000000000000002 1.0000000180025095e-35 0.86990878535133498 298.50199890136724 851.25000000000011 7.4242818167961095 0.49664019046446245 5337.0000000000009
decision_type=2 2 2 2 2 2 2 2 2 2 2 2 2 2
left_child=2 3 4 -2 10 -3 -5 -7 13 -10 11 -1 -4 -8
right_child=1 5 12 6 -6 7 8 -9 9 -11 -12 -13 -14 -15
leaf_value=-0.0098218401462947177 -0.0049477550049382632 -0.00069035282482522524 -0.0058370844247088837 0.0048087406669936068 -0.0050267484972285736 -0.0032754127044484858 -0.0025782939865349077 -0.012563180463533089 0.0016793265286562426 -0.072438700851153795 -0.0054340422793841435 0.00079366385945295846 -0.0029239612426740207 -0.021253097976222882
leaf_count=2082 12418 93941 36775 45205 21348 14591 10539 5806 381018 75 7613 150483 102579 668
internal_value=0 0.00903079 -0.0159055 0.0150565 -0.00247613 -0.0146805 0.016754 -0.0535362 0.0136729 0.0150568 0.00325323 0.00586808 -0.033399 -0.0333872
internal_count=885141 564261 320880 449923 181526 114338 437505 20397 392300 381093 160178 152565 139354 11207
shrinkage=0.110564


Tree=25
num_leaves=15
num_cat=0
split_feature=14 0 0 20 32 21 5 26 30 30 17 7 21 27
split_gain=106.62 79.3804 54.0049 37.4901 29.2124 24.9801 23.2824 27.6672 30.4001 21.7829 19.8079 26.0805 18.3407 17.8687
threshold=20.065976457444062 35.000000000000007 26.000000000000004 0.55634820483595226 1.5000000000000002 1.5000000000000002 27.577164649963382 1.6631944293739702 1.0000000180025095e-35 2.5000000000000004 59.507452898352689 -55.304843902587884 15.500000000000002 2.5000000000000004
decision_type=2 2 2 2 2 2 2 2 2 2 2 2 2 2
left_child=2 3 4 -2 -1 10 12 -8 -9 -10 -5 -12 -3 -7
right_child=1 6 -4 5 -6 13 7 8 9 -11 11 -13 -14 -15
leaf_value=0.00030592793141094875 -0.0064901879527254945 -0.0031239380876231988 -0.0039543063492567124 0.0038617744793545076 -0.0047561858037566537 -0.0085659552432430248 4.9610519113258321e-05 -0.0014104765743111602 -0.014637249202897693 -0.0015660878474562522 -0.005247790403387762 0.020616650335758969 -0.037557941880635624 0.0015713396083579219
leaf_count=94145 6809 39472 103929 33029 16357 2138 197098 16783 4519 2379 639 1875 190 365779
internal_value=0 0.00621526 -0.0194009 0.0148831 -0.00401025 0.0161249 -0.00743902 -0.00343157 -0.0357273 -0.0916142 0.0414409 0.127008 -0.0297465 0.0136792
internal_count=885141 670710 214431 410269 110502 403460 260441 220779 23681 6898 35543 2514 39662 367917
shrinkage=0.110564


Tree=26
num_leaves=15
num_cat=0
split_feature=16 13 0 9 12 21 14 32 12 25 17 14 20 20
split_gain=107.867 46.5109 31.4695 29.7625 31.8532 22.1734 21.9696 20.9279 20.0054 19.1476 18.4609 22.7734 17.741 17.6387
threshold=204.2227329192547 27.502419029892007 29.500000000000004 0.95439799211907228 196.23759005323598 13.500000000000002 19.114296797893083 1.5000000000000002 40.745689014324235 424.25000000000006 69.499628898089227 39.890754055901944 0.48133554220598257 0.48133554220598257
decision_type=2 2 2 2 2 2 2 2 2 2 2 2 2 2
left_child=3 5 13 -1 10 7 -4 8 -2 -7 -5 -12 -10 -3
right_child=1 2 6 4 -6 9 -8 -9 12 -11 11 -13 -14 -15
leaf_value=-0.0039319709522492178 -0.018277317874137507 -0.0069852270228247856 -0.0045252454657747363 -0.0016726467434877278 0.012904272565287206 -0.03439232745263586 0.00038760393597585827 -0.0047710734941179079 0.0064382957142550389 -0.0075012079948889683 0.003761305542649166 -0.035372082573003838 -0.00081909433318003231 0.0018920327935305326
leaf_count=69076 760 2760 11673 160095 1931 432 237947 18464 4493 1291 10464 185 49282 316288
internal_value=0 0.00675595 0.00983796 -0.01802 -0.0110022 -0.0166996 0.00142781 -0.0140531 -0.00420096 -0.128826 -0.0124466 0.0278704 -0.00192401 0.016418
internal_count=885141 643390 568668 241751 172675 74722 249620 72999 54535 1723 170744 10649 53775 319048
shrinkage=0.110564


Tree=27
num_leaves=15
num_cat=0
split_feature=2 9 13 14 21 21 7 11 9 17 7 11 32 25
split_gain=79.4966 47.2831 42.044 20.8203 20.7572 19.1438 19.109 27.2295 16.9523 25.3886 19.3664 16.0276 24.572 15.0308
threshold=24.852396514161224 0.95227035121771231 27.502419029892007 20.065976457444062 1.5000000000000002 14.500000000000002 -0.46580906212329859 0.86950348039057734 0.95563592762153926 50.803876640393447 -20.556043624877926 0.84185549760386269 1.5000000000000002 1165.2500000000002
decision_type=2 2 2 2 2 2 2 2 2 2 2 2 2 2
left_child=1 3 5 -1 -2 11 -4 -8 9 -6 -10 -3 -13 -11
right_child=4 2 6 -5 8 -7 7 -9 10 13 -12 12 -14 -15
leaf_value=-0.0048021497371031731 0.0038664803750857093 -0.0029495873777041896 0.0014716655609240789 -0.0016850687859849261 0.0011189902868852344 -0.015696688394194348 -0.0012370490748052094 0.0012397210888573944 0.003916239046302194 -0.0012426810390070472 0.0011102022164797976 0.00080930312928398124 -0.0053166092213242375 -0.006941609702431433
leaf_count=39202 38777 70390 124395 78949 70413 1236 134198 91096 40585 20924 116016 41276 9930 7754
internal_value=0 -0.00670231 -0.00222839 -0.0245948 0.0134112 -0.0181441 0.00336218 -0.00213076 0.0101416 -9.45278e-05 0.0166186 -0.0168855 -0.00342471 -0.0251761
internal_count=885141 590672 472521 118151 294469 122832 349689 225294 255692 99091 156601 121596 51206 28678
shrinkage=0.110564


Tree=28
num_leaves=15
num_cat=0
split_feature=16 9 8 11 16 0 24 25 11 10 29 22 25 32
split_gain=73.5687 41.2381 48.4677 26.7323 22.1265 22.0259 21.4436 26.6789 19.9588 17.3605 16.9128 15.8974 17.9537 15.5436
threshold=222.04699373100308 0.96071628988295665 724.50000000000011 0.64812905844155855 176.23514068118794 40.500000000000007 23.500000000000004 638.25000000000011 0.92023537499752717 0.91553819345523957 3.3386945858575747 616.25000000000011 596.25000000000011 1.5000000000000002
decision_type=2 2 2 2 2 2 2 2 2 2 2 2 2 2
left_child=1 4 5 -4 10 13 8 11 -2 -6 -1 -8 -13 -3
right_child=6 2 3 -5 9 -7 7 -9 -10 -11 -12 12 -14 -15
leaf_value=-0.0048229023435704182 0.00097438448095605711 0.00013754736722595691 0.0092876065799839536 0.0015955789521042906 -0.0010720617839844848 -0.0022870899642648849 -0.0049864512916613446 0.0048216377834144532 0.0035234918536975134 -0.0048723376833953889 0.015418373661353955 -0.036401072558447482 -0.0074194182836332173 -0.0051502302322283863
leaf_count=40438 346983 138992 5968 74087 105448 94490 7456 3366 42104 17074 511 444 635 7145
internal_value=0 -0.00828573 -0.0016964 0.0196177 -0.0212121 -0.00878746 0.0100288 -0.0317845 0.0113077 -0.0144862 -0.0413364 -0.0615181 -0.174968 -0.00109426
internal_count=885141 484153 320682 80055 163471 240627 400988 11901 389087 122522 40949 8535 1079 146137
shrinkage=0.110564


Tree=29
num_leaves=15
num_cat=0
split_feature=0 14 29 12 20 16 30 26 17 24 2 22 25 30
split_gain=64.1373 41.1273 37.5762 24.2014 26.4126 23.0687 19.5504 23.0425 18.8254 18.3667 17.8509 17.6812 17.6251 16.6745
threshold=33.000000000000007 20.921194586532085 0.16303122619954305 93.816756826189717 0.70736498407946391 188.71242220510794 1.0000000180025095e-35 1.6631944293739702 75.902316898305443 1.5000000000000002 47.701851851851863 636.75000000000011 850.25000000000011 2.5000000000000004
decision_type=2 2 2 2 2 2 2 2 2 2 2 2 2 2
left_child=2 -2 -1 12 -5 -3 11 -8 9 -6 13 -7 -4 -9
right_child=1 5 3 4 8 6 7 10 -10 -11 -12 -13 -14 -15
leaf_value=-0.0052612242812450239 -0.0031938182643071874 -0.0030768798069115409 0.00022645628299824405 -0.0046065086442372968 0.0058053028975133571 -0.0011795964646635522 -0.0010695451502046444 -0.016926992371706508 0.0071406425733483523 0.0013925372010428492 0.00050728616878988693 0.0010292214649783586 -0.0046181635113256439 -0.0028502456555227016
leaf_count=12319 89708 35707 200242 8293 12032 65064 22719 3082 7630 276453 1897 138830 9621 1544
internal_value=0 -0.010346 0.00699399 0.0083014 0.0139973 -0.00415939 -0.000534166 -0.024715 0.0155562 0.0142595 -0.0771031 0.0029338 3.94215e-05 -0.110603
internal_count=885141 358551 526590 514271 304408 268843 233136 29242 296115 288485 6523 203894 209863 4626
shrinkage=0.110564


Tree=30
num_leaves=15
num_cat=0
split_feature=0 13 20 11 21 13 9 8 25 23 28 9 11 17
split_gain=51.4142 38.9668 35.8329 25.4766 17.9674 17.2635 20.3294 16.5926 16.5512 15.6304 14.8703 14.7326 23.152 17.0269
threshold=46.500000000000007 25.396079013665098 0.46950868674394458 0.92762531328320807 13.500000000000002 30.19508031124801 0.96029069482324814 4332.5000000000009 14357.500000000002 1.3964300011165185 463.25000000000006 0.89070402846613306 0.6791705753595999 65.072698693010196
decision_type=2 2 2 2 2 2 2 2 2 2 2 2 2 2
left_child=1 4 -3 8 -1 -2 7 9 11 -7 -6 -4 13 -13
right_child=5 2 3 -5 10 6 -8 -9 -10 -11 -12 12 -14 -15
leaf_value=-0.0014289559774926521 -0.0038443770567916443 -0.0058639701811513782 -0.0018047521895934269 0.0039145234354559721 -0.027251046978304373 -0.0029317991327249444 -0.00011574150975513838 0.0016890660016455894 0.0062357960621188596 -0.0087559814881514493 -0.00504015350157783 0.0017990474022291625 0.00043860411160375634 0.0063358086716266589
leaf_count=98337 37690 9899 29221 31299 588 27943 81088 7300 6474 7055 987 71492 463989 11779
internal_value=0 0.00371422 0.00664932 0.00761119 -0.0146214 -0.0160393 -0.0103175 -0.02809 0.00611893 -0.0371356 -0.120584 0.00555426 0.00672241 0.0220758
internal_count=885141 724065 624153 614254 99912 161076 123386 42298 582955 34998 1575 576481 547260 83271
shrinkage=0.110564


Tree=31
num_leaves=15
num_cat=0
split_feature=16 0 14 29 11 7 25 21 17 16 9 17 11 23
split_gain=47.3015 32.6617 26.5561 24.2638 23.5233 18.9332 27.0881 38.3889 19.4513 19.4855 18.1292 16.47 16.3895 15.29
threshold=181.27258404235837 29.500000000000004 21.336497171099506 0.20757100456839364 0.82793586530428642 -18.434947013854977 242.25000000000003 3.5000000000000004 58.538083841027451 217.77812875241995 0.9550115392096562 63.48440853580508 0.90147421037380482 1.3397191401911843
decision_type=2 2 2 2 2 2 2 2 2 2 2 2 2 2
left_child=4 3 -3 -2 -1 10 7 -7 12 -10 -5 -12 -8 -4
right_child=1 2 13 5 -6 6 8 -9 9 -11 11 -13 -14 -15
leaf_value=-0.0029799822638895911 -0.0046152984594304489 -0.0022476525821685171 0.00038563424895840802 0.00070199790407339004 0.0010126251551985821 0.0044547244311200079 0.00040108550076107575 -0.037577403350008573 -0.002696092367346132 -0.019310672621472957 0.0029192498942166661 0.0091356742183117644 0.0025731589653191608 -0.001863905259048706
leaf_count=87215 9311 80207 236348 52351 22743 520 224046 543 6030 1007 62965 5680 52398 43777
internal_value=0 0.00267944 -0.00428541 0.00872898 -0.0194835 0.0098878 0.0054322 -0.153902 0.00602967 -0.0458888 0.0203659 0.0310556 0.00735128 0.000308272
internal_count=885141 775183 360332 414851 109958 405540 284544 1063 283481 7037 120996 68645 276444 280125
shrinkage=0.110564


Tree=32
num_leaves=15
num_cat=0
split_feature=16 9 11 6 4 24 14 27 15 13 25 0 14 27
split_gain=38.6343 31.577 40.0297 18.0633 17.6529 17.3065 24.2957 16.3759 15.5005 15.4493 15.1228 13.7188 13.3291 16.4916
threshold=225.86425875138434 0.95439799211907228 0.68645400682267044 0.77500001134838492 5.0068869590759286 20.500000000000004 18.836551704371779 31.500000000000004 0.39440350598600477 283.03906169233079 646.25000000000011 24.000000000000004 28.737376524408557 2.5000000000000004
decision_type=2 2 2 2 2 2 2 2 2 2 2 2 2 2
left_child=1 8 7 4 -4 -2 -7 12 9 -1 -8 -10 13 -3
right_child=5 2 3 -5 -6 6 10 -9 11 -11 -12 -13 -14 -15
leaf_value=-0.0049942125721664067 0.0011607078368857644 -0.016068869149128424 -0.006138988648736402 -0.0013491247435240483 0.00034287088344346931 -0.012837411761867907 -0.0033596038978013654 0.012904019281553688 -8.3716250051903089e-05 0.013973552466830531 0.0033272435389311433 -0.0025194388247153764 0.0076248922145118764 0.0022680636997303733
leaf_count=23358 304427 614 5253 151090 231034 2322 10805 2140 49521 537 6697 65864 5977 25502
internal_value=0 -0.00507863 -0.000766066 -0.00366268 0.00179778 0.00863376 -0.0199955 0.0320118 -0.018133 -0.0413149 -0.00724409 -0.0133323 0.0263639 0.0166144
internal_count=885141 560890 421610 387377 236287 324251 19824 34233 139280 23895 17502 115385 32093 26116
shrinkage=0.110564


Tree=33
num_leaves=15
num_cat=0
split_feature=0 29 14 18 11 16 24 5 25 18 26 5 0 24
split_gain=34.5918 21.5344 21.4613 20.7076 17.1663 16.2432 13.7227 17.2931 14.0984 31.3824 13.4504 17.0948 16.9627 14.5392
threshold=35.000000000000007 0.16303122619954305 20.921194586532085 5.5000000000000009 0.90482856583072102 164.75454600890302 1.5000000000000002 479.04508972167974 242.25000000000003 2.5000000000000004 1.4170912194278802 29.514814376831058 52.500000000000007 10.500000000000002
decision_type=2 2 2 2 2 2 2 2 2 2 2 2 2 2
left_child=1 -1 -2 4 5 -3 -7 8 9 -8 11 -4 13 -12
right_child=2 3 10 -5 -6 6 7 -9 -10 -11 12 -13 -14 -15
leaf_value=-0.0039025880058908883 -0.0024859935585507184 -0.0021518928066508822 -0.001772174410544954 -0.019161300263692657 0.0023635183029210695 0.0042526350874827175 0.0029762909030113739 -0.087988063825367974 0.00053352623096069164 -0.031609213713048694 0.00042218309342831236 0.00055313369388703326 -0.0074058942860088413 -0.0044584210179235504
leaf_count=13075 79123 27940 51626 645 63938 12200 803 27 441743 534 21897 153744 6528 11318
internal_value=0 0.00481019 -0.00816513 0.00576742 0.00597851 0.00394115 0.00537735 0.0044664 0.00451517 -0.0980176 -0.00354275 -0.000284028 -0.020382 -0.0112232
internal_count=885141 560905 324236 547830 547185 483247 455307 443107 443080 1337 245113 205370 39743 33215
shrinkage=0.110564


Tree=34
num_leaves=15
num_cat=0
split_feature=0 1 25 7 25 21 9 17 5 4 4 11 24 25
split_gain=31.02 26.1055 31.9337 20.9464 25.3943 30.6706 18.7066 22.7787 13.892 22.5271 13.3146 13.0875 14.7627 19.5008
threshold=48.000000000000007 722.50000000000011 872.25000000000011 -16.699242591857907 242.25000000000003 3.5000000000000004 0.96049996194504883 67.146302845643774 80.308807373046889 55.00251770019532 13.999999046325685 0.86950348039057734 23.500000000000004 397.25000000000006
decision_type=2 2 2 2 2 2 2 2 2 2 2 2 2 2
left_child=1 2 3 -1 5 -5 10 -8 9 -9 -3 -6 -13 -14
right_child=-2 6 -4 4 11 -7 7 8 -10 -11 -12 12 13 -15
leaf_value=0.0012760366515257855 -0.0015726255368318039 -0.023709647339852091 -0.0038834197121422223 -0.0011216623066075621 -0.00090058303897580917 -0.029579274266238183 0.0016682564980428126 0.0075244602363742502 0.023882789011437588 -0.062974878636628304 0.00025227872191868421 0.0010344275056100832 -0.044454498640780049 -0.0032409628239410361
leaf_count=112073 130389 284 27878 1086 210830 807 144177 5230 652 56 152864 91111 143 7561
internal_value=0 0.00247971 -0.00234033 -0.000182839 -0.00440044 -0.11987 0.00965563 0.0175885 0.0782874 0.0613002 0.00187985 -0.00369452 0.0058017 -0.0362321
internal_count=885141 754752 451489 423611 311538 1893 303263 150115 5938 5286 153148 309645 98815 7704
shrinkage=0.110564


Tree=35
num_leaves=15
num_cat=0
split_feature=16 11 1 17 0 16 26 11 22 21 9 7 9 17
split_gain=27.2356 20.4965 20.1738 22.7517 19.7846 15.5214 25.3252 16.2056 14.1365 16.4165 13.2601 11.8961 16.2967 14.6327
threshold=172.77061176556941 0.80129451193967338 133.50000000000003 31.337791233454407 33.000000000000007 107.07181919892595 0.96546506978772906 0.64509087329811032 614.25000000000011 13.500000000000002 0.93949725093148773 -18.434947013854977 0.95113537204505805 58.538083841027451
decision_type=2 2 2 2 2 2 2 2 2 2 2 2 2 2
left_child=1 5 -2 -4 11 6 -1 -8 9 -6 -10 12 -5 -13
right_child=2 -3 3 4 8 -7 7 -9 10 -11 -12 13 -14 -15
leaf_value=-0.0035251758669598578 -0.003836522156708285 0.00064292370190330978 0.0048128318179944214 -9.9814106241782926e-05 -0.0013170634494375157 -0.0035956119818725723 0.022034158187077529 -0.0062323995089258021 -0.0020309269447626936 -0.0098730236790005518 0.00041562724466005823 0.00040799541439834975 0.0024015850768005437 -0.0040100816348355118
leaf_count=2179 14928 25961 13229 49674 100831 52463 1078 322 32088 2818 173550 317905 88679 9436
internal_value=0 -0.0174135 0.00171867 0.0024084 0.00170645 -0.0281739 0.0355429 0.140487 -0.00449349 -0.0140162 0.000306284 0.00582409 0.0135983 0.00253825
internal_count=885141 82003 803138 788210 774981 56042 3579 1400 309287 103649 205638 465694 138353 327341
shrinkage=0.110564


Tree=36
num_leaves=15
num_cat=0
split_feature=2 16 30 29 17 16 29 16 25 27 27 23 13 27
split_gain=23.3401 25.8257 23.5891 32.3592 22.3399 16.9465 16.7348 15.6776 13.8272 23.1236 18.6189 27.9077 19.1841 12.8507
threshold=42.754310344827594 147.67818952315577 1.0000000180025095e-35 1.8952479313211013 36.423949241125051 204.2227329192547 0.055989555343780383 178.28242989400243 658.25000000000011 25.500000000000004 33.500000000000007 0.59279408555821445 20.725313346444942 14.500000000000002
decision_type=2 2 2 2 2 2 2 2 2 2 2 2 2 2
left_child=1 -1 4 -4 5 -3 -6 -8 9 -9 12 -12 -10 -5
right_child=-2 2 3 13 6 -7 7 8 10 -11 11 -13 -14 -15
leaf_value=-0.0039303053961489967 0.0011496365238901816 0.008157493739670181 -0.0012044804350946118 -0.0052799633049202934 -0.0252686652868905 0.0014540241605974405 -0.0018229403771512611 0.00015306771661492433 0.0088360577756960764 -0.0023199748936495661 -0.022516557605470909 0.0063061778405287608 0.00044912106724997943 -0.014976319985097785
leaf_count=22907 174255 6847 85295 4373 321 14111 53300 227328 3385 58014 427 10730 221144 2704
internal_value=0 -0.00251618 -0.00141636 -0.0162852 0.000889636 0.0329588 -0.000279957 -0.000152377 0.00151868 -0.0031632 0.00718699 0.0470594 0.0052057 -0.0812631
internal_count=885141 710886 687979 92372 595607 20958 574649 574328 521028 285342 235686 11157 224529 7077
shrinkage=0.110564


Tree=37
num_leaves=15
num_cat=0
split_feature=0 9 1 14 27 13 26 21 7 28 25 15 31 22
split_gain=20.8918 20.7013 22.3058 15.6305 13.5321 16.1906 12.58 12.344 16.4338 17.4665 12.2859 11.7023 9.9639 9.66459
threshold=22.000000000000004 0.95592421409356687 718.50000000000011 27.224985367091985 15.500000000000002 48.763864498067214 2.3247904440198357 2.5000000000000004 -47.489553451538079 300.25000000000006 6834.7500000000009 0.76122652059960505 1.5000000000000002 274.25000000000006
decision_type=2 2 2 2 2 2 2 2 2 2 2 2 2 2
left_child=13 3 7 6 -5 -6 -2 -3 -9 -10 -4 -11 -7 -1
right_child=1 2 10 4 5 12 -8 8 9 11 -12 -13 -14 -15
leaf_value=-0.0038848737229082177 -0.0024907219905102294 -0.0026606711131594522 0.00087305859720455199 0.00045399158983624468 0.00023475606321610959 -0.0041583742039603732 -0.01532156685888513 0.0020722387619893645 -0.021713464388134276 3.6379932362332568e-05 0.007492550725330979 -0.0016763540796449754 -0.013498457440039696 0.00079332352195888309
leaf_count=5492 74308 32398 155120 52873 6356 3558 946 29692 483 119430 3505 82420 2298 316262
internal_value=0 -0.00364716 -0.000155837 -0.0141717 -0.00282362 -0.0328267 -0.0239863 -0.00577991 -0.0032268 -0.00645074 0.00921931 -0.00599625 -0.0707608 0.00645302
internal_count=885141 563387 423048 140339 65085 12212 75254 264423 232025 202333 158625 201850 5856 321754
shrinkage=0.110564


Tree=38
num_leaves=15
num_cat=0
split_feature=11 7 9 30 24 25 17 12 24 18 25 18 24 22
split_gain=19.1885 26.388 17.1153 15.3215 14.1069 16.252 14.0873 21.0958 15.6677 22.3906 12.6207 15.9324 12.0314 11.2744
threshold=0.87615512004098972 -6.0491421222686759 0.95563592762153926 1.0000000180025095e-35 23.500000000000004 397.25000000000006 60.554477361341448 90.047727214752513 12.500000000000002 2.5000000000000004 306.25000000000006 2.5000000000000004 17.500000000000004 5462.5000000000009
decision_type=2 2 2 2 2 2 2 2 2 2 2 2 2 2
left_child=1 2 -1 4 -2 -6 -4 8 -8 -10 11 -3 13 -9
right_child=3 10 6 -5 5 -7 7 12 9 -11 -12 -13 -14 -15
leaf_value=-0.00040700881111832793 0.0015253858629514087 -0.0032809399980193053 0.0009098796898555409 -0.0023089643454569531 -0.041673574939159838 -0.0024368788501808393 0.0032352216848442598 0.003293597208559759 0.012137443038940675 -0.018512581685566513 -0.00080201902055271974 -0.021674169207961624 0.011400788071343917 0.01845424395664446
leaf_count=134730 163690 2264 146473 15748 131 8657 1953 10487 379 1260 394209 772 3752 636
internal_value=0 -0.00240406 0.00468062 0.00897475 0.0117009 -0.0273305 0.0115109 0.0375384 -0.0312414 -0.103335 -0.00774854 -0.0719765 0.0541472 0.0376295
internal_count=885141 696915 299670 188226 172478 8788 164940 18467 3592 1639 397245 3036 14875 11123
shrinkage=0.110564


Tree=39
num_leaves=15
num_cat=0
split_feature=0 18 29 17 16 16 26 29 14 13 7 17 16 16
split_gain=19.3912 14.7914 14.391 16.191 14.0142 20.0523 15.6613 12.5445 23.8269 13.0083 11.8272 11.2155 21.7115 12.1032
threshold=48.000000000000007 5.5000000000000009 0.16303122619954305 29.291362648824435 107.07181919892595 147.67818952315577 0.97595939790396613 1.5435581196478256 48.908933875910442 35.636618313228048 -88.751232147216783 38.155236454459107 226.0201098634505 174.01500368080957
decision_type=2 2 2 2 2 2 2 2 2 2 2 2 2 2
left_child=1 2 -1 -4 6 -6 10 9 -9 -2 -5 12 -7 -13
right_child=7 -3 3 4 5 11 -8 8 -10 -11 -12 13 -14 -15
leaf_value=-0.0029903299352193823 -0.0020530541236968543 -0.015583553008086875 0.0047813640258139029 0.032163040352302767 -0.0040061400160976727 0.0064736594159313923 0.018017685592936001 -0.0067202272569868906 0.0031770639947678921 0.00030037283192296197 -0.0032452699487221133 -0.0019001103889847164 0.00080009754084506648 0.00026987255784744553
leaf_count=16617 56060 724 9725 128 13521 9902 1146 11620 3996 58851 1164 33100 49281 619306
internal_value=0 0.00191912 0.00205632 0.00271225 0.00217045 0.00191596 0.0778603 -0.0112815 -0.0378749 -0.0076676 0.00237577 0.00264085 0.0158221 0.00144512
internal_count=885141 754614 753890 737273 727548 725110 2438 130527 15616 114911 1292 711589 59183 652406
shrinkage=0.110564


Tree=40
num_leaves=15
num_cat=0
split_feature=0 9 22 18 28 20 14 29 21 10 24 25 17 11
split_gain=15.4796 15.7314 15.5991 13.8239 11.8626 11.606 12.7153 21.8438 10.0677 9.5465 9.24211 15.386 13.1713 12.069
threshold=22.000000000000004 0.96254804687307771 597.75000000000011 3.5000000000000004 472.75000000000006 1.1549925962487662 27.642047454761748 2.3639890053880883 1.5000000000000002 0.69081330069088109 1.5000000000000002 3227.2500000000005 91.160864507483993 0.61185685685685698
decision_type=2 2 2 2 2 2 2 2 2 2 2 2 2 2
left_child=-1 5 3 8 -5 6 7 -2 -3 -10 -8 -12 -13 -14
right_child=1 2 -4 4 -6 -7 10 -9 9 -11 11 12 13 -15
leaf_value=0.00060917790542916797 -0.0014340690783684333 -0.0050234796579474942 0.00064758296828511534 -0.014105951827322862 -0.0032405149178911263 -0.0033920094726022009 0.003572742504780217 -0.01911689419109908 -0.001214353224259599 0.00071175224258139655 0.0007869383504150436 -0.0048664722722438682 0.017224854385244133 -0.0078725348265453778
leaf_count=321958 104895 5837 225061 1438 8424 24714 9495 861 68282 58327 44136 10692 657 364
internal_value=0 -0.00318311 0.000675494 -0.00751923 -0.0436383 -0.0104223 -0.00749634 -0.0142726 -0.00482978 -0.00295777 0.00347064 -0.00143304 -0.0336525 0.0748644
internal_count=885141 563183 367369 142308 9862 195814 171100 105756 132446 126609 65344 55849 11713 1021
shrinkage=0.110564


Tree=41
num_leaves=15
num_cat=0
split_feature=0 20 28 19 24 25 6 17 32 29 4 23 24 22
split_gain=14.9651 14.2159 16.5493 14.4565 14.2139 22.1552 16.1667 12.7148 12.4465 19.3651 14.5878 16.6831 14.4287 15.7226
threshold=49.500000000000007 0.71381058561720701 785.25000000000011 594.25000000000011 20.500000000000004 424.25000000000006 0.77500001134838492 79.76637960818924 1.5000000000000002 1.6566684488601207 5.0068869590759286 0.31212829971361883 8.5000000000000018 730.25000000000011
decision_type=2 2 2 2 2 2 2 2 2 2 2 2 2 2
left_child=1 2 8 4 6 -6 -3 -5 9 10 -1 12 -12 -14
right_child=-2 3 -4 7 5 -7 -8 -9 -10 -11 11 -13 13 -15
leaf_value=-0.011046782060316307 -0.001258543545169384 0.00065922235527417574 -0.003421317807545812 0.00065171208580482704 -0.017254957025653557 -0.002183598557430823 -0.0011921509646655307 0.0045555645428239887 -0.0022722950260145821 -0.057693702522645829 0.012848171626778393 0.0003195100828133874 -0.00064837203151181663 0.014894521187762607
leaf_count=1213 100860 147210 26712 414618 1276 18185 94781 10456 23536 69 2517 38830 3877 1001
internal_value=0 0.00155753 -0.00972509 0.00316408 -0.00268706 -0.0286873 -0.000596107 0.00676296 -0.00174673 0.00756973 0.00833973 0.0111804 0.0547131 0.0229834
internal_count=885141 784281 97755 686526 261452 19461 241991 425074 71043 47507 47438 46225 7395 4878
shrinkage=0.110564


Tree=42
num_leaves=15
num_cat=0
split_feature=16 1 10 7 20 7 11 10 20 7 25 14 28 27
split_gain=13.96 15.0738 14.6962 13.7745 11.8213 15.7955 18.3975 18.0439 13.7093 10.9475 18.7865 13.5282 12.824 10.9229
threshold=155.62711580358641 4761.5000000000009 0.5355315871964571 -41.633537292480462 1.084418410136426 -1.0000000180025095e-35 0.87037796615319185 0.96515216837714568 0.70100322787039648 -79.196342468261705 2736.2500000000005 16.615678189272419 8776.0000000000018 31.500000000000004
decision_type=2 2 2 2 2 2 2 2 2 2 2 2 2 2
left_child=1 -1 -3 -4 5 8 7 -7 -2 10 12 -12 -10 -6
right_child=4 2 3 -5 13 6 -8 -9 9 -11 11 -13 -14 -15
leaf_value=-0.0024057102439688284 -0.001089521673674927 -0.035447952953196214 -0.0048359586183226808 0.019886869857769052 -0.0004818738954418427 -0.00062141592165948262 0.00084374649324031234 -0.0084149394334211997 0.00051122343284386914 0.0015192592633726503 -0.040749587945477346 -0.0055570425928827142 -0.054962299121675114 -0.0037430162748924938
leaf_count=38834 37236 84 398 895 137393 245761 140928 3686 45170 215484 137 5266 51 13818
internal_value=0 -0.0181127 0.0847074 0.111039 0.000957972 0.00270429 -0.00150203 -0.00666201 0.00811742 0.0106322 -0.0026008 -0.0583318 0.00405793 -0.00705369
internal_count=885141 40211 1377 1293 844930 693719 390375 249447 303344 266108 50624 5403 45221 151211
shrinkage=0.110564


Tree=43
num_leaves=15
num_cat=0
split_feature=11 7 30 20 26 7 16 26 16 12 8 28 25 21
split_gain=12.6363 16.579 12.8988 11.5776 12.3804 14.3898 11.6876 11.5462 11.3212 10.3217 13.2536 11.2766 9.95419 12.7704
threshold=0.86950348039057734 -8.1301016807556135 1.0000000180025095e-35 1.0897481199601342 0.71057728719978142 -79.196342468261705 107.07181919892595 0.96270290338432918 178.28242989400243 583.95183950935905 20653.500000000004 17029.250000000004 306.25000000000006 4.5000000000000009
decision_type=2 2 2 2 2 2 2 2 2 2 2 2 2 2
left_child=1 3 8 4 -1 9 7 -7 -2 11 -11 -6 13 -3
right_child=2 12 -4 -5 5 6 -8 -9 -10 10 -12 -13 -14 -15
leaf_value=-0.00080977170266797289 0.0058997276620104859 -0.0030383443135402251 -0.0021452878337119923 -0.0011918432772769342 -0.0004106494548611363 -0.0088468277686612959 0.0015267811812669696 0.018157980870470443 0.00085161747672632328 -0.027383965653815387 -0.0029471991366138823 -0.058428381449234512 -0.00065834432481375884 -0.020094556478815521
leaf_count=51059 5590 2257 17403 46477 35554 244 148861 936 190680 397 857 41 384081 704
internal_value=0 -0.00214006 0.00668929 0.00365638 0.00647607 0.0102463 0.0145948 0.113725 0.00900288 -0.00745992 -0.0966279 -0.00431856 -0.0063997 -0.0641582
internal_count=885141 671468 213673 284426 237949 186890 150041 1180 196270 36849 1254 35595 387042 2961
shrinkage=0.110564


Tree=44
num_leaves=15
num_cat=0
split_feature=13 9 17 1 5 19 12 0 29 4 17 11 23 7
split_gain=12.0063 12.4338 12.0514 11.0337 17.2065 20.9485 11.954 11.0669 10.8916 22.0267 10.793 14.9364 11.1492 9.09731
threshold=283.03906169233079 0.86990878535133498 57.002404080183943 4390.0000000000009 128.5376892089844 2665.5000000000005 349.24621202458758 40.500000000000007 2.5300418888042651 25.516209602355961 52.156981230860431 0.84617465116924195 0.80534515883838098 -64.970252990722642
decision_type=2 2 2 2 2 2 2 2 2 2 2 2 2 2
left_child=1 -1 -2 4 7 6 -6 -3 -7 -10 -9 -12 -13 -5
right_child=2 3 -4 13 5 8 -8 10 9 -11 11 12 -14 -15
leaf_value=-0.0021745748786266257 0.0028592864084949982 0.00025445186362258533 0.016970300146876789 -0.0018757822394585989 -0.049612243509831913 0.00017418360970508962 0.011117840781582167 -0.0014389846564029395 -0.067726231108939286 -0.0069428687590819072 -0.00060848878701182097 -0.0017724814448542949 0.0033795959586050872 0.0036782816827118621
leaf_count=32230 6152 585761 841 4572 227 1056 48 110541 95 313 96644 6610 23004 17047
internal_value=0 -0.000390435 0.0412098 0.000344053 -0.000240833 -0.0996069 -0.352846 -3.07601e-05 -0.052038 -0.190802 -0.00579974 0.000517303 0.0201659 0.0226449
internal_count=885141 878148 6993 845918 824299 1739 275 822560 1464 408 236799 126258 29614 21619
shrinkage=0.110564


Tree=45
num_leaves=15
num_cat=0
split_feature=16 17 13 16 20 10 10 26 21 11 11 5 8 28
split_gain=10.8689 17.774 15.117 11.5943 12.1924 12.5967 9.76307 19.7709 13.5494 10.2393 9.44955 9.01399 14.6095 16.7028
threshold=147.67818952315577 36.423949241125051 142.08580548828414 190.86892546565164 0.29545991743077699 0.93963839514292424 0.9866123052677408 1.4170912194278802 2.5000000000000004 0.71540840273856587 0.92762531328320807 51.001586914062507 738.50000000000011 851.25000000000011
decision_type=2 2 2 2 2 2 2 2 2 2 2 2 2 2
left_child=2 3 -1 4 -2 -6 -5 -8 9 -9 11 12 13 -3
right_child=1 10 -4 6 5 -7 7 8 -10 -11 -12 -13 -14 -15
leaf_value=-0.0027244824247289151 -0.0011691304996475742 -0.00018845533299538468 0.011858783297711232 0.0015127679948241204 0.0062679589547882065 0.024284451246796263 -0.0024140343356099958 0.0090464614189351266 -0.0018426992624354069 -0.073398711227871338 0.0017928510603536815 -0.0011144438353930931 0.00073472467851251979 -0.0030598206458832202
leaf_count=25169 2714 420472 900 42108 7596 506 1287 22 77 113 32290 100473 225099 26315
internal_value=0 0.00063831 -0.020088 0.0181283 0.0474356 0.0668677 0.0108591 -0.0684451 -0.351411 -0.542339 -0.000544639 -0.00124533 7.57396e-05 -0.00323409
internal_count=885141 859072 26069 54423 10816 8102 43607 1499 212 135 804649 772359 671886 446787
shrinkage=0.110564


Tree=46
num_leaves=15
num_cat=0
split_feature=2 9 10 7 25 21 11 23 21 25 25 27 5 21
split_gain=10.1458 10.1416 12.8443 12.0309 14.1752 15.8789 9.92608 9.1342 8.98612 11.0055 8.98542 14.8942 11.4356 10.0824
threshold=72.265000000000015 0.96071628988295665 0.89468715313809477 -0.93919095396995533 242.25000000000003 3.5000000000000004 0.83336442786069664 0.80122558856179937 1.5000000000000002 3227.2500000000005 1575.2500000000002 14.500000000000002 49.00000190734864 1.5000000000000002
decision_type=2 2 2 2 2 2 2 2 2 2 2 2 2 2
left_child=1 2 7 -3 5 -5 -6 -1 -2 -10 11 -9 -13 -12
right_child=8 3 -4 4 6 -7 -8 10 9 -11 13 12 -14 -15
leaf_value=-0.0014978811912680719 0.0027883007240624863 0.0009463364963945846 -0.0021653246358235533 -0.00095704480755312929 -0.00098501154012329921 -0.024686601559366896 0.00024799939133726901 0.0015708973851478122 0.00082115864680955774 -0.0044119516545851438 -0.00014793981341373882 -0.00032175400687567445 -0.0058575511273466774 -0.0067065134281080021
leaf_count=56474 27024 160903 56528 791 119215 611 241479 68228 59231 5357 7151 72500 4868 4781
internal_value=0 -0.00120693 -0.00617759 0.00136423 -0.00183296 -0.10219 -0.00144287 -0.00263623 0.00990763 0.00350131 0.00127552 0.00343761 -0.00606044 -0.0251065
internal_count=885141 793529 270530 522999 362096 1402 360694 214002 91612 64588 157528 145596 77368 11932
shrinkage=0.110564


Tree=47
num_leaves=15
num_cat=0
split_feature=13 0 25 17 21 16 16 17 24 25 21 24 26 4
split_gain=9.29897 9.30821 10.9795 15.2095 11.0498 15.0035 10.4919 9.23644 8.97446 8.24742 20.468 14.5103 11.6776 12.3678
threshold=283.03906169233079 17.500000000000004 866.75000000000011 45.975734751854262 2.5000000000000004 236.03019576293914 155.62711580358641 58.538083841027451 8.5000000000000018 668.25000000000011 9.5000000000000018 16.500000000000004 0.50511305540063223 31.00000095367432
decision_type=2 2 2 2 2 2 2 2 2 2 2 2 2 2
left_child=1 2 8 -4 -5 -6 -3 -2 -1 11 -11 -8 -12 -14
right_child=7 6 3 4 5 -7 9 -9 -10 10 12 -13 13 -15
leaf_value=0.0020428055006002331 0.0025785622758529541 -0.0022289661773425389 0.00030147833149371869 -0.0008038384646844041 -0.0064065644450918124 -0.056109351050713199 -0.00021737562600183629 0.015239462807573448 0.00042463482184692012 3.6152950966160306e-05 -0.0094543429666038362 -0.0022863645782348081 0.0052777855068290164 -0.014352477110693089
leaf_count=60136 6240 31278 36418 7075 7360 75 240163 794 138143 291399 741 50077 14839 403
internal_value=0 -0.000256648 0.00491549 -0.00818151 -0.0355596 -0.0624791 -0.00230615 0.0362481 0.00827946 -0.00137173 0.00223809 -0.00519475 0.0370809 0.0430408
internal_count=885141 878107 249207 50928 14510 7435 628900 7034 198279 597622 307382 290240 15983 15242
shrinkage=0.110564


Tree=48
num_leaves=15
num_cat=0
split_feature=18 0 29 14 6 25 17 30 16 16 23 23 25 28
split_gain=9.44128 9.03111 10.4159 17.1223 7.51307 7.5135 7.1306 7.00269 6.93417 10.8903 8.35358 9.5691 8.04171 13.4019
threshold=5.5000000000000009 49.500000000000007 1.5435581196478256 48.908933875910442 0.57658914881494872 574.25000000000011 33.704353165570375 1.0000000180025095e-35 164.75454600890302 107.07181919892595 0.99861367807734325 1.1713097485938284 3227.2500000000005 25824.000000000004
decision_type=2 2 2 2 2 2 2 2 2 2 2 2 2 2
left_child=1 6 -3 7 5 -2 -1 -4 9 10 -8 -12 13 -10
right_child=4 2 3 -5 -6 -7 8 -9 12 -11 11 -13 -14 -15
leaf_value=0.0016875154041523217 0.0053760472744276994 -0.000558789527298145 -0.0042348068570151722 0.0029906243098365851 -0.024209449460621087 -0.033716330445369647 -0.00017928979115201213 -0.010698223157711004 0.00021232467953338102 -0.0018503415332226745 0.016418066952388108 -0.0077357014157407354 -0.0019207228888761601 -0.066331452887515283
leaf_count=34471 320 88465 6087 3192 351 74 1584 3089 686261 37529 1047 248 22386 37
internal_value=0 5.38277e-05 -0.00885423 -0.0360363 -0.112567 -0.0177832 0.00120016 -0.0579813 0.000553042 -0.0121885 0.0470833 0.106658 0.00127954 0.00188793
internal_count=885141 884396 100833 12368 745 394 783563 9176 749092 40408 2879 1295 708684 686298
shrinkage=0.110564


Tree=49
num_leaves=15
num_cat=0
split_feature=10 18 22 27 26 11 25 21 25 0 30 13 24 22
split_gain=9.05271 11.7331 8.38722 10.657 32.1593 9.20582 12.3529 8.6987 10.6223 9.03547 8.52202 9.40573 15.4138 10.7829
threshold=0.69276638123168721 4.5000000000000009 567.75000000000011 45.500000000000007 1.2500541829215435 0.85065868641363362 1017.2500000000001 13.500000000000002 454.75000000000006 43.000000000000007 1.5000000000000002 20.725313346444942 22.500000000000004 616.25000000000011
decision_type=2 2 2 2 2 2 2 2 2 2 2 2 2 2
left_child=1 2 5 10 -5 -1 7 -7 -9 -10 11 12 13 -4
right_child=-2 -3 3 4 -6 6 -8 8 9 -11 -12 -13 -14 -15
leaf_value=-0.0018173774171837084 0.00026318759550923227 -0.0091877371094298138 -0.0030810482298232501 -0.0029704406889517706 -0.073118107129778495 0.00031119370524484373 0.019801655227881656 -0.026632780611270286 0.0049357010942702182 -0.028623225582726654 -0.0021612334676541487 0.00012288458065615478 -0.031106144452236955 0.0064059732886713825
leaf_count=81355 568521 1878 1856 453 97 37704 391 325 484 123 18882 165976 152 6944
internal_value=0 -0.00429155 -0.00382132 0.000241327 -0.138761 -0.0103806 0.00224526 0.000455508 -0.0949815 -0.0168639 0.000635792 0.00281439 0.0343884 0.0398419
internal_count=885141 316620 314742 194360 550 120382 39027 38636 932 607 193810 174928 8952 8800
shrinkage=0.110564


Tree=50
num_leaves=15
num_cat=0
split_feature=9 14 4 15 7 16 4 11 7 20 27 25 21 28
split_gain=8.89358 17.8667 8.72457 12.1693 10.1838 8.25593 7.96394 8.76828 9.23323 9.94312 9.95739 8.8867 21.6202 8.70649
threshold=0.86990878535133498 85.634898462100708 223.23244476318362 0.33878449590653309 -48.802078247070305 179.30697580114099 6.0012252330780038 0.92762531328320807 -18.434947013854977 1.081563479998928 33.500000000000007 242.25000000000003 3.5000000000000004 459.25000000000006
decision_type=2 2 2 2 2 2 2 2 2 2 2 2 2 2
left_child=2 6 5 -4 -5 -1 -2 8 9 10 -8 12 13 -10
right_child=1 -3 3 4 -6 -7 7 -9 11 -11 -12 -13 -14 -15
leaf_value=-0.0049220841534852308 -0.0028821103160643268 0.0045127221983344377 -0.064096265631703508 0.008487327283398443 -0.021008688465042596 -0.00062783419324851189 0.00077178331463291418 0.0017193243508455971 0.0092278788210327818 -0.00099849368986594696 0.0058313093356414268 -0.000240794805727649 -0.02342233519281 -0.013671041134394674
leaf_count=6831 11432 10943 55 231 376 27528 185675 37018 671 40904 4880 557623 683 291
internal_value=0 0.000669617 -0.0155911 -0.129301 -0.0884889 -0.0134003 0.000146109 0.000508144 -0.000196066 0.00511567 0.00815234 -0.00239439 -0.0757862 0.0208122
internal_count=885141 850120 35021 662 607 34359 839177 827745 790727 231459 190555 559268 1645 962
shrinkage=0.110564


Tree=51
num_leaves=15
num_cat=0
split_feature=20 28 6 25 20 29 16 11 9 16 27 28 4 18
split_gain=7.49479 10.2587 9.02679 8.87878 8.60918 12.3464 11.8069 10.505 9.09486 8.56475 8.41278 16.169 11.8279 11.0534
threshold=1.084418410136426 2110.5000000000005 0.88461539506942077 1852.2500000000002 0.74743442223305723 0.16303122619954305 107.07181919892595 0.66852102052978857 0.96837431514498573 145.22971405279995 31.500000000000004 602.25000000000011 29.963311195373539 2.5000000000000004
decision_type=2 2 2 2 2 2 2 2 2 2 2 2 2 2
left_child=2 10 4 -3 8 7 -7 -6 -1 -8 13 -12 -13 -2
right_child=1 3 -4 -5 5 6 9 -9 -10 -11 11 12 -14 -15
leaf_value=-0.0014896010322561393 -0.0012645483810882331 -0.035976696027054562 -0.00078800852493986651 -0.0073405168063136956 -0.022982964220744757 0.008452695128429508 -0.003070452533550822 -0.0039840029078764896 0.00064140912799236867 0.00055451194852012328 -0.0068440816629154267 0.0022807955091785539 -0.013118654894495527 0.00072095254718307063
leaf_count=60002 75916 161 106617 744 416 2291 8094 2457 41357 510717 7227 5975 679 62488
internal_value=0 -0.00631412 0.00137771 -0.112468 0.00282776 0.00445969 0.00482012 -0.0609148 -0.00560848 0.00450381 -0.00568327 -0.0291528 0.00641598 -0.00332943
internal_count=885141 153190 731951 905 625334 523975 521102 2873 101359 518811 152285 13881 6654 138404
shrinkage=0.110564


Tree=52
num_leaves=15
num_cat=0
split_feature=9 5 17 10 28 19 27 28 32 7 17 1 5 5
split_gain=6.73184 14.0014 12.0218 12.8315 16.1992 17.4957 10.8626 10.2967 9.27795 7.5948 8.11509 10.5106 14.9052 7.49509
threshold=0.89070402846613306 108.0030860900879 59.990239405083095 0.9866123052677408 2750.2500000000005 9790.5000000000018 1.5000000000000002 2005.2500000000002 1.5000000000000002 -56.309932708740227 72.608868701632218 13438.500000000002 132.02748107910159 48.458555221557624
decision_type=2 2 2 2 2 2 2 2 2 2 2 2 2 2
left_child=13 -2 3 8 6 -6 -5 -8 -3 10 -4 12 -12 -1
right_child=1 2 9 4 5 -7 7 -9 -10 -11 11 -13 -14 -15
leaf_value=0.00052050868811103629 -1.6509452455822185e-05 0.0019064463447061189 0.013426913277140981 -0.071970349617478571 0.0089645584335178562 -0.053716541303588008 -0.027650981754764794 0.0052613353150394145 0.010800126013238667 0.015038619523653915 -0.03985868333718947 -0.044623316525992454 0.016034551694106586 -0.0023206526628662245
leaf_count=17957 812796 18552 340 49 587 60 382 167 1554 1478 82 84 202 30851
internal_value=0 0.000546955 0.0245912 0.0173598 -0.0811566 0.0285064 -0.199805 -0.15954 0.0234601 0.0952219 0.0100583 -0.0928488 -0.000937339 -0.011535
internal_count=885141 836333 23537 21351 1245 647 598 549 20106 2186 708 368 284 48808
shrinkage=0.110564


Tree=53
num_leaves=15
num_cat=0
split_feature=18 0 22 18 9 17 18 22 20 29 24 21 19 28
split_gain=7.19664 6.64263 8.18936 10.9688 7.59282 9.98991 9.4696 8.22193 7.91015 7.37906 6.59501 8.7017 6.53428 6.56952
threshold=5.5000000000000009 17.500000000000004 523.25000000000011 3.5000000000000004 0.96216448606818361 54.34273341291275 2.5000000000000004 5462.5000000000009 1.109763452881815 0.9500501301581229 9.5000000000000018 1.5000000000000002 545.25000000000011 618.25000000000011
decision_type=2 2 2 2 2 2 2 2 2 2 2 2 2 2
left_child=1 -1 3 10 8 -6 7 -7 -4 -10 11 -3 13 -13
right_child=-2 2 4 -5 5 6 -8 -9 9 -11 -12 12 -14 -15
leaf_value=0.00048868989712154973 -0.010937912075362119 -0.0035957485454685819 -0.00025183272860525497 -0.0047912612790498221 -8.2376622269699242e-07 0.00021508274252290721 0.002916122094075452 0.012567013572359164 -0.0094402395413852903 -0.0018335980654281927 -0.0015483069313942698 0.001789049918552496 -0.0020937424701558478 -0.0018247589780785796
leaf_count=250803 735 6829 165651 8618 241190 43063 31598 669 1664 24703 57333 35770 9089 7426
internal_value=0 6.39893e-05 -0.00166027 -0.0089098 0.000122614 0.00313222 0.0131848 0.00365435 -0.00483839 -0.0209259 -0.00636208 0.00104933 0.0054341 0.0105621
internal_count=885141 884406 633603 125065 508538 316520 75330 43732 192018 26367 116447 59114 52285 43196
shrinkage=0.110564


Tree=54
num_leaves=15
num_cat=0
split_feature=17 16 16 29 5 16 16 32 16 15 6 13 5 13
split_gain=6.70254 9.29946 8.3126 9.24576 9.11234 7.90152 14.1527 9.84101 15.6988 8.7553 7.63224 11.2729 8.19759 8.62849
threshold=38.358173871872715 172.77061176556941 107.07181919892595 1.009908002131658 43.564002990722663 145.22971405279995 196.91355435014177 1.5000000000000002 170.21434634974534 0.4525338666163003 0.59766764326542554 44.533971152108442 80.308807373046889 86.983093965660956
decision_type=2 2 2 2 2 2 2 2 2 2 2 2 2 2
left_child=5 2 3 10 -4 -1 7 8 -7 -10 12 -12 -2 -14
right_child=1 -3 4 -5 -6 6 -8 -9 9 -11 11 -13 13 -15
leaf_value=-0.0018487569781059131 -0.0021269378156041356 -3.3172579693337686e-06 -0.0012053630350389846 0.012893483204574327 -0.0052883788327204567 0.0037707237269361598 0.00052798045220943846 -0.00073576891842921227 0.025941905818734502 0.010042363057109836 0.0015036239154147782 -0.022199581445902266 0.050065199711619539 0.010342570376158449
leaf_count=11385 706 734151 46397 983 7806 10362 65438 3876 552 1817 709 375 77 507
internal_value=0 -0.000989654 -0.0132296 0.035059 -0.0162202 0.00796605 0.0113918 0.0374631 0.0508949 0.124336 0.00128891 -0.0605648 0.0532652 0.140914
internal_count=885141 791711 57560 3357 54203 93430 82045 16607 12731 2369 2374 1084 1290 584
shrinkage=0.110564


Tree=55
num_leaves=15
num_cat=0
split_feature=26 9 5 5 24 5 17 22 32 33 4 23 26 9
split_gain=6.32928 6.90374 12.9195 12.8595 12.368 10.9407 10.3247 8.07566 7.7751 7.42978 8.12181 8.29843 7.91924 7.73578
threshold=6.6351169292497811 0.90722459962393842 49.00000190734864 108.0030860900879 1.5000000000000002 479.04508972167974 59.990239405083095 676.75000000000011 1.5000000000000002 2.5000000000000004 6.0012252330780038 0.28178574923710648 0.053108755083132904 0.94896390721289514
decision_type=2 2 2 2 2 2 2 2 2 2 2 2 2 2
left_child=1 2 -1 9 -4 -6 7 -5 -9 10 -3 13 -13 -12
right_child=-2 3 4 6 5 -7 -8 8 -10 -11 11 12 -14 -15
leaf_value=0.00069274717429463706 0.0049117257917939009 -0.0033946776073876896 0.0015337719666857106 -0.028412218061129715 -0.0034181337597195046 -0.053230889829314072 0.010605790339896634 0.0015669042898685006 0.010506576550370175 -0.0020356195849260969 -0.0019631570641819923 -0.019560493276649001 4.2751362825316447e-05 0.0039310845109355617
leaf_count=27317 3191 8271 7461 106 29144 54 1887 16957 1279 21426 3509 252 752152 12135
internal_value=0 -0.000192461 -0.0101966 0.000589993 -0.0224637 -0.0317487 0.0254893 0.018243 0.0198428 -4.1397e-05 0.000465601 0.000801254 0.000327283 0.0235971
internal_count=885141 881950 63976 817974 36659 29198 20229 18342 18236 797745 776319 768048 752404 15644
shrinkage=0.110564


Tree=56
num_leaves=15
num_cat=0
split_feature=15 18 6 17 1 25 17 23 23 5 28 26 15 19
split_gain=6.20404 8.17848 6.79777 10.2409 8.46244 12.1238 17.063 9.06927 8.76917 8.7663 11.5217 14.7477 12.9091 13.9122
threshold=0.72182065321261524 4.5000000000000009 0.51908745798645917 109.41560865577402 1555.5000000000002 1123.7500000000002 91.160864507483993 0.67206946861761774 0.72328570556267946 83.622222900390639 4748.5000000000009 1.4170912194278802 0.20615193347204666 54013.500000000007
decision_type=2 2 2 2 2 2 2 2 2 2 2 2 2 2
left_child=2 -2 4 -4 5 -1 7 -7 -8 -6 -11 -12 -13 -14
right_child=1 -3 3 -5 9 6 8 -9 -10 10 11 12 13 -15
leaf_value=-0.00031959986445699096 -0.0003488248501718489 -0.0076981477943976577 0.00045750803545330503 0.010317911469575239 0.0031588963625323084 0.00010093079502519972 -0.0035385538391305808 -0.0045628573802184592 -0.035703818785998494 -0.0012771320229708386 0.0046476210659648571 -0.055043277732670086 -0.0030199268632247417 -0.064533383866654373
leaf_count=119678 313172 1862 376773 1292 14937 8469 160 12802 294 25619 8939 69 1028 47
internal_value=0 -0.00354784 0.00198167 0.00444272 -0.00286329 -0.00683578 -0.0285687 -0.0244743 -0.220398 0.00822939 -0.000281024 0.028354 -0.078551 -0.0516385
internal_count=885141 315034 570107 378065 192042 141403 21725 21271 454 50639 35702 10083 1144 1075
shrinkage=0.110564


Tree=57
num_leaves=15
num_cat=0
split_feature=0 17 22 29 14 26 25 17 29 25 27 16 7 10
split_gain=5.96404 8.27653 7.75818 14.2039 5.73535 13.3298 11.2403 18.4583 13.4043 10.6426 9.39714 11.1593 8.9228 13.1216
threshold=49.500000000000007 55.238435129766792 1706.2500000000002 1.5435581196478256 27.305133861091079 2.7306814190375839 935.25000000000011 52.586085219165255 3.7748885290849139 970.25000000000011 46.500000000000007 232.82740376065064 -89.940933227539048 0.9866123052677408
decision_type=2 2 2 2 2 2 2 2 2 2 2 2 2 2
left_child=4 2 3 -2 5 6 -1 8 -8 -7 12 -12 13 -6
right_child=1 -3 -4 -5 10 9 7 -9 -10 -11 11 -13 -14 -15
leaf_value=0.00010284214839046877 -0.0014665832506673524 0.00064877991225599236 0.0010616625753520237 -0.0074670901910347852 -0.0035745823628596232 -0.011329895472706492 -0.00043260720586211089 -0.0054959758763496172 -0.067928137633858868 -0.061993827144471242 -0.0067381427882592633 -0.054945220665956626 0.00076127734112454624 -0.055637910432648027
leaf_count=532108 50813 32716 11995 5328 4313 646 40931 11552 36 55 247 77 194264 60
internal_value=0 -0.00720554 -0.0134828 -0.0184152 0.000963979 -0.000612638 -0.000447392 -0.0144044 -0.00444918 -0.138426 0.00560227 -0.164563 0.00587983 -0.0387913
internal_count=885141 100852 68136 56141 784289 585328 584627 52519 40967 701 198961 324 198637 4373
shrinkage=0.110564


Tree=58
num_leaves=15
num_cat=0
split_feature=20 27 14 10 19 5 27 1 24 22 7 25 21 11
split_gain=5.54013 11.9308 9.42147 8.68417 11.1202 9.11213 7.47298 14.7321 7.16214 7.12633 6.56184 9.80105 9.72996 7.39356
threshold=1.1922530632658166 31.500000000000004 39.890754055901944 0.67846688709016856 589.25000000000011 50.00123596191407 39.500000000000007 777.50000000000011 16.500000000000004 399.75000000000006 -1.0000000180025095e-35 242.25000000000003 3.5000000000000004 0.87615512004098972
decision_type=2 2 2 2 2 2 2 2 2 2 2 2 2 2
left_child=10 2 8 6 5 9 -3 -8 -2 -5 -1 12 -12 -13
right_child=1 3 -4 4 -6 -7 7 -9 -10 -11 11 13 -14 -15
leaf_value=0.00045634627345046285 -0.00058212353226217795 -0.0075623331686516899 -0.0065710002353511323 -0.030338832391536473 0.0026299037817115959 -0.043613881956179087 -0.0073759696944024258 -0.047843508858395702 0.002758175403645638 -0.0051783607440643526 -0.0016155529452475561 -0.00045807429904732059 -0.018435318803748765 0.00050919721237694152
leaf_count=346915 70866 1172 2954 144 2425 82 263 189 8824 3102 1033 305105 709 141358
internal_value=0 -0.00741495 -0.00397544 -0.0459476 -0.0277183 -0.0652479 -0.110525 -0.219756 -0.00191975 -0.0569312 0.000862141 -0.00166523 -0.0765281 -0.00137313
internal_count=885141 90021 82644 7377 5753 3328 1624 452 79690 3246 795120 448205 1742 446463
shrinkage=0.110564


Tree=59
num_leaves=15
num_cat=0
split_feature=15 18 22 25 27 16 22 9 13 28 21 17 7 15
split_gain=5.64969 8.01716 11.1693 13.1688 8.58989 10.7888 7.58317 6.73508 10.7787 14.4838 23.7873 13.0758 14.9145 9.58642
threshold=0.70096080176307873 3.5000000000000004 897.75000000000011 662.25000000000011 14.500000000000002 230.14494897521658 320.25000000000006 0.91668661241423333 77.143932598479623 965.25000000000011 9.5000000000000018 61.274074678928308 -57.286397933959954 0.44104787735149026
decision_type=2 2 2 2 2 2 2 2 2 2 2 2 2 2
left_child=7 -2 3 6 -4 -6 -3 -1 9 -9 -11 -10 13 -13
right_child=1 2 4 -5 5 -7 -8 8 11 10 -12 12 -14 -15
leaf_value=-0.00083004710558029374 -0.00023625735134946059 -0.020011995790742396 0.0074296952699325911 0.0035499604792487271 -0.018472248696364057 -0.068033829204922652 -0.0036252344500338307 0.00043801188310622186 0.0014895879691203262 -0.0014183822128891255 -0.049140409711561403 -0.015768445918740593 0.013766242918752617 0.0071480449367358869
leaf_count=65439 336350 356 92 3565 203 73 11397 372236 40574 51598 128 403 2227 500
internal_value=0 -0.00316741 -0.0252656 -0.0211296 -0.197427 -0.285635 -0.0372779 0.0019946 0.00332418 0.00178279 -0.0138967 0.0182768 0.0805535 -0.0278514
internal_count=885141 352036 15686 15318 368 276 11753 533105 467666 423962 51726 43704 3130 903
shrinkage=0.110564


Tree=60
num_leaves=15
num_cat=0
split_feature=17 27 28 7 1 22 21 4 23 29 17 28 22 27
split_gain=4.97083 6.14228 12.2854 13.7888 9.798 12.346 17.6798 15.2728 21.6634 17.9782 15.2923 17.2981 22.0756 16.9545
threshold=33.704353165570375 6.5000000000000009 300.25000000000006 -1.0000000180025095e-35 1079.5000000000002 2448.2500000000005 1.5000000000000002 36.000339508056648 1.2571644694186299 2.2388598914446747 109.41560865577402 3021.5000000000005 4511.5000000000009 2.5000000000000004
decision_type=2 2 2 2 2 2 2 2 2 2 2 2 2 2
left_child=-1 4 3 -3 -2 -6 -7 -8 9 10 11 -9 13 -13
right_child=1 2 -4 -5 5 6 7 8 -10 -11 -12 12 -14 -15
leaf_value=0.0012462424483270207 -0.0016963248726064009 0.0018547883183159619 8.8678748953671956e-05 -0.019743219115977588 0.0019605344793025004 0.00056368957747574108 0.0023524837948571981 0.00016174549195340374 -0.00063966068250274498 -0.038727716099990733 0.0076821717628970214 -0.054951999645217978 -0.007109954183745478 -0.021650924916138795
leaf_count=37369 66200 655 719433 806 27858 22256 2641 930 3372 295 499 220 1365 1242
internal_value=0 -0.000513205 0.000616026 -0.0909911 -0.00692925 0.00224961 -0.0108921 -0.0445804 -0.066533 -0.111543 -0.0949956 -0.116841 -0.15576 -0.241146
internal_count=885141 847772 720894 1461 126878 60678 32820 10564 7923 4551 4256 3757 2827 1462
shrinkage=0.110564


Tree=61
num_leaves=15
num_cat=0
split_feature=21 9 17 17 16 16 11 26 27 28 1 16 29 16
split_gain=5.06262 5.0287 8.59816 7.81411 9.81793 8.44171 23.1452 12.4323 10.7587 10.1829 13.1083 9.13159 12.8083 7.47416
threshold=18.500000000000004 0.96541427679871628 79.76637960818924 51.165309630456882 145.22971405279995 225.51841676841678 0.80129451193967338 1.1587365539823238 6.5000000000000009 1141.7500000000002 11010.500000000002 185.6128743485462 3.3386945858575747 228.44476375030925
decision_type=2 2 2 2 2 2 2 2 2 2 2 2 2 2
left_child=1 3 -3 4 -1 11 9 8 -8 -7 -11 12 -5 -10
right_child=-2 2 -4 5 -6 6 7 -9 13 10 -12 -13 -14 -15
leaf_value=-0.0033690263918078624 0.0094462861367310066 0.00019321555889915702 0.0042536417668050932 -0.0028579491163549802 0.00018912159678711489 0.0032981002383578669 -0.00064238603784285819 -0.0056227970947714499 -0.030735106597910965 -0.016330994161515365 0.008146918651339442 -0.00033412638247318763 0.013680866639084771 -0.06343946342573227
leaf_count=9828 694 458662 6465 28847 267572 1861 87 278 210 945 373 108591 584 144
internal_value=0 -6.01683e-06 0.002258 -0.00251735 0.000570349 -0.00855265 -0.0544457 -0.216474 -0.320877 -0.0177995 -0.0850515 -0.00725654 -0.0228806 -0.398309
internal_count=885141 884447 465127 419320 277400 141920 3898 719 441 3179 1318 138022 29431 354
shrinkage=0.110564


end of trees

feature importances:
Column_16=131
Column_17=70
Column_0=54
Column_20=41
Column_25=40
Column_32=38
Column_9=35
Column_29=33
Column_11=31
Column_21=29
Column_30=29
Column_7=26
Column_26=26
Column_1=25
Column_28=25
Column_14=23
Column_13=22
Column_27=22
Column_24=20
Column_5=18
Column_22=18
Column_23=16
Column_18=15
Column_4=12
Column_10=12
Column_12=11
Column_8=9
Column_19=9
Column_2=8
Column_15=8
Column_6=7
Column_33=3
Column_31=2

parameters:
[boosting: gbdt]
[objective: regression]
[metric: l2]
[tree_learner: serial]
[device_type: cpu]
[data: ]
[valid: ]
[num_iterations: 100]
[learning_rate: 0.110564]
[num_leaves: 15]
[num_threads: 16]
[max_depth: -1]
[min_data_in_leaf: 20]
[min_sum_hessian_in_leaf: 0.001]
[bagging_fraction: 0.95]
[bagging_freq: 1]
[bagging_seed: 26079]
[feature_fraction: 0.843127]
[feature_fraction_seed: 24951]
[early_stopping_round: 0]
[max_delta_step: 0]
[lambda_l1: 0]
[lambda_l2: 0]
[min_gain_to_split: 0]
[drop_rate: 0.1]
[max_drop: 50]
[skip_drop: 0.5]
[xgboost_dart_mode: 0]
[uniform_drop: 0]
[drop_seed: 18073]
[top_rate: 0.2]
[other_rate: 0.1]
[min_data_per_group: 100]
[max_cat_threshold: 32]
[cat_l2: 10]
[cat_smooth: 10]
[max_cat_to_onehot: 4]
[top_k: 20]
[monotone_constraints: ]
[feature_contri: ]
[forcedsplits_filename: ]
[refit_decay_rate: 0.9]
[verbosity: 0]
[max_bin: 255]
[min_data_in_bin: 3]
[bin_construct_sample_cnt: 200000]
[histogram_pool_size: -1]
[data_random_seed: 103]
[output_model: LightGBM_model.txt]
[snapshot_freq: -1]
[input_model: ]
[output_result: LightGBM_predict_result.txt]
[initscore_filename: ]
[valid_data_initscores: ]
[pre_partition: 0]
[enable_bundle: 1]
[max_conflict_rate: 0]
[is_enable_sparse: 1]
[sparse_threshold: 0.8]
[use_missing: 1]
[zero_as_missing: 0]
[two_round: 0]
[save_binary: 0]
[enable_load_from_binary_file: 1]
[header: 0]
[label_column: ]
[weight_column: ]
[group_column: ]
[ignore_column: ]
[categorical_feature: ]
[predict_raw_score: 0]
[predict_leaf_index: 0]
[predict_contrib: 0]
[num_iteration_predict: -1]
[pred_early_stop: 0]
[pred_early_stop_freq: 10]
[pred_early_stop_margin: 10]
[convert_model_language: ]
[convert_model: gbdt_prediction.cpp]
[num_class: 1]
[is_unbalance: 0]
[scale_pos_weight: 1]
[sigmoid: 1]
[boost_from_average: 1]
[reg_sqrt: 0]
[alpha: 0.9]
[fair_c: 1]
[poisson_max_delta_step: 0.7]
[tweedie_variance_power: 1.5]
[max_position: 20]
[label_gain: ]
[metric_freq: 1]
[is_provide_training_metric: 0]
[eval_at: ]
[num_machines: 1]
[local_listen_port: 12400]
[time_out: 120]
[machine_list_filename: ]
[machines: ]
[gpu_platform_id: -1]
[gpu_device_id: -1]
[gpu_use_dp: 0]

end of parameters

pandas_categorical:null
